%YAML:1.0
my_svm: !!opencv-ml-svm
   svm_type: C_SVC
   kernel: { type:LINEAR }
   C: 1.0000000000000001e-001
   term_criteria: { epsilon:1.1920928955078125e-007, iterations:1000 }
   var_all: 320
   var_count: 320
   class_count: 10
   class_labels: !!opencv-matrix
      rows: 1
      cols: 10
      dt: i
      data: [ 0, 1, 2, 3, 4, 5, 6, 7, 8, 9 ]
   sv_total: 192
   support_vectors:
      - [ 0., 0., 6., 138., 255., 255., 255., 255., 255., 255., 255.,
          255., 255., 138., 6., 0., 0., 0., 136., 255., 255., 255., 255.,
          255., 255., 255., 255., 255., 255., 255., 136., 0., 0., 0.,
          255., 255., 255., 255., 255., 255., 255., 255., 255., 255.,
          255., 255., 255., 0., 0., 0., 255., 255., 255., 254., 242.,
          75., 0., 0., 0., 235., 255., 255., 255., 0., 0., 0., 255.,
          255., 255., 235., 0., 0., 0., 0., 0., 235., 255., 255., 255.,
          0., 0., 0., 255., 255., 255., 235., 0., 0., 0., 0., 0., 235.,
          255., 255., 255., 0., 0., 0., 255., 255., 255., 12., 0., 0.,
          0., 0., 0., 235., 255., 255., 255., 0., 0., 0., 255., 255.,
          255., 0., 0., 0., 0., 0., 0., 235., 255., 255., 255., 0., 0.,
          0., 255., 255., 255., 0., 0., 0., 0., 0., 0., 235., 255., 255.,
          255., 0., 0., 0., 255., 255., 255., 0., 0., 0., 0., 0., 0.,
          235., 255., 255., 255., 0., 0., 0., 255., 255., 255., 0., 0.,
          0., 0., 0., 0., 235., 255., 255., 255., 0., 0., 0., 255., 255.,
          255., 0., 0., 0., 0., 0., 0., 235., 255., 255., 255., 0., 0.,
          0., 255., 255., 255., 0., 0., 0., 0., 0., 0., 235., 255., 255.,
          255., 0., 0., 0., 255., 255., 255., 0., 0., 0., 0., 0., 0.,
          235., 255., 255., 255., 0., 0., 0., 255., 255., 255., 0., 0.,
          0., 0., 0., 0., 235., 255., 255., 255., 0., 0., 0., 255., 255.,
          255., 0., 0., 0., 0., 0., 102., 248., 255., 255., 255., 0., 0.,
          0., 255., 255., 255., 224., 0., 0., 0., 75., 250., 255., 255.,
          255., 255., 0., 0., 0., 255., 255., 255., 255., 255., 255.,
          255., 255., 255., 255., 255., 255., 255., 0., 0., 0., 255.,
          255., 255., 255., 255., 255., 255., 255., 255., 255., 255.,
          255., 136., 0., 0., 0., 71., 255., 255., 255., 255., 255.,
          255., 255., 255., 255., 255., 138., 6., 0. ]
      - [ 0., 0., 0., 0., 255., 255., 255., 255., 255., 255., 255., 0.,
          0., 0., 0., 0., 0., 0., 0., 0., 255., 255., 255., 255., 255.,
          255., 255., 0., 0., 0., 0., 0., 0., 0., 0., 0., 255., 255.,
          255., 32., 32., 32., 255., 0., 0., 0., 0., 0., 0., 0., 0., 0.,
          255., 45., 45., 0., 0., 0., 255., 0., 0., 0., 0., 0., 0., 0.,
          0., 0., 255., 0., 0., 0., 0., 0., 255., 0., 0., 0., 0., 0., 0.,
          0., 0., 0., 70., 0., 0., 0., 0., 0., 255., 185., 0., 0., 0.,
          0., 0., 0., 0., 0., 172., 0., 0., 0., 0., 0., 83., 255., 0.,
          0., 0., 0., 0., 0., 0., 0., 255., 0., 0., 0., 0., 0., 159.,
          255., 0., 0., 0., 0., 0., 0., 0., 0., 255., 0., 0., 0., 0., 0.,
          255., 255., 0., 0., 0., 0., 0., 0., 0., 0., 255., 0., 0., 0.,
          0., 0., 255., 255., 0., 0., 0., 0., 0., 0., 0., 0., 255., 121.,
          0., 0., 0., 0., 255., 255., 0., 0., 0., 0., 0., 0., 0., 0.,
          255., 255., 0., 0., 0., 0., 147., 255., 0., 0., 0., 0., 0., 0.,
          0., 0., 255., 255., 0., 0., 0., 0., 0., 255., 0., 0., 0., 0.,
          0., 0., 0., 0., 255., 255., 0., 0., 0., 0., 0., 255., 0., 0.,
          0., 0., 0., 0., 0., 0., 255., 255., 0., 0., 0., 0., 70., 255.,
          0., 0., 0., 0., 0., 0., 0., 0., 255., 255., 0., 0., 0., 0.,
          255., 255., 0., 0., 0., 0., 0., 0., 0., 0., 255., 255., 45.,
          45., 45., 45., 255., 255., 0., 0., 0., 0., 0., 0., 0., 0.,
          255., 255., 255., 255., 255., 255., 255., 223., 0., 0., 0., 0.,
          0., 0., 0., 0., 236., 236., 255., 255., 255., 255., 236., 0.,
          0., 0., 0., 0., 0., 0., 0., 0., 0., 0., 255., 255., 255., 255.,
          0., 0., 0., 0., 0., 0. ]
      - [ 0., 0., 6., 38., 219., 255., 255., 255., 255., 255., 255., 32.,
          0., 0., 0., 0., 0., 0., 42., 255., 255., 255., 255., 255.,
          255., 255., 255., 232., 57., 0., 0., 0., 0., 0., 202., 255.,
          255., 255., 255., 255., 255., 255., 255., 255., 128., 0., 0.,
          0., 0., 0., 255., 255., 255., 255., 255., 255., 255., 255.,
          255., 255., 255., 53., 0., 0., 0., 0., 255., 255., 255., 240.,
          166., 166., 180., 255., 255., 255., 255., 255., 0., 0., 0., 0.,
          255., 255., 255., 212., 0., 0., 42., 255., 255., 255., 255.,
          255., 0., 0., 0., 0., 255., 255., 255., 212., 0., 0., 42.,
          255., 255., 255., 255., 53., 0., 0., 0., 0., 255., 255., 255.,
          255., 127., 0., 0., 127., 255., 255., 255., 96., 0., 0., 0.,
          0., 255., 255., 255., 232., 57., 0., 0., 127., 255., 255.,
          255., 255., 0., 0., 0., 0., 255., 255., 255., 212., 0., 0., 0.,
          19., 219., 255., 255., 74., 0., 0., 0., 0., 255., 255., 255.,
          212., 0., 0., 0., 19., 219., 255., 255., 255., 0., 0., 0., 0.,
          255., 255., 255., 212., 0., 0., 0., 127., 255., 255., 255.,
          255., 0., 0., 0., 0., 255., 255., 255., 212., 0., 0., 0., 32.,
          223., 255., 255., 255., 0., 0., 0., 0., 255., 255., 255., 214.,
          6., 0., 13., 134., 255., 255., 255., 255., 0., 0., 0., 0.,
          255., 255., 255., 255., 172., 15., 255., 255., 255., 255.,
          255., 255., 0., 0., 0., 0., 255., 255., 255., 255., 255., 180.,
          255., 255., 255., 255., 255., 255., 0., 0., 0., 0., 53., 255.,
          255., 255., 255., 255., 255., 255., 255., 255., 255., 255., 0.,
          0., 0., 0., 42., 255., 255., 255., 255., 255., 255., 255.,
          255., 255., 255., 202., 0., 0., 0., 0., 19., 185., 255., 255.,
          255., 255., 255., 255., 255., 255., 255., 42., 0., 0., 0., 0.,
          0., 19., 38., 74., 255., 255., 255., 255., 255., 219., 38., 6.,
          0., 0. ]
      - [ 0., 0., 0., 2., 83., 255., 255., 255., 255., 255., 255., 255.,
          84., 2., 0., 0., 0., 0., 0., 75., 255., 255., 255., 255., 255.,
          255., 255., 255., 255., 75., 0., 0., 0., 0., 0., 255., 255.,
          255., 255., 255., 255., 255., 255., 255., 255., 255., 0., 0.,
          0., 0., 0., 255., 255., 255., 255., 145., 121., 145., 255.,
          255., 255., 255., 0., 0., 0., 0., 0., 255., 255., 255., 145.,
          15., 0., 15., 145., 255., 255., 255., 0., 0., 0., 0., 0., 255.,
          255., 255., 93., 0., 0., 0., 93., 255., 255., 255., 0., 0., 0.,
          0., 0., 255., 255., 255., 93., 0., 0., 0., 93., 255., 255.,
          255., 0., 0., 0., 0., 0., 255., 255., 255., 93., 0., 0., 0.,
          93., 255., 255., 255., 0., 0., 0., 0., 0., 255., 255., 255.,
          93., 0., 0., 0., 93., 255., 255., 255., 0., 0., 0., 0., 0.,
          255., 255., 255., 93., 0., 0., 0., 93., 255., 255., 255., 0.,
          0., 0., 0., 0., 255., 255., 255., 93., 0., 0., 0., 93., 255.,
          255., 255., 0., 0., 0., 0., 0., 255., 255., 255., 93., 0., 0.,
          0., 93., 255., 255., 255., 0., 0., 0., 0., 0., 255., 255.,
          255., 93., 0., 0., 0., 93., 255., 255., 255., 0., 0., 0., 0.,
          0., 255., 255., 255., 255., 250., 0., 0., 93., 255., 255.,
          255., 0., 0., 0., 0., 0., 255., 255., 255., 226., 38., 0., 0.,
          93., 255., 255., 255., 0., 0., 0., 0., 0., 255., 255., 255.,
          145., 83., 83., 83., 145., 255., 255., 255., 0., 0., 0., 0.,
          0., 255., 255., 255., 255., 255., 255., 255., 255., 255., 255.,
          255., 0., 0., 0., 0., 0., 255., 255., 255., 255., 255., 255.,
          255., 255., 255., 255., 255., 0., 0., 0., 0., 0., 75., 255.,
          255., 255., 255., 255., 255., 255., 255., 111., 57., 0., 0.,
          0., 0., 0., 2., 83., 255., 255., 255., 255., 255., 255., 126.,
          5., 214., 0., 0. ]
      - [ 0., 0., 0., 0., 57., 159., 255., 255., 255., 255., 255., 236.,
          19., 0., 0., 0., 0., 0., 0., 0., 229., 255., 255., 255., 255.,
          255., 255., 255., 210., 0., 0., 0., 0., 0., 0., 255., 255.,
          255., 255., 255., 255., 255., 255., 255., 255., 0., 0., 0., 0.,
          0., 0., 255., 255., 255., 255., 121., 64., 236., 255., 255.,
          255., 0., 0., 0., 0., 0., 0., 255., 255., 255., 191., 57., 0.,
          0., 255., 255., 255., 0., 0., 0., 0., 0., 0., 255., 255., 255.,
          0., 0., 0., 0., 255., 255., 255., 0., 0., 0., 0., 0., 0., 255.,
          255., 255., 0., 0., 0., 0., 255., 255., 255., 0., 0., 0., 0.,
          0., 0., 255., 255., 159., 0., 0., 0., 0., 255., 255., 255., 0.,
          0., 0., 0., 0., 0., 255., 255., 159., 0., 0., 0., 0., 255.,
          255., 255., 0., 0., 0., 0., 0., 0., 255., 255., 255., 0., 0.,
          0., 0., 255., 255., 255., 0., 0., 0., 0., 0., 0., 255., 255.,
          255., 0., 0., 0., 0., 229., 255., 255., 0., 0., 0., 0., 0., 0.,
          255., 255., 255., 0., 0., 0., 0., 87., 255., 255., 0., 0., 0.,
          0., 0., 0., 255., 255., 159., 0., 0., 0., 0., 255., 255., 255.,
          0., 0., 0., 0., 0., 0., 255., 255., 159., 0., 0., 0., 0., 255.,
          255., 255., 0., 0., 0., 0., 0., 0., 255., 255., 159., 0., 45.,
          64., 64., 255., 255., 255., 0., 0., 0., 0., 0., 0., 255., 255.,
          255., 191., 236., 255., 255., 255., 255., 255., 0., 0., 0., 0.,
          0., 0., 255., 255., 255., 255., 255., 255., 255., 255., 255.,
          76., 0., 0., 0., 0., 0., 0., 255., 255., 255., 255., 255.,
          255., 255., 255., 255., 76., 0., 0., 0., 0., 0., 0., 255.,
          255., 255., 255., 255., 255., 255., 223., 0., 0., 0., 0., 0.,
          0., 0., 0., 255., 255., 255., 64., 64., 64., 64., 32., 0., 0.,
          0., 0., 0. ]
      - [ 0., 0., 0., 255., 255., 255., 255., 255., 255., 255., 255.,
          197., 0., 0., 0., 0., 0., 0., 0., 255., 255., 255., 255., 255.,
          146., 127., 255., 197., 0., 0., 0., 0., 0., 0., 0., 255., 255.,
          255., 125., 64., 32., 26., 125., 241., 165., 0., 0., 0., 0.,
          0., 0., 255., 112., 89., 28., 0., 0., 0., 81., 255., 220., 0.,
          0., 0., 0., 0., 0., 255., 35., 0., 0., 0., 0., 0., 81., 255.,
          220., 0., 0., 0., 0., 0., 0., 255., 35., 0., 0., 0., 0., 0.,
          81., 255., 220., 0., 0., 0., 0., 0., 0., 255., 35., 0., 0., 0.,
          0., 0., 81., 255., 220., 0., 0., 0., 0., 0., 0., 255., 90.,
          14., 0., 0., 0., 0., 81., 255., 220., 0., 0., 0., 0., 0., 0.,
          255., 255., 58., 0., 0., 0., 0., 81., 255., 220., 0., 0., 0.,
          0., 0., 0., 255., 255., 58., 0., 0., 0., 0., 81., 255., 220.,
          0., 0., 0., 0., 0., 0., 255., 255., 58., 0., 0., 0., 0., 81.,
          255., 220., 0., 0., 0., 0., 0., 0., 255., 255., 58., 0., 0.,
          0., 0., 81., 255., 250., 217., 0., 0., 0., 0., 0., 64., 229.,
          58., 0., 0., 0., 0., 20., 107., 255., 255., 0., 0., 0., 0., 0.,
          0., 220., 186., 53., 0., 0., 0., 0., 58., 255., 255., 0., 0.,
          0., 0., 0., 0., 220., 255., 81., 0., 0., 0., 0., 58., 255.,
          255., 0., 0., 0., 0., 0., 0., 220., 255., 159., 47., 57., 115.,
          115., 147., 255., 255., 0., 0., 0., 0., 0., 0., 220., 255.,
          255., 157., 172., 255., 255., 255., 255., 255., 0., 0., 0., 0.,
          0., 0., 165., 241., 255., 255., 255., 255., 255., 255., 246.,
          191., 0., 0., 0., 0., 0., 0., 0., 197., 255., 255., 255., 255.,
          255., 246., 187., 0., 0., 0., 0., 0., 0., 0., 0., 197., 255.,
          255., 255., 255., 255., 197., 0., 0., 0., 0. ]
      - [ 0., 255., 255., 255., 255., 9., 0., 0., 0., 209., 255., 255.,
          255., 255., 50., 0., 0., 255., 255., 255., 255., 9., 14., 76.,
          76., 223., 255., 255., 255., 255., 255., 0., 0., 255., 255.,
          255., 255., 9., 23., 178., 178., 232., 255., 255., 255., 255.,
          255., 0., 0., 255., 255., 255., 255., 9., 0., 100., 100., 209.,
          255., 255., 255., 255., 255., 0., 0., 255., 255., 255., 83.,
          1., 0., 10., 10., 209., 255., 255., 255., 255., 255., 0., 0.,
          255., 255., 255., 255., 9., 21., 0., 0., 209., 255., 255.,
          255., 255., 255., 0., 0., 255., 255., 255., 255., 9., 147., 0.,
          0., 147., 255., 255., 255., 255., 255., 0., 0., 255., 255.,
          255., 255., 9., 0., 0., 0., 0., 255., 255., 255., 255., 141.,
          0., 0., 255., 255., 255., 255., 9., 0., 0., 0., 0., 255., 255.,
          255., 255., 187., 0., 0., 255., 255., 255., 255., 9., 0., 0.,
          0., 0., 255., 255., 255., 255., 255., 0., 0., 255., 255., 255.,
          255., 9., 0., 0., 0., 0., 255., 255., 255., 255., 255., 0., 0.,
          255., 255., 255., 255., 9., 0., 0., 0., 0., 255., 255., 255.,
          255., 255., 0., 0., 255., 255., 255., 255., 132., 0., 0., 0.,
          0., 132., 255., 255., 255., 255., 0., 0., 255., 255., 255.,
          255., 255., 0., 0., 0., 0., 181., 255., 255., 255., 255., 0.,
          0., 50., 255., 255., 255., 255., 0., 0., 0., 0., 255., 255.,
          255., 255., 255., 0., 0., 27., 255., 255., 255., 255., 255.,
          165., 26., 214., 255., 255., 255., 255., 232., 0., 0., 27.,
          255., 255., 255., 255., 255., 255., 255., 255., 255., 255.,
          255., 255., 27., 0., 0., 14., 128., 196., 255., 255., 255.,
          255., 255., 255., 255., 255., 255., 168., 14., 0., 0., 159.,
          0., 41., 210., 255., 255., 255., 255., 255., 255., 255., 172.,
          25., 0., 0., 0., 23., 0., 0., 19., 247., 255., 255., 255.,
          255., 255., 198., 14., 0., 0., 0. ]
      - [ 0., 0., 0., 0., 13., 32., 32., 82., 255., 255., 245., 32., 13.,
          0., 0., 0., 0., 0., 0., 13., 161., 255., 255., 255., 255.,
          255., 255., 255., 161., 13., 0., 0., 0., 0., 0., 35., 255.,
          255., 255., 255., 255., 255., 255., 255., 255., 172., 0., 0.,
          0., 0., 0., 227., 255., 255., 255., 255., 255., 255., 255.,
          255., 255., 255., 0., 0., 0., 0., 0., 255., 255., 255., 11.,
          0., 0., 0., 255., 255., 255., 255., 0., 0., 0., 0., 0., 255.,
          255., 255., 11., 0., 0., 0., 164., 255., 255., 255., 0., 0.,
          0., 0., 0., 255., 255., 255., 11., 0., 0., 0., 11., 255., 255.,
          255., 0., 0., 0., 0., 0., 255., 255., 255., 11., 0., 0., 0.,
          11., 255., 255., 255., 0., 0., 0., 0., 0., 255., 255., 255.,
          11., 0., 0., 0., 11., 255., 255., 255., 0., 0., 0., 0., 0.,
          255., 255., 255., 11., 0., 0., 0., 11., 255., 255., 255., 0.,
          0., 0., 0., 0., 255., 255., 255., 11., 0., 0., 0., 11., 255.,
          255., 255., 0., 0., 0., 0., 0., 255., 255., 255., 11., 0., 0.,
          0., 11., 255., 255., 255., 0., 0., 0., 0., 0., 255., 255.,
          233., 10., 0., 0., 0., 11., 255., 255., 255., 0., 0., 0., 0.,
          0., 255., 255., 81., 0., 0., 0., 0., 11., 255., 255., 255., 0.,
          0., 0., 0., 0., 255., 255., 190., 7., 0., 0., 0., 164., 255.,
          255., 255., 0., 0., 0., 0., 0., 255., 255., 255., 224., 172.,
          0., 0., 255., 255., 255., 255., 0., 0., 0., 0., 0., 255., 255.,
          255., 255., 255., 255., 255., 255., 255., 255., 227., 0., 0.,
          0., 0., 0., 255., 255., 255., 255., 255., 255., 255., 255.,
          255., 255., 35., 0., 0., 0., 0., 0., 117., 255., 255., 255.,
          255., 255., 255., 255., 204., 96., 13., 0., 0., 0., 0., 0.,
          35., 255., 255., 255., 32., 32., 32., 32., 22., 0., 0., 0., 0. ]
      - [ 0., 0., 0., 19., 38., 255., 255., 255., 255., 255., 255., 255.,
          147., 6., 0., 0., 0., 0., 19., 185., 255., 255., 255., 255.,
          255., 255., 255., 255., 255., 138., 0., 0., 0., 0., 42., 255.,
          255., 255., 255., 255., 255., 255., 255., 255., 255., 255., 0.,
          0., 0., 0., 42., 255., 255., 255., 255., 244., 242., 242.,
          253., 255., 255., 255., 0., 0., 0., 0., 42., 255., 255., 255.,
          210., 28., 0., 0., 213., 255., 255., 255., 0., 0., 0., 0., 42.,
          255., 255., 227., 45., 0., 0., 0., 213., 255., 255., 255., 0.,
          0., 0., 0., 42., 255., 255., 212., 0., 0., 0., 0., 213., 255.,
          255., 255., 0., 0., 0., 0., 42., 255., 255., 212., 0., 0., 0.,
          0., 213., 255., 255., 255., 0., 0., 0., 0., 159., 255., 255.,
          212., 0., 0., 0., 0., 213., 255., 255., 255., 0., 0., 0., 0.,
          255., 255., 255., 212., 0., 0., 0., 0., 213., 255., 255., 255.,
          0., 0., 0., 0., 255., 255., 255., 212., 0., 0., 0., 0., 213.,
          255., 255., 255., 0., 0., 0., 0., 255., 255., 255., 117., 0.,
          0., 0., 0., 213., 255., 255., 159., 0., 0., 0., 0., 255., 255.,
          255., 0., 0., 0., 0., 0., 213., 255., 255., 42., 0., 0., 0.,
          0., 255., 255., 255., 0., 0., 0., 0., 0., 213., 255., 255.,
          42., 0., 0., 0., 0., 255., 255., 255., 74., 0., 0., 0., 0.,
          213., 255., 255., 42., 0., 0., 0., 0., 255., 255., 255., 240.,
          83., 0., 28., 166., 240., 255., 255., 42., 0., 0., 0., 0.,
          255., 255., 255., 255., 249., 242., 244., 255., 255., 255.,
          255., 42., 0., 0., 0., 0., 255., 255., 255., 255., 255., 255.,
          255., 255., 255., 255., 223., 32., 0., 0., 0., 0., 255., 255.,
          255., 255., 255., 255., 255., 255., 255., 255., 128., 0., 0.,
          0., 0., 0., 38., 146., 255., 255., 255., 255., 255., 255.,
          255., 38., 19., 181., 0., 0. ]
      - [ 0., 0., 255., 255., 255., 255., 255., 233., 0., 0., 137., 252.,
          255., 255., 255., 0., 0., 0., 255., 255., 255., 247., 159.,
          49., 0., 0., 0., 235., 255., 255., 255., 0., 0., 0., 255.,
          255., 255., 235., 0., 0., 0., 0., 0., 235., 255., 255., 255.,
          0., 0., 0., 255., 255., 255., 235., 0., 0., 0., 0., 0., 235.,
          255., 255., 255., 0., 0., 0., 228., 255., 255., 0., 0., 0., 0.,
          0., 0., 235., 255., 255., 255., 0., 0., 0., 120., 255., 255.,
          0., 0., 0., 0., 0., 0., 235., 255., 255., 174., 0., 0., 0.,
          255., 255., 255., 0., 0., 0., 0., 0., 0., 235., 255., 255.,
          39., 0., 0., 0., 255., 255., 255., 0., 0., 0., 0., 0., 0.,
          235., 255., 255., 39., 0., 0., 0., 255., 255., 255., 0., 0.,
          0., 0., 0., 0., 235., 255., 255., 39., 0., 0., 0., 255., 255.,
          255., 0., 0., 0., 0., 0., 0., 235., 255., 255., 39., 0., 0.,
          0., 255., 255., 255., 0., 0., 0., 0., 0., 0., 235., 255., 255.,
          39., 0., 0., 0., 255., 255., 255., 0., 0., 0., 0., 0., 0.,
          235., 255., 255., 228., 0., 0., 0., 255., 255., 255., 0., 0.,
          0., 0., 0., 0., 235., 255., 255., 255., 0., 0., 0., 255., 255.,
          255., 0., 0., 0., 0., 0., 0., 235., 255., 255., 255., 0., 0.,
          0., 255., 255., 255., 0., 0., 0., 0., 0., 98., 247., 255.,
          255., 255., 0., 0., 0., 255., 255., 255., 206., 0., 0., 0.,
          69., 243., 255., 255., 255., 66., 0., 0., 0., 255., 255., 255.,
          255., 169., 186., 255., 255., 255., 255., 255., 255., 39., 0.,
          0., 0., 255., 255., 255., 255., 255., 255., 255., 255., 255.,
          255., 255., 203., 25., 0., 0., 0., 120., 255., 255., 255.,
          255., 255., 255., 255., 255., 255., 218., 44., 0., 0., 0., 0.,
          5., 135., 255., 255., 255., 255., 255., 255., 255., 255., 25.,
          0., 0., 0. ]
      - [ 0., 0., 0., 223., 255., 255., 255., 255., 255., 255., 255.,
          255., 223., 0., 0., 0., 0., 0., 198., 248., 255., 255., 255.,
          255., 255., 255., 255., 255., 248., 198., 0., 0., 0., 0., 255.,
          255., 255., 255., 155., 96., 96., 96., 142., 255., 255., 255.,
          0., 0., 0., 0., 134., 240., 255., 169., 50., 0., 0., 0., 74.,
          255., 255., 255., 0., 0., 0., 0., 83., 233., 255., 74., 0., 0.,
          0., 0., 74., 255., 255., 255., 0., 0., 0., 0., 255., 255.,
          255., 74., 0., 0., 0., 0., 74., 255., 255., 255., 0., 0., 0.,
          0., 255., 255., 255., 74., 0., 0., 0., 0., 74., 255., 255.,
          255., 0., 0., 0., 0., 255., 255., 255., 74., 0., 0., 0., 0.,
          74., 255., 255., 255., 0., 0., 0., 0., 255., 255., 255., 74.,
          0., 0., 0., 0., 74., 255., 255., 255., 0., 0., 0., 0., 255.,
          255., 255., 74., 0., 0., 0., 0., 74., 255., 255., 255., 0., 0.,
          0., 0., 255., 255., 255., 74., 0., 0., 0., 0., 74., 255., 241.,
          147., 0., 0., 0., 0., 255., 255., 255., 74., 0., 0., 0., 0.,
          74., 255., 223., 0., 0., 0., 0., 0., 255., 255., 230., 65., 0.,
          0., 0., 12., 97., 255., 223., 0., 0., 0., 0., 0., 255., 255.,
          58., 2., 0., 0., 0., 93., 251., 255., 223., 0., 0., 0., 0., 0.,
          255., 255., 53., 0., 0., 0., 0., 95., 255., 211., 39., 0., 0.,
          0., 0., 0., 255., 255., 189., 50., 108., 172., 172., 203.,
          255., 238., 151., 0., 0., 0., 0., 0., 255., 255., 255., 169.,
          209., 255., 255., 255., 255., 255., 223., 0., 0., 0., 0., 0.,
          255., 255., 255., 255., 255., 255., 255., 255., 227., 179.,
          235., 96., 0., 0., 0., 0., 255., 255., 255., 255., 255., 255.,
          255., 255., 197., 99., 255., 255., 0., 0., 0., 0., 255., 255.,
          255., 255., 255., 255., 255., 255., 255., 255., 255., 255., 0.,
          0. ]
      - [ 0., 0., 0., 0., 0., 0., 10., 38., 38., 38., 10., 0., 0., 0.,
          0., 0., 0., 0., 0., 21., 52., 104., 153., 255., 255., 255.,
          153., 115., 63., 0., 0., 0., 0., 0., 0., 46., 220., 249., 255.,
          255., 255., 255., 255., 255., 226., 35., 0., 0., 0., 0., 0.,
          57., 255., 255., 255., 255., 255., 255., 255., 255., 255.,
          255., 0., 0., 0., 0., 0., 255., 255., 255., 255., 255., 255.,
          166., 230., 255., 255., 255., 0., 0., 0., 0., 0., 255., 255.,
          255., 255., 150., 89., 0., 185., 255., 255., 255., 0., 0., 0.,
          0., 0., 255., 255., 255., 189., 5., 0., 0., 185., 255., 255.,
          255., 0., 0., 0., 0., 0., 255., 255., 255., 0., 0., 0., 0.,
          185., 255., 255., 255., 0., 0., 0., 0., 0., 255., 255., 255.,
          0., 0., 0., 0., 185., 255., 255., 255., 0., 0., 0., 0., 0.,
          255., 255., 255., 158., 0., 0., 0., 185., 255., 255., 255., 0.,
          0., 0., 0., 0., 255., 255., 255., 185., 0., 0., 0., 158., 255.,
          255., 255., 0., 0., 0., 0., 0., 255., 255., 255., 102., 0., 0.,
          0., 0., 255., 255., 255., 0., 0., 0., 0., 0., 255., 255., 255.,
          0., 0., 0., 0., 0., 255., 255., 255., 0., 0., 0., 0., 0., 255.,
          255., 255., 9., 0., 0., 0., 185., 255., 255., 255., 0., 0., 0.,
          0., 0., 255., 255., 255., 185., 0., 0., 0., 185., 255., 255.,
          255., 0., 0., 0., 0., 0., 255., 255., 255., 185., 0., 0., 60.,
          230., 255., 255., 255., 0., 0., 0., 0., 0., 255., 255., 255.,
          251., 242., 242., 247., 255., 255., 255., 255., 0., 0., 0., 0.,
          0., 203., 255., 255., 255., 255., 255., 255., 255., 255., 255.,
          203., 0., 0., 0., 0., 0., 21., 191., 255., 255., 255., 255.,
          255., 255., 255., 191., 21., 0., 0., 0., 0., 0., 0., 21., 235.,
          255., 255., 255., 255., 255., 235., 21., 0., 0., 0. ]
      - [ 0., 0., 0., 0., 0., 0., 184., 255., 255., 156., 0., 0., 0., 0.,
          0., 0., 0., 0., 0., 0., 0., 0., 184., 255., 255., 233., 143.,
          0., 0., 0., 0., 0., 0., 0., 0., 0., 0., 133., 228., 255., 255.,
          255., 228., 133., 0., 0., 0., 0., 0., 0., 0., 0., 121., 233.,
          255., 255., 255., 255., 255., 212., 0., 0., 0., 0., 0., 0., 0.,
          0., 255., 255., 255., 204., 172., 204., 255., 226., 83., 0.,
          0., 0., 0., 0., 0., 0., 255., 255., 255., 99., 0., 99., 255.,
          255., 255., 0., 0., 0., 0., 0., 0., 0., 255., 255., 255., 99.,
          0., 97., 250., 255., 255., 0., 0., 0., 0., 0., 0., 0., 255.,
          255., 255., 99., 0., 12., 94., 255., 255., 0., 0., 0., 0., 0.,
          0., 0., 255., 255., 255., 99., 0., 0., 71., 255., 255., 0., 0.,
          0., 0., 0., 0., 0., 255., 255., 255., 99., 0., 0., 71., 255.,
          255., 0., 0., 0., 0., 0., 0., 0., 255., 255., 255., 99., 0.,
          0., 71., 255., 255., 0., 0., 0., 0., 0., 0., 0., 255., 255.,
          255., 99., 0., 0., 71., 255., 255., 0., 0., 0., 0., 0., 0., 0.,
          255., 255., 255., 99., 0., 0., 71., 255., 255., 0., 0., 0., 0.,
          0., 0., 0., 255., 255., 255., 99., 0., 0., 71., 255., 255., 0.,
          0., 0., 0., 0., 0., 0., 255., 255., 255., 99., 0., 0., 71.,
          255., 255., 0., 0., 0., 0., 0., 0., 0., 255., 255., 255., 99.,
          0., 0., 71., 255., 255., 0., 0., 0., 0., 0., 0., 0., 121.,
          233., 255., 181., 134., 134., 167., 255., 255., 0., 0., 0., 0.,
          0., 0., 0., 0., 212., 255., 255., 255., 255., 255., 239., 159.,
          0., 0., 0., 0., 0., 0., 0., 0., 165., 239., 255., 255., 255.,
          255., 212., 0., 0., 0., 0., 0., 0., 0., 0., 0., 0., 184., 255.,
          255., 255., 255., 212., 0., 0., 0., 0. ]
      - [ 0., 0., 146., 255., 255., 255., 255., 255., 255., 255., 255.,
          255., 255., 146., 0., 0., 0., 140., 206., 255., 255., 155.,
          115., 115., 115., 195., 255., 255., 255., 206., 140., 0., 0.,
          255., 255., 255., 255., 73., 0., 0., 0., 146., 255., 255.,
          255., 255., 255., 0., 0., 255., 255., 255., 255., 73., 0., 0.,
          0., 146., 255., 255., 255., 255., 255., 0., 0., 255., 255.,
          255., 255., 73., 0., 0., 0., 51., 137., 255., 255., 255., 255.,
          0., 0., 255., 255., 255., 255., 73., 0., 0., 0., 0., 73., 255.,
          255., 255., 255., 0., 0., 255., 255., 255., 255., 73., 0., 0.,
          0., 0., 73., 255., 255., 255., 255., 0., 0., 255., 255., 255.,
          255., 73., 0., 0., 0., 0., 73., 255., 255., 255., 255., 0., 0.,
          255., 255., 255., 255., 73., 0., 0., 0., 0., 73., 255., 255.,
          255., 255., 0., 0., 255., 255., 255., 255., 73., 0., 0., 0.,
          0., 73., 255., 255., 239., 217., 0., 0., 255., 255., 255.,
          255., 73., 0., 0., 0., 0., 73., 255., 255., 162., 38., 0., 0.,
          255., 255., 215., 115., 33., 0., 0., 0., 0., 73., 255., 255.,
          146., 0., 0., 0., 255., 255., 182., 0., 0., 0., 0., 0., 0.,
          73., 255., 255., 146., 0., 0., 0., 255., 255., 182., 0., 0.,
          0., 0., 0., 0., 73., 255., 255., 146., 0., 0., 0., 255., 255.,
          182., 0., 0., 0., 0., 0., 95., 191., 255., 255., 146., 0., 0.,
          0., 255., 255., 182., 0., 0., 0., 13., 77., 184., 255., 255.,
          255., 146., 0., 0., 0., 255., 255., 186., 13., 13., 13., 47.,
          220., 255., 255., 255., 255., 146., 0., 0., 0., 255., 255.,
          237., 191., 191., 191., 200., 246., 255., 255., 255., 255.,
          146., 0., 0., 0., 255., 255., 255., 255., 255., 255., 255.,
          255., 255., 255., 255., 173., 80., 0., 0., 0., 255., 255.,
          255., 255., 255., 255., 255., 255., 255., 255., 255., 73., 0.,
          0., 0. ]
      - [ 0., 0., 0., 4., 129., 255., 255., 255., 255., 255., 255., 255.,
          60., 0., 0., 0., 0., 0., 0., 103., 255., 255., 255., 255.,
          255., 255., 255., 255., 255., 0., 0., 0., 0., 0., 0., 255.,
          255., 255., 128., 172., 172., 128., 159., 255., 255., 0., 0.,
          0., 0., 0., 0., 255., 255., 255., 0., 27., 27., 0., 64., 255.,
          255., 0., 0., 0., 0., 0., 0., 255., 255., 255., 0., 0., 0., 0.,
          64., 255., 255., 0., 0., 0., 0., 0., 0., 255., 255., 255., 0.,
          0., 0., 0., 64., 255., 255., 0., 0., 0., 0., 0., 0., 255.,
          255., 255., 0., 0., 0., 0., 64., 255., 255., 0., 0., 0., 0.,
          0., 0., 255., 255., 255., 0., 0., 0., 0., 64., 255., 255., 0.,
          0., 0., 0., 0., 0., 255., 255., 255., 0., 0., 0., 0., 64.,
          255., 255., 0., 0., 0., 0., 0., 0., 255., 255., 255., 0., 0.,
          0., 0., 64., 255., 255., 0., 0., 0., 0., 0., 0., 255., 255.,
          255., 0., 0., 0., 0., 236., 255., 255., 0., 0., 0., 0., 0., 0.,
          255., 255., 255., 0., 0., 0., 0., 64., 255., 255., 0., 0., 0.,
          0., 0., 0., 255., 255., 255., 0., 0., 0., 0., 64., 255., 255.,
          0., 0., 0., 0., 0., 0., 103., 255., 255., 0., 0., 0., 0., 64.,
          255., 255., 0., 0., 0., 0., 0., 0., 38., 255., 255., 0., 0.,
          0., 0., 64., 255., 255., 0., 0., 0., 0., 0., 0., 38., 255.,
          255., 244., 26., 26., 26., 255., 255., 255., 0., 0., 0., 0.,
          0., 0., 38., 255., 255., 255., 255., 255., 255., 255., 255.,
          255., 0., 0., 0., 0., 0., 0., 19., 185., 255., 255., 255.,
          255., 255., 255., 255., 255., 0., 0., 0., 0., 0., 0., 0., 34.,
          210., 255., 255., 255., 255., 255., 255., 255., 0., 0., 0., 0.,
          0., 0., 0., 0., 19., 255., 255., 255., 255., 26., 26., 26., 0.,
          0., 0. ]
      - [ 0., 0., 0., 0., 0., 41., 255., 255., 255., 255., 255., 45.,
          24., 0., 0., 0., 0., 0., 0., 24., 134., 244., 255., 255., 255.,
          255., 255., 255., 200., 134., 0., 0., 0., 0., 0., 46., 255.,
          255., 255., 255., 255., 255., 255., 255., 255., 255., 0., 0.,
          0., 0., 0., 93., 255., 255., 255., 255., 255., 218., 255.,
          255., 255., 255., 0., 0., 0., 0., 0., 255., 255., 255., 255.,
          162., 108., 39., 108., 255., 255., 255., 0., 0., 0., 0., 0.,
          255., 255., 255., 190., 7., 0., 0., 0., 255., 255., 255., 0.,
          0., 0., 0., 0., 255., 255., 255., 185., 0., 0., 0., 185., 255.,
          255., 255., 0., 0., 0., 0., 0., 255., 255., 255., 185., 0., 0.,
          0., 185., 255., 255., 255., 0., 0., 0., 0., 0., 255., 255.,
          255., 185., 0., 0., 0., 185., 255., 255., 255., 0., 0., 0., 0.,
          0., 255., 255., 255., 185., 0., 0., 0., 185., 255., 255., 255.,
          0., 0., 0., 0., 0., 255., 255., 255., 185., 0., 0., 0., 185.,
          255., 255., 255., 0., 0., 0., 0., 0., 255., 255., 255., 185.,
          0., 0., 0., 181., 255., 255., 255., 0., 0., 0., 0., 0., 255.,
          255., 255., 185., 0., 0., 0., 0., 255., 255., 255., 0., 0., 0.,
          0., 0., 255., 255., 255., 51., 0., 0., 0., 0., 255., 255.,
          255., 0., 0., 0., 0., 0., 255., 255., 255., 14., 0., 0., 0.,
          14., 255., 255., 255., 0., 0., 0., 0., 0., 255., 255., 255.,
          215., 108., 0., 39., 215., 255., 255., 255., 0., 0., 0., 0.,
          0., 93., 255., 255., 255., 255., 198., 218., 255., 255., 255.,
          255., 0., 0., 0., 0., 0., 46., 255., 255., 255., 255., 255.,
          255., 255., 255., 255., 255., 0., 0., 0., 0., 0., 46., 255.,
          255., 255., 255., 255., 255., 255., 255., 255., 156., 0., 0.,
          0., 0., 0., 8., 159., 255., 255., 121., 45., 255., 255., 255.,
          159., 8., 0., 0. ]
      - [ 0., 0., 0., 0., 157., 255., 255., 255., 255., 255., 255., 255.,
          157., 0., 0., 0., 0., 0., 0., 137., 226., 255., 255., 255.,
          255., 255., 255., 255., 226., 137., 0., 0., 0., 0., 128., 226.,
          255., 255., 255., 255., 255., 255., 255., 255., 255., 196., 0.,
          0., 0., 0., 255., 255., 255., 255., 231., 179., 179., 243.,
          255., 255., 255., 196., 0., 0., 0., 0., 255., 255., 255., 243.,
          159., 0., 0., 194., 247., 255., 255., 196., 0., 0., 0., 0.,
          255., 255., 255., 149., 18., 0., 0., 22., 184., 255., 255.,
          196., 0., 0., 0., 0., 255., 255., 255., 137., 0., 0., 0., 0.,
          176., 255., 255., 196., 0., 0., 0., 0., 255., 255., 255., 137.,
          0., 0., 0., 0., 177., 255., 255., 196., 0., 0., 0., 0., 255.,
          255., 255., 137., 0., 0., 0., 0., 176., 255., 255., 196., 0.,
          0., 0., 0., 255., 255., 255., 137., 0., 0., 0., 0., 176., 255.,
          255., 196., 0., 0., 0., 0., 255., 255., 255., 137., 0., 0., 0.,
          0., 176., 255., 255., 196., 0., 0., 0., 0., 255., 255., 255.,
          220., 124., 0., 0., 0., 53., 172., 255., 237., 179., 0., 0.,
          0., 255., 255., 255., 196., 88., 0., 0., 0., 0., 137., 255.,
          255., 255., 0., 0., 0., 255., 255., 255., 137., 0., 0., 0., 0.,
          53., 172., 255., 237., 179., 0., 0., 0., 255., 255., 255.,
          137., 0., 0., 0., 0., 176., 255., 255., 196., 0., 0., 0., 0.,
          255., 255., 255., 137., 0., 0., 0., 0., 176., 255., 255., 196.,
          0., 0., 0., 0., 255., 255., 255., 220., 124., 27., 179., 179.,
          231., 255., 255., 237., 179., 0., 0., 0., 128., 226., 255.,
          255., 216., 147., 255., 255., 255., 255., 255., 255., 255., 0.,
          0., 0., 76., 214., 255., 255., 255., 255., 255., 255., 255.,
          255., 255., 255., 255., 0., 0., 0., 255., 255., 255., 255.,
          255., 255., 255., 255., 255., 255., 255., 255., 255., 0. ]
      - [ 0., 0., 0., 0., 9., 179., 255., 255., 255., 255., 255., 35.,
          0., 0., 0., 0., 0., 0., 0., 119., 185., 255., 255., 255., 255.,
          255., 255., 223., 26., 0., 0., 0., 0., 0., 83., 255., 255.,
          255., 255., 255., 255., 255., 255., 255., 255., 186., 7., 0.,
          0., 0., 255., 255., 255., 255., 255., 255., 255., 255., 255.,
          255., 255., 255., 59., 0., 0., 0., 255., 255., 255., 251.,
          249., 115., 0., 115., 249., 255., 255., 253., 57., 0., 0., 0.,
          255., 255., 255., 98., 0., 0., 0., 0., 112., 255., 255., 176.,
          0., 0., 0., 0., 73., 255., 255., 243., 0., 0., 0., 0., 18.,
          255., 255., 249., 54., 0., 0., 0., 59., 255., 255., 255., 0.,
          0., 0., 0., 0., 255., 255., 255., 59., 0., 0., 0., 59., 255.,
          255., 255., 0., 0., 0., 0., 0., 255., 255., 255., 59., 0., 0.,
          0., 43., 233., 255., 255., 0., 0., 0., 0., 0., 212., 255.,
          255., 59., 0., 0., 0., 0., 177., 255., 255., 0., 0., 0., 0.,
          0., 98., 255., 255., 59., 0., 0., 0., 0., 176., 255., 255.,
          41., 0., 0., 0., 0., 98., 255., 255., 93., 0., 0., 0., 0.,
          176., 255., 255., 235., 0., 0., 0., 0., 98., 255., 255., 255.,
          0., 0., 0., 0., 177., 255., 255., 237., 9., 0., 0., 0., 98.,
          255., 255., 255., 0., 0., 0., 0., 176., 255., 255., 255., 118.,
          0., 0., 0., 180., 255., 255., 255., 0., 0., 0., 0., 176., 255.,
          255., 255., 117., 0., 0., 0., 255., 255., 255., 255., 0., 0.,
          0., 0., 177., 255., 255., 255., 255., 255., 255., 255., 255.,
          255., 255., 255., 0., 0., 0., 0., 22., 255., 255., 255., 255.,
          255., 255., 255., 255., 255., 255., 255., 0., 0., 0., 0., 0.,
          26., 223., 255., 255., 255., 255., 255., 255., 255., 255.,
          191., 0., 0., 0., 0., 0., 0., 157., 255., 255., 255., 255.,
          255., 255., 88., 57., 13., 0. ]
      - [ 0., 0., 0., 255., 255., 255., 255., 255., 255., 255., 255.,
          197., 0., 0., 0., 0., 0., 0., 0., 255., 255., 255., 255., 255.,
          255., 255., 255., 242., 198., 198., 0., 0., 0., 0., 0., 255.,
          255., 255., 255., 255., 255., 255., 255., 255., 255., 255., 0.,
          0., 0., 0., 0., 255., 255., 255., 172., 134., 134., 134., 172.,
          255., 255., 255., 0., 0., 0., 0., 0., 255., 255., 255., 81.,
          0., 0., 0., 81., 255., 255., 255., 0., 0., 0., 0., 0., 255.,
          255., 255., 81., 0., 0., 0., 81., 255., 255., 255., 0., 0., 0.,
          0., 0., 255., 255., 255., 81., 0., 0., 0., 81., 255., 255.,
          255., 0., 0., 0., 0., 0., 255., 255., 255., 81., 0., 0., 0.,
          81., 255., 255., 255., 0., 0., 0., 0., 0., 255., 255., 255.,
          81., 0., 0., 0., 81., 255., 255., 255., 0., 0., 0., 0., 0.,
          255., 255., 142., 34., 0., 0., 0., 81., 255., 255., 255., 0.,
          0., 0., 0., 0., 255., 255., 58., 0., 0., 0., 0., 81., 255.,
          255., 255., 0., 0., 0., 0., 0., 255., 255., 58., 0., 0., 0.,
          0., 81., 255., 255., 255., 0., 0., 0., 0., 0., 255., 255., 58.,
          0., 0., 0., 0., 81., 255., 255., 255., 0., 0., 0., 0., 0.,
          255., 255., 58., 0., 0., 0., 0., 81., 255., 255., 255., 0., 0.,
          0., 0., 0., 255., 255., 58., 0., 0., 0., 0., 81., 255., 255.,
          255., 0., 0., 0., 0., 0., 255., 255., 191., 55., 0., 0., 0.,
          81., 255., 255., 255., 0., 0., 0., 0., 0., 255., 255., 255.,
          172., 134., 134., 134., 172., 255., 255., 255., 0., 0., 0., 0.,
          0., 255., 255., 255., 255., 255., 255., 255., 255., 255., 242.,
          159., 0., 0., 0., 0., 0., 255., 255., 255., 255., 255., 255.,
          255., 255., 242., 171., 0., 0., 0., 0., 0., 0., 255., 255.,
          255., 255., 255., 255., 255., 255., 197., 0., 0., 0., 0. ]
      - [ 0., 0., 255., 255., 255., 255., 255., 229., 217., 217., 217.,
          252., 255., 255., 72., 0., 0., 0., 255., 255., 255., 246.,
          140., 43., 0., 0., 0., 235., 255., 255., 255., 0., 0., 0.,
          255., 255., 255., 235., 0., 0., 0., 0., 0., 235., 255., 255.,
          255., 0., 0., 0., 255., 255., 255., 235., 0., 0., 0., 0., 0.,
          235., 255., 255., 255., 0., 0., 0., 255., 255., 255., 153., 0.,
          0., 0., 0., 0., 235., 255., 255., 255., 0., 0., 0., 255., 255.,
          255., 0., 0., 0., 0., 0., 0., 235., 255., 255., 255., 0., 0.,
          0., 255., 255., 255., 0., 0., 0., 0., 0., 0., 235., 255., 255.,
          255., 0., 0., 0., 255., 255., 255., 0., 0., 0., 0., 0., 0.,
          235., 255., 255., 255., 0., 0., 0., 255., 255., 255., 0., 0.,
          0., 0., 0., 0., 235., 255., 255., 136., 0., 0., 0., 255., 255.,
          255., 0., 0., 0., 0., 0., 0., 235., 255., 255., 39., 0., 0.,
          0., 255., 255., 255., 0., 0., 0., 0., 0., 0., 235., 255., 255.,
          39., 0., 0., 0., 255., 255., 255., 0., 0., 0., 0., 0., 0.,
          235., 255., 255., 136., 0., 0., 0., 255., 255., 255., 0., 0.,
          0., 0., 0., 0., 235., 255., 255., 255., 0., 0., 0., 255., 255.,
          255., 0., 0., 0., 0., 0., 0., 235., 255., 255., 255., 0., 0.,
          0., 255., 255., 255., 0., 0., 0., 0., 0., 0., 235., 255., 255.,
          255., 0., 0., 0., 255., 255., 255., 153., 0., 0., 0., 0., 102.,
          248., 255., 255., 255., 0., 0., 0., 255., 255., 255., 254.,
          242., 242., 242., 242., 250., 255., 255., 255., 255., 0., 0.,
          0., 201., 255., 255., 255., 255., 255., 255., 255., 255., 255.,
          255., 221., 29., 0., 0., 0., 39., 255., 255., 255., 255., 255.,
          255., 255., 255., 255., 255., 117., 0., 0., 0., 0., 6., 138.,
          255., 255., 255., 255., 255., 255., 255., 255., 205., 18., 0.,
          0. ]
      - [ 0., 0., 255., 255., 255., 255., 254., 236., 236., 236., 254.,
          255., 255., 255., 238., 0., 0., 0., 255., 255., 255., 255.,
          245., 0., 0., 0., 245., 255., 255., 255., 29., 0., 0., 0.,
          255., 255., 255., 178., 153., 0., 0., 0., 245., 255., 255.,
          255., 29., 0., 0., 0., 255., 255., 255., 49., 0., 0., 0., 0.,
          245., 255., 255., 255., 29., 0., 0., 0., 255., 255., 255., 49.,
          0., 0., 0., 0., 80., 255., 255., 255., 29., 0., 0., 0., 255.,
          255., 255., 49., 0., 0., 0., 0., 0., 255., 255., 255., 29., 0.,
          0., 0., 255., 255., 255., 49., 0., 0., 0., 0., 0., 255., 255.,
          255., 29., 0., 0., 0., 255., 255., 255., 49., 0., 0., 0., 0.,
          0., 255., 255., 255., 29., 0., 0., 0., 255., 255., 255., 49.,
          0., 0., 0., 0., 67., 255., 255., 255., 29., 0., 0., 0., 255.,
          255., 255., 49., 0., 0., 0., 0., 141., 255., 255., 255., 29.,
          0., 0., 0., 255., 255., 255., 49., 0., 0., 0., 0., 0., 255.,
          255., 255., 29., 0., 0., 0., 255., 255., 255., 49., 0., 0., 0.,
          0., 178., 255., 255., 255., 29., 0., 0., 0., 255., 255., 255.,
          49., 0., 0., 0., 0., 245., 255., 255., 255., 29., 0., 0., 0.,
          255., 255., 255., 49., 0., 0., 0., 0., 0., 255., 255., 255.,
          29., 0., 0., 0., 255., 255., 255., 49., 0., 0., 0., 0., 43.,
          255., 255., 255., 29., 0., 0., 0., 255., 255., 255., 49., 0.,
          0., 0., 61., 248., 255., 255., 255., 29., 0., 0., 0., 255.,
          255., 255., 147., 121., 121., 121., 219., 255., 255., 255.,
          255., 29., 0., 0., 0., 255., 255., 255., 255., 255., 255.,
          255., 255., 255., 255., 255., 255., 29., 0., 0., 0., 80., 255.,
          255., 255., 255., 255., 255., 255., 255., 255., 255., 126., 7.,
          0., 0., 0., 29., 255., 255., 255., 255., 255., 255., 255.,
          255., 255., 155., 7., 0., 0. ]
      - [ 0., 0., 0., 0., 0., 0., 64., 255., 255., 107., 57., 57., 0.,
          0., 0., 0., 0., 0., 0., 129., 172., 172., 193., 255., 255.,
          255., 255., 255., 0., 0., 0., 0., 0., 0., 255., 255., 255.,
          255., 255., 255., 255., 255., 255., 255., 255., 64., 0., 0.,
          0., 0., 255., 255., 255., 255., 255., 255., 255., 255., 255.,
          255., 255., 64., 0., 0., 0., 0., 255., 255., 255., 255., 253.,
          249., 249., 253., 255., 255., 255., 64., 0., 0., 0., 0., 255.,
          255., 255., 164., 100., 0., 0., 100., 255., 255., 255., 64.,
          0., 0., 0., 0., 255., 255., 255., 64., 0., 0., 0., 0., 78.,
          255., 255., 241., 0., 0., 0., 0., 255., 255., 215., 24., 0.,
          0., 0., 0., 255., 255., 255., 255., 0., 0., 0., 0., 255., 255.,
          255., 64., 0., 0., 0., 0., 255., 255., 255., 255., 0., 0., 0.,
          0., 255., 255., 255., 64., 0., 0., 0., 0., 255., 255., 255.,
          255., 0., 0., 0., 0., 255., 255., 255., 64., 0., 0., 0., 0.,
          255., 255., 255., 255., 0., 0., 0., 0., 221., 255., 255., 64.,
          0., 0., 0., 0., 255., 255., 255., 255., 0., 0., 0., 0., 64.,
          255., 255., 64., 0., 0., 0., 0., 255., 255., 255., 255., 0.,
          0., 0., 0., 64., 255., 255., 64., 0., 0., 0., 0., 64., 255.,
          255., 255., 0., 0., 0., 0., 64., 255., 255., 164., 0., 0., 0.,
          0., 64., 255., 255., 255., 0., 0., 0., 0., 64., 255., 255.,
          255., 0., 0., 0., 0., 250., 255., 255., 255., 0., 0., 0., 0.,
          64., 255., 255., 255., 218., 108., 255., 255., 255., 255.,
          255., 255., 0., 0., 0., 0., 8., 199., 255., 255., 255., 255.,
          255., 255., 255., 255., 255., 255., 0., 0., 0., 0., 0., 129.,
          193., 255., 255., 255., 255., 255., 255., 255., 172., 172., 0.,
          0., 0., 0., 0., 0., 64., 255., 255., 255., 255., 255., 255.,
          255., 0., 0., 0., 0. ]
      - [ 0., 0., 0., 159., 255., 255., 255., 255., 255., 255., 255.,
          255., 159., 0., 0., 0., 0., 0., 0., 159., 255., 237., 132.,
          115., 115., 132., 237., 255., 212., 140., 0., 0., 0., 0., 0.,
          159., 255., 223., 32., 0., 0., 24., 167., 231., 255., 255., 0.,
          0., 0., 0., 0., 159., 255., 223., 32., 0., 0., 2., 11., 164.,
          255., 255., 0., 0., 0., 0., 166., 221., 255., 223., 32., 0.,
          0., 0., 0., 159., 255., 255., 0., 0., 0., 0., 255., 255., 255.,
          223., 32., 0., 0., 0., 0., 159., 255., 255., 0., 0., 0., 0.,
          255., 255., 255., 223., 32., 0., 0., 0., 0., 159., 255., 255.,
          0., 0., 0., 0., 255., 255., 255., 223., 32., 0., 0., 0., 0.,
          159., 255., 255., 0., 0., 0., 0., 255., 255., 255., 223., 32.,
          0., 0., 0., 0., 159., 255., 255., 0., 0., 0., 0., 255., 255.,
          255., 223., 32., 0., 0., 0., 0., 159., 255., 255., 0., 0., 0.,
          0., 255., 255., 255., 223., 32., 0., 0., 0., 0., 159., 255.,
          255., 0., 0., 0., 0., 255., 255., 255., 223., 32., 0., 0., 0.,
          0., 159., 255., 255., 0., 0., 0., 0., 255., 255., 255., 223.,
          32., 0., 0., 0., 0., 159., 255., 255., 0., 0., 0., 0., 255.,
          255., 255., 223., 32., 0., 0., 0., 0., 159., 255., 255., 0.,
          0., 0., 0., 255., 255., 255., 223., 32., 0., 0., 0., 0., 159.,
          255., 255., 0., 0., 0., 0., 255., 255., 255., 223., 32., 0.,
          0., 11., 78., 193., 255., 255., 0., 0., 0., 0., 242., 250.,
          255., 225., 43., 13., 13., 43., 225., 255., 250., 242., 0., 0.,
          0., 0., 64., 183., 255., 247., 199., 191., 191., 199., 247.,
          255., 183., 64., 0., 0., 0., 0., 0., 88., 183., 255., 255.,
          255., 255., 255., 255., 183., 88., 0., 0., 0., 0., 0., 0., 0.,
          96., 255., 255., 255., 255., 255., 255., 96., 0., 0., 0., 0. ]
      - [ 0., 0., 0., 0., 0., 0., 0., 255., 255., 255., 0., 0., 0., 0.,
          0., 0., 0., 0., 0., 0., 0., 0., 0., 255., 255., 255., 0., 0.,
          0., 0., 0., 0., 0., 0., 0., 0., 0., 0., 191., 255., 255., 255.,
          0., 0., 0., 0., 0., 0., 0., 0., 0., 0., 0., 0., 255., 255.,
          255., 89., 0., 0., 0., 0., 0., 0., 0., 0., 0., 0., 0., 0.,
          255., 255., 255., 140., 0., 0., 0., 0., 0., 0., 0., 0., 0., 0.,
          0., 0., 255., 255., 255., 255., 0., 0., 0., 0., 0., 0., 0., 0.,
          0., 0., 0., 0., 255., 255., 255., 255., 0., 0., 0., 0., 0., 0.,
          0., 0., 0., 0., 0., 0., 255., 255., 255., 255., 0., 0., 0., 0.,
          0., 0., 0., 0., 0., 0., 0., 0., 255., 255., 255., 217., 0., 0.,
          0., 0., 0., 0., 0., 0., 0., 0., 0., 0., 255., 255., 255., 0.,
          0., 0., 0., 0., 0., 0., 0., 0., 0., 0., 0., 0., 255., 255.,
          255., 0., 0., 0., 0., 0., 0., 0., 0., 0., 0., 0., 0., 0., 255.,
          255., 255., 0., 0., 0., 0., 0., 0., 0., 0., 0., 0., 0., 0., 0.,
          255., 255., 255., 0., 0., 0., 0., 0., 0., 0., 0., 0., 0., 0.,
          0., 0., 255., 255., 255., 0., 0., 0., 0., 0., 0., 0., 0., 0.,
          0., 0., 0., 0., 255., 255., 255., 0., 0., 0., 0., 0., 0., 0.,
          0., 0., 0., 0., 0., 0., 255., 255., 255., 0., 0., 0., 0., 0.,
          0., 0., 0., 0., 0., 0., 0., 0., 255., 255., 255., 0., 0., 0.,
          0., 0., 0., 0., 0., 0., 0., 0., 0., 0., 255., 255., 255., 0.,
          0., 0., 0., 0., 0., 0., 0., 0., 0., 0., 0., 0., 255., 255.,
          255., 0., 0., 0., 0., 0., 0., 0., 0., 0., 0., 0., 0., 0., 255.,
          255., 255., 0., 0., 0., 0., 0., 0., 0. ]
      - [ 0., 0., 0., 0., 0., 0., 255., 255., 255., 0., 0., 0., 0., 0.,
          0., 0., 0., 0., 0., 0., 0., 0., 255., 255., 255., 217., 0., 0.,
          0., 0., 0., 0., 0., 0., 0., 0., 0., 0., 255., 255., 255., 64.,
          0., 0., 0., 0., 0., 0., 0., 0., 0., 0., 0., 0., 255., 255.,
          255., 0., 0., 0., 0., 0., 0., 0., 0., 0., 0., 0., 0., 0., 255.,
          255., 255., 0., 0., 0., 0., 0., 0., 0., 0., 0., 0., 0., 0., 0.,
          255., 255., 255., 0., 0., 0., 0., 0., 0., 0., 0., 0., 0., 0.,
          0., 0., 255., 255., 255., 89., 0., 0., 0., 0., 0., 0., 0., 0.,
          0., 0., 0., 0., 255., 255., 255., 255., 0., 0., 0., 0., 0., 0.,
          0., 0., 0., 0., 0., 0., 255., 255., 255., 255., 0., 0., 0., 0.,
          0., 0., 0., 0., 0., 0., 0., 0., 255., 255., 255., 255., 0., 0.,
          0., 0., 0., 0., 0., 0., 0., 0., 0., 0., 255., 255., 255., 255.,
          0., 0., 0., 0., 0., 0., 0., 0., 0., 0., 0., 0., 255., 255.,
          255., 255., 0., 0., 0., 0., 0., 0., 0., 0., 0., 0., 0., 0.,
          255., 255., 255., 255., 0., 0., 0., 0., 0., 0., 0., 0., 0., 0.,
          0., 0., 255., 255., 255., 255., 0., 0., 0., 0., 0., 0., 0., 0.,
          0., 0., 0., 0., 255., 255., 255., 255., 0., 0., 0., 0., 0., 0.,
          0., 0., 0., 0., 0., 0., 140., 255., 255., 255., 0., 0., 0., 0.,
          0., 0., 0., 0., 0., 0., 0., 0., 0., 255., 255., 255., 0., 0.,
          0., 0., 0., 0., 0., 0., 0., 0., 0., 0., 0., 255., 255., 255.,
          0., 0., 0., 0., 0., 0., 0., 0., 0., 0., 0., 0., 0., 217., 255.,
          217., 0., 0., 0., 0., 0., 0., 0., 0., 0., 0., 0., 0., 0., 0.,
          255., 0., 0., 0., 0., 0., 0., 0. ]
      - [ 0., 0., 0., 0., 0., 0., 255., 255., 0., 0., 0., 0., 0., 0., 0.,
          0., 0., 0., 0., 0., 0., 0., 255., 255., 217., 217., 0., 0., 0.,
          0., 0., 0., 0., 0., 0., 0., 0., 0., 255., 255., 255., 255., 0.,
          0., 0., 0., 0., 0., 0., 0., 0., 0., 0., 0., 255., 255., 255.,
          89., 0., 0., 0., 0., 0., 0., 0., 0., 0., 0., 0., 0., 255.,
          255., 255., 0., 0., 0., 0., 0., 0., 0., 0., 0., 0., 0., 0., 0.,
          255., 255., 255., 0., 0., 0., 0., 0., 0., 0., 0., 0., 0., 0.,
          0., 0., 255., 255., 255., 0., 0., 0., 0., 0., 0., 0., 0., 0.,
          0., 0., 0., 0., 255., 255., 255., 0., 0., 0., 0., 0., 0., 0.,
          0., 0., 0., 0., 0., 0., 255., 255., 255., 0., 0., 0., 0., 0.,
          0., 0., 0., 0., 0., 0., 0., 0., 242., 255., 255., 13., 0., 0.,
          0., 0., 0., 0., 0., 0., 0., 0., 0., 0., 13., 255., 255., 242.,
          0., 0., 0., 0., 0., 0., 0., 0., 0., 0., 0., 0., 0., 255., 255.,
          255., 0., 0., 0., 0., 0., 0., 0., 0., 0., 0., 0., 0., 0., 255.,
          255., 255., 0., 0., 0., 0., 0., 0., 0., 0., 0., 0., 0., 0., 0.,
          255., 255., 255., 0., 0., 0., 0., 0., 0., 0., 0., 0., 0., 0.,
          0., 0., 255., 255., 255., 0., 0., 0., 0., 0., 0., 0., 0., 0.,
          0., 0., 0., 0., 255., 255., 255., 0., 0., 0., 0., 0., 0., 0.,
          0., 0., 0., 0., 0., 0., 255., 255., 255., 0., 0., 0., 0., 0.,
          0., 0., 0., 0., 0., 0., 0., 0., 255., 255., 191., 0., 0., 0.,
          0., 0., 0., 0., 0., 0., 0., 0., 0., 0., 255., 217., 0., 0., 0.,
          0., 0., 0., 0., 0., 0., 0., 0., 0., 0., 0., 255., 0., 0., 0.,
          0., 0., 0., 0., 0. ]
      - [ 0., 0., 0., 0., 0., 0., 0., 178., 255., 178., 0., 0., 0., 0.,
          0., 0., 0., 0., 0., 0., 0., 0., 179., 232., 255., 232., 179.,
          0., 0., 0., 0., 0., 0., 0., 0., 0., 0., 0., 255., 255., 255.,
          255., 255., 0., 0., 0., 0., 0., 0., 0., 0., 0., 0., 0., 255.,
          255., 255., 232., 179., 0., 0., 0., 0., 0., 0., 0., 0., 0., 0.,
          0., 255., 255., 255., 178., 0., 0., 0., 0., 0., 0., 0., 0., 0.,
          0., 0., 0., 255., 255., 255., 178., 0., 0., 0., 0., 0., 0., 0.,
          0., 0., 0., 0., 0., 255., 255., 255., 179., 0., 0., 0., 0., 0.,
          0., 0., 0., 0., 0., 0., 0., 255., 255., 255., 217., 128., 0.,
          0., 0., 0., 0., 0., 0., 0., 0., 0., 0., 255., 255., 255., 255.,
          255., 0., 0., 0., 0., 0., 0., 0., 0., 0., 0., 0., 255., 255.,
          255., 255., 255., 0., 0., 0., 0., 0., 0., 0., 0., 0., 0., 0.,
          255., 255., 255., 255., 255., 0., 0., 0., 0., 0., 0., 0., 0.,
          0., 0., 0., 255., 255., 255., 201., 76., 0., 0., 0., 0., 0.,
          0., 0., 0., 0., 0., 0., 255., 255., 255., 179., 0., 0., 0., 0.,
          0., 0., 0., 0., 0., 0., 0., 0., 255., 255., 255., 201., 76.,
          0., 0., 0., 0., 0., 0., 0., 0., 0., 0., 0., 255., 255., 255.,
          255., 255., 0., 0., 0., 0., 0., 0., 0., 0., 0., 0., 0., 255.,
          255., 255., 255., 255., 0., 0., 0., 0., 0., 0., 0., 0., 0., 0.,
          0., 255., 255., 255., 255., 255., 0., 0., 0., 0., 0., 0., 0.,
          0., 0., 0., 0., 255., 255., 255., 255., 255., 0., 0., 0., 0.,
          0., 0., 0., 0., 0., 0., 0., 179., 232., 255., 255., 255., 0.,
          0., 0., 0., 0., 0., 0., 0., 0., 0., 0., 0., 178., 255., 255.,
          255., 0., 0., 0., 0., 0. ]
      - [ 0., 0., 0., 0., 0., 0., 0., 178., 255., 178., 0., 0., 0., 0.,
          0., 0., 0., 0., 0., 0., 0., 0., 179., 232., 255., 232., 179.,
          0., 0., 0., 0., 0., 0., 0., 0., 0., 0., 0., 255., 255., 255.,
          255., 255., 0., 0., 0., 0., 0., 0., 0., 0., 0., 0., 0., 255.,
          255., 255., 232., 179., 0., 0., 0., 0., 0., 0., 0., 0., 0., 0.,
          0., 255., 255., 255., 186., 26., 0., 0., 0., 0., 0., 0., 0.,
          0., 0., 0., 0., 255., 255., 255., 247., 229., 0., 0., 0., 0.,
          0., 0., 0., 0., 0., 0., 0., 255., 255., 255., 255., 255., 0.,
          0., 0., 0., 0., 0., 0., 0., 0., 0., 0., 255., 255., 255., 217.,
          128., 0., 0., 0., 0., 0., 0., 0., 0., 0., 0., 0., 255., 255.,
          255., 179., 0., 0., 0., 0., 0., 0., 0., 0., 0., 0., 0., 0.,
          255., 255., 255., 186., 26., 0., 0., 0., 0., 0., 0., 0., 0.,
          0., 0., 0., 255., 255., 255., 247., 229., 0., 0., 0., 0., 0.,
          0., 0., 0., 0., 0., 0., 255., 255., 255., 255., 255., 0., 0.,
          0., 0., 0., 0., 0., 0., 0., 0., 0., 255., 255., 255., 255.,
          255., 0., 0., 0., 0., 0., 0., 0., 0., 0., 0., 0., 255., 255.,
          255., 255., 255., 0., 0., 0., 0., 0., 0., 0., 0., 0., 0., 0.,
          255., 255., 255., 255., 255., 0., 0., 0., 0., 0., 0., 0., 0.,
          0., 0., 0., 255., 255., 255., 255., 255., 0., 0., 0., 0., 0.,
          0., 0., 0., 0., 0., 0., 255., 255., 255., 255., 255., 0., 0.,
          0., 0., 0., 0., 0., 0., 0., 0., 0., 255., 255., 255., 255.,
          255., 0., 0., 0., 0., 0., 0., 0., 0., 0., 0., 0., 179., 232.,
          255., 232., 179., 0., 0., 0., 0., 0., 0., 0., 0., 0., 0., 0.,
          0., 178., 255., 178., 0., 0., 0., 0., 0., 0. ]
      - [ 0., 0., 0., 0., 0., 0., 0., 0., 255., 255., 0., 0., 0., 0., 0.,
          0., 0., 0., 0., 0., 0., 0., 0., 198., 255., 255., 0., 0., 0.,
          0., 0., 0., 0., 0., 0., 0., 0., 0., 0., 255., 255., 255., 0.,
          0., 0., 0., 0., 0., 0., 0., 0., 0., 0., 0., 0., 255., 255.,
          255., 0., 0., 0., 0., 0., 0., 0., 0., 0., 0., 0., 0., 0., 255.,
          255., 255., 0., 0., 0., 0., 0., 0., 0., 0., 0., 0., 0., 0., 0.,
          255., 255., 255., 0., 0., 0., 0., 0., 0., 0., 0., 0., 0., 0.,
          0., 0., 255., 255., 255., 0., 0., 0., 0., 0., 0., 0., 0., 0.,
          0., 0., 0., 0., 255., 255., 255., 0., 0., 0., 0., 0., 0., 0.,
          0., 0., 0., 0., 0., 0., 255., 255., 255., 0., 0., 0., 0., 0.,
          0., 0., 0., 0., 0., 0., 0., 0., 255., 255., 255., 0., 0., 0.,
          0., 0., 0., 0., 0., 0., 0., 0., 0., 0., 255., 255., 255., 0.,
          0., 0., 0., 0., 0., 0., 0., 0., 0., 0., 0., 0., 255., 255.,
          255., 0., 0., 0., 0., 0., 0., 0., 0., 0., 0., 0., 0., 0., 255.,
          255., 255., 0., 0., 0., 0., 0., 0., 0., 0., 0., 0., 0., 0., 0.,
          255., 255., 255., 0., 0., 0., 0., 0., 0., 0., 0., 0., 0., 0.,
          0., 0., 255., 255., 255., 0., 0., 0., 0., 0., 0., 0., 0., 0.,
          0., 0., 0., 0., 255., 255., 255., 0., 0., 0., 0., 0., 0., 0.,
          0., 0., 0., 0., 0., 0., 255., 255., 121., 0., 0., 0., 0., 0.,
          0., 0., 0., 0., 0., 0., 0., 0., 255., 255., 0., 0., 0., 0., 0.,
          0., 0., 0., 0., 0., 0., 0., 0., 0., 255., 198., 0., 0., 0., 0.,
          0., 0., 0., 0., 0., 0., 0., 0., 0., 0., 255., 0., 0., 0., 0.,
          0., 0., 0., 0. ]
      - [ 0., 0., 0., 0., 0., 0., 255., 255., 255., 178., 0., 0., 0., 0.,
          0., 0., 0., 0., 0., 0., 0., 0., 255., 255., 255., 178., 0., 0.,
          0., 0., 0., 0., 0., 0., 0., 0., 0., 0., 255., 255., 255., 178.,
          0., 0., 0., 0., 0., 0., 0., 0., 0., 0., 0., 0., 255., 255.,
          255., 178., 0., 0., 0., 0., 0., 0., 0., 0., 0., 0., 0., 0.,
          255., 255., 255., 178., 0., 0., 0., 0., 0., 0., 0., 0., 0., 0.,
          0., 0., 255., 255., 255., 178., 0., 0., 0., 0., 0., 0., 0., 0.,
          0., 0., 0., 0., 255., 255., 255., 178., 0., 0., 0., 0., 0., 0.,
          0., 0., 0., 0., 0., 0., 255., 255., 255., 178., 0., 0., 0., 0.,
          0., 0., 0., 0., 0., 0., 0., 0., 255., 255., 255., 178., 0., 0.,
          0., 0., 0., 0., 0., 0., 0., 0., 0., 0., 255., 255., 255., 178.,
          0., 0., 0., 0., 0., 0., 0., 0., 0., 0., 0., 0., 255., 255.,
          255., 178., 0., 0., 0., 0., 0., 0., 0., 0., 0., 0., 0., 0.,
          255., 255., 255., 178., 0., 0., 0., 0., 0., 0., 0., 0., 0., 0.,
          0., 0., 255., 255., 255., 178., 0., 0., 0., 0., 0., 0., 0., 0.,
          0., 0., 0., 0., 255., 255., 255., 226., 159., 0., 0., 0., 0.,
          0., 0., 0., 0., 0., 0., 0., 255., 255., 255., 255., 255., 0.,
          0., 0., 0., 0., 0., 0., 0., 0., 0., 0., 255., 255., 255., 255.,
          255., 0., 0., 0., 0., 0., 0., 0., 0., 0., 0., 0., 255., 255.,
          255., 255., 255., 0., 0., 0., 0., 0., 0., 0., 0., 0., 0., 0.,
          255., 255., 255., 255., 255., 0., 0., 0., 0., 0., 0., 0., 0.,
          0., 0., 0., 255., 255., 255., 226., 159., 0., 0., 0., 0., 0.,
          0., 0., 0., 0., 0., 0., 255., 255., 255., 178., 0., 0., 0., 0.,
          0., 0. ]
      - [ 0., 0., 0., 0., 0., 0., 102., 255., 255., 102., 0., 0., 0., 0.,
          0., 0., 0., 0., 0., 0., 0., 0., 255., 255., 255., 255., 0., 0.,
          0., 0., 0., 0., 0., 0., 0., 0., 0., 0., 255., 255., 255., 255.,
          0., 0., 0., 0., 0., 0., 0., 0., 0., 0., 0., 0., 255., 255.,
          255., 255., 0., 0., 0., 0., 0., 0., 0., 0., 0., 0., 0., 0.,
          255., 255., 255., 102., 0., 0., 0., 0., 0., 0., 0., 0., 0., 0.,
          0., 0., 255., 255., 255., 64., 0., 0., 0., 0., 0., 0., 0., 0.,
          0., 0., 0., 0., 255., 255., 255., 64., 0., 0., 0., 0., 0., 0.,
          0., 0., 0., 0., 0., 0., 255., 255., 255., 255., 0., 0., 0., 0.,
          0., 0., 0., 0., 0., 0., 0., 0., 255., 255., 255., 255., 0., 0.,
          0., 0., 0., 0., 0., 0., 0., 0., 0., 0., 255., 255., 255., 102.,
          0., 0., 0., 0., 0., 0., 0., 0., 0., 0., 0., 0., 255., 255.,
          242., 51., 0., 0., 0., 0., 0., 0., 0., 0., 0., 0., 0., 0.,
          102., 102., 76., 0., 0., 0., 0., 0., 0., 0., 0., 0., 0., 0.,
          0., 0., 0., 0., 0., 0., 0., 0., 0., 0., 0., 0., 0., 0., 0., 0.,
          0., 0., 0., 0., 0., 0., 0., 0., 0., 0., 0., 0., 0., 0., 0., 0.,
          0., 0., 0., 0., 0., 0., 0., 0., 0., 0., 0., 0., 0., 0., 0., 0.,
          0., 0., 51., 51., 38., 0., 0., 0., 0., 0., 0., 0., 0., 0., 0.,
          0., 0., 0., 255., 255., 230., 38., 0., 0., 0., 0., 0., 0., 0.,
          0., 0., 0., 0., 0., 255., 255., 255., 255., 0., 0., 0., 0., 0.,
          0., 0., 0., 0., 0., 0., 0., 179., 255., 230., 153., 0., 0., 0.,
          0., 0., 0., 0., 0., 0., 0., 0., 0., 64., 255., 191., 0., 0.,
          0., 0., 0., 0., 0. ]
      - [ 0., 0., 0., 0., 0., 0., 0., 159., 255., 255., 0., 0., 0., 0.,
          0., 0., 0., 0., 0., 0., 0., 0., 140., 212., 255., 255., 0., 0.,
          0., 0., 0., 0., 0., 0., 0., 0., 0., 0., 191., 231., 255., 255.,
          0., 0., 0., 0., 0., 0., 0., 0., 0., 0., 0., 0., 13., 164.,
          255., 255., 0., 0., 0., 0., 0., 0., 0., 0., 0., 0., 0., 0., 0.,
          159., 255., 255., 0., 0., 0., 0., 0., 0., 0., 0., 0., 0., 0.,
          0., 0., 159., 255., 255., 0., 0., 0., 0., 0., 0., 0., 0., 0.,
          0., 0., 0., 0., 159., 255., 255., 0., 0., 0., 0., 0., 0., 0.,
          0., 0., 0., 0., 0., 0., 159., 255., 255., 0., 0., 0., 0., 0.,
          0., 0., 0., 0., 0., 0., 0., 0., 159., 255., 255., 0., 0., 0.,
          0., 0., 0., 0., 0., 0., 0., 0., 0., 0., 159., 255., 255., 0.,
          0., 0., 0., 0., 0., 0., 0., 0., 0., 0., 0., 0., 159., 255.,
          255., 0., 0., 0., 0., 0., 0., 0., 0., 0., 0., 0., 0., 140.,
          212., 255., 255., 0., 0., 0., 0., 0., 0., 0., 0., 0., 0., 0.,
          0., 255., 255., 231., 191., 0., 0., 0., 0., 0., 0., 0., 0., 0.,
          0., 0., 0., 255., 255., 164., 13., 0., 0., 0., 0., 0., 0., 0.,
          0., 0., 0., 0., 0., 255., 255., 159., 0., 0., 0., 0., 0., 0.,
          0., 0., 0., 0., 0., 0., 0., 255., 255., 159., 0., 0., 0., 0.,
          0., 0., 0., 0., 0., 0., 0., 0., 0., 255., 255., 164., 13., 0.,
          0., 0., 0., 0., 0., 0., 0., 0., 0., 0., 0., 255., 255., 231.,
          191., 0., 0., 0., 0., 0., 0., 0., 0., 0., 0., 0., 0., 255.,
          255., 255., 255., 0., 0., 0., 0., 0., 0., 0., 0., 0., 0., 0.,
          0., 255., 255., 255., 255., 0., 0., 0., 0., 0., 0. ]
      - [ 0., 0., 0., 0., 0., 0., 255., 255., 255., 32., 0., 0., 0., 0.,
          0., 0., 0., 0., 0., 0., 0., 0., 255., 255., 255., 32., 0., 0.,
          0., 0., 0., 0., 0., 0., 0., 0., 0., 0., 255., 255., 255., 32.,
          0., 0., 0., 0., 0., 0., 0., 0., 0., 0., 0., 0., 255., 255.,
          255., 32., 0., 0., 0., 0., 0., 0., 0., 0., 0., 0., 0., 0.,
          255., 255., 255., 32., 0., 0., 0., 0., 0., 0., 0., 0., 0., 0.,
          0., 0., 255., 255., 255., 32., 0., 0., 0., 0., 0., 0., 0., 0.,
          0., 0., 0., 0., 255., 255., 255., 32., 0., 0., 0., 0., 0., 0.,
          0., 0., 0., 0., 0., 0., 255., 255., 255., 32., 0., 0., 0., 0.,
          0., 0., 0., 0., 0., 0., 0., 0., 255., 255., 255., 93., 0., 0.,
          0., 0., 0., 0., 0., 0., 0., 0., 0., 0., 255., 255., 255., 255.,
          0., 0., 0., 0., 0., 0., 0., 0., 0., 0., 0., 0., 255., 255.,
          255., 255., 0., 0., 0., 0., 0., 0., 0., 0., 0., 0., 0., 0.,
          255., 255., 255., 93., 0., 0., 0., 0., 0., 0., 0., 0., 0., 0.,
          0., 0., 255., 255., 255., 32., 0., 0., 0., 0., 0., 0., 0., 0.,
          0., 0., 0., 0., 255., 255., 255., 37., 0., 0., 0., 0., 0., 0.,
          0., 0., 0., 0., 0., 0., 255., 255., 255., 255., 0., 0., 0., 0.,
          0., 0., 0., 0., 0., 0., 0., 0., 255., 255., 255., 255., 0., 0.,
          0., 0., 0., 0., 0., 0., 0., 0., 0., 0., 255., 255., 255., 255.,
          0., 0., 0., 0., 0., 0., 0., 0., 0., 0., 0., 0., 255., 255.,
          255., 255., 0., 0., 0., 0., 0., 0., 0., 0., 0., 0., 0., 0.,
          255., 255., 255., 255., 0., 0., 0., 0., 0., 0., 0., 0., 0., 0.,
          0., 0., 49., 255., 255., 49., 0., 0., 0., 0., 0., 0. ]
      - [ 0., 0., 0., 0., 0., 255., 255., 255., 255., 255., 109., 0., 0.,
          0., 0., 0., 0., 0., 0., 0., 0., 255., 255., 255., 255., 255.,
          109., 0., 0., 0., 0., 0., 0., 0., 0., 0., 0., 255., 255., 255.,
          255., 255., 182., 18., 0., 0., 0., 0., 0., 0., 0., 0., 0.,
          255., 255., 255., 255., 255., 255., 36., 0., 0., 0., 0., 0.,
          0., 0., 0., 0., 255., 255., 255., 255., 255., 255., 36., 0.,
          0., 0., 0., 0., 0., 0., 0., 0., 0., 0., 182., 255., 255., 255.,
          36., 0., 0., 0., 0., 0., 0., 0., 0., 0., 0., 0., 182., 255.,
          255., 255., 36., 0., 0., 0., 0., 0., 0., 0., 0., 0., 0., 0.,
          182., 255., 255., 255., 36., 0., 0., 0., 0., 0., 0., 0., 0.,
          0., 0., 0., 182., 255., 255., 255., 36., 0., 0., 0., 0., 0.,
          0., 0., 0., 0., 0., 0., 182., 255., 255., 255., 36., 0., 0.,
          0., 0., 0., 0., 0., 0., 0., 0., 0., 182., 255., 255., 255.,
          58., 0., 0., 0., 0., 0., 0., 0., 0., 0., 0., 0., 182., 255.,
          255., 255., 255., 0., 0., 0., 0., 0., 0., 0., 0., 0., 0., 0.,
          91., 255., 255., 255., 255., 0., 0., 0., 0., 0., 0., 0., 0.,
          0., 0., 0., 128., 255., 255., 255., 255., 0., 0., 0., 0., 0.,
          0., 0., 0., 0., 0., 0., 182., 255., 255., 255., 255., 0., 0.,
          0., 0., 0., 0., 0., 0., 0., 0., 0., 0., 255., 255., 255., 255.,
          0., 0., 0., 0., 0., 0., 0., 0., 0., 0., 0., 0., 255., 255.,
          255., 255., 0., 0., 0., 0., 0., 0., 0., 0., 0., 0., 0., 0.,
          255., 255., 255., 255., 0., 0., 0., 0., 0., 0., 0., 0., 0., 0.,
          0., 0., 255., 255., 255., 255., 0., 0., 0., 0., 0., 0., 0., 0.,
          0., 0., 0., 0., 26., 255., 255., 255., 0., 0., 0., 0. ]
      - [ 0., 0., 0., 19., 218., 68., 255., 255., 255., 255., 255., 255.,
          19., 0., 0., 0., 0., 0., 0., 255., 255., 255., 255., 255.,
          255., 255., 255., 255., 255., 0., 0., 0., 0., 0., 0., 255.,
          255., 255., 255., 255., 237., 223., 223., 250., 255., 0., 0.,
          0., 0., 0., 0., 212., 255., 255., 255., 255., 115., 0., 0.,
          217., 255., 0., 0., 0., 0., 0., 0., 10., 198., 212., 255.,
          229., 89., 0., 43., 225., 255., 0., 0., 0., 0., 0., 0., 0., 0.,
          64., 255., 140., 0., 0., 191., 255., 255., 0., 0., 0., 0., 0.,
          0., 0., 0., 43., 172., 95., 0., 0., 191., 255., 255., 0., 0.,
          0., 0., 0., 0., 0., 0., 0., 0., 0., 0., 62., 215., 255., 255.,
          0., 0., 0., 0., 0., 0., 0., 0., 0., 0., 0., 60., 204., 255.,
          255., 152., 0., 0., 0., 0., 0., 0., 0., 0., 0., 0., 55., 195.,
          255., 255., 152., 7., 0., 0., 0., 0., 0., 0., 0., 0., 0., 47.,
          188., 255., 255., 154., 18., 0., 0., 0., 0., 0., 0., 0., 0.,
          0., 37., 184., 255., 255., 255., 64., 0., 0., 0., 0., 0., 0.,
          0., 0., 0., 24., 183., 255., 255., 255., 151., 24., 0., 0., 0.,
          0., 0., 0., 0., 0., 0., 38., 255., 255., 255., 160., 29., 0.,
          0., 0., 0., 0., 0., 0., 0., 0., 9., 195., 255., 255., 172.,
          32., 0., 0., 0., 0., 0., 0., 0., 0., 0., 0., 200., 255., 255.,
          255., 229., 89., 0., 0., 168., 10., 0., 0., 0., 0., 0., 0.,
          255., 255., 255., 255., 255., 230., 210., 210., 248., 213., 0.,
          0., 0., 0., 0., 0., 255., 255., 255., 255., 255., 255., 255.,
          255., 255., 255., 0., 0., 0., 0., 0., 0., 255., 255., 255.,
          255., 255., 255., 255., 255., 255., 255., 0., 0., 0., 0., 0.,
          0., 255., 255., 255., 255., 255., 255., 255., 255., 255., 19.,
          0., 0., 0. ]
      - [ 0., 0., 0., 0., 1., 6., 85., 255., 255., 255., 255., 255., 40.,
          0., 0., 0., 0., 0., 0., 19., 51., 255., 255., 255., 255., 255.,
          255., 255., 255., 30., 0., 0., 0., 0., 0., 255., 255., 255.,
          255., 255., 255., 255., 255., 255., 255., 255., 0., 0., 0., 0.,
          0., 255., 255., 255., 241., 210., 210., 210., 241., 255., 255.,
          255., 0., 0., 0., 0., 0., 198., 198., 198., 135., 0., 0., 0.,
          174., 255., 255., 255., 0., 0., 0., 0., 0., 0., 0., 0., 0., 0.,
          0., 0., 174., 255., 255., 255., 0., 0., 0., 0., 0., 0., 0., 0.,
          0., 0., 0., 0., 174., 255., 255., 255., 0., 0., 0., 0., 0., 0.,
          0., 0., 0., 0., 0., 0., 174., 255., 255., 255., 0., 0., 0., 0.,
          0., 0., 0., 0., 0., 0., 54., 108., 208., 255., 255., 152., 0.,
          0., 0., 0., 0., 0., 0., 0., 0., 0., 127., 255., 255., 255.,
          150., 6., 0., 0., 0., 0., 0., 0., 0., 0., 43., 134., 194.,
          255., 255., 255., 35., 0., 0., 0., 0., 0., 0., 0., 0., 33.,
          181., 255., 255., 255., 255., 142., 15., 0., 0., 0., 0., 0.,
          0., 0., 22., 181., 255., 255., 255., 255., 146., 22., 0., 0.,
          0., 0., 0., 0., 0., 0., 35., 255., 255., 255., 169., 83., 26.,
          0., 0., 0., 0., 0., 0., 0., 0., 8., 194., 255., 255., 255.,
          127., 0., 0., 0., 0., 0., 0., 0., 0., 0., 0., 200., 255., 255.,
          255., 255., 226., 198., 198., 198., 27., 0., 0., 0., 0., 0.,
          0., 255., 255., 255., 255., 255., 255., 255., 255., 255., 216.,
          210., 0., 0., 0., 0., 0., 255., 255., 255., 255., 255., 255.,
          255., 255., 255., 255., 255., 0., 0., 0., 0., 0., 255., 255.,
          255., 255., 255., 255., 255., 255., 255., 255., 255., 0., 0.,
          0., 0., 0., 255., 255., 255., 255., 255., 131., 153., 255.,
          255., 40., 6., 0., 0. ]
      - [ 0., 0., 2., 78., 255., 255., 255., 255., 255., 255., 255.,
          117., 5., 0., 0., 0., 0., 0., 74., 255., 255., 255., 255.,
          255., 255., 255., 255., 255., 107., 5., 0., 0., 0., 0., 255.,
          255., 255., 255., 255., 255., 255., 255., 255., 255., 255.,
          109., 0., 0., 0., 0., 255., 255., 255., 255., 255., 132., 121.,
          154., 255., 255., 255., 255., 0., 0., 0., 0., 255., 255., 255.,
          255., 126., 7., 0., 21., 155., 255., 255., 255., 0., 0., 0.,
          0., 45., 45., 45., 45., 11., 0., 0., 0., 106., 255., 255., 62.,
          0., 0., 0., 0., 0., 0., 0., 0., 0., 0., 0., 62., 251., 255.,
          255., 249., 0., 0., 0., 0., 0., 0., 0., 0., 0., 0., 3., 88.,
          255., 255., 255., 255., 0., 0., 0., 0., 0., 0., 0., 0., 0., 0.,
          85., 255., 255., 255., 255., 191., 0., 0., 0., 0., 0., 0., 0.,
          0., 0., 99., 255., 255., 255., 255., 174., 12., 0., 0., 0., 0.,
          0., 0., 0., 0., 110., 246., 255., 255., 255., 255., 64., 0.,
          0., 0., 0., 0., 0., 0., 0., 108., 237., 255., 255., 255., 255.,
          147., 18., 0., 0., 0., 0., 0., 0., 0., 93., 242., 255., 255.,
          255., 199., 32., 13., 0., 0., 0., 0., 0., 0., 0., 64., 255.,
          255., 255., 255., 228., 0., 0., 0., 0., 0., 0., 0., 0., 0., 4.,
          97., 255., 255., 255., 255., 41., 0., 0., 26., 45., 4., 0., 0.,
          0., 0., 97., 255., 255., 255., 255., 255., 240., 83., 83.,
          183., 255., 97., 0., 0., 0., 0., 144., 255., 255., 255., 255.,
          255., 255., 255., 255., 255., 255., 255., 0., 0., 0., 0., 21.,
          255., 255., 255., 255., 255., 255., 255., 255., 255., 255.,
          255., 0., 0., 0., 0., 21., 255., 255., 255., 255., 255., 255.,
          255., 255., 255., 255., 255., 0., 0., 0., 0., 237., 255., 255.,
          255., 255., 255., 255., 255., 255., 255., 255., 255., 0., 0. ]
      - [ 0., 0., 0., 1., 6., 79., 255., 255., 255., 255., 255., 58., 1.,
          0., 0., 0., 0., 0., 1., 48., 255., 255., 255., 255., 255.,
          255., 255., 255., 49., 1., 0., 0., 0., 0., 41., 255., 255.,
          255., 255., 255., 255., 255., 255., 255., 255., 11., 0., 0.,
          0., 0., 255., 255., 255., 255., 255., 255., 231., 238., 255.,
          255., 255., 11., 0., 0., 0., 0., 255., 255., 255., 238., 198.,
          198., 91., 124., 238., 255., 255., 66., 0., 0., 0., 0., 185.,
          185., 185., 131., 0., 0., 0., 0., 181., 255., 255., 255., 0.,
          0., 0., 0., 0., 0., 0., 0., 0., 0., 0., 0., 181., 255., 255.,
          255., 0., 0., 0., 0., 0., 0., 0., 0., 0., 0., 0., 60., 209.,
          255., 255., 255., 0., 0., 0., 0., 0., 0., 0., 0., 0., 0., 0.,
          159., 255., 255., 255., 255., 0., 0., 0., 0., 0., 0., 0., 0.,
          0., 56., 121., 205., 255., 255., 255., 139., 0., 0., 0., 0.,
          0., 0., 0., 0., 50., 189., 255., 255., 255., 255., 138., 5.,
          0., 0., 0., 0., 0., 0., 0., 43., 187., 255., 255., 255., 255.,
          139., 14., 0., 0., 0., 0., 0., 0., 0., 33., 187., 255., 255.,
          255., 155., 96., 20., 0., 0., 0., 0., 0., 0., 0., 22., 189.,
          255., 255., 255., 162., 31., 0., 0., 0., 0., 0., 0., 0., 0.,
          0., 32., 255., 255., 255., 255., 117., 0., 0., 0., 0., 0., 0.,
          0., 0., 0., 8., 205., 255., 255., 255., 255., 117., 124., 198.,
          198., 198., 8., 0., 0., 0., 0., 10., 255., 255., 255., 255.,
          255., 231., 238., 255., 255., 255., 212., 0., 0., 0., 0., 224.,
          255., 255., 255., 255., 255., 255., 255., 255., 255., 255.,
          255., 0., 0., 0., 0., 255., 255., 255., 255., 255., 255., 255.,
          255., 255., 255., 255., 255., 0., 0., 0., 0., 17., 255., 255.,
          255., 255., 255., 255., 99., 183., 255., 255., 17., 0., 0. ]
      - [ 0., 0., 5., 32., 218., 255., 255., 255., 255., 143., 32., 0.,
          0., 0., 0., 0., 0., 0., 122., 255., 255., 255., 255., 255.,
          255., 255., 255., 96., 48., 0., 0., 0., 0., 0., 255., 255.,
          255., 255., 255., 255., 255., 255., 255., 255., 207., 27., 0.,
          0., 0., 0., 255., 255., 255., 255., 255., 255., 255., 255.,
          255., 255., 255., 42., 0., 0., 0., 0., 228., 255., 255., 255.,
          127., 186., 228., 255., 255., 255., 255., 228., 0., 0., 0., 0.,
          27., 159., 159., 159., 80., 0., 27., 207., 255., 255., 255.,
          42., 0., 0., 0., 0., 0., 0., 0., 0., 0., 0., 0., 127., 255.,
          255., 255., 42., 0., 0., 0., 0., 0., 0., 0., 0., 0., 0., 0.,
          127., 255., 255., 255., 42., 0., 0., 0., 0., 0., 0., 0., 0.,
          0., 0., 32., 143., 255., 255., 255., 228., 0., 0., 0., 0., 0.,
          0., 0., 0., 0., 80., 255., 255., 255., 255., 255., 42., 0., 0.,
          0., 0., 0., 0., 0., 0., 80., 239., 255., 255., 255., 255.,
          255., 42., 0., 0., 0., 0., 0., 0., 0., 37., 239., 255., 255.,
          255., 255., 255., 255., 42., 0., 0., 0., 0., 0., 16., 218.,
          255., 255., 255., 255., 255., 228., 37., 223., 37., 0., 0., 0.,
          0., 16., 175., 255., 255., 255., 255., 239., 159., 27., 0., 0.,
          0., 0., 0., 0., 0., 175., 255., 255., 255., 255., 255., 80.,
          0., 0., 0., 0., 0., 0., 0., 0., 0., 255., 255., 255., 255.,
          255., 255., 0., 0., 0., 0., 0., 0., 0., 0., 0., 0., 255., 255.,
          255., 255., 255., 255., 255., 255., 255., 255., 255., 255., 0.,
          0., 0., 0., 255., 255., 255., 255., 255., 255., 255., 255.,
          255., 255., 255., 255., 0., 0., 0., 0., 255., 255., 255., 255.,
          255., 255., 255., 255., 255., 255., 255., 255., 0., 0., 0., 0.,
          255., 255., 255., 255., 255., 255., 255., 255., 255., 255.,
          255., 69., 0., 0. ]
      - [ 0., 0., 0., 28., 45., 141., 255., 255., 255., 255., 255., 255.,
          45., 9., 0., 0., 0., 0., 134., 209., 255., 255., 255., 255.,
          255., 255., 255., 255., 255., 159., 0., 0., 0., 0., 255., 255.,
          255., 255., 255., 255., 255., 255., 255., 255., 255., 255., 0.,
          0., 0., 0., 255., 255., 255., 255., 255., 198., 198., 255.,
          255., 255., 255., 255., 0., 0., 0., 0., 139., 255., 255., 188.,
          108., 0., 0., 127., 255., 255., 255., 255., 0., 0., 0., 0., 4.,
          19., 19., 10., 0., 0., 0., 32., 255., 255., 255., 255., 0., 0.,
          0., 0., 0., 0., 0., 0., 0., 0., 0., 32., 255., 255., 255.,
          255., 0., 0., 0., 0., 0., 0., 0., 0., 0., 0., 0., 32., 255.,
          255., 255., 255., 0., 0., 0., 0., 0., 0., 0., 0., 0., 0., 0.,
          249., 255., 255., 255., 58., 0., 0., 0., 0., 0., 0., 0., 0.,
          0., 74., 255., 255., 255., 255., 172., 238., 0., 0., 0., 0.,
          0., 0., 0., 0., 0., 196., 255., 255., 255., 255., 0., 66., 0.,
          0., 0., 0., 0., 0., 0., 3., 224., 255., 255., 255., 252., 10.,
          0., 0., 0., 0., 0., 0., 0., 0., 4., 169., 255., 255., 255.,
          243., 73., 0., 0., 0., 0., 0., 0., 0., 0., 0., 10., 255., 255.,
          255., 255., 61., 0., 0., 0., 0., 0., 0., 0., 0., 0., 0., 255.,
          255., 255., 255., 74., 0., 0., 18., 12., 0., 0., 0., 0., 0.,
          0., 0., 255., 255., 255., 223., 43., 0., 59., 249., 200., 23.,
          0., 0., 0., 0., 0., 124., 255., 255., 255., 238., 198., 198.,
          229., 255., 255., 53., 0., 0., 0., 0., 53., 255., 255., 255.,
          255., 255., 255., 255., 255., 255., 255., 255., 0., 0., 0., 0.,
          149., 255., 255., 255., 255., 255., 255., 255., 255., 255.,
          255., 159., 0., 0., 0., 0., 255., 255., 255., 255., 255., 255.,
          255., 255., 255., 255., 255., 220., 0., 0. ]
      - [ 0., 0., 0., 0., 11., 26., 37., 255., 255., 255., 198., 11., 0.,
          0., 0., 0., 0., 0., 0., 76., 157., 255., 255., 255., 255.,
          255., 255., 157., 11., 0., 0., 0., 0., 0., 0., 255., 255.,
          255., 255., 255., 255., 255., 255., 255., 147., 0., 0., 0., 0.,
          0., 0., 255., 255., 255., 255., 192., 76., 246., 255., 255.,
          255., 0., 0., 0., 0., 0., 0., 255., 255., 83., 26., 17., 0.,
          24., 255., 255., 255., 0., 0., 0., 0., 0., 0., 0., 0., 0., 0.,
          0., 0., 0., 83., 255., 255., 0., 0., 0., 0., 0., 0., 0., 0.,
          0., 0., 0., 0., 0., 255., 255., 255., 0., 0., 0., 0., 0., 0.,
          0., 0., 0., 0., 0., 0., 0., 255., 255., 255., 0., 0., 0., 0.,
          0., 0., 0., 0., 0., 0., 0., 0., 170., 255., 255., 255., 0., 0.,
          0., 0., 0., 0., 0., 0., 0., 0., 0., 0., 242., 255., 255., 60.,
          0., 0., 0., 0., 0., 0., 0., 0., 0., 1., 106., 255., 255., 255.,
          241., 34., 0., 0., 0., 0., 0., 0., 0., 0., 0., 85., 255., 255.,
          255., 236., 80., 0., 0., 0., 0., 0., 0., 0., 0., 0., 96., 255.,
          255., 255., 134., 96., 0., 0., 0., 0., 0., 0., 0., 0., 0., 80.,
          236., 255., 255., 139., 4., 0., 0., 0., 0., 0., 0., 0., 0., 0.,
          0., 115., 255., 255., 175., 9., 0., 0., 0., 0., 0., 0., 0., 0.,
          0., 0., 38., 255., 255., 244., 17., 0., 0., 0., 0., 0., 0., 0.,
          0., 0., 0., 0., 103., 255., 255., 255., 192., 27., 73., 76.,
          76., 76., 0., 0., 0., 0., 0., 0., 255., 255., 255., 255., 255.,
          172., 249., 255., 255., 255., 0., 0., 0., 0., 0., 0., 255.,
          255., 255., 255., 255., 255., 255., 255., 255., 255., 0., 0.,
          0., 0., 0., 0., 255., 255., 255., 255., 255., 255., 255., 255.,
          255., 255., 0., 0., 0. ]
      - [ 0., 0., 0., 255., 255., 255., 255., 255., 255., 255., 57., 8.,
          0., 0., 0., 0., 0., 0., 0., 122., 255., 255., 255., 255., 255.,
          255., 255., 183., 117., 0., 0., 0., 0., 0., 0., 255., 255.,
          255., 255., 255., 255., 255., 255., 255., 184., 7., 0., 0., 0.,
          0., 0., 255., 255., 255., 255., 108., 108., 108., 168., 255.,
          255., 58., 0., 0., 0., 0., 0., 249., 249., 249., 249., 0., 0.,
          0., 104., 255., 255., 58., 0., 0., 0., 0., 0., 0., 0., 0., 0.,
          0., 0., 0., 104., 255., 255., 58., 0., 0., 0., 0., 0., 0., 0.,
          0., 0., 0., 0., 0., 104., 255., 255., 58., 0., 0., 0., 0., 0.,
          0., 0., 0., 0., 0., 0., 0., 161., 255., 174., 0., 0., 0., 0.,
          0., 0., 0., 0., 0., 0., 0., 0., 0., 255., 255., 174., 0., 0.,
          0., 0., 0., 0., 0., 0., 0., 0., 0., 35., 246., 255., 255.,
          174., 0., 0., 0., 0., 0., 0., 143., 0., 0., 0., 8., 220., 255.,
          255., 255., 48., 0., 0., 0., 0., 0., 0., 163., 0., 6., 45.,
          255., 255., 255., 237., 29., 0., 0., 0., 0., 0., 0., 0., 0.,
          0., 172., 255., 255., 255., 255., 56., 0., 0., 0., 0., 0., 0.,
          0., 0., 58., 255., 255., 255., 255., 245., 11., 0., 0., 0., 0.,
          0., 0., 0., 0., 0., 161., 255., 255., 255., 255., 127., 0., 0.,
          0., 0., 0., 0., 0., 0., 0., 0., 255., 255., 255., 255., 255.,
          252., 249., 0., 0., 0., 0., 0., 0., 0., 0., 0., 255., 255.,
          255., 255., 255., 255., 255., 255., 255., 255., 255., 0., 0.,
          0., 0., 0., 255., 255., 255., 255., 255., 255., 255., 255.,
          255., 255., 255., 0., 0., 0., 0., 0., 255., 255., 255., 255.,
          255., 255., 255., 255., 255., 255., 255., 0., 0., 0., 0., 0.,
          255., 120., 84., 255., 255., 255., 255., 255., 255., 255.,
          255., 0., 0. ]
      - [ 0., 0., 153., 255., 255., 255., 255., 255., 255., 255., 255.,
          255., 255., 255., 153., 0., 0., 0., 153., 208., 115., 115.,
          115., 115., 115., 115., 115., 143., 246., 255., 209., 140., 0.,
          0., 115., 127., 0., 0., 0., 0., 0., 0., 0., 51., 238., 255.,
          255., 255., 0., 0., 8., 8., 0., 0., 0., 0., 0., 0., 0., 51.,
          238., 255., 255., 255., 0., 0., 0., 0., 0., 0., 0., 0., 0., 0.,
          0., 51., 238., 255., 255., 255., 0., 0., 0., 0., 0., 0., 0.,
          0., 0., 0., 42., 122., 244., 255., 219., 166., 0., 0., 0., 0.,
          0., 0., 0., 3., 13., 13., 126., 255., 255., 247., 145., 0., 0.,
          0., 0., 0., 0., 0., 0., 51., 191., 191., 221., 255., 255.,
          128., 38., 0., 0., 0., 0., 0., 0., 0., 0., 68., 255., 255.,
          255., 255., 255., 85., 0., 0., 0., 0., 0., 0., 0., 0., 20.,
          96., 255., 255., 255., 247., 219., 72., 0., 0., 0., 0., 0., 0.,
          0., 0., 116., 227., 255., 255., 255., 211., 52., 13., 0., 0.,
          0., 0., 0., 0., 9., 112., 201., 255., 255., 255., 190., 92.,
          8., 0., 0., 0., 0., 0., 38., 64., 77., 217., 255., 238., 191.,
          191., 102., 0., 0., 0., 0., 0., 0., 0., 145., 242., 243., 252.,
          255., 190., 13., 13., 7., 0., 0., 0., 0., 0., 0., 0., 153.,
          255., 255., 255., 255., 187., 0., 0., 0., 0., 0., 0., 0., 0.,
          0., 89., 189., 255., 255., 255., 255., 187., 0., 0., 0., 0.,
          0., 0., 0., 0., 0., 255., 255., 255., 255., 255., 255., 190.,
          13., 13., 13., 13., 13., 4., 0., 0., 0., 255., 255., 255.,
          255., 255., 255., 238., 191., 191., 191., 191., 191., 64., 0.,
          0., 0., 255., 255., 255., 255., 255., 255., 255., 255., 255.,
          255., 255., 255., 162., 69., 0., 0., 255., 255., 255., 255.,
          255., 255., 255., 255., 255., 255., 255., 255., 255., 153., 0. ]
      - [ 0., 0., 0., 255., 255., 255., 255., 255., 255., 255., 191., 0.,
          0., 0., 0., 0., 0., 0., 0., 255., 255., 255., 255., 255., 255.,
          255., 241., 168., 0., 0., 0., 0., 0., 0., 0., 255., 255., 255.,
          255., 255., 255., 255., 255., 241., 159., 0., 0., 0., 0., 0.,
          0., 255., 255., 255., 176., 134., 188., 255., 255., 255., 255.,
          0., 0., 0., 0., 0., 0., 255., 255., 193., 60., 0., 77., 201.,
          255., 255., 255., 0., 0., 0., 0., 0., 0., 255., 217., 53., 0.,
          0., 0., 89., 255., 255., 255., 0., 0., 0., 0., 0., 0., 255.,
          44., 2., 0., 0., 3., 93., 255., 255., 255., 0., 0., 0., 0., 0.,
          0., 255., 228., 56., 0., 0., 100., 234., 255., 255., 255., 0.,
          0., 0., 0., 0., 0., 70., 70., 18., 0., 102., 216., 255., 255.,
          227., 70., 0., 0., 0., 0., 0., 0., 0., 0., 0., 0., 140., 255.,
          255., 255., 217., 0., 0., 0., 0., 0., 0., 0., 0., 0., 81.,
          108., 189., 255., 255., 228., 125., 0., 0., 0., 0., 0., 0., 0.,
          0., 0., 191., 255., 255., 255., 230., 139., 0., 0., 0., 0., 0.,
          0., 0., 0., 0., 0., 191., 255., 255., 255., 166., 0., 0., 0.,
          0., 0., 0., 0., 0., 0., 0., 0., 191., 255., 255., 255., 166.,
          0., 0., 0., 0., 0., 0., 0., 0., 0., 210., 210., 244., 255.,
          255., 160., 29., 0., 0., 0., 0., 0., 0., 0., 0., 0., 255.,
          255., 255., 255., 255., 218., 172., 172., 146., 0., 0., 0., 0.,
          0., 0., 0., 255., 255., 255., 255., 255., 255., 255., 255.,
          237., 134., 0., 0., 0., 0., 0., 0., 255., 255., 255., 255.,
          255., 255., 255., 255., 255., 255., 0., 0., 0., 0., 0., 0.,
          255., 255., 255., 255., 255., 255., 255., 255., 255., 255., 0.,
          0., 0., 0., 0., 0., 255., 255., 255., 255., 255., 255., 255.,
          255., 255., 255., 0., 0., 0. ]
      - [ 0., 0., 0., 0., 1., 6., 85., 255., 255., 255., 255., 63., 1.,
          0., 0., 0., 0., 0., 0., 19., 51., 255., 255., 255., 255., 255.,
          255., 255., 51., 1., 0., 0., 0., 0., 0., 255., 255., 255.,
          255., 255., 255., 255., 255., 255., 255., 42., 0., 0., 0., 0.,
          0., 255., 255., 255., 255., 237., 210., 237., 255., 255., 255.,
          255., 0., 0., 0., 0., 0., 252., 205., 242., 198., 117., 0.,
          117., 237., 255., 255., 255., 0., 0., 0., 0., 0., 176., 25.,
          143., 0., 0., 0., 0., 126., 239., 255., 255., 0., 0., 0., 0.,
          0., 0., 0., 0., 0., 0., 0., 0., 57., 216., 255., 255., 0., 0.,
          0., 0., 0., 0., 0., 0., 0., 0., 0., 56., 204., 255., 255.,
          255., 0., 0., 0., 0., 0., 0., 0., 0., 0., 0., 0., 150., 255.,
          255., 255., 255., 0., 0., 0., 0., 0., 0., 0., 0., 0., 0., 61.,
          200., 255., 255., 255., 139., 0., 0., 0., 0., 0., 0., 0., 0.,
          43., 134., 194., 255., 255., 152., 121., 6., 0., 0., 0., 0.,
          0., 0., 0., 0., 81., 255., 255., 255., 255., 58., 0., 0., 0.,
          0., 0., 0., 0., 0., 22., 159., 190., 255., 255., 255., 146.,
          22., 0., 0., 0., 0., 0., 0., 0., 0., 35., 255., 255., 255.,
          255., 153., 26., 0., 0., 0., 0., 0., 0., 0., 0., 8., 194.,
          255., 255., 255., 162., 29., 0., 0., 0., 0., 0., 0., 0., 0.,
          0., 11., 255., 255., 255., 255., 226., 81., 135., 198., 198.,
          9., 0., 0., 0., 0., 0., 12., 255., 255., 255., 255., 255.,
          228., 241., 255., 255., 212., 0., 0., 0., 0., 0., 224., 255.,
          255., 255., 255., 255., 255., 255., 255., 255., 255., 0., 0.,
          0., 0., 0., 255., 255., 255., 255., 255., 255., 255., 255.,
          255., 255., 255., 0., 0., 0., 0., 0., 255., 255., 255., 255.,
          255., 255., 255., 255., 255., 255., 18., 0., 0. ]
      - [ 0., 0., 0., 4., 19., 146., 255., 255., 255., 255., 255., 255.,
          110., 4., 0., 0., 0., 0., 4., 103., 255., 255., 255., 255.,
          255., 255., 255., 255., 255., 103., 4., 0., 0., 0., 20., 255.,
          255., 255., 255., 255., 255., 255., 255., 255., 255., 255.,
          108., 0., 0., 0., 9., 152., 255., 255., 255., 255., 255., 142.,
          255., 255., 255., 255., 255., 0., 0., 0., 0., 19., 149., 162.,
          83., 83., 83., 13., 83., 162., 255., 255., 255., 0., 0., 0.,
          0., 0., 17., 21., 0., 0., 0., 0., 0., 118., 255., 255., 255.,
          0., 0., 0., 0., 0., 0., 0., 0., 0., 0., 0., 76., 251., 255.,
          255., 26., 0., 0., 0., 0., 0., 0., 0., 0., 0., 0., 5., 100.,
          255., 255., 255., 20., 0., 0., 0., 0., 0., 0., 0., 0., 0., 0.,
          98., 255., 255., 255., 201., 14., 0., 0., 0., 0., 0., 0., 0.,
          0., 0., 108., 255., 255., 255., 255., 59., 0., 0., 0., 0., 0.,
          0., 0., 0., 102., 147., 255., 255., 255., 255., 165., 25., 0.,
          0., 0., 0., 0., 0., 0., 0., 177., 255., 255., 255., 255., 170.,
          27., 0., 0., 0., 0., 0., 0., 0., 0., 120., 245., 255., 255.,
          255., 186., 17., 0., 0., 0., 0., 0., 0., 0., 59., 255., 255.,
          255., 255., 255., 0., 0., 0., 0., 0., 0., 0., 0., 0., 3., 93.,
          255., 255., 255., 217., 210., 0., 0., 0., 0., 0., 0., 0., 0.,
          0., 96., 255., 255., 255., 255., 109., 0., 0., 0., 0., 0., 0.,
          0., 0., 0., 0., 255., 255., 255., 255., 255., 255., 121., 121.,
          121., 121., 47., 0., 0., 0., 0., 0., 255., 255., 255., 255.,
          255., 255., 255., 255., 255., 255., 98., 0., 0., 0., 0., 0.,
          255., 255., 255., 255., 255., 255., 255., 255., 255., 255.,
          98., 0., 0., 0., 0., 0., 255., 255., 255., 255., 255., 255.,
          255., 255., 255., 146., 7., 0., 0., 0. ]
      - [ 0., 0., 0., 0., 0., 0., 255., 255., 255., 255., 0., 0., 0., 0.,
          0., 0., 0., 0., 0., 0., 0., 255., 255., 255., 255., 255., 255.,
          255., 0., 0., 0., 0., 0., 0., 0., 0., 255., 255., 255., 255.,
          255., 255., 255., 255., 0., 0., 0., 0., 0., 0., 0., 255., 255.,
          255., 255., 255., 255., 255., 255., 255., 255., 0., 0., 0., 0.,
          0., 0., 255., 255., 255., 255., 0., 0., 0., 255., 255., 255.,
          255., 0., 0., 0., 0., 0., 255., 255., 255., 255., 0., 0., 0.,
          255., 255., 255., 0., 0., 0., 0., 0., 0., 0., 255., 255., 0.,
          0., 0., 0., 255., 255., 255., 0., 0., 0., 0., 0., 0., 0., 255.,
          255., 0., 0., 0., 255., 255., 255., 255., 0., 0., 0., 0., 0.,
          0., 0., 255., 255., 0., 0., 0., 255., 255., 255., 255., 0., 0.,
          0., 0., 0., 0., 0., 0., 0., 0., 0., 255., 255., 255., 255.,
          255., 0., 0., 0., 0., 0., 0., 0., 0., 0., 0., 255., 255., 255.,
          255., 255., 0., 0., 0., 0., 0., 0., 0., 0., 0., 0., 255., 255.,
          255., 255., 255., 0., 0., 0., 0., 0., 0., 0., 0., 0., 0., 0.,
          255., 255., 255., 255., 255., 0., 0., 0., 0., 0., 0., 0., 0.,
          0., 0., 0., 255., 255., 255., 255., 0., 0., 0., 0., 0., 0., 0.,
          0., 0., 0., 255., 255., 255., 255., 255., 0., 0., 0., 0., 0.,
          0., 0., 0., 0., 0., 0., 255., 255., 255., 255., 255., 0., 0.,
          0., 0., 0., 0., 0., 0., 0., 0., 255., 255., 255., 255., 255.,
          255., 255., 255., 255., 0., 0., 0., 0., 0., 0., 0., 255., 255.,
          255., 255., 255., 255., 255., 255., 255., 255., 255., 0., 0.,
          0., 0., 0., 255., 255., 255., 255., 255., 255., 255., 255.,
          255., 255., 255., 0., 0., 0., 0., 0., 255., 255., 255., 255.,
          255., 255., 255., 255., 255., 255., 255., 0., 0. ]
      - [ 0., 0., 0., 0., 0., 0., 0., 0., 0., 32., 223., 255., 255.,
          255., 0., 0., 0., 0., 0., 0., 0., 0., 0., 0., 0., 14., 100.,
          202., 255., 255., 0., 0., 0., 0., 0., 0., 0., 0., 0., 0., 0.,
          0., 0., 159., 255., 255., 0., 0., 0., 0., 0., 0., 0., 0., 0.,
          0., 0., 0., 0., 159., 255., 255., 0., 0., 0., 0., 0., 0., 0.,
          0., 0., 0., 0., 21., 145., 222., 255., 255., 0., 0., 0., 0.,
          0., 0., 0., 0., 0., 0., 0., 32., 223., 255., 255., 255., 0.,
          0., 0., 0., 0., 0., 0., 0., 0., 0., 5., 43., 225., 255., 250.,
          242., 0., 0., 0., 0., 0., 0., 0., 0., 0., 0., 72., 199., 247.,
          255., 183., 64., 0., 0., 0., 0., 0., 0., 0., 0., 0., 72., 167.,
          255., 255., 183., 88., 0., 0., 0., 0., 0., 0., 0., 14., 38.,
          38., 173., 255., 250., 222., 81., 0., 0., 0., 0., 0., 0., 0.,
          0., 81., 217., 217., 241., 255., 228., 65., 14., 0., 0., 0.,
          0., 0., 0., 0., 0., 96., 255., 255., 167., 115., 100., 14., 0.,
          0., 0., 0., 0., 0., 0., 64., 64., 135., 255., 255., 95., 0.,
          0., 0., 0., 0., 0., 0., 0., 0., 0., 242., 242., 247., 255.,
          255., 96., 0., 0., 0., 0., 0., 0., 0., 0., 0., 0., 255., 255.,
          255., 255., 255., 199., 104., 0., 0., 0., 0., 0., 0., 0., 0.,
          0., 255., 255., 255., 255., 255., 255., 193., 89., 89., 89.,
          89., 89., 0., 0., 0., 0., 255., 255., 255., 255., 255., 255.,
          255., 255., 255., 255., 250., 242., 0., 0., 0., 0., 255., 255.,
          255., 255., 255., 255., 255., 255., 255., 255., 183., 64., 0.,
          0., 0., 0., 255., 255., 255., 255., 255., 255., 255., 255.,
          255., 183., 88., 0., 0., 0., 0., 0., 255., 255., 255., 255.,
          255., 255., 255., 255., 255., 96., 0., 0., 0., 0. ]
      - [ 0., 0., 0., 60., 255., 255., 255., 255., 255., 255., 255.,
          255., 38., 0., 0., 0., 0., 0., 0., 255., 255., 255., 255.,
          255., 255., 255., 255., 255., 103., 0., 0., 0., 0., 0., 0.,
          255., 255., 255., 128., 128., 128., 249., 255., 255., 255., 0.,
          0., 0., 0., 0., 0., 255., 255., 121., 0., 0., 0., 73., 255.,
          255., 255., 0., 0., 0., 0., 0., 0., 26., 26., 6., 0., 0., 0.,
          0., 83., 255., 255., 0., 0., 0., 0., 0., 0., 0., 0., 0., 0.,
          0., 0., 0., 64., 255., 255., 0., 0., 0., 0., 0., 0., 0., 0.,
          0., 0., 0., 0., 0., 121., 255., 255., 0., 0., 0., 0., 0., 0.,
          0., 0., 0., 0., 0., 0., 121., 255., 255., 255., 0., 0., 0., 0.,
          0., 0., 0., 0., 0., 0., 0., 116., 251., 255., 255., 103., 0.,
          0., 0., 0., 0., 0., 0., 0., 0., 0., 80., 246., 255., 255.,
          255., 38., 0., 0., 0., 0., 0., 0., 0., 0., 0., 37., 255., 255.,
          255., 191., 0., 0., 0., 0., 0., 0., 0., 0., 0., 0., 57., 255.,
          255., 255., 255., 134., 0., 0., 0., 0., 0., 0., 0., 0., 0.,
          57., 223., 255., 255., 255., 134., 0., 0., 0., 0., 0., 0., 0.,
          0., 0., 27., 213., 255., 255., 192., 76., 4., 0., 0., 0., 0.,
          0., 0., 0., 0., 0., 233., 255., 255., 255., 166., 0., 0., 0.,
          0., 0., 0., 0., 0., 0., 0., 0., 255., 255., 255., 244., 17.,
          17., 1., 26., 26., 26., 0., 0., 0., 0., 0., 0., 190., 255.,
          255., 255., 192., 192., 85., 255., 255., 255., 0., 0., 0., 0.,
          0., 0., 38., 255., 255., 255., 255., 255., 255., 255., 255.,
          255., 0., 0., 0., 0., 0., 0., 38., 255., 255., 255., 255.,
          255., 255., 255., 255., 103., 0., 0., 0., 0., 0., 0., 4., 129.,
          255., 244., 106., 255., 255., 198., 152., 38., 0., 0., 0. ]
      - [ 0., 0., 39., 255., 255., 255., 255., 255., 255., 255., 255.,
          255., 78., 2., 0., 0., 0., 0., 255., 255., 255., 255., 212.,
          198., 202., 255., 255., 255., 255., 21., 0., 0., 0., 0., 255.,
          255., 255., 199., 40., 0., 13., 183., 255., 255., 255., 21.,
          0., 0., 0., 0., 121., 154., 255., 106., 0., 0., 0., 64., 255.,
          255., 255., 144., 0., 0., 0., 0., 0., 21., 83., 35., 0., 0.,
          0., 21., 155., 255., 255., 255., 0., 0., 0., 0., 0., 0., 0.,
          0., 0., 0., 0., 53., 229., 255., 255., 255., 0., 0., 0., 0.,
          0., 0., 0., 0., 0., 0., 0., 64., 255., 255., 255., 255., 0.,
          0., 0., 0., 0., 0., 0., 0., 0., 0., 50., 255., 255., 255.,
          231., 19., 0., 0., 0., 0., 0., 0., 0., 0., 0., 64., 255., 255.,
          255., 255., 64., 0., 0., 0., 0., 0., 0., 0., 0., 0., 81., 243.,
          255., 255., 255., 192., 37., 0., 0., 0., 0., 0., 0., 0., 0.,
          86., 228., 255., 255., 255., 194., 45., 0., 0., 0., 0., 0., 0.,
          0., 0., 77., 226., 255., 255., 255., 209., 41., 0., 0., 0., 0.,
          0., 0., 0., 0., 56., 236., 255., 255., 255., 236., 24., 0., 0.,
          0., 0., 0., 0., 0., 0., 1., 68., 255., 255., 255., 255., 0.,
          0., 0., 0., 0., 0., 0., 0., 0., 0., 21., 255., 255., 255.,
          255., 255., 45., 33., 0., 26., 11., 0., 0., 0., 0., 0., 21.,
          255., 255., 255., 255., 255., 255., 212., 83., 183., 126., 83.,
          0., 0., 0., 0., 21., 255., 255., 255., 255., 255., 255., 255.,
          255., 255., 255., 255., 0., 0., 0., 0., 21., 255., 255., 255.,
          255., 255., 255., 255., 255., 255., 255., 255., 0., 0., 0., 0.,
          21., 255., 255., 255., 255., 255., 255., 255., 255., 255.,
          255., 74., 0., 0., 0., 0., 21., 255., 255., 255., 255., 255.,
          255., 255., 255., 117., 19., 2., 0., 0. ]
      - [ 0., 11., 182., 255., 255., 255., 255., 255., 255., 255., 51.,
          26., 0., 0., 0., 0., 0., 175., 255., 255., 255., 255., 255.,
          255., 255., 255., 255., 204., 153., 98., 0., 0., 0., 255.,
          255., 255., 255., 255., 255., 255., 255., 255., 255., 255.,
          255., 164., 0., 0., 0., 255., 255., 248., 153., 153., 153.,
          153., 175., 255., 255., 255., 255., 164., 0., 0., 0., 255.,
          255., 47., 0., 0., 0., 0., 11., 182., 255., 255., 255., 164.,
          0., 0., 0., 0., 0., 0., 0., 0., 0., 0., 0., 164., 255., 255.,
          255., 33., 0., 0., 0., 0., 0., 0., 0., 0., 0., 0., 0., 164.,
          255., 255., 255., 164., 0., 0., 0., 0., 0., 0., 0., 0., 0., 0.,
          0., 164., 255., 255., 255., 164., 0., 0., 0., 0., 0., 0., 0.,
          0., 0., 0., 55., 255., 255., 255., 255., 164., 0., 0., 0., 0.,
          0., 0., 0., 0., 0., 0., 54., 255., 255., 255., 255., 33., 0.,
          0., 0., 0., 0., 0., 0., 0., 18., 51., 255., 255., 255., 229.,
          15., 0., 0., 0., 0., 0., 0., 0., 0., 0., 91., 255., 255., 255.,
          255., 127., 0., 0., 0., 0., 0., 0., 0., 0., 0., 0., 255., 255.,
          255., 255., 237., 0., 0., 0., 0., 0., 0., 0., 0., 7., 178.,
          255., 255., 255., 255., 189., 0., 0., 0., 0., 0., 0., 0., 0.,
          0., 18., 255., 255., 255., 255., 255., 91., 0., 0., 0., 0., 0.,
          0., 0., 0., 0., 18., 255., 255., 255., 255., 255., 91., 0., 0.,
          0., 0., 0., 0., 0., 0., 0., 160., 255., 255., 255., 255., 255.,
          189., 153., 153., 153., 153., 153., 0., 0., 0., 0., 255., 255.,
          255., 255., 255., 255., 255., 255., 255., 255., 255., 255., 0.,
          0., 0., 0., 18., 255., 255., 255., 255., 255., 255., 255.,
          255., 255., 255., 255., 0., 0., 0., 0., 4., 153., 255., 255.,
          255., 255., 255., 255., 255., 255., 255., 255., 0. ]
      - [ 0., 0., 0., 0., 0., 0., 255., 255., 255., 255., 255., 0., 0.,
          0., 0., 0., 0., 0., 0., 236., 236., 236., 255., 255., 255.,
          255., 255., 236., 236., 0., 0., 0., 0., 0., 0., 255., 255.,
          255., 255., 255., 255., 255., 255., 255., 255., 0., 0., 0., 0.,
          0., 0., 255., 255., 255., 255., 255., 255., 255., 255., 255.,
          255., 210., 0., 0., 0., 0., 0., 255., 255., 57., 57., 57., 57.,
          57., 255., 255., 255., 255., 0., 0., 0., 0., 0., 70., 70., 0.,
          0., 0., 0., 0., 255., 255., 255., 255., 0., 0., 0., 0., 0., 0.,
          0., 0., 0., 0., 0., 0., 83., 255., 255., 255., 0., 0., 0., 0.,
          0., 0., 0., 0., 0., 0., 0., 0., 159., 255., 255., 255., 0., 0.,
          0., 0., 0., 0., 0., 0., 0., 0., 0., 147., 255., 255., 255.,
          255., 0., 0., 0., 0., 0., 0., 0., 0., 0., 0., 134., 255., 255.,
          255., 255., 121., 0., 0., 0., 0., 0., 0., 0., 0., 0., 121.,
          255., 255., 255., 255., 134., 0., 0., 0., 0., 0., 0., 0., 0.,
          108., 108., 255., 255., 255., 255., 147., 0., 0., 0., 0., 0.,
          0., 0., 0., 96., 255., 255., 255., 159., 159., 159., 0., 0.,
          0., 0., 0., 0., 0., 0., 83., 255., 255., 255., 172., 0., 0.,
          0., 0., 0., 0., 0., 0., 0., 0., 0., 255., 255., 255., 255., 0.,
          0., 0., 0., 0., 0., 0., 0., 0., 0., 0., 0., 255., 255., 255.,
          255., 57., 57., 0., 57., 57., 57., 0., 0., 0., 0., 0., 0.,
          255., 255., 255., 255., 255., 255., 45., 255., 255., 255., 45.,
          0., 0., 0., 0., 0., 255., 255., 255., 255., 255., 255., 255.,
          255., 255., 255., 255., 0., 0., 0., 0., 0., 255., 255., 236.,
          236., 236., 236., 236., 236., 255., 255., 236., 0., 0., 0., 0.,
          0., 255., 255., 0., 0., 0., 0., 0., 0., 255., 255., 0., 0., 0. ]
      - [ 0., 0., 255., 255., 212., 42., 0., 0., 0., 127., 255., 255.,
          255., 255., 0., 0., 0., 0., 134., 134., 112., 22., 0., 0., 0.,
          67., 154., 235., 255., 255., 0., 0., 0., 0., 0., 0., 0., 0.,
          0., 0., 0., 0., 42., 213., 255., 255., 0., 0., 0., 0., 0., 0.,
          0., 0., 0., 0., 0., 0., 42., 213., 255., 255., 0., 0., 0., 0.,
          0., 0., 0., 0., 0., 0., 0., 0., 42., 213., 255., 255., 0., 0.,
          0., 0., 0., 0., 0., 0., 0., 3., 16., 19., 58., 216., 255.,
          255., 0., 0., 0., 0., 0., 0., 0., 0., 0., 31., 154., 185.,
          197., 243., 255., 255., 0., 0., 0., 0., 0., 0., 0., 0., 0.,
          42., 212., 255., 255., 255., 255., 255., 0., 0., 0., 0., 0.,
          0., 0., 0., 0., 42., 212., 255., 255., 255., 255., 255., 0.,
          0., 0., 0., 0., 0., 0., 0., 0., 42., 212., 255., 255., 255.,
          255., 255., 0., 0., 0., 0., 0., 0., 0., 0., 0., 29., 143.,
          213., 255., 255., 255., 255., 0., 0., 0., 0., 0., 0., 0., 0.,
          0., 1., 5., 131., 255., 255., 255., 255., 0., 0., 0., 0., 0.,
          0., 0., 0., 0., 0., 0., 48., 122., 228., 255., 255., 0., 0.,
          0., 0., 0., 0., 0., 0., 0., 0., 0., 35., 101., 224., 255.,
          255., 0., 0., 0., 0., 0., 0., 0., 0., 0., 0., 0., 118., 239.,
          252., 255., 255., 0., 0., 0., 0., 0., 0., 0., 0., 0., 0., 0.,
          127., 255., 255., 255., 255., 0., 0., 0., 0., 57., 57., 57.,
          57., 29., 0., 0., 127., 255., 255., 255., 255., 0., 0., 0., 0.,
          223., 223., 223., 223., 112., 0., 0., 127., 255., 255., 255.,
          255., 0., 0., 0., 0., 255., 255., 255., 255., 194., 134., 134.,
          194., 255., 255., 188., 121., 0., 0., 0., 0., 255., 255., 255.,
          255., 255., 255., 255., 255., 255., 255., 128., 0., 0., 0. ]
      - [ 0., 0., 0., 159., 159., 0., 0., 0., 0., 32., 223., 255., 255.,
          255., 0., 0., 0., 0., 0., 72., 72., 0., 0., 0., 0., 32., 223.,
          255., 255., 255., 0., 0., 0., 0., 0., 0., 0., 0., 0., 0., 0.,
          32., 223., 255., 255., 255., 0., 0., 0., 0., 0., 0., 0., 0.,
          0., 0., 0., 32., 223., 255., 255., 255., 0., 0., 0., 0., 0.,
          0., 0., 0., 0., 0., 62., 177., 244., 255., 193., 89., 0., 0.,
          0., 0., 0., 0., 0., 0., 0., 56., 151., 255., 255., 255., 159.,
          0., 0., 0., 0., 0., 0., 0., 0., 2., 11., 164., 255., 255.,
          255., 255., 159., 0., 0., 0., 0., 0., 0., 0., 0., 24., 167.,
          231., 255., 255., 255., 255., 159., 0., 0., 0., 0., 0., 0., 0.,
          0., 32., 223., 255., 255., 255., 255., 255., 159., 0., 0., 0.,
          0., 0., 0., 0., 0., 27., 190., 217., 231., 255., 255., 255.,
          174., 38., 0., 0., 0., 0., 0., 0., 0., 5., 33., 38., 119.,
          255., 255., 255., 241., 217., 0., 0., 0., 0., 0., 0., 0., 0.,
          0., 0., 43., 132., 237., 255., 255., 255., 0., 0., 0., 0., 0.,
          0., 0., 0., 0., 0., 24., 88., 231., 255., 255., 255., 0., 0.,
          0., 0., 0., 0., 0., 0., 0., 0., 91., 244., 253., 255., 255.,
          255., 0., 0., 0., 0., 0., 0., 0., 0., 0., 0., 95., 255., 255.,
          255., 255., 255., 0., 0., 0., 0., 89., 89., 89., 89., 89., 89.,
          151., 255., 255., 255., 222., 166., 0., 0., 0., 0., 255., 255.,
          255., 255., 255., 255., 255., 255., 255., 255., 159., 0., 0.,
          0., 0., 0., 255., 255., 255., 255., 255., 255., 255., 255.,
          255., 255., 159., 0., 0., 0., 0., 0., 255., 255., 255., 255.,
          255., 255., 255., 255., 255., 183., 88., 0., 0., 0., 0., 0.,
          255., 255., 255., 255., 255., 255., 255., 255., 255., 96., 0.,
          0., 0., 0. ]
      - [ 0., 0., 0., 2., 19., 126., 255., 255., 255., 255., 255., 126.,
          19., 2., 0., 0., 0., 0., 0., 75., 255., 255., 255., 255., 255.,
          255., 255., 255., 255., 23., 0., 0., 0., 0., 0., 255., 255.,
          255., 255., 255., 255., 255., 255., 255., 255., 23., 0., 0.,
          0., 0., 0., 133., 255., 255., 170., 121., 121., 145., 255.,
          255., 255., 145., 0., 0., 0., 0., 0., 8., 130., 255., 93., 0.,
          0., 15., 145., 255., 255., 255., 0., 0., 0., 0., 0., 0., 12.,
          45., 16., 0., 0., 0., 93., 255., 255., 255., 0., 0., 0., 0.,
          0., 0., 0., 0., 0., 0., 0., 0., 93., 255., 255., 29., 0., 0.,
          0., 0., 0., 0., 0., 0., 0., 0., 32., 72., 255., 255., 255.,
          23., 0., 0., 0., 0., 0., 0., 0., 0., 0., 0., 255., 255., 255.,
          255., 255., 23., 0., 0., 0., 0., 0., 0., 0., 0., 0., 89., 255.,
          255., 255., 255., 255., 23., 0., 0., 0., 0., 0., 0., 0., 0.,
          0., 209., 255., 255., 255., 255., 255., 23., 0., 0., 0., 0.,
          0., 0., 0., 0., 0., 57., 70., 104., 255., 255., 255., 191., 0.,
          0., 0., 0., 0., 0., 0., 0., 0., 0., 0., 6., 113., 255., 255.,
          255., 0., 0., 0., 0., 0., 0., 0., 0., 0., 0., 0., 1., 97.,
          255., 255., 255., 0., 0., 0., 0., 0., 4., 45., 45., 45., 8.,
          0., 83., 255., 255., 255., 255., 0., 0., 0., 0., 0., 23., 255.,
