%YAML:1.0
my_svm: !!opencv-ml-svm
   svm_type: C_SVC
   kernel: { type:LINEAR }
   C: 1.
   term_criteria: { epsilon:1.1920928955078125e-007, iterations:1000 }
   var_all: 300
   var_count: 300
   class_count: 26
   class_labels: !!opencv-matrix
      rows: 1
      cols: 26
      dt: i
      data: [ 0, 1, 2, 3, 4, 5, 6, 7, 8, 9, 10, 11, 12, 13, 14, 15, 16,
          17, 18, 19, 20, 21, 22, 23, 24, 25 ]
   sv_total: 128
   support_vectors:
      - [ 205., 205., 0., 0., 0., 255., 255., 0., 0., 0., 0., 0., 205.,
          205., 205., 205., 205., 205., 0., 0., 0., 255., 255., 0., 0.,
          0., 0., 0., 205., 205., 205., 205., 205., 205., 0., 0., 223.,
          255., 255., 223., 223., 0., 0., 0., 205., 205., 205., 205.,
          205., 205., 0., 0., 255., 255., 255., 255., 255., 0., 0., 0.,
          205., 205., 205., 205., 205., 205., 0., 0., 255., 255., 255.,
          255., 255., 0., 0., 0., 205., 205., 205., 205., 205., 205., 0.,
          0., 255., 255., 255., 255., 255., 0., 0., 0., 205., 205., 205.,
          205., 205., 205., 0., 0., 83., 255., 255., 255., 255., 0., 0.,
          0., 205., 205., 205., 205., 205., 205., 0., 0., 0., 255., 255.,
          255., 255., 0., 0., 0., 205., 205., 205., 205., 205., 205., 0.,
          0., 0., 108., 255., 255., 255., 0., 0., 0., 205., 205., 205.,
          205., 205., 205., 0., 134., 134., 134., 255., 255., 255., 134.,
          0., 0., 205., 205., 205., 205., 205., 205., 0., 255., 255.,
          255., 134., 255., 255., 255., 0., 0., 205., 205., 205., 205.,
          205., 205., 0., 255., 255., 255., 108., 255., 255., 255., 0.,
          0., 205., 205., 205., 205., 205., 205., 96., 255., 255., 255.,
          255., 255., 255., 255., 96., 0., 205., 205., 205., 205., 205.,
          205., 255., 255., 255., 255., 255., 255., 255., 255., 255., 0.,
          205., 205., 205., 205., 205., 205., 255., 255., 255., 255.,
          255., 255., 255., 255., 255., 0., 205., 205., 205., 205., 205.,
          205., 255., 255., 255., 255., 255., 255., 255., 255., 255., 0.,
          205., 205., 205., 205., 205., 205., 255., 255., 255., 255.,
          255., 255., 255., 255., 255., 45., 205., 205., 205., 205.,
          205., 205., 255., 255., 255., 223., 223., 223., 255., 255.,
          255., 255., 205., 205., 205., 205., 205., 205., 255., 255.,
          236., 0., 0., 0., 236., 236., 236., 236. ]
      - [ 205., 205., 0., 0., 0., 166., 255., 140., 0., 0., 0., 0., 205.,
          205., 205., 205., 205., 205., 0., 0., 163., 242., 255., 238.,
          141., 0., 0., 0., 205., 205., 205., 205., 205., 205., 0., 0.,
          191., 255., 255., 255., 166., 0., 0., 0., 205., 205., 205.,
          205., 205., 205., 0., 0., 191., 255., 255., 255., 166., 0., 0.,
          0., 205., 205., 205., 205., 205., 205., 0., 0., 191., 255.,
          255., 255., 166., 0., 0., 0., 205., 205., 205., 205., 205.,
          205., 0., 0., 191., 255., 255., 255., 166., 0., 0., 0., 205.,
          205., 205., 205., 205., 205., 0., 0., 191., 255., 255., 255.,
          166., 0., 0., 0., 205., 205., 205., 205., 205., 205., 0., 54.,
          207., 255., 255., 255., 188., 48., 0., 0., 205., 205., 205.,
          205., 205., 205., 0., 217., 255., 255., 255., 255., 255., 191.,
          0., 0., 205., 205., 205., 205., 205., 205., 0., 217., 255.,
          255., 255., 255., 255., 191., 0., 0., 205., 205., 205., 205.,
          205., 205., 0., 217., 255., 255., 255., 255., 255., 191., 0.,
          0., 205., 205., 205., 205., 205., 205., 0., 217., 255., 255.,
          255., 255., 255., 191., 0., 0., 205., 205., 205., 205., 205.,
          205., 0., 217., 255., 255., 255., 255., 255., 239., 163., 0.,
          205., 205., 205., 205., 205., 205., 0., 217., 255., 255., 255.,
          255., 255., 255., 217., 0., 205., 205., 205., 205., 205., 205.,
          0., 217., 255., 255., 255., 255., 255., 255., 217., 0., 205.,
          205., 205., 205., 205., 205., 115., 234., 255., 255., 255.,
          255., 255., 255., 234., 115., 205., 205., 205., 205., 205.,
          205., 255., 255., 255., 197., 166., 166., 197., 255., 255.,
          255., 205., 205., 205., 205., 205., 205., 255., 255., 255.,
          89., 0., 0., 89., 255., 255., 255., 205., 205., 205., 205.,
          205., 205., 255., 255., 255., 89., 0., 0., 76., 226., 249.,
          217. ]
      - [ 0., 0., 0., 0., 146., 255., 123., 0., 0., 0., 0., 0., 0., 0.,
          205., 205., 0., 0., 0., 0., 236., 255., 255., 0., 0., 0., 0.,
          210., 210., 210., 205., 205., 96., 14., 0., 96., 255., 255.,
          255., 209., 96., 0., 0., 0., 23., 159., 205., 205., 19., 3.,
          0., 255., 255., 255., 255., 255., 255., 0., 0., 0., 0., 0.,
          205., 205., 0., 0., 0., 255., 255., 255., 255., 255., 255.,
          126., 134., 0., 151., 255., 205., 205., 0., 0., 0., 255., 255.,
          255., 255., 255., 255., 146., 0., 0., 5., 0., 205., 205., 0.,
          0., 0., 255., 255., 255., 255., 255., 255., 146., 0., 0., 219.,
          0., 205., 205., 0., 0., 0., 255., 255., 255., 255., 255., 255.,
          255., 32., 0., 255., 232., 205., 205., 0., 0., 0., 255., 255.,
          255., 255., 255., 255., 255., 255., 0., 83., 24., 205., 205.,
          0., 0., 109., 255., 255., 255., 255., 255., 255., 255., 255.,
          142., 0., 0., 205., 205., 0., 0., 109., 255., 255., 255., 255.,
          255., 255., 255., 255., 255., 0., 0., 205., 205., 0., 0., 109.,
          255., 255., 255., 255., 255., 255., 255., 255., 255., 0., 0.,
          205., 205., 0., 0., 237., 255., 255., 255., 255., 255., 255.,
          255., 255., 255., 191., 0., 205., 205., 0., 0., 255., 255.,
          255., 255., 255., 255., 255., 255., 255., 255., 234., 31.,
          205., 205., 0., 213., 255., 255., 255., 255., 255., 255., 255.,
          255., 255., 255., 255., 73., 205., 205., 0., 218., 255., 255.,
          255., 0., 0., 0., 0., 0., 121., 255., 255., 73., 205., 205.,
          236., 252., 255., 255., 109., 0., 0., 0., 0., 0., 0., 255.,
          219., 0., 205., 205., 0., 218., 255., 255., 41., 0., 0., 0.,
          0., 91., 0., 255., 82., 0., 205., 205., 0., 180., 210., 210.,
          0., 0., 0., 0., 218., 255., 0., 145. ]
      - [ 205., 205., 205., 0., 0., 175., 255., 143., 0., 0., 0., 205.,
          205., 205., 205., 205., 205., 205., 205., 0., 0., 175., 255.,
          230., 136., 0., 0., 205., 205., 205., 205., 205., 205., 205.,
          205., 0., 0., 175., 255., 255., 175., 0., 0., 205., 205., 205.,
          205., 205., 205., 205., 205., 0., 0., 175., 255., 255., 175.,
          0., 0., 205., 205., 205., 205., 205., 205., 205., 205., 0., 0.,
          175., 255., 255., 175., 0., 0., 205., 205., 205., 205., 205.,
          205., 205., 205., 0., 36., 189., 255., 255., 175., 0., 0.,
          205., 205., 205., 205., 205., 205., 205., 205., 0., 207., 255.,
          255., 255., 175., 0., 0., 205., 205., 205., 205., 205., 205.,
          205., 205., 0., 207., 255., 255., 255., 175., 0., 0., 205.,
          205., 205., 205., 205., 205., 205., 205., 0., 207., 255., 255.,
          255., 175., 0., 0., 205., 205., 205., 205., 205., 205., 205.,
          205., 0., 207., 255., 255., 255., 221., 119., 0., 205., 205.,
          205., 205., 205., 205., 205., 205., 0., 207., 255., 194., 194.,
          255., 207., 0., 205., 205., 205., 205., 205., 205., 205., 205.,
          0., 207., 255., 111., 112., 255., 207., 0., 205., 205., 205.,
          205., 205., 205., 205., 205., 0., 207., 255., 111., 112., 255.,
          213., 32., 205., 205., 205., 205., 205., 205., 205., 205., 0.,
          207., 255., 112., 112., 255., 254., 249., 205., 205., 205.,
          205., 205., 205., 205., 205., 0., 207., 255., 230., 230., 255.,
          255., 255., 205., 205., 205., 205., 205., 205., 205., 205.,
          172., 239., 255., 255., 255., 255., 255., 255., 205., 205.,
          205., 205., 205., 205., 205., 205., 255., 255., 255., 180.,
          121., 163., 255., 255., 205., 205., 205., 205., 205., 205.,
          205., 205., 255., 255., 189., 70., 0., 80., 255., 255., 205.,
          205., 205., 205., 205., 205., 205., 205., 255., 255., 80., 0.,
          0., 62., 198., 198., 205. ]
      - [ 0., 0., 0., 0., 73., 255., 255., 223., 18., 0., 0., 0., 0., 0.,
          205., 205., 0., 0., 0., 0., 73., 255., 255., 255., 146., 0.,
          0., 0., 0., 0., 205., 205., 0., 0., 0., 0., 73., 255., 255.,
          255., 146., 0., 0., 0., 0., 0., 205., 205., 0., 0., 0., 0.,
          73., 255., 255., 255., 145., 0., 0., 0., 0., 0., 205., 205.,
          0., 0., 0., 0., 255., 255., 255., 255., 145., 0., 0., 0., 0.,
          0., 205., 205., 0., 0., 0., 0., 255., 255., 255., 255., 146.,
          0., 0., 0., 0., 0., 205., 205., 0., 0., 0., 0., 255., 255.,
          255., 255., 146., 0., 0., 0., 0., 0., 205., 205., 0., 0., 0.,
          223., 255., 255., 255., 255., 241., 64., 0., 0., 0., 0., 205.,
          205., 0., 0., 23., 255., 255., 255., 255., 255., 255., 73., 0.,
          0., 0., 0., 205., 205., 0., 0., 182., 255., 255., 255., 255.,
          255., 255., 73., 0., 0., 0., 82., 205., 205., 0., 0., 182.,
          255., 255., 255., 255., 255., 255., 73., 0., 0., 0., 82., 205.,
          205., 0., 0., 182., 255., 255., 255., 255., 255., 255., 73.,
          0., 0., 0., 0., 205., 205., 0., 109., 255., 255., 255., 255.,
          255., 255., 255., 95., 0., 0., 0., 0., 205., 205., 0., 109.,
          255., 255., 255., 255., 255., 255., 255., 187., 0., 0., 0., 0.,
          205., 205., 23., 200., 255., 255., 255., 255., 255., 255.,
          255., 187., 0., 0., 0., 0., 205., 205., 228., 255., 255., 255.,
          191., 159., 255., 255., 255., 255., 0., 0., 0., 0., 205., 205.,
          255., 255., 255., 255., 255., 255., 255., 228., 255., 255.,
          255., 255., 128., 32., 205., 205., 255., 255., 255., 255.,
          255., 255., 255., 118., 255., 255., 255., 255., 255., 255.,
          205., 205., 255., 255., 255., 255., 255., 255., 255., 255.,
          255., 255., 255., 255. ]
      - [ 205., 205., 0., 0., 0., 0., 0., 242., 242., 121., 0., 0., 205.,
          205., 205., 205., 205., 205., 0., 0., 0., 0., 0., 0., 0., 0.,
          0., 0., 205., 205., 205., 205., 205., 205., 0., 0., 0., 0., 0.,
          0., 0., 0., 0., 0., 205., 205., 205., 205., 205., 205., 9.,
          89., 89., 89., 89., 89., 89., 89., 27., 0., 205., 205., 205.,
          205., 205., 205., 25., 255., 255., 255., 255., 255., 255.,
          255., 76., 0., 205., 205., 205., 205., 205., 205., 25., 255.,
          255., 255., 255., 255., 255., 255., 76., 0., 205., 205., 205.,
          205., 205., 205., 25., 255., 255., 255., 255., 255., 255.,
          255., 192., 17., 205., 205., 205., 205., 205., 205., 25., 255.,
          255., 255., 255., 255., 255., 255., 255., 198., 205., 205.,
          205., 205., 205., 205., 25., 255., 255., 255., 60., 60., 255.,
          255., 255., 255., 205., 205., 205., 205., 205., 205., 26.,
          255., 255., 255., 244., 244., 255., 255., 255., 255., 205.,
          205., 205., 205., 205., 205., 24., 246., 255., 255., 255.,
          255., 255., 255., 255., 26., 205., 205., 205., 205., 205.,
          205., 0., 76., 255., 255., 255., 255., 255., 255., 255., 26.,
          205., 205., 205., 205., 205., 205., 0., 76., 255., 255., 255.,
          255., 255., 255., 255., 26., 205., 205., 205., 205., 205.,
          205., 0., 76., 255., 255., 174., 166., 192., 255., 255., 106.,
          205., 205., 205., 205., 205., 205., 0., 76., 255., 255., 129.,
          115., 157., 255., 255., 255., 205., 205., 205., 205., 205.,
          205., 0., 76., 255., 255., 255., 255., 255., 255., 255., 255.,
          205., 205., 205., 205., 205., 205., 17., 192., 255., 255.,
          255., 255., 255., 255., 255., 255., 205., 205., 205., 205.,
          205., 205., 6., 121., 255., 255., 255., 255., 255., 255., 255.,
          83., 205., 205., 205., 205., 205., 205., 0., 76., 255., 255.,
          255., 38., 38., 38., 38., 4. ]
      - [ 205., 0., 0., 255., 255., 255., 255., 255., 255., 255., 255.,
          0., 0., 0., 205., 205., 205., 255., 255., 255., 255., 255.,
          255., 255., 255., 255., 255., 255., 0., 0., 205., 205., 205.,
          255., 255., 255., 255., 255., 255., 255., 255., 255., 255.,
          255., 0., 0., 205., 205., 205., 255., 255., 255., 255., 255.,
          0., 0., 0., 255., 255., 255., 255., 0., 205., 205., 205., 255.,
          255., 255., 255., 0., 0., 0., 0., 255., 255., 255., 255., 0.,
          205., 205., 205., 255., 255., 255., 255., 0., 0., 0., 0., 0.,
          255., 255., 255., 0., 205., 205., 205., 255., 255., 255., 255.,
          0., 255., 255., 255., 255., 255., 255., 255., 0., 205., 205.,
          205., 255., 255., 255., 255., 255., 255., 255., 255., 255.,
          255., 255., 255., 0., 205., 205., 205., 255., 255., 255., 255.,
          255., 255., 255., 255., 255., 255., 255., 255., 255., 205.,
          205., 205., 255., 255., 255., 255., 255., 255., 255., 255.,
          255., 255., 255., 255., 255., 205., 205., 205., 255., 255.,
          255., 255., 255., 255., 255., 255., 255., 255., 255., 255.,
          255., 205., 205., 205., 255., 255., 255., 255., 0., 0., 0., 0.,
          0., 0., 255., 255., 255., 205., 205., 205., 255., 255., 255.,
          255., 0., 0., 0., 0., 0., 255., 255., 255., 255., 205., 205.,
          205., 255., 255., 255., 255., 0., 0., 0., 0., 0., 255., 255.,
          255., 255., 205., 205., 205., 255., 255., 255., 255., 0., 0.,
          0., 0., 0., 255., 255., 255., 255., 205., 205., 205., 255.,
          255., 255., 255., 255., 0., 0., 0., 255., 255., 255., 255.,
          255., 205., 205., 205., 255., 255., 255., 255., 255., 255.,
          255., 255., 255., 255., 255., 255., 255., 205., 205., 205.,
          255., 255., 255., 255., 255., 255., 255., 255., 255., 255.,
          255., 255., 0., 205., 205., 205., 255., 255., 255., 255., 255.,
          255., 255., 255., 255., 255., 255. ]
      - [ 205., 0., 0., 0., 255., 255., 255., 255., 255., 255., 0., 0.,
          0., 205., 205., 205., 205., 0., 255., 255., 255., 255., 255.,
          255., 255., 255., 255., 255., 0., 205., 205., 205., 205., 0.,
          0., 255., 255., 255., 255., 255., 255., 255., 255., 255., 0.,
          205., 205., 205., 205., 0., 0., 255., 255., 255., 255., 0., 0.,
          255., 255., 255., 255., 205., 205., 205., 205., 0., 0., 255.,
          255., 255., 255., 0., 0., 0., 255., 255., 255., 205., 205.,
          205., 205., 0., 0., 255., 255., 255., 255., 0., 0., 0., 255.,
          255., 255., 205., 205., 205., 205., 0., 0., 255., 255., 255.,
          255., 255., 255., 255., 255., 255., 255., 205., 205., 205.,
          205., 0., 0., 255., 255., 255., 255., 255., 255., 255., 255.,
          255., 0., 205., 205., 205., 205., 0., 0., 255., 255., 255.,
          255., 255., 255., 255., 255., 255., 0., 205., 205., 205., 205.,
          0., 0., 255., 255., 255., 255., 255., 255., 255., 255., 255.,
          0., 205., 205., 205., 205., 0., 0., 255., 255., 255., 255.,
          255., 255., 255., 255., 255., 0., 205., 205., 205., 205., 0.,
          0., 255., 255., 0., 0., 0., 0., 0., 255., 255., 255., 205.,
          205., 205., 205., 0., 0., 255., 255., 0., 0., 0., 0., 0., 255.,
          255., 255., 205., 205., 205., 205., 0., 0., 255., 255., 255.,
          255., 0., 0., 0., 255., 255., 255., 205., 205., 205., 205., 0.,
          0., 255., 255., 255., 255., 255., 255., 255., 255., 255., 255.,
          205., 205., 205., 205., 0., 0., 255., 255., 255., 255., 255.,
          255., 255., 255., 255., 255., 205., 205., 205., 205., 0., 0.,
          255., 255., 255., 255., 255., 255., 255., 255., 255., 0., 205.,
          205., 205., 205., 0., 0., 255., 255., 255., 255., 255., 255.,
          255., 255., 0., 0., 205., 205., 205., 205., 0., 255., 255., 0.,
          0., 0., 0., 0., 0., 0., 0. ]
      - [ 0., 0., 0., 0., 173., 255., 255., 255., 255., 173., 0., 0., 0.,
          0., 205., 205., 0., 194., 217., 217., 243., 255., 255., 255.,
          255., 243., 163., 0., 0., 0., 205., 205., 0., 228., 255., 255.,
          255., 255., 255., 255., 255., 255., 239., 157., 0., 0., 205.,
          205., 0., 228., 255., 255., 255., 255., 255., 255., 255., 255.,
          255., 209., 0., 0., 205., 205., 0., 228., 255., 255., 255.,
          255., 255., 255., 255., 255., 255., 209., 0., 0., 205., 205.,
          0., 125., 234., 255., 255., 185., 140., 140., 185., 255., 255.,
          209., 0., 0., 205., 205., 0., 0., 209., 255., 255., 154., 89.,
          89., 154., 255., 255., 209., 0., 0., 205., 205., 0., 0., 209.,
          255., 255., 255., 255., 255., 255., 255., 255., 221., 64., 64.,
          205., 205., 0., 0., 209., 255., 255., 255., 255., 255., 255.,
          255., 255., 248., 217., 217., 205., 205., 0., 0., 209., 255.,
          255., 255., 255., 255., 255., 255., 255., 209., 0., 0., 205.,
          205., 0., 0., 209., 255., 255., 255., 255., 255., 255., 255.,
          255., 209., 0., 0., 205., 205., 0., 0., 209., 255., 255., 255.,
          255., 255., 255., 255., 255., 248., 194., 0., 205., 205., 0.,
          0., 209., 255., 255., 139., 64., 64., 139., 255., 255., 255.,
          228., 0., 205., 205., 0., 0., 209., 255., 255., 201., 166.,
          166., 201., 255., 255., 255., 228., 0., 205., 205., 0., 0.,
          209., 255., 255., 255., 255., 255., 255., 255., 255., 230.,
          103., 0., 205., 205., 0., 0., 209., 255., 255., 255., 255.,
          255., 255., 255., 255., 209., 0., 0., 205., 205., 89., 89.,
          225., 255., 255., 255., 255., 255., 255., 255., 255., 209., 0.,
          0., 205., 205., 255., 255., 255., 255., 255., 255., 221., 191.,
          191., 191., 191., 157., 0., 0., 205., 205., 255., 221., 217.,
          217., 217., 217., 101., 0., 0., 0., 0., 0. ]
      - [ 0., 0., 209., 255., 255., 100., 0., 0., 0., 0., 0., 0., 0., 0.,
          205., 205., 217., 217., 248., 255., 255., 100., 0., 0., 85.,
          217., 217., 217., 217., 217., 205., 205., 255., 255., 255.,
          255., 255., 100., 0., 89., 216., 255., 255., 255., 255., 255.,
          205., 205., 255., 255., 255., 255., 255., 100., 0., 41., 154.,
          255., 255., 255., 255., 255., 205., 205., 255., 255., 255.,
          255., 255., 100., 0., 0., 100., 255., 255., 255., 255., 255.,
          205., 205., 255., 255., 255., 255., 255., 100., 0., 0., 100.,
          255., 255., 255., 243., 140., 205., 205., 255., 255., 255.,
          255., 255., 100., 0., 0., 100., 255., 255., 255., 228., 0.,
          205., 205., 255., 255., 255., 255., 255., 139., 64., 64., 139.,
          255., 255., 255., 228., 0., 205., 205., 255., 255., 255., 255.,
          255., 255., 255., 255., 255., 255., 255., 255., 228., 0., 205.,
          205., 255., 255., 255., 255., 255., 255., 255., 255., 255.,
          255., 255., 255., 228., 0., 205., 205., 255., 255., 255., 255.,
          255., 255., 255., 255., 255., 255., 255., 255., 228., 0., 205.,
          205., 255., 255., 255., 255., 255., 255., 255., 255., 255.,
          255., 255., 216., 34., 0., 205., 205., 255., 255., 255., 255.,
          125., 64., 64., 153., 255., 255., 255., 209., 0., 0., 205.,
          205., 255., 255., 255., 255., 82., 0., 0., 118., 255., 255.,
          255., 209., 0., 0., 205., 205., 255., 255., 255., 255., 82.,
          0., 0., 118., 255., 255., 255., 209., 0., 0., 205., 205., 255.,
          255., 255., 255., 82., 0., 0., 118., 255., 255., 255., 209.,
          0., 0., 205., 205., 255., 255., 255., 255., 82., 0., 0., 118.,
          255., 255., 255., 209., 10., 89., 205., 205., 255., 255., 255.,
          255., 82., 0., 0., 118., 255., 255., 255., 209., 27., 255.,
          205., 205., 217., 217., 217., 217., 70., 0., 0., 101., 232.,
          255., 245., 178. ]
      - [ 205., 12., 192., 255., 255., 239., 161., 255., 51., 239., 176.,
          8., 0., 0., 205., 205., 205., 59., 255., 255., 255., 255.,
          255., 255., 255., 255., 255., 169., 106., 0., 205., 205., 205.,
          255., 255., 255., 255., 255., 255., 255., 255., 255., 255.,
          255., 177., 0., 205., 205., 205., 255., 255., 255., 255., 255.,
          255., 255., 255., 255., 255., 169., 106., 0., 205., 205., 205.,
          255., 255., 255., 255., 239., 51., 51., 51., 51., 51., 8., 0.,
          0., 205., 205., 205., 255., 255., 255., 98., 0., 0., 0., 0.,
          0., 0., 0., 0., 0., 205., 205., 205., 137., 255., 255., 98.,
          0., 0., 0., 0., 0., 0., 0., 0., 0., 205., 205., 205., 59.,
          255., 255., 98., 0., 0., 0., 0., 0., 0., 216., 0., 0., 205.,
          205., 205., 255., 255., 255., 255., 0., 0., 0., 0., 0., 0.,
          216., 0., 0., 205., 205., 205., 255., 255., 255., 255., 188.,
          0., 0., 0., 0., 0., 43., 0., 0., 205., 205., 205., 216., 255.,
          255., 255., 235., 0., 0., 0., 0., 0., 0., 0., 0., 205., 205.,
          205., 59., 255., 255., 255., 235., 0., 0., 0., 0., 0., 0., 0.,
          0., 205., 205., 205., 59., 255., 255., 255., 235., 0., 0., 0.,
          0., 0., 0., 0., 0., 205., 205., 205., 35., 224., 255., 255.,
          235., 0., 0., 0., 0., 0., 0., 0., 0., 205., 205., 205., 0.,
          176., 255., 255., 235., 0., 0., 0., 0., 0., 0., 0., 0., 205.,
          205., 205., 0., 176., 255., 255., 239., 51., 0., 0., 0., 51.,
          51., 51., 12., 205., 205., 205., 0., 176., 255., 255., 255.,
          255., 153., 153., 153., 255., 255., 255., 177., 205., 205.,
          205., 0., 177., 255., 255., 255., 255., 255., 255., 255., 255.,
          255., 255., 255., 205., 205., 205., 0., 106., 255., 255., 255.,
          255., 255., 255., 255., 255., 255. ]
      - [ 205., 255., 255., 255., 255., 255., 255., 255., 255., 255.,
          255., 255., 0., 205., 205., 205., 205., 255., 255., 255., 255.,
          255., 255., 255., 255., 255., 255., 255., 0., 205., 205., 205.,
          205., 255., 255., 255., 255., 255., 0., 255., 255., 255., 255.,
          255., 0., 205., 205., 205., 205., 255., 255., 255., 255., 0.,
          0., 0., 0., 255., 255., 255., 0., 205., 205., 205., 205., 255.,
          255., 255., 0., 0., 0., 0., 0., 0., 0., 0., 0., 205., 205.,
          205., 205., 255., 255., 255., 0., 0., 0., 0., 0., 0., 0., 0.,
          0., 205., 205., 205., 205., 255., 255., 255., 0., 0., 0., 0.,
          0., 0., 0., 0., 0., 205., 205., 205., 205., 255., 255., 255.,
          0., 0., 0., 0., 0., 0., 0., 0., 0., 205., 205., 205., 205.,
          255., 255., 255., 0., 0., 0., 0., 0., 0., 0., 0., 0., 205.,
          205., 205., 205., 255., 255., 255., 0., 0., 0., 0., 0., 0., 0.,
          0., 0., 205., 205., 205., 205., 255., 255., 255., 0., 0., 0.,
          0., 0., 0., 0., 0., 0., 205., 205., 205., 205., 255., 255.,
          255., 0., 0., 0., 0., 0., 0., 0., 0., 0., 205., 205., 205.,
          205., 255., 255., 255., 0., 0., 0., 0., 0., 0., 0., 0., 0.,
          205., 205., 205., 205., 255., 255., 255., 0., 0., 0., 0., 0.,
          0., 0., 0., 0., 205., 205., 205., 205., 255., 255., 255., 255.,
          0., 0., 0., 255., 255., 255., 0., 0., 205., 205., 205., 205.,
          255., 255., 255., 255., 255., 255., 255., 255., 255., 255.,
          255., 0., 205., 205., 205., 205., 255., 255., 255., 255., 255.,
          255., 255., 255., 255., 255., 255., 0., 205., 205., 205., 205.,
          255., 255., 255., 255., 255., 255., 255., 255., 255., 255., 0.,
          0., 205., 205., 205., 205., 0., 0., 255., 255., 0., 0., 0., 0.,
          0., 0., 0. ]
      - [ 205., 0., 40., 255., 255., 255., 255., 255., 255., 255., 255.,
          255., 255., 59., 205., 205., 205., 0., 176., 255., 255., 255.,
          255., 255., 255., 255., 255., 255., 255., 191., 205., 205.,
          205., 59., 255., 255., 255., 252., 223., 223., 223., 223.,
          235., 255., 255., 255., 205., 205., 205., 59., 255., 255.,
          255., 100., 0., 0., 0., 0., 42., 232., 255., 142., 205., 205.,
          205., 59., 255., 255., 98., 0., 0., 0., 0., 0., 0., 0., 0., 0.,
          205., 205., 205., 59., 255., 255., 172., 0., 0., 0., 0., 0.,
          0., 0., 0., 0., 205., 205., 205., 59., 255., 255., 255., 0.,
          0., 0., 0., 0., 0., 0., 0., 0., 205., 205., 205., 59., 255.,
          255., 98., 0., 0., 0., 0., 0., 0., 0., 0., 0., 205., 205.,
          205., 59., 255., 255., 98., 0., 0., 0., 0., 0., 0., 0., 0., 0.,
          205., 205., 205., 59., 255., 255., 98., 0., 0., 0., 0., 0., 0.,
          0., 0., 0., 205., 205., 205., 59., 255., 255., 98., 0., 0., 0.,
          0., 0., 0., 0., 0., 0., 205., 205., 205., 59., 255., 255., 98.,
          0., 0., 0., 0., 0., 0., 0., 0., 0., 205., 205., 205., 59.,
          255., 255., 98., 0., 0., 0., 0., 0., 0., 0., 0., 0., 205.,
          205., 205., 59., 255., 255., 98., 0., 0., 0., 0., 0., 0., 0.,
          0., 0., 205., 205., 205., 162., 255., 255., 98., 0., 0., 0.,
          0., 0., 0., 0., 0., 0., 205., 205., 205., 255., 255., 255.,
          251., 0., 0., 0., 0., 0., 249., 249., 249., 57., 205., 205.,
          205., 255., 255., 255., 255., 108., 108., 108., 108., 108.,
          255., 255., 255., 59., 205., 205., 205., 255., 255., 255.,
          255., 255., 255., 255., 255., 255., 255., 255., 186., 7., 205.,
          205., 205., 172., 229., 255., 255., 255., 255., 255., 210.,
          178., 172., 172. ]
      - [ 205., 255., 255., 255., 255., 255., 255., 255., 255., 255.,
          255., 255., 0., 0., 205., 205., 205., 255., 255., 255., 255.,
          255., 255., 255., 255., 255., 255., 255., 0., 0., 205., 205.,
          205., 255., 255., 255., 255., 255., 0., 255., 255., 255., 255.,
          255., 0., 0., 205., 205., 205., 255., 255., 255., 255., 0., 0.,
          0., 0., 255., 255., 255., 0., 0., 205., 205., 205., 255., 255.,
          255., 0., 0., 0., 0., 0., 0., 0., 0., 0., 0., 205., 205., 205.,
          255., 255., 255., 0., 0., 0., 0., 0., 0., 0., 0., 0., 0., 205.,
          205., 205., 255., 255., 255., 0., 0., 0., 0., 0., 0., 0., 0.,
          0., 0., 205., 205., 205., 255., 255., 255., 0., 0., 0., 0., 0.,
          0., 0., 0., 0., 0., 205., 205., 205., 255., 255., 255., 0., 0.,
          0., 0., 0., 0., 0., 0., 0., 0., 205., 205., 205., 255., 255.,
          255., 0., 0., 0., 0., 0., 0., 0., 0., 0., 0., 205., 205., 205.,
          255., 255., 255., 0., 0., 0., 0., 0., 0., 0., 0., 0., 0., 205.,
          205., 205., 255., 255., 255., 0., 0., 0., 0., 0., 0., 0., 0.,
          0., 0., 205., 205., 205., 255., 255., 255., 0., 0., 0., 0., 0.,
          0., 0., 0., 0., 0., 205., 205., 205., 255., 255., 255., 0., 0.,
          0., 0., 0., 0., 0., 0., 0., 0., 205., 205., 205., 255., 255.,
          255., 255., 0., 0., 0., 255., 255., 255., 0., 0., 0., 205.,
          205., 205., 255., 255., 255., 255., 255., 255., 255., 255.,
          255., 255., 255., 0., 0., 205., 205., 205., 255., 255., 255.,
          255., 255., 255., 255., 255., 255., 255., 255., 0., 0., 205.,
          205., 205., 255., 255., 255., 255., 255., 255., 255., 255.,
          255., 255., 0., 0., 0., 205., 205., 205., 0., 0., 255., 255.,
          0., 0., 0., 0., 0., 0., 0. ]
      - [ 0., 0., 1., 6., 6., 6., 6., 6., 6., 6., 193., 51., 1., 0.,
          205., 205., 1., 19., 61., 255., 255., 255., 255., 255., 255.,
          255., 255., 255., 27., 0., 205., 205., 40., 255., 255., 255.,
          255., 255., 255., 255., 255., 255., 255., 255., 27., 0., 205.,
          205., 255., 255., 255., 255., 255., 255., 234., 234., 228.,
          241., 255., 218., 23., 0., 205., 205., 255., 255., 255., 241.,
          198., 198., 106., 106., 78., 134., 198., 35., 0., 0., 205.,
          205., 187., 255., 255., 191., 0., 0., 0., 0., 0., 0., 0., 0.,
          0., 0., 205., 205., 89., 255., 255., 191., 0., 0., 0., 0., 0.,
          0., 0., 0., 0., 0., 205., 205., 255., 255., 255., 191., 0., 0.,
          0., 0., 0., 0., 0., 0., 0., 0., 205., 205., 255., 255., 255.,
          191., 0., 0., 0., 0., 0., 0., 0., 0., 0., 0., 205., 205., 138.,
          255., 255., 191., 0., 0., 0., 0., 0., 0., 0., 0., 0., 0., 205.,
          205., 9., 255., 255., 191., 0., 0., 0., 0., 0., 0., 0., 0., 0.,
          0., 205., 205., 9., 255., 255., 191., 0., 0., 0., 0., 0., 0.,
          0., 0., 0., 0., 205., 205., 9., 255., 255., 231., 108., 0., 0.,
          0., 0., 0., 0., 0., 0., 0., 205., 205., 9., 255., 255., 255.,
          173., 0., 0., 0., 0., 0., 0., 0., 0., 0., 205., 205., 9., 255.,
          255., 255., 173., 0., 0., 0., 0., 0., 0., 0., 0., 0., 205.,
          205., 9., 255., 255., 255., 236., 120., 0., 0., 0., 0., 0., 0.,
          0., 0., 205., 205., 2., 67., 255., 255., 255., 155., 0., 0.,
          0., 143., 210., 210., 210., 210., 205., 205., 0., 27., 255.,
          255., 255., 242., 223., 223., 223., 245., 255., 255., 255.,
          40., 205., 205., 0., 27., 255., 255., 255., 255., 255., 255.,
          255., 255., 255., 255. ]
      - [ 205., 205., 205., 205., 205., 205., 205., 205., 205., 205.,
          205., 205., 205., 205., 205., 205., 0., 102., 255., 255., 255.,
          255., 255., 255., 255., 255., 255., 255., 170., 0., 0., 205.,
          0., 102., 255., 255., 255., 255., 255., 255., 255., 255., 255.,
          255., 212., 51., 0., 205., 0., 102., 255., 255., 255., 255.,
          255., 42., 198., 156., 255., 255., 255., 102., 0., 205., 0.,
          85., 241., 255., 255., 235., 57., 0., 0., 113., 246., 255.,
          255., 102., 0., 205., 0., 0., 170., 255., 229., 68., 0., 0.,
          0., 0., 204., 255., 255., 102., 0., 205., 0., 0., 170., 255.,
          204., 0., 0., 0., 0., 0., 204., 255., 255., 102., 0., 205., 0.,
          0., 170., 255., 255., 136., 0., 0., 0., 0., 204., 255., 255.,
          102., 0., 205., 0., 0., 170., 255., 255., 136., 0., 0., 0., 0.,
          204., 255., 212., 51., 0., 205., 0., 0., 170., 255., 212., 23.,
          0., 0., 0., 113., 246., 255., 170., 0., 0., 205., 0., 0., 170.,
          255., 204., 0., 0., 0., 0., 136., 255., 255., 170., 0., 0.,
          205., 0., 0., 170., 255., 204., 0., 0., 0., 0., 136., 255.,
          255., 170., 0., 0., 205., 0., 85., 241., 255., 204., 0., 0.,
          0., 0., 136., 255., 255., 170., 0., 0., 205., 0., 102., 255.,
          255., 204., 0., 0., 0., 0., 113., 246., 255., 170., 0., 0.,
          205., 0., 102., 255., 255., 229., 68., 0., 0., 34., 128., 229.,
          255., 170., 0., 0., 205., 0., 102., 255., 255., 255., 235.,
          213., 213., 224., 255., 255., 255., 170., 0., 0., 205., 0.,
          102., 255., 255., 255., 255., 255., 255., 255., 255., 255.,
          252., 142., 0., 0., 205., 0., 102., 255., 255., 255., 255.,
          255., 255., 255., 255., 255., 119., 0., 0., 0., 205., 0., 102.,
          255., 255., 255., 255., 99., 42., 42., 42., 42., 0. ]
      - [ 205., 205., 255., 255., 255., 255., 255., 255., 255., 137., 6.,
          0., 205., 205., 205., 205., 205., 205., 255., 255., 255., 255.,
          255., 255., 255., 255., 117., 6., 205., 205., 205., 205., 205.,
          205., 255., 255., 255., 255., 255., 255., 255., 255., 255.,
          26., 205., 205., 205., 205., 205., 205., 255., 255., 188.,
          121., 121., 255., 255., 255., 255., 26., 205., 205., 205.,
          205., 205., 205., 255., 203., 41., 0., 0., 100., 255., 255.,
          135., 8., 205., 205., 205., 205., 205., 205., 255., 178., 0.,
          0., 0., 25., 255., 255., 76., 0., 205., 205., 205., 205., 205.,
          205., 255., 178., 0., 0., 0., 249., 255., 255., 76., 0., 205.,
          205., 205., 205., 205., 205., 255., 178., 0., 0., 0., 226.,
          255., 255., 76., 0., 205., 205., 205., 205., 205., 205., 255.,
          178., 0., 0., 0., 89., 255., 255., 76., 0., 205., 205., 205.,
          205., 205., 205., 255., 178., 0., 0., 0., 255., 255., 255.,
          76., 0., 205., 205., 205., 205., 205., 205., 255., 178., 0.,
          0., 0., 255., 255., 255., 76., 0., 205., 205., 205., 205.,
          205., 205., 255., 178., 0., 0., 0., 255., 255., 255., 76., 0.,
          205., 205., 205., 205., 205., 205., 255., 178., 0., 0., 0.,
          255., 255., 255., 76., 0., 205., 205., 205., 205., 205., 205.,
          255., 178., 0., 0., 0., 255., 255., 255., 76., 0., 205., 205.,
          205., 205., 205., 205., 255., 192., 45., 45., 45., 255., 255.,
          255., 76., 0., 205., 205., 205., 205., 205., 205., 255., 255.,
          255., 255., 255., 255., 255., 213., 52., 0., 205., 205., 205.,
          205., 205., 205., 255., 255., 255., 255., 255., 255., 255.,
          127., 0., 0., 205., 205., 205., 205., 205., 205., 255., 255.,
          255., 255., 255., 255., 255., 127., 0., 0., 205., 205., 205.,
          205., 205., 205., 255., 255., 255., 255., 77., 57., 57., 29.,
          0., 178. ]
      - [ 0., 178., 255., 255., 255., 255., 255., 255., 255., 255., 255.,
          76., 0., 0., 0., 205., 0., 179., 255., 255., 255., 255., 130.,
          166., 255., 255., 255., 201., 89., 0., 0., 205., 0., 179.,
          255., 255., 242., 140., 38., 64., 166., 255., 255., 255., 128.,
          0., 0., 205., 0., 179., 255., 232., 161., 18., 0., 0., 76.,
          255., 255., 255., 128., 0., 0., 205., 0., 178., 255., 178., 0.,
          0., 0., 0., 76., 255., 255., 255., 128., 0., 0., 205., 0.,
          178., 255., 178., 0., 0., 0., 0., 76., 255., 255., 255., 128.,
          0., 0., 205., 0., 179., 255., 232., 161., 18., 0., 0., 76.,
          255., 255., 255., 128., 0., 0., 205., 0., 179., 255., 217.,
          115., 13., 0., 0., 76., 255., 255., 255., 128., 0., 0., 205.,
          0., 179., 255., 179., 0., 0., 0., 0., 76., 255., 255., 255.,
          128., 0., 0., 205., 0., 178., 255., 178., 0., 0., 0., 0., 76.,
          255., 255., 255., 128., 0., 0., 205., 0., 178., 255., 178., 0.,
          0., 0., 0., 76., 255., 255., 255., 128., 0., 0., 205., 0.,
          179., 255., 179., 0., 0., 0., 0., 76., 255., 255., 255., 128.,
          0., 0., 205., 0., 179., 255., 179., 0., 0., 0., 0., 76., 255.,
          255., 255., 128., 0., 0., 205., 0., 179., 255., 179., 0., 0.,
          0., 0., 76., 255., 255., 255., 128., 0., 0., 205., 26., 186.,
          255., 186., 23., 3., 0., 0., 76., 255., 255., 255., 128., 0.,
          0., 205., 229., 247., 255., 247., 206., 23., 0., 0., 76., 255.,
          255., 255., 128., 0., 0., 205., 255., 255., 255., 255., 247.,
          186., 179., 179., 201., 255., 255., 130., 38., 0., 0., 205.,
          255., 255., 191., 128., 140., 242., 255., 255., 255., 242.,
          140., 38., 0., 0., 0., 205., 179., 179., 89., 0., 18., 161.,
          179., 179., 179., 161., 18., 0. ]
      - [ 205., 0., 167., 255., 255., 255., 255., 255., 255., 255., 255.,
          255., 167., 0., 205., 205., 205., 0., 167., 255., 255., 255.,
          255., 175., 138., 255., 255., 255., 222., 159., 205., 205.,
          205., 0., 167., 255., 255., 255., 185., 80., 43., 163., 236.,
          255., 255., 255., 205., 205., 205., 0., 167., 255., 249., 224.,
          60., 0., 0., 10., 206., 255., 255., 255., 205., 205., 205., 0.,
          167., 255., 212., 40., 9., 0., 0., 10., 206., 255., 255., 255.,
          205., 205., 205., 0., 167., 255., 206., 10., 0., 0., 0., 4.,
          77., 187., 255., 255., 205., 205., 205., 0., 167., 255., 224.,
          102., 26., 0., 0., 0., 0., 147., 255., 255., 205., 205., 205.,
          0., 167., 255., 249., 224., 60., 0., 0., 1., 26., 161., 255.,
          255., 205., 205., 205., 0., 167., 255., 212., 40., 9., 0., 0.,
          9., 180., 241., 255., 255., 205., 205., 205., 0., 167., 255.,
          206., 10., 0., 0., 0., 10., 206., 255., 255., 255., 205., 205.,
          205., 0., 167., 255., 206., 10., 0., 0., 0., 10., 206., 255.,
          255., 255., 205., 205., 205., 0., 167., 255., 206., 10., 0.,
          0., 0., 10., 206., 255., 255., 255., 205., 205., 205., 0.,
          167., 255., 206., 10., 0., 0., 0., 10., 206., 255., 255., 255.,
          205., 205., 205., 0., 167., 255., 206., 10., 0., 0., 0., 10.,
          206., 255., 200., 96., 205., 205., 205., 0., 167., 255., 206.,
          10., 0., 0., 0., 10., 206., 255., 167., 0., 205., 205., 205.,
          32., 178., 255., 212., 40., 9., 0., 9., 40., 212., 255., 167.,
          0., 205., 205., 205., 223., 244., 255., 249., 224., 60., 0.,
          60., 224., 249., 255., 167., 0., 205., 205., 205., 255., 255.,
          255., 255., 255., 185., 159., 185., 255., 255., 255., 167., 0.,
          205., 205., 205., 159., 222., 255., 255., 255., 255., 255.,
          255., 255., 255., 255. ]
      - [ 205., 0., 43., 57., 205., 191., 0., 57., 14., 206., 57., 57.,
          14., 205., 205., 205., 205., 0., 191., 255., 255., 234., 172.,
          255., 193., 255., 255., 255., 64., 205., 205., 205., 205., 0.,
          191., 255., 255., 255., 255., 255., 255., 255., 255., 255.,
          231., 205., 205., 205., 205., 37., 228., 255., 255., 255.,
          255., 255., 255., 255., 255., 218., 27., 205., 205., 205.,
          205., 64., 255., 255., 255., 249., 62., 0., 186., 249., 62.,
          0., 0., 205., 205., 205., 205., 64., 255., 255., 164., 0., 0.,
          0., 0., 0., 0., 0., 0., 205., 205., 205., 205., 64., 255.,
          255., 64., 0., 0., 0., 0., 0., 0., 0., 0., 205., 205., 205.,
          205., 64., 255., 255., 135., 0., 0., 0., 72., 72., 0., 0., 0.,
          205., 205., 205., 205., 64., 255., 255., 255., 210., 210.,
          210., 244., 191., 0., 0., 0., 205., 205., 205., 205., 64.,
          255., 255., 255., 255., 255., 255., 255., 191., 0., 0., 0.,
          205., 205., 205., 205., 18., 209., 255., 255., 255., 255.,
          255., 255., 191., 0., 0., 0., 205., 205., 205., 205., 45.,
          202., 255., 255., 53., 210., 53., 210., 191., 0., 0., 0., 205.,
          205., 205., 205., 255., 255., 255., 135., 0., 0., 0., 0., 72.,
          0., 0., 0., 205., 205., 205., 205., 64., 255., 255., 64., 0.,
          0., 0., 0., 0., 0., 0., 0., 205., 205., 205., 205., 64., 255.,
          255., 164., 0., 0., 0., 0., 0., 0., 0., 0., 205., 205., 205.,
          205., 64., 255., 255., 255., 249., 249., 249., 62., 0., 0., 0.,
          0., 205., 205., 205., 205., 64., 255., 255., 255., 255., 255.,
          255., 255., 255., 255., 218., 27., 205., 205., 205., 205., 64.,
          255., 255., 255., 255., 255., 255., 255., 255., 255., 255.,
          64., 205., 205., 205., 205., 0., 129., 255., 255., 172., 172.,
          193., 255., 193., 255., 255. ]
      - [ 205., 205., 0., 139., 255., 255., 255., 210., 0., 0., 210.,
          210., 210., 205., 205., 205., 205., 205., 0., 66., 121., 121.,
          121., 0., 0., 0., 0., 0., 0., 205., 205., 205., 205., 205., 0.,
          0., 0., 0., 0., 0., 0., 0., 0., 0., 0., 205., 205., 205., 205.,
          205., 0., 0., 0., 16., 57., 57., 57., 57., 57., 31., 0., 205.,
          205., 205., 205., 205., 27., 147., 147., 176., 255., 255.,
          255., 255., 255., 139., 0., 205., 205., 205., 205., 205., 46.,
          255., 255., 255., 255., 255., 255., 255., 255., 139., 0., 205.,
          205., 205., 205., 205., 46., 255., 255., 255., 210., 185.,
          255., 255., 249., 101., 0., 205., 205., 205., 205., 205., 46.,
          255., 255., 255., 93., 0., 96., 96., 87., 0., 0., 205., 205.,
          205., 205., 205., 46., 255., 255., 187., 2., 0., 0., 0., 0.,
          0., 0., 205., 205., 205., 205., 205., 31., 217., 255., 208.,
          83., 83., 83., 23., 0., 0., 0., 205., 205., 205., 205., 205.,
          0., 139., 255., 255., 255., 255., 255., 195., 0., 0., 0., 205.,
          205., 205., 205., 205., 0., 139., 255., 255., 255., 255., 255.,
          255., 0., 0., 0., 205., 205., 205., 205., 205., 0., 139., 255.,
          255., 255., 255., 220., 159., 0., 0., 0., 205., 205., 205.,
          205., 205., 0., 139., 255., 255., 137., 70., 45., 0., 0., 0.,
          0., 205., 205., 205., 205., 205., 0., 139., 255., 255., 93.,
          0., 0., 0., 0., 0., 0., 205., 205., 205., 205., 205., 0., 139.,
          255., 255., 162., 108., 108., 108., 108., 59., 0., 205., 205.,
          205., 205., 205., 0., 139., 255., 255., 255., 255., 255., 255.,
          255., 229., 36., 205., 205., 205., 205., 205., 0., 122., 252.,
          255., 255., 255., 255., 255., 255., 255., 72., 205., 205.,
          205., 205., 205., 0., 0., 232., 222., 134., 134., 255., 255.,
          255., 255. ]
      - [ 205., 20., 70., 155., 255., 255., 70., 70., 255., 255., 255.,
          255., 124., 205., 205., 205., 205., 74., 255., 255., 255.,
          255., 255., 255., 255., 255., 255., 255., 255., 205., 205.,
          205., 205., 74., 255., 255., 255., 255., 255., 255., 255.,
          255., 255., 255., 187., 205., 205., 205., 205., 74., 255.,
          255., 255., 255., 19., 19., 255., 29., 19., 19., 6., 205.,
          205., 205., 205., 0., 223., 255., 255., 95., 0., 0., 0., 0.,
          0., 0., 0., 205., 205., 205., 205., 0., 223., 255., 255., 95.,
          0., 0., 0., 0., 0., 0., 0., 205., 205., 205., 205., 0., 223.,
          255., 255., 187., 0., 0., 0., 0., 0., 0., 0., 205., 205., 205.,
          205., 9., 227., 255., 255., 255., 255., 255., 255., 41., 0.,
          0., 0., 205., 205., 205., 205., 74., 255., 255., 255., 255.,
          255., 255., 255., 255., 0., 0., 0., 205., 205., 205., 205.,
          58., 248., 255., 255., 255., 255., 255., 255., 200., 0., 0.,
          0., 205., 205., 205., 205., 0., 50., 255., 255., 255., 255.,
          98., 57., 2., 0., 0., 0., 205., 205., 205., 205., 0., 223.,
          255., 255., 96., 0., 0., 0., 0., 0., 0., 0., 205., 205., 205.,
          205., 0., 223., 255., 255., 95., 0., 0., 0., 0., 0., 0., 0.,
          205., 205., 205., 205., 0., 223., 255., 255., 96., 0., 0., 41.,
          108., 108., 95., 0., 205., 205., 205., 205., 72., 254., 255.,
          255., 251., 249., 249., 251., 255., 255., 254., 72., 205.,
          205., 205., 205., 255., 255., 255., 255., 255., 255., 255.,
          255., 255., 255., 255., 255., 205., 205., 205., 205., 0., 223.,
          255., 255., 255., 255., 255., 255., 255., 255., 253., 69.,
          205., 205., 205., 205., 0., 84., 255., 255., 255., 222., 96.,
          96., 96., 96., 84., 0., 205., 205., 205., 205., 255., 255.,
          255., 202., 0., 0., 0., 0., 0., 0., 0. ]
      - [ 205., 0., 0., 0., 0., 0., 0., 0., 0., 0., 0., 0., 143., 205.,
          205., 205., 205., 0., 0., 48., 48., 0., 0., 0., 0., 0., 0., 0.,
          0., 205., 205., 205., 205., 0., 48., 255., 255., 255., 255.,
          255., 255., 255., 255., 64., 16., 205., 205., 205., 205., 48.,
          239., 255., 255., 255., 255., 255., 255., 255., 255., 255.,
          64., 205., 205., 205., 205., 64., 255., 255., 255., 255., 255.,
          255., 255., 255., 255., 191., 48., 205., 205., 205., 205., 64.,
          255., 255., 255., 207., 64., 64., 64., 255., 112., 0., 0.,
          205., 205., 205., 205., 64., 255., 255., 255., 0., 0., 0., 0.,
          0., 0., 0., 0., 205., 205., 205., 205., 16., 207., 255., 255.,
          0., 0., 0., 0., 0., 0., 0., 0., 205., 205., 205., 205., 0.,
          191., 255., 255., 207., 64., 64., 16., 0., 0., 0., 0., 205.,
          205., 205., 205., 0., 191., 255., 255., 255., 255., 255., 207.,
          0., 0., 0., 0., 205., 205., 205., 205., 64., 255., 255., 255.,
          255., 255., 255., 255., 143., 0., 0., 0., 205., 205., 205.,
          205., 16., 207., 255., 255., 255., 255., 255., 112., 0., 0.,
          0., 0., 205., 205., 205., 205., 0., 191., 255., 255., 143., 0.,
          0., 0., 0., 0., 0., 0., 205., 205., 205., 205., 0., 191., 255.,
          255., 0., 0., 0., 0., 0., 0., 0., 0., 205., 205., 205., 205.,
          0., 191., 255., 255., 64., 16., 64., 64., 64., 64., 0., 0.,
          205., 205., 205., 205., 0., 191., 255., 255., 255., 207., 255.,
          255., 255., 255., 143., 0., 205., 205., 205., 205., 0., 191.,
          255., 255., 255., 255., 255., 255., 255., 255., 255., 64.,
          205., 205., 205., 205., 191., 239., 255., 255., 255., 255.,
          255., 255., 255., 255., 207., 16., 205., 205., 205., 205.,
          255., 207., 143., 0., 0., 0., 0., 0., 0., 0., 0. ]
      - [ 205., 88., 255., 255., 255., 255., 255., 255., 255., 255.,
          255., 45., 9., 205., 205., 205., 205., 255., 255., 255., 255.,
          255., 255., 255., 255., 255., 255., 255., 159., 205., 205.,
          205., 205., 78., 255., 255., 255., 255., 255., 255., 255.,
          255., 255., 255., 255., 205., 205., 205., 205., 255., 255.,
          255., 255., 205., 198., 198., 0., 0., 0., 0., 0., 205., 205.,
          205., 205., 139., 255., 249., 108., 14., 0., 0., 0., 0., 0.,
          0., 0., 205., 205., 205., 205., 240., 255., 244., 0., 0., 0.,
          0., 0., 0., 0., 0., 0., 205., 205., 205., 205., 255., 255.,
          247., 38., 0., 0., 0., 0., 0., 0., 0., 0., 205., 205., 205.,
          205., 255., 255., 255., 211., 159., 0., 0., 0., 0., 0., 0., 0.,
          205., 205., 205., 205., 255., 255., 255., 255., 255., 249.,
          249., 0., 0., 0., 0., 0., 205., 205., 205., 205., 119., 255.,
          255., 255., 255., 255., 255., 151., 0., 0., 0., 0., 205., 205.,
          205., 205., 255., 255., 255., 255., 255., 255., 255., 0., 0.,
          0., 0., 0., 205., 205., 205., 205., 255., 255., 255., 138., 0.,
          0., 0., 0., 0., 0., 0., 0., 205., 205., 205., 205., 255., 255.,
          251., 86., 0., 0., 0., 0., 0., 0., 0., 0., 205., 205., 205.,
          205., 255., 255., 244., 0., 0., 0., 0., 0., 0., 0., 0., 0.,
          205., 205., 205., 205., 255., 255., 245., 10., 0., 0., 0., 0.,
          0., 0., 0., 0., 205., 205., 205., 205., 255., 255., 255., 188.,
          108., 108., 108., 108., 108., 4., 0., 0., 205., 205., 205.,
          205., 255., 255., 255., 255., 255., 255., 255., 255., 255.,
          200., 124., 0., 205., 205., 205., 205., 255., 255., 255., 255.,
          255., 255., 255., 255., 255., 255., 255., 255., 205., 205.,
          205., 205., 134., 134., 255., 255., 149., 134., 134., 134.,
          199., 255., 255. ]
      - [ 205., 205., 0., 0., 0., 0., 134., 0., 0., 0., 0., 96., 247.,
          205., 205., 205., 205., 205., 0., 0., 0., 0., 0., 0., 0., 0.,
          0., 0., 99., 205., 205., 205., 205., 205., 0., 0., 0., 0., 0.,
          0., 0., 0., 0., 0., 0., 205., 205., 205., 205., 205., 0., 0.,
          0., 16., 57., 57., 57., 57., 57., 31., 0., 205., 205., 205.,
          205., 205., 0., 80., 147., 176., 255., 255., 255., 255., 255.,
          206., 27., 205., 205., 205., 205., 205., 236., 246., 255.,
          255., 255., 255., 255., 255., 255., 148., 3., 205., 205., 205.,
          205., 205., 46., 255., 255., 255., 255., 255., 255., 255.,
          249., 101., 0., 205., 205., 205., 205., 205., 17., 182., 255.,
          211., 96., 96., 96., 96., 87., 0., 0., 205., 205., 205., 205.,
          205., 0., 139., 255., 185., 0., 0., 0., 0., 0., 0., 0., 205.,
          205., 205., 205., 205., 0., 139., 255., 255., 145., 83., 145.,
          130., 0., 0., 0., 205., 205., 205., 205., 205., 0., 139., 255.,
          255., 255., 255., 255., 255., 0., 0., 0., 205., 205., 205.,
          205., 205., 0., 139., 255., 255., 255., 255., 255., 250., 0.,
          0., 0., 205., 205., 205., 205., 205., 0., 139., 255., 255.,
          255., 255., 220., 44., 0., 0., 0., 205., 205., 205., 205.,
          205., 0., 38., 238., 255., 255., 70., 45., 0., 0., 0., 0.,
          205., 205., 205., 205., 205., 0., 10., 233., 255., 93., 0., 0.,
          0., 0., 0., 0., 205., 205., 205., 205., 205., 0., 139., 255.,
          255., 162., 0., 0., 0., 0., 0., 0., 205., 205., 205., 205.,
          205., 0., 31., 237., 255., 255., 0., 0., 0., 0., 0., 0., 205.,
          205., 205., 205., 205., 0., 17., 235., 255., 93., 0., 32., 9.,
          0., 14., 32., 205., 205., 205., 205., 205., 0., 139., 255.,
          255., 93., 0., 134., 37., 11., 182. ]
      - [ 205., 205., 255., 221., 120., 0., 0., 151., 159., 40., 0., 0.,
          205., 205., 205., 205., 205., 205., 123., 0., 0., 0., 0., 0.,
          0., 0., 0., 0., 205., 205., 205., 205., 205., 205., 0., 0.,
          223., 223., 223., 223., 223., 223., 223., 0., 205., 205., 205.,
          205., 205., 205., 115., 193., 255., 255., 255., 255., 255.,
          255., 255., 96., 205., 205., 205., 205., 205., 205., 72., 255.,
          255., 159., 255., 255., 255., 255., 89., 0., 205., 205., 205.,
          205., 205., 205., 0., 255., 247., 0., 11., 253., 228., 0., 78.,
          0., 205., 205., 205., 205., 205., 205., 100., 255., 191., 0.,
          0., 30., 5., 0., 0., 0., 205., 205., 205., 205., 205., 205.,
          115., 255., 191., 0., 0., 0., 0., 0., 0., 0., 205., 205., 205.,
          205., 205., 205., 115., 255., 215., 81., 0., 0., 0., 0., 0.,
          53., 205., 205., 205., 205., 205., 205., 115., 255., 255.,
          255., 255., 255., 32., 0., 0., 140., 205., 205., 205., 205.,
          205., 205., 115., 255., 255., 255., 255., 255., 255., 0., 78.,
          140., 205., 205., 205., 205., 205., 205., 115., 255., 255.,
          255., 255., 255., 119., 0., 33., 140., 205., 205., 205., 205.,
          205., 205., 72., 255., 255., 217., 103., 255., 0., 0., 0.,
          140., 205., 205., 205., 205., 205., 205., 115., 255., 255., 0.,
          0., 0., 0., 0., 166., 255., 205., 205., 205., 205., 205., 205.,
          115., 255., 255., 0., 0., 0., 0., 0., 166., 255., 205., 205.,
          205., 205., 205., 205., 115., 255., 255., 0., 0., 0., 0., 0.,
          166., 255., 205., 205., 205., 205., 205., 205., 115., 255.,
          255., 0., 0., 0., 0., 0., 166., 255., 205., 205., 205., 205.,
          205., 205., 132., 255., 255., 0., 0., 0., 0., 0., 145., 100.,
          205., 205., 205., 205., 205., 205., 255., 255., 199., 0., 0.,
          0., 0., 167., 223., 223. ]
      - [ 205., 205., 89., 255., 255., 255., 255., 255., 255., 255.,
          255., 255., 205., 205., 205., 205., 205., 205., 251., 255.,
          255., 255., 255., 255., 6., 6., 6., 168., 205., 205., 205.,
          205., 205., 205., 0., 0., 0., 0., 0., 0., 0., 0., 0., 0., 205.,
          205., 205., 205., 205., 205., 0., 3., 70., 70., 98., 255.,
          255., 255., 255., 25., 205., 205., 205., 205., 205., 205., 83.,
          237., 255., 255., 255., 255., 255., 255., 255., 89., 205.,
          205., 205., 205., 205., 205., 160., 255., 255., 255., 255.,
          255., 255., 255., 255., 89., 205., 205., 205., 205., 205.,
          205., 89., 255., 255., 229., 198., 198., 198., 255., 255., 0.,
          205., 205., 205., 205., 205., 205., 89., 255., 255., 140., 0.,
          0., 0., 32., 32., 0., 205., 205., 205., 205., 205., 205., 89.,
          255., 255., 74., 0., 0., 0., 0., 0., 0., 205., 205., 205.,
          205., 205., 205., 89., 255., 255., 255., 255., 255., 45., 0.,
          0., 0., 205., 205., 205., 205., 205., 205., 89., 255., 255.,
          255., 255., 255., 255., 0., 0., 0., 205., 205., 205., 205.,
          205., 205., 89., 255., 255., 255., 255., 255., 255., 0., 0.,
          0., 205., 205., 205., 205., 205., 205., 89., 255., 255., 241.,
          223., 223., 100., 0., 0., 0., 205., 205., 205., 205., 205.,
          205., 89., 255., 255., 140., 0., 0., 0., 0., 0., 0., 205.,
          205., 205., 205., 205., 205., 89., 255., 255., 0., 0., 0., 0.,
          0., 0., 0., 205., 205., 205., 205., 205., 205., 89., 255.,
          255., 0., 0., 0., 0., 0., 0., 0., 205., 205., 205., 205., 205.,
          205., 89., 255., 255., 0., 0., 0., 0., 0., 0., 0., 205., 205.,
          205., 205., 205., 205., 255., 255., 255., 0., 0., 0., 0., 0.,
          0., 0., 205., 205., 205., 205., 205., 205., 255., 255., 62.,
          0., 0., 0., 0., 0., 0., 0. ]
      - [ 205., 0., 0., 255., 255., 255., 255., 255., 255., 255., 255.,
          0., 0., 205., 205., 205., 205., 0., 236., 255., 255., 255.,
          255., 255., 255., 255., 255., 236., 236., 205., 205., 205.,
          205., 0., 255., 255., 255., 255., 255., 255., 255., 255., 255.,
          255., 32., 205., 205., 205., 205., 0., 255., 255., 255., 255.,
          255., 255., 255., 45., 45., 45., 0., 205., 205., 205., 205.,
          0., 57., 255., 255., 57., 57., 57., 57., 0., 0., 0., 0., 205.,
          205., 205., 205., 0., 0., 255., 255., 0., 0., 0., 0., 0., 0.,
          0., 0., 205., 205., 205., 205., 0., 172., 255., 255., 172., 0.,
          0., 0., 0., 0., 0., 0., 205., 205., 205., 205., 0., 255., 255.,
          255., 255., 159., 159., 159., 0., 0., 0., 0., 205., 205., 205.,
          205., 0., 255., 255., 255., 255., 255., 255., 255., 0., 0., 0.,
          0., 205., 205., 205., 205., 0., 121., 255., 255., 255., 255.,
          255., 255., 0., 0., 0., 0., 205., 205., 205., 205., 0., 0.,
          255., 255., 134., 134., 134., 134., 0., 0., 0., 0., 205., 205.,
          205., 205., 0., 0., 255., 255., 0., 0., 0., 0., 0., 0., 0., 0.,
          205., 205., 205., 205., 0., 0., 255., 255., 0., 0., 0., 0., 0.,
          0., 0., 0., 205., 205., 205., 205., 0., 0., 255., 255., 0., 0.,
          0., 0., 0., 0., 0., 0., 205., 205., 205., 205., 0., 0., 255.,
          255., 0., 0., 0., 0., 0., 0., 0., 0., 205., 205., 205., 205.,
          0., 0., 255., 255., 0., 0., 0., 0., 0., 0., 0., 0., 205., 205.,
          205., 205., 0., 45., 255., 255., 0., 0., 0., 0., 0., 0., 0.,
          0., 205., 205., 205., 205., 32., 255., 255., 223., 0., 0., 0.,
          0., 0., 0., 0., 0., 205., 205., 205., 205., 255., 236., 236.,
          0., 0., 0., 0., 0., 0., 0., 0. ]
      - [ 205., 0., 0., 255., 255., 255., 255., 255., 255., 255., 255.,
          255., 255., 205., 205., 205., 205., 0., 0., 255., 255., 255.,
          255., 255., 255., 19., 19., 255., 19., 205., 205., 205., 205.,
          0., 0., 255., 255., 255., 32., 32., 32., 0., 0., 32., 0., 205.,
          205., 205., 205., 0., 0., 255., 255., 45., 0., 0., 0., 0., 0.,
          0., 0., 205., 205., 205., 205., 0., 0., 255., 255., 0., 0., 0.,
          0., 0., 0., 0., 0., 205., 205., 205., 205., 0., 0., 255., 255.,
          185., 0., 0., 0., 0., 0., 0., 0., 205., 205., 205., 205., 0.,
          0., 255., 255., 255., 172., 172., 172., 172., 0., 0., 0., 205.,
          205., 205., 205., 0., 0., 255., 255., 255., 255., 255., 255.,
          96., 0., 0., 0., 205., 205., 205., 205., 0., 0., 255., 255.,
          255., 255., 255., 108., 0., 0., 0., 0., 205., 205., 205., 205.,
          0., 0., 255., 255., 255., 121., 121., 0., 0., 0., 0., 0., 205.,
          205., 205., 205., 0., 0., 255., 255., 134., 0., 0., 0., 0., 0.,
          0., 0., 205., 205., 205., 205., 0., 108., 255., 255., 0., 0.,
          0., 0., 0., 0., 0., 0., 205., 205., 205., 205., 0., 255., 255.,
          255., 0., 0., 0., 0., 0., 0., 0., 0., 205., 205., 205., 205.,
          0., 255., 255., 255., 0., 0., 0., 0., 0., 0., 0., 0., 205.,
          205., 205., 205., 0., 255., 255., 255., 0., 0., 0., 0., 0., 0.,
          0., 0., 205., 205., 205., 205., 0., 255., 255., 255., 57., 0.,
          0., 0., 0., 0., 0., 0., 205., 205., 205., 205., 45., 255.,
          255., 255., 255., 45., 0., 0., 0., 0., 0., 0., 205., 205.,
          205., 205., 255., 255., 255., 223., 223., 223., 0., 0., 0., 0.,
          0., 0., 205., 205., 205., 205., 255., 255., 255., 0., 0., 0.,
          0., 0., 0., 0., 0. ]
      - [ 205., 205., 89., 255., 255., 255., 255., 255., 255., 210., 4.,
          0., 205., 205., 205., 205., 205., 205., 238., 255., 255., 255.,
          255., 255., 255., 255., 231., 80., 205., 205., 205., 205.,
          205., 205., 255., 255., 255., 255., 255., 255., 255., 255.,
          255., 89., 205., 205., 205., 205., 205., 205., 255., 255.,
          255., 243., 0., 0., 243., 255., 231., 0., 205., 205., 205.,
          205., 205., 205., 255., 255., 255., 42., 0., 0., 42., 76., 4.,
          0., 205., 205., 205., 205., 205., 205., 255., 255., 255., 0.,
          0., 0., 0., 0., 0., 0., 205., 205., 205., 205., 205., 205.,
          255., 255., 255., 0., 0., 0., 0., 0., 0., 0., 205., 205., 205.,
          205., 205., 205., 255., 255., 255., 0., 0., 108., 128., 128.,
          128., 45., 205., 205., 205., 205., 205., 205., 255., 255.,
          255., 0., 0., 217., 255., 255., 255., 89., 205., 205., 205.,
          205., 205., 205., 255., 255., 255., 0., 0., 217., 255., 255.,
          255., 89., 205., 205., 205., 205., 205., 205., 255., 255.,
          255., 0., 0., 152., 221., 255., 255., 139., 205., 205., 205.,
          205., 205., 205., 255., 255., 255., 0., 0., 0., 140., 255.,
          255., 255., 205., 205., 205., 205., 205., 205., 255., 255.,
          255., 198., 128., 128., 70., 255., 255., 172., 205., 205.,
          205., 205., 205., 205., 255., 255., 255., 255., 255., 255.,
          255., 255., 255., 89., 205., 205., 205., 205., 205., 205.,
          255., 255., 255., 255., 255., 255., 255., 255., 255., 89.,
          205., 205., 205., 205., 205., 205., 50., 179., 179., 213.,
          255., 255., 255., 255., 182., 0., 205., 205., 205., 205., 205.,
          205., 246., 0., 0., 11., 26., 26., 26., 26., 1., 0., 205.,
          205., 205., 205., 205., 205., 255., 0., 0., 0., 0., 0., 0., 0.,
          0., 0., 205., 205., 205., 205., 205., 205., 255., 0., 0., 0.,
          0., 0., 0., 0., 0., 0. ]
      - [ 205., 205., 10., 188., 255., 255., 255., 255., 255., 255., 73.,
          0., 0., 205., 205., 205., 205., 205., 161., 255., 255., 255.,
          255., 255., 255., 255., 255., 91., 0., 205., 205., 205., 205.,
          205., 255., 255., 255., 255., 255., 255., 255., 255., 255.,
          245., 51., 205., 205., 205., 205., 205., 255., 255., 255.,
          255., 255., 255., 255., 255., 255., 255., 58., 205., 205.,
          205., 205., 205., 255., 255., 255., 255., 248., 108., 248.,
          168., 255., 255., 58., 205., 205., 205., 205., 205., 255.,
          255., 255., 255., 18., 0., 18., 8., 19., 19., 4., 205., 205.,
          205., 205., 205., 255., 255., 255., 255., 0., 0., 0., 0., 0.,
          0., 0., 205., 205., 205., 205., 205., 255., 255., 255., 161.,
          0., 0., 0., 0., 0., 0., 0., 205., 205., 205., 205., 205., 255.,
          255., 255., 104., 0., 0., 0., 0., 0., 0., 0., 205., 205., 205.,
          205., 205., 255., 255., 255., 104., 0., 127., 255., 83., 83.,
          57., 0., 205., 205., 205., 205., 205., 255., 255., 255., 104.,
          8., 213., 255., 255., 255., 229., 172., 205., 205., 205., 205.,
          205., 255., 255., 255., 104., 12., 255., 255., 255., 255.,
          255., 255., 205., 205., 205., 205., 205., 255., 255., 255.,
          104., 7., 159., 251., 255., 255., 255., 255., 205., 205., 205.,
          205., 205., 112., 255., 255., 104., 0., 0., 67., 255., 255.,
          255., 255., 205., 205., 205., 205., 205., 58., 255., 255.,
          255., 0., 0., 0., 244., 255., 255., 255., 205., 205., 205.,
          205., 205., 58., 255., 255., 255., 108., 108., 108., 168.,
          255., 255., 255., 205., 205., 205., 205., 205., 58., 255.,
          255., 255., 255., 255., 255., 255., 255., 255., 255., 205.,
          205., 205., 205., 205., 0., 152., 255., 255., 255., 255., 255.,
          255., 255., 255., 230., 205., 205., 205., 205., 205., 0., 0.,
          150., 255., 255., 255., 255., 255., 255., 134. ]
      - [ 205., 205., 0., 0., 41., 70., 70., 70., 255., 112., 0., 0., 0.,
          205., 205., 205., 205., 205., 0., 201., 237., 255., 255., 255.,
          255., 255., 124., 0., 0., 205., 205., 205., 205., 205., 30.,
          248., 255., 255., 255., 255., 255., 255., 190., 0., 0., 205.,
          205., 205., 205., 205., 81., 255., 255., 255., 255., 255.,
          255., 255., 255., 0., 0., 205., 205., 205., 205., 205., 255.,
          255., 255., 103., 0., 0., 150., 255., 255., 0., 0., 205., 205.,
          205., 205., 205., 255., 255., 104., 0., 0., 0., 0., 0., 0., 0.,
          0., 205., 205., 205., 205., 205., 255., 255., 104., 0., 0., 0.,
          0., 0., 0., 0., 0., 205., 205., 205., 205., 205., 81., 255.,
          104., 0., 0., 0., 0., 0., 0., 0., 0., 205., 205., 205., 205.,
          205., 81., 255., 206., 0., 0., 0., 0., 133., 102., 0., 0.,
          205., 205., 205., 205., 205., 120., 255., 255., 0., 0., 29.,
          255., 255., 255., 55., 0., 205., 205., 205., 205., 205., 255.,
          255., 255., 0., 0., 226., 255., 255., 255., 243., 0., 205.,
          205., 205., 205., 205., 138., 255., 255., 0., 0., 127., 255.,
          255., 255., 243., 0., 205., 205., 205., 205., 205., 255., 255.,
          255., 0., 0., 16., 62., 255., 255., 243., 0., 205., 205., 205.,
          205., 205., 181., 255., 255., 0., 0., 0., 35., 255., 255.,
          243., 0., 205., 205., 205., 205., 205., 251., 255., 255., 192.,
          0., 0., 249., 255., 255., 243., 0., 205., 205., 205., 205.,
          205., 255., 255., 255., 255., 255., 255., 255., 255., 255.,
          243., 0., 205., 205., 205., 205., 205., 242., 255., 255., 255.,
          255., 255., 255., 255., 255., 225., 0., 205., 205., 205., 205.,
          205., 30., 96., 190., 255., 255., 255., 255., 132., 96., 0.,
          0., 205., 205., 205., 205., 205., 0., 0., 0., 210., 29., 0.,
          0., 0., 26., 54. ]
      - [ 205., 205., 205., 26., 157., 0., 0., 0., 0., 0., 0., 0., 205.,
          205., 205., 205., 205., 205., 205., 0., 0., 0., 45., 57., 57.,
          32., 0., 0., 205., 205., 205., 205., 205., 205., 205., 0., 32.,
          96., 219., 255., 255., 184., 96., 11., 205., 205., 205., 205.,
          205., 205., 205., 15., 174., 255., 255., 255., 255., 255.,
          255., 28., 205., 205., 205., 205., 205., 205., 205., 181.,
          255., 255., 255., 255., 255., 255., 255., 28., 205., 205.,
          205., 205., 205., 205., 205., 255., 255., 255., 255., 255.,
          255., 255., 255., 28., 205., 205., 205., 205., 205., 205.,
          205., 255., 255., 255., 255., 6., 61., 255., 89., 1., 205.,
          205., 205., 205., 205., 205., 205., 28., 255., 255., 57., 0.,
          0., 0., 0., 0., 205., 205., 205., 205., 205., 205., 205., 28.,
          255., 255., 57., 0., 0., 0., 0., 0., 205., 205., 205., 205.,
          205., 205., 205., 28., 255., 255., 57., 0., 108., 108., 108.,
          12., 205., 205., 205., 205., 205., 205., 205., 28., 255., 255.,
          57., 0., 255., 255., 255., 28., 205., 205., 205., 205., 205.,
          205., 205., 28., 255., 255., 57., 0., 255., 255., 255., 193.,
          205., 205., 205., 205., 205., 205., 205., 227., 255., 255.,
          57., 0., 255., 255., 255., 255., 205., 205., 205., 205., 205.,
          205., 205., 255., 255., 117., 1., 6., 255., 255., 255., 255.,
          205., 205., 205., 205., 205., 205., 205., 255., 255., 255.,
          91., 255., 255., 255., 255., 255., 205., 205., 205., 205.,
          205., 205., 205., 181., 255., 255., 255., 255., 255., 255.,
          255., 255., 205., 205., 205., 205., 205., 205., 205., 28.,
          255., 255., 255., 255., 255., 255., 255., 255., 205., 205.,
          205., 205., 205., 205., 205., 28., 255., 255., 255., 255.,
          255., 255., 255., 255., 205., 205., 205., 205., 205., 205.,
          205., 28., 255., 255., 255., 57., 57., 57., 57., 57. ]
      - [ 205., 0., 0., 45., 45., 45., 45., 45., 255., 141., 2., 79.,
          44., 205., 205., 205., 205., 28., 134., 255., 255., 255., 255.,
          255., 255., 255., 139., 0., 0., 205., 205., 205., 205., 230.,
          255., 255., 255., 255., 255., 255., 255., 255., 255., 0., 0.,
          205., 205., 205., 205., 255., 255., 255., 255., 255., 255.,
          255., 255., 255., 255., 124., 0., 205., 205., 205., 205., 255.,
          255., 255., 188., 108., 108., 108., 108., 108., 108., 0., 0.,
          205., 205., 205., 205., 255., 255., 255., 138., 0., 0., 0., 0.,
          0., 0., 0., 0., 205., 205., 205., 205., 255., 255., 244., 0.,
          0., 0., 0., 0., 0., 0., 0., 0., 205., 205., 205., 205., 255.,
          255., 244., 0., 0., 0., 0., 0., 0., 0., 0., 0., 205., 205.,
          205., 205., 255., 255., 244., 0., 0., 0., 0., 0., 0., 0., 0.,
          0., 205., 205., 205., 205., 255., 255., 244., 0., 0., 83., 83.,
          255., 162., 83., 0., 0., 205., 205., 205., 205., 255., 255.,
          244., 0., 0., 255., 255., 255., 255., 255., 108., 0., 205.,
          205., 205., 205., 255., 255., 245., 3., 0., 74., 255., 255.,
          255., 255., 0., 0., 205., 205., 205., 205., 255., 255., 255.,
          138., 0., 46., 227., 255., 255., 255., 0., 0., 205., 205.,
          205., 205., 255., 255., 255., 138., 0., 0., 50., 255., 255.,
          255., 116., 0., 205., 205., 205., 205., 68., 255., 255., 147.,
          19., 19., 19., 255., 255., 255., 159., 0., 205., 205., 205.,
          205., 255., 255., 255., 255., 255., 255., 255., 255., 255.,
          255., 159., 0., 205., 205., 205., 205., 98., 255., 255., 255.,
          255., 255., 255., 255., 255., 255., 159., 0., 205., 205., 205.,
          205., 47., 243., 255., 255., 255., 255., 255., 227., 255.,
          255., 255., 255., 205., 205., 205., 205., 0., 84., 255., 255.,
          255., 134., 134., 17., 199., 255., 255. ]
      - [ 205., 6., 38., 205., 235., 0., 0., 0., 12., 15., 35., 255.,
          138., 6., 205., 205., 205., 39., 255., 255., 235., 0., 0., 0.,
          43., 54., 235., 255., 255., 39., 205., 205., 205., 201., 255.,
          255., 250., 118., 0., 0., 0., 0., 235., 255., 255., 39., 205.,
          205., 205., 39., 255., 255., 255., 157., 0., 0., 0., 0., 235.,
          255., 255., 39., 205., 205., 205., 39., 255., 255., 255., 157.,
          0., 0., 0., 0., 235., 255., 255., 39., 205., 205., 205., 39.,
          255., 255., 255., 157., 0., 0., 0., 0., 235., 255., 255., 179.,
          205., 205., 205., 39., 255., 255., 255., 157., 0., 0., 0., 0.,
          235., 255., 255., 255., 205., 205., 205., 39., 255., 255.,
          255., 181., 64., 0., 0., 39., 240., 255., 255., 255., 205.,
          205., 205., 158., 255., 255., 255., 255., 255., 140., 140.,
          211., 255., 255., 255., 255., 205., 205., 205., 255., 255.,
          255., 255., 255., 255., 255., 255., 255., 255., 255., 255.,
          255., 205., 205., 205., 255., 255., 255., 255., 255., 255.,
          255., 255., 255., 255., 255., 255., 255., 205., 205., 205.,
          158., 255., 255., 255., 255., 255., 255., 255., 255., 255.,
          255., 255., 255., 205., 205., 205., 39., 255., 255., 255.,
          255., 123., 64., 196., 64., 240., 255., 255., 255., 205., 205.,
          205., 39., 255., 255., 255., 255., 78., 0., 0., 0., 235., 255.,
          255., 39., 205., 205., 205., 39., 255., 255., 255., 255., 78.,
          0., 0., 0., 235., 255., 255., 39., 205., 205., 205., 39., 255.,
          255., 255., 255., 78., 0., 0., 0., 235., 255., 255., 39., 205.,
          205., 205., 39., 255., 255., 255., 162., 4., 0., 0., 0., 235.,
          255., 255., 244., 205., 205., 205., 201., 255., 255., 255.,
          157., 0., 0., 0., 0., 235., 255., 255., 201., 205., 205., 205.,
          18., 179., 255., 255., 157., 0., 0., 0., 0., 235., 255. ]
      - [ 205., 74., 255., 74., 0., 0., 0., 0., 0., 32., 74., 128., 0.,
          205., 205., 205., 205., 255., 255., 255., 0., 0., 0., 0., 0.,
          213., 255., 185., 19., 205., 205., 205., 205., 255., 255.,
          255., 0., 0., 0., 0., 0., 213., 255., 255., 42., 205., 205.,
          205., 205., 255., 255., 255., 0., 0., 0., 0., 0., 213., 255.,
          255., 53., 205., 205., 205., 205., 255., 255., 255., 0., 0.,
          0., 0., 0., 213., 255., 255., 255., 205., 205., 205., 205.,
          255., 255., 255., 0., 0., 0., 0., 0., 213., 255., 255., 255.,
          205., 205., 205., 205., 255., 255., 255., 202., 0., 0., 0., 0.,
          213., 255., 255., 53., 205., 205., 205., 205., 255., 255.,
          255., 223., 64., 64., 64., 159., 255., 255., 255., 96., 205.,
          205., 205., 205., 255., 255., 255., 255., 255., 255., 255.,
          255., 255., 255., 255., 255., 205., 205., 205., 205., 255.,
          255., 255., 255., 255., 255., 255., 255., 255., 255., 255.,
          255., 205., 205., 205., 205., 255., 255., 255., 255., 255.,
          255., 255., 255., 255., 255., 255., 223., 205., 205., 205.,
          205., 255., 255., 255., 255., 255., 255., 255., 255., 255.,
          255., 255., 42., 205., 205., 205., 205., 255., 255., 255.,
          255., 255., 255., 64., 64., 223., 255., 255., 42., 205., 205.,
          205., 205., 255., 255., 255., 202., 0., 0., 0., 0., 213., 255.,
          255., 42., 205., 205., 205., 205., 255., 255., 255., 0., 0.,
          0., 0., 0., 213., 255., 255., 42., 205., 205., 205., 205.,
          255., 255., 255., 0., 0., 0., 0., 0., 213., 255., 255., 42.,
          205., 205., 205., 205., 255., 255., 255., 0., 0., 0., 0., 0.,
          213., 255., 255., 42., 205., 205., 205., 205., 255., 255.,
          255., 0., 0., 0., 0., 0., 213., 255., 255., 255., 205., 205.,
          205., 205., 255., 255., 255., 0., 0., 0., 0., 0., 213., 255.,
          255. ]
      - [ 205., 0., 0., 57., 179., 53., 0., 0., 0., 0., 22., 57., 255.,
          59., 205., 205., 205., 0., 0., 255., 255., 235., 0., 0., 0.,
          0., 98., 255., 255., 191., 205., 205., 205., 0., 176., 255.,
          255., 238., 15., 0., 0., 0., 98., 255., 255., 59., 205., 205.,
          205., 0., 177., 255., 255., 244., 50., 0., 0., 0., 98., 255.,
          255., 59., 205., 205., 205., 0., 176., 255., 255., 235., 0.,
          0., 0., 0., 98., 255., 255., 59., 205., 205., 205., 0., 176.,
          255., 255., 235., 0., 0., 0., 0., 172., 255., 255., 59., 205.,
          205., 205., 0., 177., 255., 255., 235., 0., 0., 0., 0., 255.,
          255., 255., 59., 205., 205., 205., 0., 176., 255., 255., 243.,
          44., 0., 44., 96., 255., 255., 255., 59., 205., 205., 205.,
          49., 241., 255., 255., 255., 231., 210., 231., 255., 255.,
          255., 255., 59., 205., 205., 205., 43., 233., 255., 255., 255.,
          255., 255., 255., 255., 255., 255., 255., 59., 205., 205.,
          205., 0., 177., 255., 255., 255., 255., 255., 255., 255., 255.,
          255., 255., 59., 205., 205., 205., 0., 176., 255., 255., 255.,
          255., 255., 210., 210., 255., 255., 255., 59., 205., 205.,
          205., 0., 176., 255., 255., 255., 169., 96., 0., 0., 255.,
          255., 255., 59., 205., 205., 205., 0., 177., 255., 255., 255.,
          118., 0., 0., 0., 255., 255., 255., 59., 205., 205., 205., 0.,
          176., 255., 255., 255., 118., 0., 0., 0., 255., 255., 255.,
          59., 205., 205., 205., 0., 176., 255., 255., 255., 117., 0.,
          0., 0., 255., 255., 255., 59., 205., 205., 205., 25., 210.,
          255., 255., 235., 0., 0., 0., 0., 255., 255., 255., 59., 205.,
          205., 205., 230., 255., 255., 255., 235., 0., 0., 0., 0., 255.,
          255., 255., 59., 205., 205., 205., 255., 255., 255., 255.,
          235., 0., 0., 0., 0., 255., 255. ]
      - [ 205., 205., 0., 255., 0., 0., 0., 0., 0., 0., 0., 0., 0., 205.,
          205., 205., 205., 205., 255., 255., 255., 0., 0., 0., 0., 0.,
          255., 255., 0., 205., 205., 205., 205., 205., 255., 255., 255.,
          255., 0., 0., 0., 0., 255., 255., 255., 205., 205., 205., 205.,
          205., 255., 255., 255., 255., 0., 0., 0., 0., 255., 255., 255.,
          205., 205., 205., 205., 205., 255., 255., 255., 255., 0., 0.,
          0., 0., 255., 255., 255., 205., 205., 205., 205., 205., 255.,
          255., 255., 255., 0., 0., 0., 255., 255., 255., 255., 205.,
          205., 205., 205., 205., 255., 255., 255., 255., 0., 0., 0.,
          255., 255., 255., 255., 205., 205., 205., 205., 205., 255.,
          255., 255., 255., 0., 0., 0., 255., 255., 255., 255., 205.,
          205., 205., 205., 205., 255., 255., 255., 255., 255., 255.,
          255., 255., 255., 255., 0., 205., 205., 205., 205., 205., 255.,
          255., 255., 255., 255., 255., 255., 255., 255., 255., 0., 205.,
          205., 205., 205., 205., 255., 255., 255., 255., 255., 255.,
          255., 255., 255., 255., 255., 205., 205., 205., 205., 205.,
          255., 255., 255., 255., 255., 255., 255., 255., 255., 255.,
          255., 205., 205., 205., 205., 205., 255., 255., 255., 255., 0.,
          0., 0., 255., 255., 255., 255., 205., 205., 205., 205., 205.,
          255., 255., 255., 0., 0., 0., 0., 255., 255., 255., 255., 205.,
          205., 205., 205., 205., 255., 255., 255., 0., 0., 0., 0., 255.,
          255., 255., 255., 205., 205., 205., 205., 205., 255., 255.,
          255., 0., 0., 0., 0., 255., 255., 255., 255., 205., 205., 205.,
          205., 205., 255., 255., 255., 0., 0., 0., 0., 255., 255., 255.,
          255., 205., 205., 205., 205., 205., 255., 255., 255., 0., 0.,
          0., 0., 255., 255., 255., 255., 205., 205., 205., 205., 205.,
          255., 255., 255., 0., 0., 0., 0., 255., 255., 255. ]
      - [ 205., 0., 56., 64., 0., 0., 0., 0., 95., 255., 64., 0., 0.,
          205., 205., 205., 205., 191., 247., 255., 0., 0., 0., 0., 215.,
          255., 255., 167., 135., 205., 205., 205., 205., 210., 255.,
          255., 244., 0., 0., 0., 215., 255., 255., 223., 0., 205., 205.,
          205., 205., 74., 255., 255., 244., 0., 0., 0., 95., 255., 255.,
          223., 0., 205., 205., 205., 205., 74., 255., 255., 244., 0.,
          0., 0., 255., 255., 255., 223., 0., 205., 205., 205., 205.,
          74., 255., 255., 244., 0., 0., 0., 135., 255., 255., 223., 0.,
          205., 205., 205., 205., 74., 255., 255., 244., 0., 0., 0.,
          255., 255., 255., 223., 0., 205., 205., 205., 205., 74., 255.,
          255., 252., 191., 191., 191., 255., 255., 255., 223., 0., 205.,
          205., 205., 205., 74., 255., 255., 255., 255., 255., 255.,
          255., 255., 255., 223., 0., 205., 205., 205., 205., 74., 255.,
          255., 255., 255., 255., 255., 255., 255., 255., 223., 0., 205.,
          205., 205., 205., 74., 255., 255., 255., 255., 255., 255.,
          255., 255., 255., 231., 19., 205., 205., 205., 205., 210.,
          255., 255., 255., 135., 64., 215., 255., 255., 255., 255., 74.,
          205., 205., 205., 205., 255., 255., 255., 183., 0., 0., 0.,
          255., 255., 255., 223., 0., 205., 205., 205., 205., 119., 255.,
          255., 0., 0., 0., 0., 255., 255., 255., 223., 0., 205., 205.,
          205., 205., 119., 255., 255., 61., 0., 0., 0., 255., 255.,
          255., 223., 0., 205., 205., 205., 205., 255., 255., 255., 244.,
          0., 0., 0., 255., 255., 255., 223., 0., 205., 205., 205., 205.,
          119., 255., 255., 244., 0., 0., 0., 95., 255., 255., 223., 0.,
          205., 205., 205., 205., 255., 255., 255., 61., 0., 0., 0., 95.,
          255., 255., 223., 0., 205., 205., 205., 205., 74., 255., 255.,
          0., 0., 0., 0., 135., 255., 255., 255. ]
      - [ 205., 205., 205., 205., 205., 9., 171., 45., 0., 0., 205.,
          205., 205., 205., 205., 205., 205., 205., 205., 205., 205.,
          51., 255., 255., 80., 0., 205., 205., 205., 205., 205., 205.,
          205., 205., 205., 205., 205., 51., 255., 255., 153., 0., 205.,
          205., 205., 205., 205., 205., 205., 205., 205., 205., 205.,
          51., 255., 255., 153., 0., 205., 205., 205., 205., 205., 205.,
          205., 205., 205., 205., 205., 51., 255., 255., 212., 29., 205.,
          205., 205., 205., 205., 205., 205., 205., 205., 205., 205.,
          51., 255., 255., 255., 51., 205., 205., 205., 205., 205., 205.,
          205., 205., 205., 205., 205., 51., 255., 255., 255., 51., 205.,
          205., 205., 205., 205., 205., 205., 205., 205., 205., 205.,
          178., 255., 255., 255., 51., 205., 205., 205., 205., 205.,
          205., 205., 205., 205., 205., 205., 56., 255., 255., 255., 51.,
          205., 205., 205., 205., 205., 205., 205., 205., 205., 205.,
          205., 51., 255., 255., 255., 51., 205., 205., 205., 205., 205.,
          205., 205., 205., 205., 205., 205., 17., 186., 255., 255., 51.,
          205., 205., 205., 205., 205., 205., 205., 205., 205., 205.,
          205., 50., 252., 255., 255., 51., 205., 205., 205., 205., 205.,
          205., 205., 205., 205., 205., 205., 0., 153., 255., 255., 51.,
          205., 205., 205., 205., 205., 205., 205., 205., 205., 205.,
          205., 0., 153., 255., 255., 199., 205., 205., 205., 205., 205.,
          205., 205., 205., 205., 205., 205., 0., 153., 255., 255., 255.,
          205., 205., 205., 205., 205., 205., 205., 205., 205., 205.,
          205., 0., 153., 255., 255., 255., 205., 205., 205., 205., 205.,
          205., 205., 205., 205., 205., 205., 0., 153., 255., 255., 255.,
          205., 205., 205., 205., 205., 205., 205., 205., 205., 205.,
          205., 0., 134., 255., 255., 255., 205., 205., 205., 205., 205.,
          205., 205., 205., 205., 205., 205., 0., 0., 255., 255., 255.,
          205., 205. ]
      - [ 205., 205., 0., 0., 0., 0., 0., 0., 0., 255., 0., 0., 205.,
          205., 205., 205., 205., 205., 0., 0., 0., 0., 0., 0., 0., 45.,
          0., 0., 205., 205., 205., 205., 205., 205., 0., 0., 0., 10.,
          96., 0., 0., 0., 0., 0., 205., 205., 205., 205., 205., 205.,
          0., 0., 0., 238., 255., 165., 0., 0., 0., 0., 205., 205., 205.,
          205., 205., 205., 0., 0., 0., 255., 255., 178., 0., 0., 12.,
          121., 205., 205., 205., 205., 205., 205., 0., 0., 0., 255.,
          255., 178., 0., 0., 0., 0., 205., 205., 205., 205., 205., 205.,
          0., 0., 0., 255., 255., 178., 0., 0., 0., 0., 205., 205., 205.,
          205., 205., 205., 0., 0., 0., 255., 255., 178., 0., 0., 0., 0.,
          205., 205., 205., 205., 205., 205., 0., 0., 0., 255., 255.,
          178., 0., 0., 0., 0., 205., 205., 205., 205., 205., 205., 0.,
          0., 0., 255., 255., 178., 0., 0., 0., 0., 205., 205., 205.,
          205., 205., 205., 0., 0., 0., 255., 255., 238., 20., 0., 0.,
          0., 205., 205., 205., 205., 205., 205., 0., 0., 0., 255., 255.,
          255., 25., 0., 0., 0., 205., 205., 205., 205., 205., 205., 0.,
          0., 0., 255., 255., 188., 3., 0., 0., 0., 205., 205., 205.,
          205., 205., 205., 0., 0., 0., 157., 255., 178., 0., 0., 0., 0.,
          205., 205., 205., 205., 205., 205., 0., 0., 0., 249., 255.,
          253., 25., 0., 0., 0., 205., 205., 205., 205., 205., 205., 0.,
          0., 0., 255., 255., 255., 25., 0., 0., 0., 205., 205., 205.,
          205., 205., 205., 0., 0., 0., 255., 255., 255., 43., 10., 0.,
          0., 205., 205., 205., 205., 205., 205., 0., 0., 0., 255., 255.,
          255., 255., 207., 159., 159., 205., 205., 205., 205., 205.,
          205., 255., 255., 233., 21., 210., 63., 210., 210., 210., 210. ]
      - [ 205., 205., 205., 255., 255., 255., 99., 0., 0., 0., 0., 0.,
          205., 205., 205., 205., 205., 205., 205., 255., 255., 255.,
          220., 99., 0., 0., 0., 0., 205., 205., 205., 205., 205., 205.,
          205., 255., 255., 255., 255., 127., 0., 0., 0., 0., 205., 205.,
          205., 205., 205., 205., 205., 255., 255., 255., 255., 127., 0.,
          0., 0., 0., 205., 205., 205., 205., 205., 205., 205., 255.,
          255., 255., 204., 86., 0., 0., 0., 0., 205., 205., 205., 205.,
          205., 205., 205., 255., 255., 255., 99., 0., 0., 0., 0., 0.,
          205., 205., 205., 205., 205., 205., 205., 255., 255., 255.,
          99., 0., 0., 0., 0., 0., 205., 205., 205., 205., 205., 205.,
          205., 255., 255., 255., 99., 0., 0., 0., 0., 0., 205., 205.,
          205., 205., 205., 205., 205., 255., 255., 255., 99., 0., 0.,
          0., 0., 0., 205., 205., 205., 205., 205., 205., 205., 255.,
          255., 255., 189., 73., 0., 0., 0., 0., 205., 205., 205., 205.,
          205., 205., 205., 255., 255., 255., 255., 127., 0., 0., 0., 0.,
          205., 205., 205., 205., 205., 205., 205., 255., 255., 255.,
          255., 127., 0., 0., 0., 0., 205., 205., 205., 205., 205., 205.,
          205., 255., 255., 255., 255., 127., 0., 0., 0., 0., 205., 205.,
          205., 205., 205., 205., 205., 255., 255., 255., 255., 127., 0.,
          0., 0., 0., 205., 205., 205., 205., 205., 205., 205., 255.,
          255., 255., 255., 127., 0., 0., 0., 0., 205., 205., 205., 205.,
          205., 205., 205., 255., 255., 255., 255., 127., 0., 0., 0., 0.,
          205., 205., 205., 205., 205., 205., 205., 255., 255., 255.,
          255., 127., 0., 0., 0., 0., 205., 205., 205., 205., 205., 205.,
          205., 255., 255., 255., 255., 127., 0., 27., 96., 96., 205.,
          205., 205., 205., 205., 205., 205., 198., 245., 255., 255.,
          127., 0., 71., 255., 255. ]
      - [ 205., 205., 0., 0., 0., 0., 0., 255., 255., 255., 255., 255.,
          205., 205., 205., 205., 205., 205., 0., 0., 0., 0., 0., 163.,
          186., 140., 140., 140., 205., 205., 205., 205., 205., 205., 0.,
          0., 0., 0., 0., 13., 25., 0., 0., 0., 205., 205., 205., 205.,
          205., 205., 0., 0., 0., 5., 13., 0., 0., 0., 0., 0., 205.,
          205., 205., 205., 205., 205., 0., 0., 0., 156., 255., 71., 0.,
          0., 0., 0., 205., 205., 205., 205., 205., 205., 0., 0., 0.,
          255., 255., 204., 0., 0., 0., 0., 205., 205., 205., 205., 205.,
          205., 0., 0., 0., 255., 255., 204., 0., 0., 0., 0., 205., 205.,
          205., 205., 205., 205., 0., 0., 0., 255., 255., 204., 0., 0.,
          0., 0., 205., 205., 205., 205., 205., 205., 0., 0., 0., 255.,
          255., 204., 0., 0., 0., 0., 205., 205., 205., 205., 205., 205.,
          0., 0., 0., 255., 255., 204., 0., 0., 0., 0., 205., 205., 205.,
          205., 205., 205., 0., 0., 0., 255., 255., 204., 0., 0., 0., 0.,
          205., 205., 205., 205., 205., 205., 0., 0., 0., 255., 255.,
          204., 0., 0., 0., 0., 205., 205., 205., 205., 205., 205., 0.,
          0., 0., 255., 255., 204., 0., 0., 0., 0., 205., 205., 205.,
          205., 205., 205., 0., 0., 0., 255., 255., 204., 0., 0., 0., 0.,
          205., 205., 205., 205., 205., 205., 0., 0., 0., 255., 255.,
          204., 0., 0., 0., 0., 205., 205., 205., 205., 205., 205., 0.,
          0., 0., 255., 255., 204., 0., 0., 0., 0., 205., 205., 205.,
          205., 205., 205., 0., 0., 0., 255., 255., 204., 0., 0., 0., 0.,
          205., 205., 205., 205., 205., 205., 0., 0., 0., 255., 255.,
          204., 0., 0., 0., 0., 205., 205., 205., 205., 205., 205., 0.,
          0., 0., 255., 255., 204., 0., 0., 0., 0. ]
      - [ 205., 205., 205., 205., 205., 3., 112., 112., 26., 205., 205.,
          205., 205., 205., 205., 205., 205., 205., 205., 205., 205.,
          32., 255., 255., 255., 205., 205., 205., 205., 205., 205.,
          205., 205., 205., 205., 205., 205., 32., 255., 255., 255.,
          205., 205., 205., 205., 205., 205., 205., 205., 205., 205.,
          205., 205., 32., 255., 255., 255., 205., 205., 205., 205.,
          205., 205., 205., 205., 205., 205., 205., 205., 32., 255.,
          255., 255., 205., 205., 205., 205., 205., 205., 205., 205.,
          205., 205., 205., 205., 32., 255., 255., 233., 205., 205.,
          205., 205., 205., 205., 205., 205., 205., 205., 205., 205.,
          99., 255., 255., 32., 205., 205., 205., 205., 205., 205., 205.,
          205., 205., 205., 205., 205., 255., 255., 255., 32., 205.,
          205., 205., 205., 205., 205., 205., 205., 205., 205., 205.,
          205., 255., 255., 255., 188., 205., 205., 205., 205., 205.,
          205., 205., 205., 205., 205., 205., 205., 255., 255., 255.,
          255., 205., 205., 205., 205., 205., 205., 205., 205., 205.,
          205., 205., 205., 255., 255., 255., 32., 205., 205., 205.,
          205., 205., 205., 205., 205., 205., 205., 205., 205., 255.,
          255., 255., 32., 205., 205., 205., 205., 205., 205., 205.,
          205., 205., 205., 205., 205., 143., 255., 255., 32., 205.,
          205., 205., 205., 205., 205., 205., 205., 205., 205., 205.,
          205., 32., 255., 255., 32., 205., 205., 205., 205., 205., 205.,
          205., 205., 205., 205., 205., 205., 32., 255., 255., 32., 205.,
          205., 205., 205., 205., 205., 205., 205., 205., 205., 205.,
          205., 32., 255., 255., 32., 205., 205., 205., 205., 205., 205.,
          205., 205., 205., 205., 205., 205., 32., 255., 255., 32., 205.,
          205., 205., 205., 205., 205., 205., 205., 205., 205., 205.,
          205., 143., 255., 255., 32., 205., 205., 205., 205., 205.,
          205., 205., 205., 205., 205., 205., 205., 255., 255., 255.,
          32., 205., 205., 205. ]
      - [ 205., 205., 0., 0., 0., 0., 0., 0., 0., 28., 255., 139., 0.,
          205., 205., 205., 205., 205., 0., 0., 0., 0., 0., 0., 42.,
          217., 255., 191., 21., 205., 205., 205., 205., 205., 0., 0.,
          0., 0., 0., 0., 93., 255., 255., 255., 46., 205., 205., 205.,
          205., 205., 0., 0., 0., 0., 0., 0., 88., 251., 255., 255.,
          245., 205., 205., 205., 205., 205., 0., 0., 0., 0., 0., 0., 0.,
          185., 255., 255., 46., 205., 205., 205., 205., 205., 0., 0.,
          0., 0., 0., 0., 0., 185., 255., 255., 46., 205., 205., 205.,
          205., 205., 0., 0., 0., 0., 0., 0., 0., 185., 255., 255., 46.,
          205., 205., 205., 205., 205., 0., 0., 0., 0., 0., 0., 23.,
          203., 255., 255., 46., 205., 205., 205., 205., 205., 0., 0.,
          0., 0., 0., 0., 93., 255., 255., 255., 46., 205., 205., 205.,
          205., 205., 0., 0., 0., 0., 0., 0., 93., 255., 255., 255., 46.,
          205., 205., 205., 205., 205., 0., 0., 0., 0., 0., 0., 93.,
          255., 255., 255., 46., 205., 205., 205., 205., 205., 0., 0.,
          0., 0., 0., 0., 93., 255., 255., 255., 46., 205., 205., 205.,
          205., 205., 0., 0., 0., 0., 0., 0., 93., 255., 255., 255., 46.,
          205., 205., 205., 205., 205., 0., 0., 0., 0., 0., 0., 93.,
          255., 255., 255., 46., 205., 205., 205., 205., 205., 16., 89.,
          89., 0., 0., 0., 93., 255., 255., 255., 46., 205., 205., 205.,
          205., 205., 182., 255., 255., 0., 0., 0., 198., 255., 255.,
          255., 46., 205., 205., 205., 205., 205., 255., 255., 255.,
          242., 242., 242., 255., 255., 255., 145., 2., 205., 205., 205.,
          205., 205., 255., 255., 255., 255., 255., 255., 255., 255.,
          255., 139., 0., 205., 205., 205., 205., 205., 255., 255., 255.,
          255., 255., 255., 255., 255., 255., 139. ]
      - [ 205., 0., 0., 0., 0., 0., 0., 0., 0., 255., 255., 191., 0.,
          205., 205., 205., 205., 0., 0., 0., 0., 0., 0., 0., 0., 255.,
          255., 191., 0., 205., 205., 205., 205., 0., 0., 0., 0., 0., 0.,
          0., 167., 255., 255., 191., 0., 205., 205., 205., 205., 0., 0.,
          0., 0., 0., 0., 0., 110., 255., 255., 191., 0., 205., 205.,
          205., 205., 0., 0., 0., 0., 0., 0., 0., 191., 255., 255., 191.,
          0., 205., 205., 205., 205., 0., 0., 0., 0., 0., 0., 0., 191.,
          255., 255., 191., 0., 205., 205., 205., 205., 0., 0., 0., 0.,
          0., 0., 0., 191., 255., 255., 191., 0., 205., 205., 205., 205.,
          0., 0., 0., 0., 0., 0., 0., 191., 255., 255., 191., 0., 205.,
          205., 205., 205., 0., 0., 0., 0., 0., 0., 0., 191., 255., 255.,
          191., 0., 205., 205., 205., 205., 0., 0., 0., 0., 0., 0., 0.,
          191., 255., 255., 209., 18., 205., 205., 205., 205., 0., 0.,
          0., 0., 0., 0., 46., 237., 255., 255., 255., 64., 205., 205.,
          205., 205., 0., 0., 0., 0., 0., 0., 0., 191., 255., 255., 255.,
          64., 205., 205., 205., 205., 0., 0., 0., 0., 0., 0., 0., 191.,
          255., 255., 255., 64., 205., 205., 205., 205., 0., 0., 0., 0.,
          0., 0., 5., 196., 255., 255., 191., 0., 205., 205., 205., 205.,
          33., 134., 134., 33., 0., 0., 164., 255., 255., 255., 191., 0.,
          205., 205., 205., 205., 250., 255., 255., 250., 249., 249.,
          255., 255., 255., 255., 191., 0., 205., 205., 205., 205., 255.,
          255., 255., 255., 255., 255., 255., 255., 255., 255., 108.,
          108., 205., 205., 205., 205., 255., 255., 255., 255., 255.,
          255., 255., 255., 255., 255., 32., 199., 205., 205., 205.,
          205., 255., 255., 255., 255., 255., 255., 255., 255., 255.,
          255., 62. ]
      - [ 205., 205., 60., 166., 166., 166., 120., 0., 0., 0., 0., 0.,
          0., 205., 205., 205., 205., 205., 0., 0., 0., 0., 0., 0., 0.,
          0., 0., 0., 0., 205., 205., 205., 205., 205., 0., 0., 0., 0.,
          0., 0., 0., 191., 191., 191., 70., 205., 205., 205., 205.,
          205., 0., 0., 0., 0., 0., 0., 83., 255., 255., 255., 51., 205.,
          205., 205., 205., 205., 0., 0., 0., 0., 0., 0., 158., 255.,
          255., 255., 0., 205., 205., 205., 205., 205., 0., 0., 0., 0.,
          0., 0., 0., 255., 255., 58., 0., 205., 205., 205., 205., 205.,
          162., 0., 0., 0., 0., 0., 0., 255., 255., 151., 0., 205., 205.,
          205., 205., 205., 0., 0., 0., 0., 0., 0., 0., 255., 255., 255.,
          0., 205., 205., 205., 205., 205., 0., 0., 0., 0., 0., 0., 0.,
          255., 255., 255., 0., 205., 205., 205., 205., 205., 0., 0., 0.,
          0., 0., 0., 0., 255., 255., 255., 0., 205., 205., 205., 205.,
          205., 0., 0., 0., 0., 0., 0., 0., 255., 255., 255., 0., 205.,
          205., 205., 205., 205., 0., 0., 0., 0., 0., 0., 0., 255., 255.,
          255., 0., 205., 205., 205., 205., 205., 0., 0., 0., 0., 0., 0.,
          0., 255., 255., 255., 0., 205., 205., 205., 205., 205., 0., 0.,
          0., 0., 0., 0., 83., 255., 255., 255., 0., 205., 205., 205.,
          205., 205., 0., 38., 38., 17., 0., 0., 185., 255., 255., 255.,
          0., 205., 205., 205., 205., 205., 79., 255., 255., 234., 0.,
          0., 185., 255., 255., 255., 0., 205., 205., 205., 205., 205.,
          93., 255., 255., 255., 255., 140., 223., 255., 255., 255., 0.,
          205., 205., 205., 205., 205., 70., 255., 255., 255., 255.,
          255., 255., 255., 243., 17., 0., 205., 205., 205., 205., 205.,
          242., 255., 255., 255., 255., 13., 189., 255., 253., 242. ]
      - [ 205., 0., 0., 0., 0., 0., 0., 0., 0., 0., 0., 167., 255., 255.,
          205., 205., 205., 0., 0., 0., 0., 0., 0., 0., 0., 0., 20.,
          226., 255., 255., 205., 205., 205., 0., 0., 0., 0., 0., 0., 0.,
          0., 0., 29., 255., 255., 255., 205., 205., 205., 0., 0., 0.,
          0., 0., 0., 0., 0., 0., 29., 255., 255., 255., 205., 205.,
          205., 0., 0., 0., 0., 0., 0., 0., 0., 0., 29., 255., 255.,
          255., 205., 205., 205., 0., 0., 0., 0., 0., 0., 0., 0., 0.,
          29., 255., 255., 166., 205., 205., 205., 0., 0., 0., 0., 0.,
          0., 0., 0., 0., 29., 255., 255., 69., 205., 205., 205., 0., 0.,
          0., 0., 0., 0., 0., 0., 0., 29., 255., 255., 69., 205., 205.,
          205., 0., 0., 0., 0., 0., 0., 0., 0., 0., 29., 255., 255., 69.,
          205., 205., 205., 0., 0., 0., 0., 0., 0., 0., 0., 0., 29.,
          255., 255., 69., 205., 205., 205., 0., 0., 0., 0., 0., 0., 0.,
          0., 0., 29., 255., 255., 69., 205., 205., 205., 0., 0., 0., 0.,
          0., 0., 0., 0., 0., 29., 255., 255., 69., 205., 205., 205., 0.,
          0., 0., 0., 0., 0., 0., 0., 0., 170., 255., 255., 69., 205.,
          205., 205., 0., 0., 0., 0., 0., 0., 0., 0., 0., 255., 255.,
          255., 69., 205., 205., 205., 0., 0., 0., 0., 0., 0., 0., 0.,
          0., 255., 255., 255., 69., 205., 205., 205., 0., 201., 249.,
          249., 0., 0., 0., 0., 0., 255., 255., 255., 69., 205., 205.,
          205., 108., 227., 255., 255., 193., 108., 108., 108., 108.,
          255., 255., 255., 69., 205., 205., 205., 92., 255., 255., 255.,
          255., 255., 255., 255., 255., 255., 255., 212., 9., 205., 205.,
          205., 0., 206., 255., 255., 255., 255., 255., 255., 255., 255.,
          201. ]
      - [ 205., 205., 205., 0., 0., 0., 0., 0., 175., 255., 28., 205.,
          205., 205., 205., 205., 205., 205., 205., 0., 0., 0., 0., 0.,
          175., 255., 255., 205., 205., 205., 205., 205., 205., 205.,
          205., 0., 0., 0., 0., 0., 175., 255., 255., 205., 205., 205.,
          205., 205., 205., 205., 205., 0., 0., 0., 0., 0., 175., 255.,
          255., 205., 205., 205., 205., 205., 205., 205., 205., 0., 0.,
          0., 0., 0., 175., 255., 255., 205., 205., 205., 205., 205.,
          205., 205., 205., 0., 0., 0., 0., 0., 175., 255., 255., 205.,
          205., 205., 205., 205., 205., 205., 205., 0., 0., 0., 0., 0.,
          175., 255., 255., 205., 205., 205., 205., 205., 205., 205.,
          205., 0., 0., 0., 0., 0., 175., 255., 255., 205., 205., 205.,
          205., 205., 205., 205., 205., 0., 0., 0., 0., 0., 175., 255.,
          255., 205., 205., 205., 205., 205., 205., 205., 205., 0., 0.,
          0., 0., 0., 175., 255., 255., 205., 205., 205., 205., 205.,
          205., 205., 205., 0., 0., 0., 0., 0., 175., 255., 255., 205.,
          205., 205., 205., 205., 205., 205., 205., 0., 0., 0., 0., 0.,
          175., 255., 255., 205., 205., 205., 205., 205., 205., 205.,
          205., 0., 0., 0., 0., 0., 175., 255., 255., 205., 205., 205.,
          205., 205., 205., 205., 205., 0., 0., 0., 0., 0., 175., 255.,
          255., 205., 205., 205., 205., 205., 205., 205., 205., 115.,
          93., 0., 0., 0., 175., 255., 255., 205., 205., 205., 205.,
          205., 205., 205., 205., 255., 233., 140., 79., 79., 219., 255.,
          255., 205., 205., 205., 205., 205., 205., 205., 205., 255.,
          255., 255., 216., 216., 255., 255., 255., 205., 205., 205.,
          205., 205., 205., 205., 205., 255., 255., 255., 255., 255.,
          255., 255., 76., 205., 205., 205., 205., 205., 205., 205.,
          205., 52., 255., 255., 255., 255., 255., 255., 16., 205. ]
      - [ 205., 205., 190., 0., 0., 0., 0., 0., 0., 0., 0., 0., 205.,
          205., 205., 205., 205., 205., 0., 0., 0., 0., 0., 0., 0., 0.,
          0., 0., 205., 205., 205., 205., 205., 205., 0., 72., 40., 0.,
          0., 0., 0., 0., 0., 0., 205., 205., 205., 205., 205., 205.,
          33., 237., 64., 0., 0., 0., 212., 223., 223., 33., 205., 205.,
          205., 205., 205., 205., 38., 255., 88., 0., 0., 166., 255.,
          255., 237., 223., 205., 205., 205., 205., 205., 205., 38.,
          255., 255., 0., 33., 199., 255., 255., 115., 0., 205., 205.,
          205., 205., 205., 205., 38., 255., 255., 0., 89., 255., 255.,
          255., 115., 0., 205., 205., 205., 205., 205., 205., 38., 255.,
          255., 11., 234., 255., 255., 199., 14., 0., 205., 205., 205.,
          205., 205., 205., 38., 255., 255., 255., 255., 255., 255., 0.,
          0., 0., 205., 205., 205., 205., 205., 205., 38., 255., 255.,
          255., 255., 255., 164., 0., 0., 0., 205., 205., 205., 205.,
          205., 205., 38., 255., 255., 255., 255., 255., 13., 0., 0., 0.,
          205., 205., 205., 205., 205., 205., 38., 255., 255., 255.,
          255., 255., 13., 0., 0., 0., 205., 205., 205., 205., 205.,
          205., 38., 255., 255., 255., 255., 255., 43., 0., 0., 0., 205.,
          205., 205., 205., 205., 205., 38., 255., 255., 255., 255.,
          255., 255., 72., 0., 0., 205., 205., 205., 205., 205., 205.,
          38., 255., 255., 96., 96., 199., 255., 191., 0., 0., 205.,
          205., 205., 205., 205., 205., 38., 255., 255., 0., 0., 166.,
          255., 247., 100., 0., 205., 205., 205., 205., 205., 205., 255.,
          255., 64., 0., 0., 166., 255., 255., 132., 222., 205., 205.,
          205., 205., 205., 205., 255., 255., 64., 0., 0., 104., 250.,
          255., 255., 255., 205., 205., 205., 205., 205., 205., 96.,
          167., 64., 0., 0., 0., 91., 255., 255., 255. ]
      - [ 205., 205., 0., 0., 0., 0., 0., 0., 0., 255., 0., 0., 205.,
          205., 205., 205., 205., 205., 0., 0., 0., 0., 0., 0., 0., 121.,
          0., 0., 205., 205., 205., 205., 205., 205., 0., 0., 0., 0., 0.,
          0., 0., 0., 0., 0., 205., 205., 205., 205., 205., 205., 97.,
          102., 0., 0., 0., 0., 0., 0., 57., 11., 205., 205., 205., 205.,
          205., 205., 138., 190., 147., 0., 0., 0., 0., 147., 255., 168.,
          205., 205., 205., 205., 205., 205., 51., 255., 255., 142., 0.,
          0., 142., 255., 255., 255., 205., 205., 205., 205., 205., 205.,
          51., 255., 255., 111., 0., 14., 181., 255., 255., 51., 205.,
          205., 205., 205., 205., 205., 51., 255., 255., 0., 0., 178.,
          255., 255., 191., 19., 205., 205., 205., 205., 205., 205., 51.,
          255., 255., 0., 199., 255., 255., 255., 4., 0., 205., 205.,
          205., 205., 205., 205., 51., 255., 255., 83., 220., 255., 255.,
          172., 0., 0., 205., 205., 205., 205., 205., 205., 51., 255.,
          255., 255., 255., 255., 255., 0., 0., 0., 205., 205., 205.,
          205., 205., 205., 51., 255., 255., 255., 255., 255., 255.,
          255., 4., 0., 205., 205., 205., 205., 205., 205., 51., 255.,
          255., 255., 255., 255., 255., 255., 153., 0., 205., 205., 205.,
          205., 205., 205., 51., 255., 255., 255., 107., 107., 255.,
          255., 227., 37., 205., 205., 205., 205., 205., 205., 51., 255.,
          255., 153., 0., 0., 153., 255., 255., 66., 205., 205., 205.,
          205., 205., 205., 51., 255., 255., 196., 22., 0., 88., 255.,
          255., 255., 205., 205., 205., 205., 205., 205., 51., 255.,
          255., 255., 51., 0., 0., 255., 255., 255., 205., 205., 205.,
          205., 205., 205., 76., 255., 255., 255., 51., 0., 0., 0., 236.,
          255., 205., 205., 205., 205., 205., 205., 255., 182., 255.,
          255., 51., 24., 121., 0., 102., 255. ]
      - [ 205., 205., 0., 0., 0., 0., 0., 76., 0., 0., 0., 8., 231.,
          205., 205., 205., 205., 205., 0., 0., 0., 0., 0., 26., 0., 0.,
          0., 0., 17., 205., 205., 205., 205., 205., 0., 0., 0., 0., 0.,
          0., 0., 0., 128., 0., 0., 205., 205., 205., 205., 205., 0.,
          243., 255., 203., 3., 0., 0., 197., 255., 243., 0., 205., 205.,
          205., 205., 205., 57., 251., 255., 255., 35., 0., 24., 238.,
          255., 243., 0., 205., 205., 205., 205., 205., 57., 251., 255.,
          197., 0., 0., 101., 255., 255., 243., 0., 205., 205., 205.,
          205., 205., 0., 243., 255., 197., 0., 115., 255., 255., 255.,
          24., 0., 205., 205., 205., 205., 205., 0., 243., 255., 197.,
          0., 191., 255., 255., 75., 0., 0., 205., 205., 205., 205.,
          205., 0., 243., 255., 203., 224., 255., 255., 235., 0., 0., 0.,
          205., 205., 205., 205., 205., 0., 243., 255., 255., 255., 255.,
          230., 17., 0., 0., 0., 205., 205., 205., 205., 205., 0., 243.,
          255., 255., 255., 255., 220., 0., 0., 0., 0., 205., 205., 205.,
          205., 205., 0., 243., 255., 255., 255., 255., 220., 0., 0., 0.,
          0., 205., 205., 205., 205., 205., 0., 243., 255., 255., 255.,
          255., 238., 29., 0., 0., 0., 205., 205., 205., 205., 205., 81.,
          255., 255., 197., 0., 255., 255., 78., 0., 0., 0., 205., 205.,
          205., 205., 205., 81., 255., 255., 59., 0., 166., 255., 255.,
          105., 0., 0., 205., 205., 205., 205., 205., 81., 255., 255.,
          0., 0., 0., 255., 255., 182., 0., 0., 205., 205., 205., 205.,
          205., 81., 255., 255., 0., 0., 0., 255., 255., 255., 0., 0.,
          205., 205., 205., 205., 205., 81., 255., 255., 0., 0., 0.,
          145., 255., 255., 122., 0., 205., 205., 205., 205., 205., 255.,
          230., 229., 0., 0., 0., 35., 255., 255., 255. ]
      - [ 205., 110., 255., 38., 0., 0., 0., 0., 2., 171., 255., 126.,
          0., 0., 205., 205., 205., 255., 255., 226., 20., 0., 0., 0.,
          175., 255., 255., 255., 139., 0., 205., 205., 205., 255., 255.,
          255., 29., 0., 0., 16., 255., 255., 255., 234., 180., 0., 205.,
          205., 205., 255., 255., 255., 29., 0., 0., 127., 255., 255.,
          255., 88., 0., 0., 205., 205., 205., 255., 255., 255., 29., 0.,
          6., 255., 255., 255., 254., 86., 0., 0., 205., 205., 205.,
          255., 255., 255., 29., 0., 245., 255., 255., 255., 225., 0.,
          0., 0., 205., 205., 205., 255., 255., 255., 238., 100., 254.,
          255., 255., 255., 17., 0., 0., 0., 205., 205., 205., 255.,
          255., 255., 255., 255., 255., 255., 255., 255., 0., 0., 0., 0.,
          205., 205., 205., 255., 255., 255., 255., 255., 255., 255.,
          247., 45., 0., 0., 0., 0., 205., 205., 205., 255., 255., 255.,
          255., 255., 255., 255., 245., 0., 0., 0., 0., 0., 205., 205.,
          205., 255., 255., 255., 255., 255., 255., 255., 252., 78., 0.,
          0., 0., 0., 205., 205., 205., 255., 255., 255., 255., 255.,
