%YAML:1.0
my_svm: !!opencv-ml-svm
   svm_type: C_SVC
   kernel: { type:LINEAR }
   C: 1.0000000000000001e-001
   term_criteria: { epsilon:1.1920928955078125e-007, iterations:1000 }
   var_all: 320
   var_count: 320
   class_count: 26
   class_labels: !!opencv-matrix
      rows: 1
      cols: 26
      dt: i
      data: [ 0, 1, 2, 3, 4, 5, 6, 7, 8, 9, 10, 11, 12, 13, 14, 15, 16,
          17, 18, 19, 20, 21, 22, 23, 24, 25 ]
   sv_total: 640
   support_vectors:
      - [ 0., 0., 0., 0., 0., 0., 255., 255., 0., 0., 0., 0., 0., 0., 0.,
          0., 0., 0., 0., 0., 0., 0., 255., 255., 0., 0., 0., 0., 0., 0.,
          0., 0., 0., 0., 0., 0., 0., 223., 255., 255., 223., 223., 0.,
          0., 0., 0., 0., 0., 0., 0., 0., 0., 0., 255., 255., 255., 255.,
          255., 0., 0., 0., 0., 0., 0., 0., 0., 0., 0., 0., 255., 255.,
          255., 255., 255., 0., 0., 0., 0., 0., 0., 0., 0., 0., 0., 0.,
          255., 255., 255., 255., 255., 0., 0., 0., 0., 0., 0., 0., 0.,
          0., 0., 0., 83., 255., 255., 255., 255., 0., 0., 0., 0., 0.,
          0., 0., 0., 0., 0., 0., 0., 255., 255., 255., 255., 0., 0., 0.,
          0., 0., 0., 0., 0., 0., 0., 0., 0., 108., 255., 255., 255., 0.,
          0., 0., 0., 0., 0., 0., 0., 0., 0., 134., 134., 134., 255.,
          255., 255., 134., 0., 0., 0., 0., 0., 0., 0., 0., 0., 255.,
          255., 255., 134., 255., 255., 255., 0., 0., 0., 0., 0., 0., 0.,
          0., 0., 255., 255., 255., 108., 255., 255., 255., 0., 0., 0.,
          0., 0., 0., 0., 0., 96., 255., 255., 255., 255., 255., 255.,
          255., 96., 0., 0., 0., 0., 0., 0., 0., 255., 255., 255., 255.,
          255., 255., 255., 255., 255., 0., 0., 0., 0., 0., 0., 0., 255.,
          255., 255., 255., 255., 255., 255., 255., 255., 0., 0., 0., 0.,
          0., 0., 0., 255., 255., 255., 255., 255., 255., 255., 255.,
          255., 0., 0., 0., 0., 0., 0., 0., 255., 255., 255., 255., 255.,
          255., 255., 255., 255., 45., 0., 0., 0., 0., 0., 0., 255.,
          255., 255., 223., 223., 223., 255., 255., 255., 255., 0., 0.,
          0., 0., 0., 0., 255., 255., 236., 0., 0., 0., 236., 236., 236.,
          236., 0., 0., 0., 0., 0., 0., 255., 255., 0., 0., 0., 0., 0.,
          0., 0., 0., 0., 0., 0. ]
      - [ 0., 0., 0., 0., 0., 0., 0., 0., 255., 247., 236., 182., 0., 0.,
          0., 0., 0., 0., 0., 0., 0., 0., 0., 150., 255., 255., 255.,
          255., 0., 0., 0., 0., 0., 0., 0., 0., 0., 0., 0., 150., 255.,
          255., 255., 255., 0., 0., 0., 0., 0., 0., 0., 0., 0., 0., 0.,
          255., 255., 255., 255., 255., 0., 0., 0., 0., 0., 0., 0., 0.,
          0., 0., 0., 255., 255., 255., 255., 255., 0., 0., 0., 0., 0.,
          0., 0., 0., 0., 0., 0., 255., 255., 255., 255., 255., 0., 0.,
          0., 0., 0., 0., 0., 0., 0., 0., 174., 255., 255., 255., 255.,
          255., 220., 0., 0., 0., 0., 0., 0., 0., 0., 0., 174., 255.,
          255., 255., 255., 255., 220., 0., 0., 0., 0., 0., 0., 0., 0.,
          0., 255., 255., 255., 255., 255., 255., 255., 0., 0., 0., 0.,
          0., 0., 0., 0., 0., 255., 255., 255., 44., 255., 255., 255.,
          0., 0., 0., 0., 0., 0., 0., 0., 197., 255., 255., 127., 0.,
          255., 255., 255., 0., 0., 0., 0., 0., 0., 0., 0., 213., 255.,
          255., 0., 0., 255., 255., 255., 0., 0., 0., 0., 0., 0., 0., 0.,
          255., 255., 255., 255., 255., 255., 255., 255., 0., 0., 0., 0.,
          0., 0., 0., 0., 255., 255., 255., 255., 255., 255., 255., 255.,
          237., 0., 0., 0., 0., 0., 0., 182., 255., 255., 255., 255.,
          255., 255., 255., 255., 243., 0., 0., 0., 0., 0., 0., 244.,
          255., 255., 255., 255., 153., 255., 255., 255., 255., 0., 0.,
          0., 0., 0., 0., 255., 255., 255., 0., 0., 0., 0., 255., 255.,
          255., 0., 0., 0., 0., 0., 0., 242., 255., 81., 0., 0., 0., 0.,
          255., 255., 255., 0., 0., 0., 0., 0., 255., 255., 0., 0., 0.,
          0., 0., 0., 0., 27., 0., 0., 0., 0., 0., 0., 255., 35., 0., 0.,
          0., 0., 0., 0., 0., 0., 0., 0., 0. ]
      - [ 0., 0., 0., 223., 53., 0., 0., 0., 0., 0., 0., 0., 0., 0., 0.,
          0., 0., 0., 0., 33., 8., 0., 135., 217., 217., 135., 0., 0.,
          0., 0., 0., 0., 0., 0., 0., 0., 0., 0., 159., 255., 255., 231.,
          135., 0., 0., 0., 0., 0., 0., 0., 166., 21., 0., 0., 159.,
          255., 255., 255., 181., 0., 0., 0., 0., 0., 0., 0., 115., 14.,
          0., 0., 159., 255., 255., 255., 181., 0., 0., 0., 0., 0., 0.,
          0., 0., 0., 0., 81., 202., 255., 255., 255., 181., 0., 0., 0.,
          0., 0., 0., 0., 0., 0., 0., 181., 255., 255., 255., 255., 207.,
          71., 0., 0., 0., 0., 0., 0., 0., 0., 50., 199., 255., 255.,
          255., 255., 255., 202., 0., 0., 0., 0., 0., 0., 0., 0., 172.,
          244., 255., 255., 255., 255., 255., 202., 0., 0., 0., 0., 0.,
          0., 0., 0., 0., 180., 255., 255., 255., 255., 255., 202., 0.,
          0., 0., 0., 0., 0., 0., 0., 0., 180., 255., 255., 255., 255.,
          255., 202., 0., 0., 0., 0., 0., 0., 0., 0., 172., 244., 255.,
          255., 155., 119., 255., 202., 0., 0., 0., 0., 0., 0., 0., 0.,
          202., 255., 255., 151., 122., 215., 255., 202., 0., 0., 0., 0.,
          0., 0., 0., 0., 202., 255., 255., 206., 206., 255., 255., 236.,
          145., 0., 0., 0., 0., 0., 0., 0., 202., 255., 255., 255., 255.,
          255., 255., 255., 223., 0., 0., 0., 0., 0., 0., 100., 226.,
          255., 183., 202., 255., 255., 255., 255., 223., 0., 0., 0., 0.,
          0., 0., 223., 255., 192., 62., 90., 166., 166., 192., 255.,
          234., 89., 0., 0., 0., 0., 0., 223., 255., 74., 0., 0., 0., 0.,
          74., 255., 247., 191., 0., 0., 0., 0., 0., 223., 225., 63., 0.,
          0., 0., 0., 63., 217., 190., 0., 0., 0., 0., 0., 0., 223., 53.,
          0., 0., 0., 0., 0., 0., 0., 0., 0., 0., 0. ]
      - [ 0., 0., 0., 0., 0., 0., 0., 0., 0., 0., 0., 0., 0., 0., 0., 0.,
          0., 0., 0., 0., 0., 0., 0., 0., 0., 0., 0., 0., 0., 0., 0., 0.,
          0., 0., 0., 0., 0., 0., 0., 0., 0., 0., 0., 0., 0., 0., 0., 0.,
          0., 0., 0., 0., 0., 0., 0., 0., 0., 0., 0., 0., 0., 0., 0., 0.,
          0., 0., 0., 0., 0., 0., 0., 89., 45., 0., 0., 0., 0., 0., 0.,
          0., 0., 0., 0., 0., 0., 0., 138., 255., 210., 28., 0., 0., 0.,
          0., 0., 0., 0., 0., 0., 0., 0., 0., 212., 255., 255., 42., 0.,
          0., 0., 0., 0., 0., 0., 0., 0., 0., 0., 0., 212., 255., 255.,
          42., 0., 0., 0., 0., 0., 0., 0., 0., 0., 0., 0., 0., 212.,
          255., 255., 42., 0., 0., 0., 0., 0., 0., 0., 0., 0., 0., 0.,
          0., 212., 255., 255., 42., 0., 0., 0., 0., 0., 0., 0., 0., 0.,
          0., 0., 127., 255., 255., 255., 255., 0., 0., 0., 0., 0., 0.,
          0., 0., 0., 0., 0., 127., 255., 255., 255., 255., 0., 0., 0.,
          0., 0., 0., 0., 0., 0., 0., 0., 127., 255., 255., 255., 255.,
          0., 0., 0., 0., 0., 0., 0., 0., 0., 0., 0., 127., 255., 255.,
          255., 255., 212., 0., 0., 0., 0., 0., 0., 0., 0., 0., 0., 127.,
          255., 255., 255., 255., 212., 0., 0., 0., 0., 0., 0., 0., 0.,
          0., 28., 210., 255., 255., 255., 255., 240., 83., 0., 0., 0.,
          0., 0., 0., 0., 0., 42., 255., 255., 13., 13., 214., 255.,
          127., 0., 0., 0., 0., 0., 0., 0., 0., 42., 255., 255., 0., 0.,
          159., 244., 96., 0., 0., 0., 0., 0., 0., 0., 0., 19., 115.,
          115., 0., 0., 0., 96., 0., 0., 0., 0., 0., 0., 0., 0., 0., 0.,
          0., 0., 0., 0., 0., 0., 0., 0., 0., 0., 0. ]
      - [ 0., 0., 0., 0., 96., 255., 255., 96., 0., 0., 0., 0., 0., 0.,
          0., 0., 0., 0., 0., 0., 96., 255., 255., 183., 88., 0., 0., 0.,
          0., 0., 0., 0., 0., 0., 0., 0., 95., 255., 255., 255., 159.,
          0., 0., 0., 0., 0., 0., 0., 0., 0., 0., 0., 96., 255., 255.,
          255., 159., 0., 0., 0., 0., 0., 0., 0., 0., 0., 0., 0., 95.,
          255., 255., 255., 221., 145., 21., 0., 0., 0., 0., 0., 0., 0.,
          0., 0., 95., 255., 255., 255., 255., 223., 32., 0., 0., 0., 0.,
          0., 0., 0., 0., 0., 96., 255., 255., 255., 255., 225., 43., 5.,
          0., 0., 0., 0., 0., 0., 0., 0., 95., 255., 255., 255., 255.,
          247., 199., 72., 0., 0., 0., 0., 0., 0., 0., 0., 96., 255.,
          255., 255., 255., 255., 255., 96., 0., 0., 0., 0., 0., 0., 0.,
          0., 96., 255., 255., 231., 231., 255., 255., 96., 0., 0., 0.,
          0., 0., 0., 0., 0., 96., 255., 255., 119., 119., 255., 255.,
          96., 0., 0., 0., 0., 0., 0., 0., 0., 96., 255., 255., 96., 96.,
          255., 255., 183., 88., 0., 0., 0., 0., 0., 0., 0., 95., 255.,
          255., 135., 135., 255., 255., 255., 159., 0., 0., 0., 0., 0.,
          0., 0., 96., 255., 255., 247., 247., 255., 255., 255., 159.,
          0., 0., 0., 0., 0., 0., 0., 95., 255., 255., 255., 255., 255.,
          255., 255., 222., 166., 0., 0., 0., 0., 0., 0., 95., 255.,
          255., 199., 166., 166., 166., 222., 255., 255., 0., 0., 0., 0.,
          0., 0., 91., 242., 242., 91., 0., 0., 0., 151., 242., 242., 0.,
          0., 0., 0., 0., 0., 24., 64., 64., 24., 0., 0., 0., 40., 64.,
          64., 0., 0., 0., 0., 115., 115., 115., 100., 14., 0., 0., 0.,
          0., 0., 0., 0., 0., 0., 0., 0., 255., 255., 255., 223., 32.,
          0., 0., 0., 0., 0., 0., 0., 0., 0. ]
      - [ 0., 0., 0., 0., 0., 0., 0., 3., 143., 255., 255., 38., 0., 0.,
          0., 0., 0., 0., 0., 0., 0., 0., 0., 115., 255., 255., 255.,
          38., 0., 0., 0., 0., 0., 0., 0., 0., 0., 0., 11., 132., 255.,
          255., 255., 38., 0., 0., 0., 0., 0., 0., 0., 0., 0., 0., 89.,
          255., 255., 255., 255., 38., 0., 0., 0., 0., 0., 0., 0., 0.,
          0., 0., 89., 255., 255., 255., 255., 38., 0., 0., 0., 0., 0.,
          0., 0., 0., 0., 18., 135., 255., 255., 255., 255., 38., 0., 0.,
          0., 0., 0., 0., 0., 0., 0., 64., 255., 255., 255., 255., 255.,
          38., 0., 0., 0., 0., 0., 0., 0., 0., 0., 64., 255., 255., 255.,
          255., 255., 38., 0., 0., 0., 0., 0., 0., 0., 0., 0., 64., 255.,
          255., 255., 255., 255., 130., 5., 0., 0., 0., 0., 0., 0., 0.,
          18., 154., 255., 255., 255., 255., 255., 255., 13., 0., 0., 0.,
          0., 0., 0., 0., 38., 255., 255., 255., 255., 255., 255., 255.,
          13., 0., 0., 0., 0., 0., 0., 7., 163., 255., 204., 108., 189.,
          255., 255., 255., 13., 0., 0., 0., 0., 0., 0., 13., 255., 255.,
          221., 159., 212., 255., 255., 255., 13., 0., 0., 0., 0., 0.,
          0., 13., 255., 255., 255., 255., 255., 255., 255., 255., 13.,
          0., 0., 0., 0., 0., 0., 12., 255., 255., 255., 255., 255.,
          255., 255., 255., 13., 0., 0., 0., 0., 0., 0., 200., 255.,
          255., 255., 255., 255., 255., 255., 255., 13., 0., 0., 0., 0.,
          0., 0., 255., 255., 255., 255., 255., 255., 255., 255., 255.,
          13., 0., 0., 0., 0., 0., 0., 255., 255., 255., 177., 32., 154.,
          255., 255., 255., 13., 0., 0., 0., 0., 0., 0., 19., 19., 19.,
          12., 0., 11., 172., 255., 255., 13., 0., 0., 0., 0., 0., 0.,
          0., 0., 0., 0., 0., 0., 4., 6., 218., 249., 0., 0., 0. ]
      - [ 0., 0., 0., 0., 0., 0., 0., 0., 0., 0., 0., 0., 0., 0., 0., 0.,
          255., 255., 255., 106., 245., 106., 106., 106., 190., 255.,
          255., 255., 115., 255., 255., 255., 255., 255., 48., 0., 64.,
          0., 60., 191., 227., 255., 255., 255., 0., 64., 255., 255.,
          21., 94., 4., 0., 0., 0., 240., 255., 255., 255., 255., 255.,
          0., 0., 94., 255., 0., 0., 0., 0., 0., 48., 255., 255., 255.,
          255., 255., 255., 239., 0., 0., 0., 0., 0., 0., 0., 0., 255.,
          255., 255., 0., 131., 255., 255., 239., 0., 0., 0., 0., 0., 0.,
          0., 16., 255., 255., 143., 0., 0., 255., 255., 239., 0., 0.,
          0., 0., 0., 0., 0., 255., 255., 255., 0., 0., 0., 207., 255.,
          255., 0., 0., 0., 0., 0., 0., 0., 255., 255., 195., 0., 0., 0.,
          52., 255., 255., 155., 0., 0., 0., 0., 0., 0., 255., 255., 15.,
          0., 0., 0., 0., 255., 255., 207., 0., 0., 0., 0., 0., 239.,
          255., 207., 0., 0., 0., 0., 0., 239., 255., 211., 0., 0., 0.,
          0., 0., 255., 255., 219., 44., 0., 0., 0., 0., 243., 255.,
          255., 0., 0., 0., 0., 86., 255., 255., 255., 255., 255., 255.,
          255., 255., 255., 255., 255., 0., 0., 0., 0., 207., 255., 255.,
          255., 255., 255., 255., 255., 255., 255., 255., 255., 175., 0.,
          0., 0., 255., 255., 255., 255., 255., 255., 255., 124., 219.,
          255., 255., 255., 255., 0., 0., 175., 255., 255., 20., 0., 0.,
          0., 0., 0., 0., 0., 255., 255., 255., 0., 0., 255., 255., 255.,
          0., 0., 0., 0., 0., 0., 0., 0., 16., 255., 255., 143., 36.,
          255., 255., 195., 0., 0., 0., 0., 0., 0., 0., 0., 0., 255.,
          255., 227., 0., 255., 169., 9., 0., 0., 0., 0., 0., 0., 0., 0.,
          0., 28., 149., 84., 0., 0., 0., 0., 0., 0., 0., 0., 0., 0., 0.,
          0., 0., 0., 0., 0. ]
      - [ 0., 0., 0., 0., 0., 0., 0., 0., 21., 70., 35., 0., 0., 0., 0.,
          0., 0., 0., 0., 0., 0., 0., 0., 147., 224., 255., 127., 0., 0.,
          0., 0., 0., 0., 0., 0., 67., 0., 0., 0., 178., 255., 255.,
          127., 0., 0., 0., 0., 0., 0., 0., 0., 178., 0., 0., 24., 249.,
          255., 255., 127., 0., 0., 0., 0., 0., 0., 0., 0., 178., 0., 0.,
          134., 255., 255., 255., 127., 0., 0., 0., 0., 0., 0., 0., 0.,
          0., 0., 0., 255., 255., 255., 255., 131., 0., 0., 0., 0., 0.,
          0., 0., 0., 0., 0., 0., 255., 255., 255., 255., 255., 0., 0.,
          0., 0., 0., 0., 0., 0., 0., 0., 0., 255., 255., 255., 255.,
          255., 0., 0., 0., 0., 0., 0., 0., 0., 0., 0., 86., 255., 255.,
          255., 255., 255., 0., 0., 0., 0., 0., 0., 0., 0., 0., 0., 127.,
          255., 255., 255., 255., 255., 0., 0., 0., 0., 0., 0., 0., 0.,
          0., 0., 226., 255., 255., 255., 255., 255., 0., 0., 0., 0., 0.,
          0., 0., 0., 0., 0., 255., 255., 255., 255., 255., 255., 229.,
          0., 0., 0., 0., 0., 0., 0., 0., 0., 255., 255., 255., 255.,
          255., 255., 229., 0., 0., 0., 0., 0., 0., 0., 0., 229., 255.,
          255., 255., 255., 255., 255., 229., 0., 0., 0., 0., 0., 0., 0.,
          0., 229., 255., 255., 255., 255., 255., 255., 229., 0., 0., 0.,
          0., 0., 0., 0., 40., 243., 255., 255., 255., 255., 255., 255.,
          229., 0., 0., 0., 0., 0., 0., 0., 76., 255., 255., 253., 236.,
          255., 255., 255., 229., 0., 0., 0., 0., 0., 0., 0., 76., 255.,
          255., 86., 0., 96., 239., 255., 229., 0., 0., 0., 0., 0., 0.,
          0., 76., 255., 233., 0., 0., 0., 189., 255., 189., 0., 0., 0.,
          0., 0., 0., 0., 21., 70., 35., 0., 0., 0., 0., 70., 0., 0., 0.,
          0., 0. ]
      - [ 0., 0., 0., 0., 0., 0., 64., 255., 255., 255., 64., 0., 0., 0.,
          0., 0., 0., 0., 0., 0., 0., 0., 191., 255., 255., 255., 191.,
          0., 0., 0., 0., 0., 0., 0., 0., 0., 0., 0., 255., 255., 255.,
          255., 255., 0., 0., 0., 0., 0., 0., 0., 0., 0., 0., 0., 255.,
          255., 255., 255., 255., 0., 0., 0., 0., 0., 0., 0., 0., 0., 0.,
          0., 255., 255., 255., 255., 255., 0., 0., 0., 0., 0., 0., 0.,
          0., 0., 0., 128., 255., 255., 255., 255., 255., 128., 0., 0.,
          0., 0., 0., 0., 0., 0., 0., 128., 255., 255., 255., 255., 255.,
          128., 0., 0., 0., 0., 0., 0., 0., 0., 0., 191., 255., 255.,
          255., 255., 255., 255., 0., 0., 0., 0., 0., 0., 0., 0., 0.,
          255., 255., 255., 255., 255., 255., 255., 0., 0., 0., 0., 0.,
          0., 0., 0., 0., 255., 255., 255., 255., 255., 255., 255., 64.,
          0., 0., 0., 0., 0., 0., 0., 128., 255., 255., 255., 255., 255.,
          255., 255., 128., 0., 0., 0., 0., 0., 0., 0., 128., 255., 255.,
          191., 0., 191., 255., 255., 128., 0., 0., 0., 0., 0., 0., 0.,
          191., 255., 255., 64., 0., 128., 255., 255., 255., 0., 0., 0.,
          0., 0., 0., 0., 255., 255., 255., 128., 0., 191., 255., 255.,
          255., 0., 0., 0., 0., 0., 0., 0., 255., 255., 255., 255., 191.,
          255., 255., 255., 255., 64., 0., 0., 0., 0., 0., 128., 255.,
          255., 255., 255., 255., 255., 255., 255., 255., 128., 0., 0.,
          0., 0., 0., 128., 255., 255., 191., 255., 255., 255., 255.,
          255., 255., 128., 0., 0., 0., 0., 0., 191., 255., 191., 0., 0.,
          0., 0., 191., 255., 255., 128., 0., 0., 0., 0., 0., 255., 255.,
          255., 0., 0., 0., 0., 0., 191., 255., 255., 0., 0., 0., 0., 0.,
          255., 255., 128., 0., 0., 0., 0., 0., 64., 128., 128., 0., 0. ]
      - [ 0., 0., 0., 0., 0., 0., 175., 255., 143., 0., 0., 0., 0., 0.,
          0., 0., 0., 0., 0., 0., 0., 0., 175., 255., 230., 136., 0., 0.,
          0., 0., 0., 0., 0., 0., 0., 0., 0., 0., 175., 255., 255., 175.,
          0., 0., 0., 0., 0., 0., 0., 0., 0., 0., 0., 0., 175., 255.,
          255., 175., 0., 0., 0., 0., 0., 0., 0., 0., 0., 0., 0., 0.,
          175., 255., 255., 175., 0., 0., 0., 0., 0., 0., 0., 0., 0., 0.,
          0., 36., 189., 255., 255., 175., 0., 0., 0., 0., 0., 0., 0.,
          0., 0., 0., 0., 207., 255., 255., 255., 175., 0., 0., 0., 0.,
          0., 0., 0., 0., 0., 0., 0., 207., 255., 255., 255., 175., 0.,
          0., 0., 0., 0., 0., 0., 0., 0., 0., 0., 207., 255., 255., 255.,
          175., 0., 0., 0., 0., 0., 0., 0., 0., 0., 0., 0., 207., 255.,
          255., 255., 221., 119., 0., 0., 0., 0., 0., 0., 0., 0., 0., 0.,
          207., 255., 194., 194., 255., 207., 0., 0., 0., 0., 0., 0., 0.,
          0., 0., 0., 207., 255., 111., 112., 255., 207., 0., 0., 0., 0.,
          0., 0., 0., 0., 0., 0., 207., 255., 111., 112., 255., 213.,
          32., 0., 0., 0., 0., 0., 0., 0., 0., 0., 207., 255., 112.,
          112., 255., 254., 249., 0., 0., 0., 0., 0., 0., 0., 0., 0.,
          207., 255., 230., 230., 255., 255., 255., 0., 0., 0., 0., 0.,
          0., 0., 0., 172., 239., 255., 255., 255., 255., 255., 255., 0.,
          0., 0., 0., 0., 0., 0., 0., 255., 255., 255., 180., 121., 163.,
          255., 255., 0., 0., 0., 0., 0., 0., 0., 0., 255., 255., 189.,
          70., 0., 80., 255., 255., 0., 0., 0., 0., 0., 0., 0., 0., 255.,
          255., 80., 0., 0., 62., 198., 198., 0., 0., 0., 0., 0., 0., 0.,
          0., 255., 255., 79., 0., 0., 0., 0., 0., 0., 0., 0., 0. ]
      - [ 0., 0., 0., 0., 0., 0., 42., 212., 255., 212., 42., 0., 0., 0.,
          0., 0., 0., 0., 0., 0., 0., 0., 42., 212., 255., 212., 42., 0.,
          0., 0., 0., 0., 0., 0., 0., 0., 0., 0., 42., 212., 255., 212.,
          42., 0., 0., 0., 0., 0., 0., 0., 0., 0., 0., 0., 42., 212.,
          255., 212., 42., 0., 0., 0., 0., 0., 0., 0., 0., 0., 0., 54.,
          133., 231., 255., 231., 133., 54., 0., 0., 0., 0., 0., 0., 0.,
          0., 0., 127., 255., 255., 255., 255., 255., 127., 0., 0., 0.,
          0., 0., 0., 0., 0., 0., 127., 255., 255., 255., 255., 255.,
          127., 0., 0., 0., 0., 0., 0., 0., 0., 0., 127., 255., 255.,
          255., 255., 255., 127., 0., 0., 0., 0., 0., 0., 0., 0., 6.,
          131., 255., 255., 255., 255., 255., 127., 0., 0., 0., 0., 0.,
          0., 0., 0., 172., 213., 255., 255., 255., 255., 255., 127., 0.,
          0., 0., 0., 0., 0., 0., 0., 255., 255., 241., 186., 172., 186.,
          241., 127., 0., 0., 0., 0., 0., 0., 0., 0., 255., 255., 213.,
          48., 6., 48., 213., 127., 0., 0., 0., 0., 0., 0., 0., 0., 255.,
          255., 212., 42., 0., 42., 212., 127., 0., 0., 0., 0., 0., 0.,
          0., 0., 255., 220., 154., 31., 0., 42., 212., 162., 70., 0.,
          0., 0., 0., 0., 0., 0., 255., 137., 16., 3., 0., 42., 212.,
          245., 236., 0., 0., 0., 0., 0., 0., 0., 255., 201., 147., 147.,
          147., 165., 237., 255., 255., 0., 0., 0., 0., 0., 0., 0., 198.,
          198., 207., 245., 255., 255., 255., 255., 255., 0., 0., 0., 0.,
          0., 0., 0., 32., 32., 69., 218., 255., 255., 255., 255., 255.,
          0., 0., 0., 0., 0., 0., 0., 0., 0., 20., 101., 121., 121.,
          121., 188., 255., 0., 0., 0., 0., 0., 0., 0., 0., 0., 0., 0.,
          0., 0., 0., 127., 255., 0., 0., 0. ]
      - [ 0., 0., 0., 0., 0., 146., 255., 123., 0., 0., 0., 0., 0., 0.,
          0., 0., 0., 0., 0., 0., 0., 236., 255., 255., 0., 0., 0., 0.,
          210., 210., 210., 0., 0., 96., 14., 0., 96., 255., 255., 255.,
          209., 96., 0., 0., 0., 23., 159., 0., 0., 19., 3., 0., 255.,
          255., 255., 255., 255., 255., 0., 0., 0., 0., 0., 0., 0., 0.,
          0., 0., 255., 255., 255., 255., 255., 255., 126., 134., 0.,
          151., 255., 0., 0., 0., 0., 0., 255., 255., 255., 255., 255.,
          255., 146., 0., 0., 5., 0., 0., 0., 0., 0., 0., 255., 255.,
          255., 255., 255., 255., 146., 0., 0., 219., 0., 0., 0., 0., 0.,
          0., 255., 255., 255., 255., 255., 255., 255., 32., 0., 255.,
          232., 0., 0., 0., 0., 0., 255., 255., 255., 255., 255., 255.,
          255., 255., 0., 83., 24., 0., 0., 0., 0., 109., 255., 255.,
          255., 255., 255., 255., 255., 255., 142., 0., 0., 0., 0., 0.,
          0., 109., 255., 255., 255., 255., 255., 255., 255., 255., 255.,
          0., 0., 0., 0., 0., 0., 109., 255., 255., 255., 255., 255.,
          255., 255., 255., 255., 0., 0., 0., 0., 0., 0., 237., 255.,
          255., 255., 255., 255., 255., 255., 255., 255., 191., 0., 0.,
          0., 0., 0., 255., 255., 255., 255., 255., 255., 255., 255.,
          255., 255., 234., 31., 0., 0., 0., 213., 255., 255., 255.,
          255., 255., 255., 255., 255., 255., 255., 255., 73., 0., 0.,
          0., 218., 255., 255., 255., 0., 0., 0., 0., 0., 121., 255.,
          255., 73., 0., 0., 236., 252., 255., 255., 109., 0., 0., 0.,
          0., 0., 0., 255., 219., 0., 0., 0., 0., 218., 255., 255., 41.,
          0., 0., 0., 0., 91., 0., 255., 82., 0., 0., 0., 0., 180., 210.,
          210., 0., 0., 0., 0., 218., 255., 0., 145., 0., 0., 0., 0.,
          132., 0., 0., 0., 0., 0., 0., 0., 60., 176., 0., 40., 0., 0.,
          0. ]
      - [ 0., 0., 0., 0., 0., 0., 0., 0., 255., 255., 0., 0., 0., 0., 0.,
          0., 0., 0., 0., 0., 0., 0., 0., 0., 255., 255., 236., 0., 0.,
          0., 0., 0., 0., 0., 0., 0., 0., 0., 0., 223., 255., 255., 255.,
          0., 0., 0., 0., 0., 0., 0., 0., 0., 0., 0., 0., 255., 255.,
          255., 255., 0., 0., 0., 0., 0., 0., 0., 0., 0., 0., 0., 0.,
          255., 255., 255., 255., 0., 0., 0., 0., 0., 0., 0., 0., 0., 0.,
          0., 0., 255., 255., 255., 255., 0., 0., 0., 0., 0., 0., 0., 0.,
          0., 0., 0., 0., 255., 255., 255., 255., 0., 0., 0., 0., 0., 0.,
          0., 0., 0., 0., 0., 0., 255., 255., 255., 255., 159., 0., 0.,
          0., 0., 0., 0., 0., 0., 0., 0., 147., 255., 255., 255., 255.,
          255., 0., 0., 0., 0., 0., 0., 0., 0., 0., 0., 255., 255., 121.,
          255., 255., 255., 0., 0., 0., 0., 0., 0., 0., 0., 0., 0., 255.,
          255., 0., 134., 255., 255., 0., 0., 0., 0., 0., 0., 0., 0., 0.,
          0., 255., 255., 108., 108., 255., 255., 0., 0., 0., 0., 0., 0.,
          0., 0., 0., 0., 255., 255., 255., 255., 255., 255., 0., 0., 0.,
          0., 0., 0., 0., 0., 0., 83., 255., 255., 255., 255., 255.,
          255., 83., 0., 0., 0., 0., 0., 0., 0., 0., 255., 255., 255.,
          255., 255., 255., 255., 255., 0., 0., 0., 0., 0., 0., 0., 0.,
          255., 255., 255., 198., 198., 255., 255., 255., 0., 0., 0., 0.,
          0., 0., 0., 0., 255., 255., 210., 0., 0., 210., 255., 255., 0.,
          0., 0., 0., 0., 0., 0., 32., 255., 223., 0., 0., 0., 0., 255.,
          255., 0., 0., 0., 0., 0., 0., 19., 255., 236., 0., 0., 0., 0.,
          0., 236., 236., 0., 0., 0., 0., 0., 0., 255., 255., 0., 0., 0.,
          0., 0., 0., 0., 0., 0., 0., 0. ]
      - [ 0., 0., 0., 0., 0., 255., 255., 255., 116., 0., 0., 0., 0., 0.,
          0., 0., 0., 0., 0., 0., 0., 255., 255., 255., 140., 0., 0., 0.,
          0., 0., 0., 0., 0., 0., 0., 0., 217., 255., 255., 255., 255.,
          0., 0., 0., 0., 0., 0., 0., 0., 0., 0., 0., 217., 255., 255.,
          255., 255., 0., 0., 0., 0., 0., 0., 0., 0., 0., 0., 0., 217.,
          255., 255., 255., 255., 0., 0., 0., 0., 0., 0., 0., 0., 0., 0.,
          0., 219., 255., 255., 255., 255., 172., 0., 0., 0., 0., 0., 0.,
          0., 0., 0., 0., 255., 255., 255., 255., 255., 255., 0., 0., 0.,
          0., 0., 0., 0., 0., 0., 0., 255., 255., 255., 255., 255., 255.,
          0., 0., 0., 0., 0., 0., 0., 0., 0., 0., 255., 255., 255., 255.,
          255., 255., 191., 0., 0., 0., 0., 0., 0., 0., 0., 0., 255.,
          255., 255., 46., 255., 255., 191., 0., 0., 0., 0., 0., 0., 0.,
          0., 0., 255., 255., 255., 0., 255., 255., 255., 0., 0., 0., 0.,
          0., 0., 0., 0., 0., 255., 255., 93., 0., 255., 255., 255., 0.,
          0., 0., 0., 0., 0., 0., 0., 0., 255., 255., 89., 0., 115.,
          255., 255., 0., 0., 0., 0., 0., 0., 0., 0., 0., 255., 255.,
          255., 70., 153., 255., 255., 227., 0., 0., 0., 0., 0., 0., 0.,
          224., 255., 255., 255., 255., 255., 255., 255., 255., 0., 0.,
          0., 0., 0., 0., 0., 242., 255., 255., 255., 255., 255., 255.,
          255., 255., 0., 0., 0., 0., 0., 0., 0., 242., 255., 255., 255.,
          255., 255., 255., 255., 255., 55., 0., 0., 0., 0., 0., 0.,
          242., 255., 255., 110., 0., 18., 32., 255., 255., 242., 0., 0.,
          0., 0., 0., 0., 249., 255., 255., 0., 0., 0., 0., 255., 255.,
          255., 0., 0., 0., 0., 0., 0., 200., 255., 255., 0., 0., 0., 0.,
          53., 210., 200., 0., 0., 0. ]
      - [ 0., 0., 0., 0., 0., 0., 0., 182., 255., 255., 54., 0., 0., 0.,
          0., 0., 0., 0., 0., 0., 0., 0., 127., 255., 255., 255., 255.,
          0., 0., 0., 0., 0., 0., 0., 0., 0., 0., 0., 127., 255., 255.,
          255., 255., 0., 0., 0., 0., 0., 0., 0., 0., 0., 0., 0., 252.,
          255., 255., 255., 255., 0., 0., 0., 0., 0., 0., 0., 0., 0., 0.,
          0., 255., 255., 255., 255., 255., 0., 0., 0., 0., 0., 0., 0.,
          0., 0., 0., 86., 255., 255., 255., 255., 255., 128., 0., 0.,
          0., 0., 0., 0., 0., 0., 0., 127., 255., 255., 255., 255., 255.,
          128., 0., 0., 0., 0., 0., 0., 0., 0., 0., 127., 255., 255.,
          255., 255., 255., 255., 0., 0., 0., 0., 0., 0., 0., 0., 0.,
          255., 255., 255., 255., 255., 255., 255., 0., 0., 0., 0., 0.,
          0., 0., 0., 10., 255., 255., 255., 245., 255., 255., 255.,
          128., 0., 0., 0., 0., 0., 0., 0., 127., 255., 255., 255., 127.,
          255., 255., 255., 128., 0., 0., 0., 0., 0., 0., 0., 127., 255.,
          255., 255., 226., 255., 255., 255., 226., 0., 0., 0., 0., 0.,
          0., 0., 207., 255., 255., 255., 255., 255., 255., 255., 255.,
          0., 0., 0., 0., 0., 0., 0., 255., 255., 255., 255., 255., 255.,
          255., 255., 255., 0., 0., 0., 0., 0., 0., 127., 255., 255.,
          255., 213., 172., 172., 255., 255., 255., 128., 0., 0., 0., 0.,
          0., 150., 255., 255., 233., 0., 0., 0., 255., 255., 255., 128.,
          0., 0., 0., 0., 0., 255., 255., 255., 127., 0., 0., 0., 127.,
          255., 255., 128., 0., 0., 0., 0., 0., 255., 255., 255., 16.,
          0., 0., 0., 16., 255., 255., 128., 0., 0., 0., 0., 0., 0., 0.,
          0., 0., 0., 0., 0., 0., 0., 163., 255., 0., 0., 0., 0., 0., 0.,
          0., 0., 0., 0., 0., 0., 0., 0., 201., 255., 0., 0. ]
      - [ 0., 0., 0., 0., 0., 0., 125., 255., 38., 15., 0., 0., 0., 0.,
          0., 0., 0., 0., 0., 0., 0., 115., 255., 255., 255., 102., 0.,
          0., 0., 0., 0., 0., 0., 0., 0., 0., 0., 255., 255., 255., 255.,
          102., 0., 0., 0., 0., 0., 0., 0., 0., 0., 0., 0., 255., 255.,
          255., 255., 255., 0., 0., 0., 0., 0., 0., 0., 0., 0., 0., 0.,
          255., 255., 255., 255., 255., 0., 0., 0., 0., 0., 0., 0., 0.,
          0., 0., 99., 255., 255., 255., 255., 255., 166., 0., 0., 0.,
          0., 0., 0., 0., 0., 0., 153., 255., 255., 255., 255., 255.,
          255., 0., 0., 0., 0., 0., 0., 0., 0., 0., 153., 255., 255.,
          255., 255., 255., 255., 38., 0., 0., 0., 0., 0., 0., 0., 0.,
          153., 255., 255., 255., 255., 255., 255., 153., 0., 0., 0., 0.,
          0., 0., 0., 43., 240., 255., 255., 255., 255., 255., 255.,
          153., 0., 0., 0., 0., 0., 0., 0., 51., 255., 255., 255., 255.,
          224., 255., 255., 153., 0., 0., 0., 0., 0., 0., 0., 51., 255.,
          255., 255., 255., 143., 255., 255., 199., 23., 0., 0., 0., 0.,
          0., 0., 51., 255., 255., 255., 255., 255., 255., 255., 255.,
          51., 0., 0., 0., 0., 0., 0., 255., 255., 255., 255., 255.,
          255., 255., 255., 255., 51., 0., 0., 0., 0., 0., 0., 255.,
          255., 255., 255., 255., 255., 255., 255., 255., 51., 0., 0.,
          0., 0., 0., 0., 255., 255., 255., 255., 255., 255., 255., 255.,
          255., 184., 0., 0., 0., 0., 0., 0., 255., 255., 255., 158.,
          13., 13., 158., 255., 255., 255., 0., 0., 0., 0., 0., 0., 255.,
          255., 191., 0., 0., 0., 0., 255., 255., 255., 0., 0., 0., 0.,
          0., 0., 255., 255., 0., 0., 0., 0., 0., 115., 255., 255., 0.,
          0., 0., 0., 0., 0., 211., 38., 0., 0., 0., 0., 0., 0., 38.,
          38., 0., 0., 0. ]
      - [ 0., 0., 0., 0., 0., 0., 0., 0., 204., 255., 255., 63., 0., 0.,
          0., 0., 0., 0., 0., 0., 0., 0., 0., 35., 255., 255., 255.,
          104., 0., 0., 0., 0., 0., 0., 0., 0., 0., 0., 0., 35., 255.,
          255., 255., 104., 0., 0., 0., 0., 0., 0., 0., 0., 0., 0., 0.,
          255., 255., 255., 255., 104., 0., 0., 0., 0., 0., 0., 0., 0.,
          0., 0., 0., 255., 255., 255., 255., 255., 0., 0., 0., 0., 0.,
          0., 0., 0., 0., 0., 197., 255., 255., 255., 255., 255., 0., 0.,
          0., 0., 0., 0., 0., 204., 204., 255., 255., 255., 255., 255.,
          255., 255., 206., 65., 0., 0., 0., 0., 0., 174., 255., 255.,
          255., 255., 255., 255., 255., 255., 255., 255., 0., 0., 0., 0.,
          0., 0., 255., 255., 255., 255., 255., 255., 255., 255., 255.,
          0., 0., 0., 0., 0., 0., 81., 11., 255., 255., 255., 255., 255.,
          255., 255., 255., 0., 0., 0., 0., 0., 0., 81., 11., 255., 255.,
          255., 255., 255., 255., 255., 255., 174., 0., 0., 0., 0., 0.,
          0., 255., 255., 255., 255., 255., 255., 255., 255., 255., 35.,
          0., 0., 0., 0., 0., 0., 255., 255., 255., 255., 255., 255.,
          255., 255., 255., 0., 0., 0., 0., 0., 0., 35., 255., 255.,
          255., 0., 0., 0., 255., 255., 255., 0., 0., 0., 0., 0., 0.,
          174., 255., 255., 255., 0., 0., 0., 255., 255., 255., 104., 0.,
          0., 0., 0., 0., 174., 255., 255., 58., 0., 0., 0., 255., 255.,
          255., 0., 0., 0., 0., 0., 0., 0., 255., 171., 12., 0., 0., 0.,
          0., 120., 206., 204., 0., 0., 0., 0., 0., 0., 0., 0., 0., 0.,
          0., 0., 58., 255., 255., 255., 0., 0., 0., 0., 0., 0., 0., 0.,
          0., 0., 0., 0., 0., 234., 255., 255., 0., 0., 0., 0., 0., 0.,
          102., 0., 0., 0., 0., 0., 0., 0., 146., 153., 0., 0. ]
      - [ 0., 0., 0., 0., 230., 255., 255., 174., 0., 0., 0., 0., 0., 0.,
          0., 0., 0., 0., 0., 0., 255., 255., 255., 255., 0., 0., 0., 0.,
          0., 0., 0., 0., 0., 0., 0., 0., 255., 255., 255., 255., 127.,
          0., 0., 0., 0., 0., 0., 0., 0., 0., 0., 151., 255., 255., 255.,
          255., 255., 0., 0., 0., 0., 0., 0., 0., 0., 0., 0., 151., 255.,
          255., 255., 255., 255., 14., 0., 0., 0., 0., 0., 0., 0., 0.,
          0., 150., 255., 255., 255., 255., 255., 81., 0., 0., 0., 0.,
          0., 0., 0., 0., 0., 151., 255., 255., 255., 255., 255., 255.,
          0., 0., 0., 0., 0., 0., 0., 0., 0., 150., 255., 255., 255.,
          255., 255., 255., 22., 0., 0., 0., 0., 0., 0., 0., 0., 150.,
          255., 255., 255., 255., 255., 255., 35., 0., 0., 0., 0., 0.,
          0., 0., 0., 151., 255., 255., 255., 255., 255., 255., 255., 0.,
          0., 0., 0., 0., 0., 0., 0., 151., 255., 255., 255., 81., 255.,
          255., 255., 0., 0., 0., 0., 0., 0., 0., 0., 150., 255., 255.,
          255., 0., 255., 255., 255., 55., 0., 0., 0., 0., 0., 0., 0.,
          150., 255., 255., 255., 0., 255., 255., 255., 243., 0., 0., 0.,
          0., 0., 0., 0., 255., 255., 255., 255., 216., 255., 255., 255.,
          255., 0., 0., 0., 0., 0., 0., 0., 184., 255., 255., 255., 255.,
          255., 255., 255., 255., 133., 0., 0., 0., 0., 0., 0., 255.,
          255., 255., 255., 255., 255., 255., 255., 255., 245., 0., 0.,
          0., 0., 0., 0., 255., 255., 255., 255., 255., 255., 255., 255.,
          255., 255., 0., 0., 0., 0., 0., 0., 255., 255., 255., 255., 0.,
          0., 0., 255., 255., 255., 151., 0., 0., 0., 0., 0., 255., 255.,
          255., 255., 0., 0., 0., 255., 255., 255., 179., 0., 0., 0., 0.,
          0., 255., 255., 255., 255., 0., 0., 0., 147., 255., 255., 147.,
          0., 0. ]
      - [ 0., 0., 0., 0., 0., 0., 255., 255., 255., 217., 0., 0., 0., 0.,
          0., 0., 0., 0., 0., 0., 0., 91., 255., 255., 255., 255., 0.,
          0., 0., 0., 0., 0., 0., 0., 0., 0., 0., 255., 255., 255., 255.,
          255., 0., 0., 0., 0., 0., 0., 0., 0., 0., 0., 0., 255., 255.,
          255., 255., 255., 0., 0., 0., 0., 0., 0., 0., 0., 0., 0., 0.,
          255., 255., 255., 255., 255., 91., 0., 0., 0., 0., 0., 0., 0.,
          0., 0., 45., 255., 255., 255., 255., 255., 148., 0., 0., 0.,
          0., 0., 0., 0., 0., 0., 127., 255., 255., 255., 255., 255.,
          255., 0., 0., 0., 0., 0., 0., 0., 0., 0., 255., 255., 255.,
          255., 255., 255., 255., 0., 0., 0., 0., 0., 0., 0., 0., 0.,
          255., 255., 255., 0., 237., 255., 255., 185., 0., 0., 0., 0.,
          0., 0., 0., 25., 255., 255., 255., 0., 0., 255., 255., 255.,
          0., 0., 0., 0., 0., 0., 0., 164., 255., 255., 255., 0., 0.,
          255., 255., 255., 0., 0., 0., 0., 0., 0., 0., 255., 255., 255.,
          200., 0., 0., 255., 255., 255., 0., 0., 0., 0., 0., 0., 0.,
          255., 255., 255., 50., 0., 0., 200., 255., 255., 164., 0., 0.,
          0., 0., 0., 0., 255., 255., 255., 255., 242., 242., 255., 255.,
          255., 164., 0., 0., 0., 0., 0., 200., 255., 255., 255., 255.,
          255., 255., 255., 255., 255., 255., 0., 0., 0., 0., 0., 219.,
          255., 255., 255., 255., 255., 255., 255., 255., 255., 255., 0.,
          0., 0., 0., 0., 255., 255., 255., 255., 255., 242., 242., 242.,
          242., 255., 255., 200., 0., 0., 0., 0., 255., 255., 255., 41.,
          0., 0., 0., 0., 0., 255., 255., 255., 0., 0., 0., 245., 255.,
          255., 197., 0., 0., 0., 0., 0., 0., 127., 255., 255., 107., 0.,
          0., 255., 255., 255., 0., 0., 0., 0., 0., 0., 0., 0., 255.,
          255., 252., 0. ]
      - [ 0., 0., 0., 0., 0., 0., 0., 0., 29., 68., 255., 212., 0., 0.,
          0., 0., 0., 0., 0., 0., 0., 0., 0., 0., 127., 255., 255., 212.,
          0., 0., 0., 0., 0., 0., 0., 0., 184., 0., 0., 0., 143., 255.,
          255., 212., 0., 0., 0., 0., 0., 0., 0., 0., 184., 0., 0., 0.,
          255., 255., 255., 213., 0., 0., 0., 0., 0., 0., 0., 0., 180.,
          0., 0., 241., 255., 255., 255., 212., 0., 0., 0., 0., 0., 0.,
          0., 0., 0., 0., 0., 241., 255., 255., 255., 233., 34., 0., 0.,
          0., 0., 0., 0., 0., 0., 0., 0., 241., 255., 255., 255., 255.,
          71., 0., 0., 0., 0., 0., 0., 0., 0., 0., 0., 241., 255., 255.,
          255., 255., 71., 0., 0., 0., 0., 0., 0., 0., 0., 0., 82., 252.,
          255., 255., 255., 255., 71., 0., 0., 0., 0., 0., 0., 0., 0.,
          0., 99., 255., 255., 255., 255., 255., 71., 0., 0., 0., 0., 0.,
          0., 0., 0., 0., 212., 255., 255., 255., 255., 255., 71., 0.,
          0., 0., 0., 0., 0., 0., 0., 0., 255., 255., 255., 255., 255.,
          255., 255., 0., 0., 0., 0., 0., 0., 0., 0., 0., 255., 255.,
          255., 255., 255., 255., 255., 0., 0., 0., 0., 0., 0., 0., 0.,
          212., 255., 255., 255., 255., 255., 255., 255., 0., 0., 0., 0.,
          0., 0., 0., 0., 212., 255., 255., 255., 255., 255., 255., 255.,
          0., 0., 0., 0., 0., 0., 0., 0., 212., 255., 255., 255., 255.,
          255., 255., 255., 0., 0., 0., 0., 0., 0., 0., 71., 255., 255.,
          255., 255., 255., 255., 255., 255., 0., 0., 0., 0., 0., 0., 0.,
          71., 255., 255., 255., 32., 255., 255., 255., 255., 0., 0., 0.,
          0., 0., 0., 0., 71., 255., 255., 14., 0., 0., 156., 255., 255.,
          0., 0., 0., 0., 0., 0., 0., 71., 255., 178., 3., 0., 0., 35.,
          255., 112., 0., 0., 0. ]
      - [ 0., 0., 0., 0., 0., 228., 255., 255., 244., 0., 0., 0., 0., 0.,
          0., 0., 0., 0., 0., 0., 181., 255., 255., 255., 255., 0., 0.,
          0., 0., 0., 0., 0., 0., 0., 0., 0., 181., 255., 255., 255.,
          255., 223., 0., 0., 0., 0., 0., 0., 0., 0., 0., 0., 218., 255.,
          255., 255., 255., 223., 0., 0., 0., 0., 0., 0., 0., 0., 0., 0.,
          255., 255., 255., 255., 255., 255., 0., 0., 0., 0., 0., 0., 0.,
          0., 0., 0., 255., 255., 255., 255., 255., 255., 101., 0., 0.,
          0., 0., 0., 0., 0., 0., 0., 255., 255., 255., 255., 255., 255.,
          202., 0., 0., 0., 0., 0., 0., 0., 0., 80., 255., 255., 255.,
          255., 255., 255., 255., 0., 0., 0., 0., 0., 0., 0., 0., 159.,
          255., 255., 255., 255., 255., 255., 255., 0., 0., 0., 0., 0.,
          0., 0., 0., 159., 255., 255., 255., 128., 255., 255., 255.,
          90., 0., 0., 0., 0., 0., 0., 0., 255., 255., 255., 255., 0.,
          255., 255., 255., 255., 0., 0., 0., 0., 0., 0., 0., 255., 255.,
          255., 255., 0., 255., 255., 255., 255., 0., 0., 0., 0., 0., 0.,
          0., 255., 255., 255., 255., 5., 255., 255., 255., 255., 0., 0.,
          0., 0., 0., 0., 69., 255., 255., 255., 255., 255., 255., 255.,
          255., 255., 159., 0., 0., 0., 0., 0., 138., 255., 255., 255.,
          255., 255., 255., 255., 255., 255., 207., 0., 0., 0., 0., 0.,
          138., 255., 255., 255., 255., 255., 255., 255., 255., 255.,
          255., 69., 0., 0., 0., 0., 197., 255., 255., 255., 255., 128.,
          133., 255., 255., 255., 255., 138., 0., 0., 0., 0., 255., 255.,
          255., 255., 16., 0., 0., 16., 255., 255., 255., 255., 0., 0.,
          0., 0., 255., 255., 255., 27., 0., 0., 0., 0., 154., 255.,
          175., 69., 0., 0., 0., 0., 197., 175., 128., 0., 0., 0., 0.,
          0., 27., 90., 0., 0., 0., 0. ]
      - [ 0., 0., 0., 0., 0., 73., 255., 255., 223., 18., 0., 0., 0., 0.,
          0., 0., 0., 0., 0., 0., 0., 73., 255., 255., 255., 146., 0.,
          0., 0., 0., 0., 0., 0., 0., 0., 0., 0., 73., 255., 255., 255.,
          146., 0., 0., 0., 0., 0., 0., 0., 0., 0., 0., 0., 73., 255.,
          255., 255., 145., 0., 0., 0., 0., 0., 0., 0., 0., 0., 0., 0.,
          255., 255., 255., 255., 145., 0., 0., 0., 0., 0., 0., 0., 0.,
          0., 0., 0., 255., 255., 255., 255., 146., 0., 0., 0., 0., 0.,
          0., 0., 0., 0., 0., 0., 255., 255., 255., 255., 146., 0., 0.,
          0., 0., 0., 0., 0., 0., 0., 0., 223., 255., 255., 255., 255.,
          241., 64., 0., 0., 0., 0., 0., 0., 0., 0., 23., 255., 255.,
          255., 255., 255., 255., 73., 0., 0., 0., 0., 0., 0., 0., 0.,
          182., 255., 255., 255., 255., 255., 255., 73., 0., 0., 0., 82.,
          0., 0., 0., 0., 182., 255., 255., 255., 255., 255., 255., 73.,
          0., 0., 0., 82., 0., 0., 0., 0., 182., 255., 255., 255., 255.,
          255., 255., 73., 0., 0., 0., 0., 0., 0., 0., 109., 255., 255.,
          255., 255., 255., 255., 255., 95., 0., 0., 0., 0., 0., 0., 0.,
          109., 255., 255., 255., 255., 255., 255., 255., 187., 0., 0.,
          0., 0., 0., 0., 23., 200., 255., 255., 255., 255., 255., 255.,
          255., 187., 0., 0., 0., 0., 0., 0., 228., 255., 255., 255.,
          191., 159., 255., 255., 255., 255., 0., 0., 0., 0., 0., 0.,
          255., 255., 255., 255., 255., 255., 255., 228., 255., 255.,
          255., 255., 128., 32., 0., 0., 255., 255., 255., 255., 255.,
          255., 255., 118., 255., 255., 255., 255., 255., 255., 0., 0.,
          255., 255., 255., 255., 255., 255., 255., 255., 255., 255.,
          255., 255., 255., 255., 0., 0., 255., 255., 95., 32., 32., 32.,
          223., 255., 255., 95., 32., 32., 32., 32., 0. ]
      - [ 0., 0., 0., 0., 0., 0., 0., 0., 140., 255., 64., 0., 0., 0.,
          0., 0., 0., 0., 0., 0., 0., 0., 75., 255., 255., 255., 206.,
          0., 0., 0., 0., 0., 0., 0., 0., 0., 0., 0., 116., 255., 255.,
          255., 255., 0., 0., 0., 0., 0., 0., 0., 0., 0., 0., 0., 255.,
          255., 255., 255., 255., 0., 0., 0., 0., 0., 0., 0., 0., 0., 0.,
          0., 255., 255., 255., 255., 255., 46., 0., 0., 0., 0., 0., 0.,
          0., 0., 0., 2., 255., 255., 255., 255., 255., 255., 0., 0., 0.,
          0., 0., 0., 0., 0., 0., 46., 255., 255., 255., 255., 255.,
          255., 0., 0., 0., 0., 0., 0., 0., 0., 0., 255., 255., 255.,
          191., 255., 255., 255., 0., 0., 0., 0., 0., 0., 0., 0., 0.,
          255., 255., 255., 0., 255., 255., 255., 0., 0., 0., 0., 0., 0.,
          0., 0., 0., 255., 255., 255., 0., 255., 255., 255., 0., 0., 0.,
          0., 0., 0., 0., 0., 0., 255., 255., 255., 0., 153., 255., 255.,
          0., 0., 0., 0., 0., 0., 0., 0., 151., 255., 255., 134., 0.,
          69., 255., 255., 151., 0., 0., 0., 0., 0., 0., 0., 232., 255.,
          255., 69., 0., 69., 255., 255., 232., 0., 0., 0., 0., 0., 0.,
          0., 232., 255., 255., 227., 217., 255., 255., 255., 252., 0.,
          0., 0., 0., 0., 0., 0., 255., 255., 255., 255., 255., 255.,
          255., 255., 255., 0., 0., 0., 0., 0., 0., 0., 255., 255., 255.,
          255., 255., 255., 255., 255., 255., 8., 0., 0., 0., 0., 0., 0.,
          255., 255., 255., 217., 217., 217., 238., 255., 255., 162., 0.,
          0., 0., 0., 0., 162., 255., 255., 139., 0., 0., 0., 0., 255.,
          255., 185., 0., 0., 0., 0., 0., 195., 255., 255., 0., 0., 0.,
          0., 0., 239., 255., 223., 0., 0., 0., 0., 0., 89., 255., 115.,
          0., 0., 0., 0., 0., 115., 151., 89., 0., 0. ]
      - [ 0., 0., 0., 0., 0., 0., 0., 0., 0., 0., 0., 0., 0., 0., 0., 0.,
          0., 0., 135., 255., 255., 255., 255., 255., 151., 0., 0., 0.,
          0., 0., 0., 0., 195., 195., 227., 255., 255., 255., 255., 255.,
          230., 195., 189., 30., 0., 0., 0., 0., 255., 255., 255., 255.,
          255., 255., 255., 163., 163., 255., 252., 170., 53., 0., 0.,
          0., 141., 223., 255., 255., 237., 144., 141., 57., 104., 255.,
          255., 255., 162., 61., 0., 0., 0., 183., 255., 229., 153., 6.,
          0., 0., 103., 255., 255., 255., 255., 170., 53., 0., 0., 183.,
          255., 167., 0., 0., 0., 0., 90., 229., 255., 255., 255., 255.,
          192., 33., 0., 183., 255., 167., 0., 0., 0., 0., 3., 61., 255.,
          255., 255., 255., 253., 248., 0., 34., 157., 239., 176., 7.,
          0., 0., 85., 218., 255., 255., 255., 157., 47., 47., 0., 0.,
          135., 255., 241., 170., 168., 168., 203., 255., 250., 113.,
          87., 46., 0., 0., 0., 0., 135., 255., 255., 255., 255., 255.,
          255., 255., 247., 40., 0., 0., 0., 0., 0., 63., 176., 255.,
          241., 170., 168., 168., 203., 255., 250., 113., 30., 0., 0.,
          0., 0., 183., 255., 239., 176., 7., 0., 0., 85., 218., 255.,
          255., 118., 25., 0., 0., 0., 183., 255., 167., 0., 0., 0., 0.,
          0., 56., 255., 255., 255., 135., 0., 0., 0., 183., 255., 167.,
          0., 0., 0., 0., 0., 56., 255., 255., 255., 135., 0., 0., 0.,
          183., 255., 229., 153., 6., 0., 0., 0., 56., 255., 255., 255.,
          135., 0., 0., 141., 223., 255., 255., 237., 144., 31., 0., 57.,
          166., 255., 255., 255., 135., 0., 0., 154., 227., 255., 255.,
          255., 255., 134., 101., 163., 255., 252., 170., 154., 82., 0.,
          0., 0., 183., 255., 255., 255., 255., 255., 255., 230., 195.,
          189., 30., 0., 0., 0., 0., 0., 183., 255., 255., 255., 255.,
          255., 255., 151., 0., 0., 0., 0., 0., 0., 0. ]
      - [ 0., 0., 0., 255., 69., 139., 255., 255., 255., 255., 255.,
          139., 0., 0., 0., 0., 0., 0., 0., 255., 199., 220., 255., 255.,
          255., 255., 255., 220., 130., 0., 0., 0., 0., 0., 0., 255.,
          255., 255., 255., 255., 255., 255., 255., 255., 185., 0., 0.,
          0., 0., 0., 0., 255., 255., 255., 227., 179., 179., 241., 255.,
          255., 185., 0., 0., 0., 0., 0., 0., 255., 255., 255., 162., 0.,
          0., 209., 255., 255., 185., 0., 0., 0., 0., 0., 0., 255., 255.,
          255., 162., 0., 0., 209., 255., 255., 185., 0., 0., 0., 0., 0.,
          0., 76., 206., 255., 227., 179., 179., 241., 255., 255., 185.,
          0., 0., 0., 0., 0., 0., 0., 185., 255., 255., 255., 255., 255.,
          255., 255., 185., 0., 0., 0., 0., 0., 0., 76., 206., 255.,
          255., 255., 255., 255., 255., 255., 185., 0., 0., 0., 0., 0.,
          0., 255., 255., 255., 245., 229., 229., 250., 255., 255., 185.,
          0., 0., 0., 0., 0., 0., 255., 255., 255., 171., 26., 26., 213.,
          255., 255., 185., 0., 0., 0., 0., 0., 0., 255., 255., 255.,
          162., 0., 0., 209., 255., 255., 185., 0., 0., 0., 0., 0., 0.,
          255., 255., 255., 209., 128., 128., 232., 255., 255., 220.,
          128., 0., 0., 0., 0., 0., 255., 255., 255., 255., 255., 255.,
          255., 255., 255., 234., 179., 0., 0., 0., 0., 0., 255., 255.,
          255., 255., 255., 255., 255., 255., 243., 167., 0., 0., 0., 0.,
          0., 0., 255., 255., 255., 255., 255., 255., 255., 255., 151.,
          19., 0., 0., 0., 0., 0., 0., 76., 76., 174., 255., 255., 255.,
          255., 141., 42., 0., 0., 0., 0., 0., 0., 0., 128., 128., 197.,
          255., 255., 255., 255., 174., 70., 0., 0., 0., 0., 0., 0., 0.,
          255., 255., 255., 255., 255., 255., 255., 206., 97., 0., 0.,
          0., 0., 0., 0., 0., 255., 255., 255., 255., 255., 255., 255.,
          93., 0., 0., 0., 0., 0. ]
      - [ 0., 0., 0., 0., 0., 173., 255., 255., 255., 255., 173., 0., 0.,
          0., 0., 0., 0., 0., 194., 217., 217., 243., 255., 255., 255.,
          255., 243., 163., 0., 0., 0., 0., 0., 0., 228., 255., 255.,
          255., 255., 255., 255., 255., 255., 239., 157., 0., 0., 0., 0.,
          0., 228., 255., 255., 255., 255., 255., 255., 255., 255., 255.,
          209., 0., 0., 0., 0., 0., 228., 255., 255., 255., 255., 255.,
          255., 255., 255., 255., 209., 0., 0., 0., 0., 0., 125., 234.,
          255., 255., 185., 140., 140., 185., 255., 255., 209., 0., 0.,
          0., 0., 0., 0., 209., 255., 255., 154., 89., 89., 154., 255.,
          255., 209., 0., 0., 0., 0., 0., 0., 209., 255., 255., 255.,
          255., 255., 255., 255., 255., 221., 64., 64., 0., 0., 0., 0.,
          209., 255., 255., 255., 255., 255., 255., 255., 255., 248.,
          217., 217., 0., 0., 0., 0., 209., 255., 255., 255., 255., 255.,
          255., 255., 255., 209., 0., 0., 0., 0., 0., 0., 209., 255.,
          255., 255., 255., 255., 255., 255., 255., 209., 0., 0., 0., 0.,
          0., 0., 209., 255., 255., 255., 255., 255., 255., 255., 255.,
          248., 194., 0., 0., 0., 0., 0., 209., 255., 255., 139., 64.,
          64., 139., 255., 255., 255., 228., 0., 0., 0., 0., 0., 209.,
          255., 255., 201., 166., 166., 201., 255., 255., 255., 228., 0.,
          0., 0., 0., 0., 209., 255., 255., 255., 255., 255., 255., 255.,
          255., 230., 103., 0., 0., 0., 0., 0., 209., 255., 255., 255.,
          255., 255., 255., 255., 255., 209., 0., 0., 0., 0., 89., 89.,
          225., 255., 255., 255., 255., 255., 255., 255., 255., 209., 0.,
          0., 0., 0., 255., 255., 255., 255., 255., 255., 221., 191.,
          191., 191., 191., 157., 0., 0., 0., 0., 255., 221., 217., 217.,
          217., 217., 101., 0., 0., 0., 0., 0., 0., 0., 0., 0., 255.,
          27., 0., 0., 0., 0., 0., 0., 0., 0., 0., 0., 0., 0., 0. ]
      - [ 0., 0., 0., 0., 0., 0., 0., 0., 0., 0., 0., 0., 0., 0., 0., 0.,
          0., 135., 255., 255., 255., 255., 255., 255., 255., 247., 72.,
          0., 0., 0., 0., 0., 149., 205., 255., 255., 255., 255., 255.,
          255., 255., 252., 179., 88., 0., 0., 0., 0., 255., 255., 255.,
          255., 209., 177., 177., 177., 204., 255., 255., 183., 71., 17.,
          0., 0., 248., 252., 255., 255., 103., 0., 0., 0., 85., 248.,
          253., 255., 231., 56., 0., 0., 64., 165., 255., 255., 103., 0.,
          0., 0., 22., 70., 201., 255., 231., 56., 0., 0., 0., 135.,
          255., 255., 103., 0., 0., 0., 41., 124., 217., 255., 231., 56.,
          0., 0., 0., 135., 255., 255., 103., 0., 0., 33., 120., 255.,
          255., 255., 231., 56., 0., 0., 0., 135., 255., 255., 103., 0.,
          0., 153., 241., 255., 255., 255., 231., 56., 0., 0., 0., 135.,
          255., 255., 200., 163., 163., 223., 255., 255., 255., 255.,
          231., 56., 0., 0., 0., 135., 255., 255., 255., 229., 166.,
          223., 255., 255., 255., 255., 240., 128., 49., 0., 0., 135.,
          255., 255., 242., 168., 7., 153., 234., 234., 249., 255., 255.,
          255., 135., 0., 0., 135., 255., 255., 133., 36., 2., 33., 50.,
          56., 197., 255., 255., 255., 135., 0., 0., 135., 255., 255.,
          103., 0., 0., 0., 0., 8., 183., 255., 255., 255., 198., 135.,
          0., 135., 255., 255., 103., 0., 0., 0., 0., 8., 183., 255.,
          255., 255., 255., 255., 0., 135., 255., 255., 103., 0., 0., 0.,
          0., 8., 183., 255., 255., 255., 255., 255., 0., 135., 255.,
          255., 209., 177., 177., 177., 177., 179., 233., 255., 255.,
          255., 172., 78., 0., 135., 255., 255., 255., 255., 255., 255.,
          255., 255., 255., 255., 245., 172., 79., 0., 0., 135., 255.,
          255., 255., 255., 255., 255., 255., 255., 255., 255., 231.,
          56., 0., 0., 0., 0., 0., 0., 0., 0., 0., 0., 0., 0., 0., 0.,
          0., 0., 0., 0. ]
      - [ 0., 255., 255., 255., 255., 255., 255., 255., 255., 234., 229.,
          229., 229., 229., 229., 0., 0., 179., 179., 179., 179., 179.,
          179., 179., 179., 32., 0., 0., 0., 0., 0., 0., 0., 0., 0., 0.,
          0., 0., 0., 0., 0., 0., 0., 0., 0., 0., 0., 0., 0., 0., 57.,
          179., 179., 179., 179., 179., 179., 179., 0., 0., 0., 0., 0.,
          0., 0., 25., 237., 255., 255., 255., 255., 255., 255., 255.,
          229., 172., 0., 0., 0., 0., 0., 27., 255., 255., 255., 255.,
          255., 255., 255., 255., 255., 255., 255., 82., 0., 0., 0., 27.,
          255., 255., 255., 255., 241., 179., 179., 179., 255., 255.,
          255., 134., 8., 0., 0., 27., 255., 255., 255., 255., 105., 0.,
          0., 0., 255., 255., 255., 255., 27., 0., 0., 27., 255., 255.,
          255., 255., 0., 0., 0., 0., 255., 255., 255., 255., 27., 0.,
          0., 27., 255., 255., 255., 255., 0., 0., 0., 0., 255., 255.,
          255., 255., 27., 0., 0., 0., 82., 255., 255., 255., 255., 255.,
          255., 255., 255., 255., 255., 82., 0., 0., 0., 8., 134., 255.,
          255., 255., 255., 255., 255., 255., 255., 255., 255., 82., 0.,
          0., 0., 27., 255., 255., 255., 255., 255., 255., 255., 255.,
          255., 255., 255., 168., 14., 0., 0., 27., 255., 255., 255.,
          255., 76., 76., 76., 76., 255., 255., 255., 255., 27., 0., 0.,
          27., 255., 255., 255., 255., 0., 0., 0., 0., 255., 255., 255.,
          255., 27., 0., 0., 27., 255., 255., 255., 255., 0., 0., 0., 0.,
          255., 255., 255., 255., 27., 0., 0., 27., 255., 255., 255.,
          255., 76., 76., 76., 76., 255., 255., 255., 203., 19., 0., 0.,
          27., 255., 255., 255., 255., 255., 255., 255., 255., 255.,
          255., 255., 82., 0., 0., 0., 27., 255., 255., 255., 255., 255.,
          255., 255., 255., 255., 210., 76., 25., 0., 0., 0., 27., 255.,
          255., 255., 255., 255., 255., 255., 255., 26., 19., 0., 0., 0.,
          0. ]
      - [ 0., 0., 178., 255., 255., 255., 255., 255., 255., 255., 255.,
          255., 255., 128., 0., 0., 0., 0., 179., 255., 255., 255., 255.,
          255., 255., 255., 255., 255., 255., 217., 125., 0., 0., 0.,
          89., 191., 255., 255., 255., 255., 191., 128., 140., 242.,
          255., 255., 217., 128., 0., 0., 0., 127., 255., 247., 186.,
          179., 89., 0., 18., 161., 232., 255., 255., 255., 0., 0., 0.,
          127., 255., 229., 25., 0., 0., 0., 0., 0., 178., 255., 255.,
          255., 0., 0., 0., 127., 255., 229., 25., 0., 0., 0., 0., 0.,
          178., 255., 255., 255., 0., 0., 0., 127., 255., 229., 25., 0.,
          0., 0., 0., 0., 179., 255., 255., 255., 0., 0., 0., 128., 255.,
          242., 140., 128., 64., 0., 0., 0., 179., 255., 255., 255., 0.,
          0., 0., 127., 255., 255., 255., 255., 166., 76., 76., 76.,
          201., 217., 179., 179., 0., 0., 0., 127., 255., 255., 255.,
          255., 255., 255., 255., 255., 255., 128., 0., 0., 0., 0., 0.,
          127., 255., 255., 255., 255., 255., 255., 255., 255., 255.,
          128., 0., 0., 0., 0., 0., 127., 255., 237., 94., 76., 76., 76.,
          94., 237., 255., 217., 125., 0., 0., 0., 0., 128., 255., 229.,
          26., 0., 0., 0., 26., 229., 255., 255., 179., 0., 0., 0., 54.,
          166., 232., 161., 18., 0., 0., 0., 18., 161., 232., 255., 179.,
          0., 0., 0., 178., 255., 186., 23., 3., 0., 0., 0., 3., 23.,
          186., 255., 179., 0., 0., 0., 178., 255., 247., 206., 23., 0.,
          0., 0., 23., 206., 247., 255., 179., 0., 0., 179., 232., 255.,
          255., 247., 186., 179., 179., 179., 186., 247., 255., 255.,
          179., 0., 0., 255., 255., 255., 255., 255., 255., 255., 255.,
          255., 255., 255., 255., 191., 89., 0., 0., 179., 232., 255.,
          255., 255., 255., 255., 255., 255., 255., 255., 201., 89., 0.,
          0., 0., 0., 178., 255., 255., 255., 255., 255., 255., 255.,
          255., 255., 76., 0., 0., 0. ]
      - [ 0., 0., 0., 223., 255., 255., 255., 255., 255., 255., 181., 0.,
          0., 0., 0., 0., 0., 0., 198., 248., 255., 255., 255., 255.,
          255., 255., 238., 198., 173., 0., 0., 0., 0., 0., 255., 255.,
          255., 255., 255., 255., 255., 255., 255., 255., 243., 159., 0.,
          0., 0., 0., 134., 240., 255., 255., 179., 134., 134., 179.,
          255., 255., 255., 255., 0., 0., 0., 0., 0., 223., 255., 196.,
          65., 0., 0., 65., 196., 255., 255., 255., 0., 0., 0., 0., 0.,
          223., 255., 74., 0., 0., 0., 0., 74., 255., 255., 255., 0., 0.,
          0., 0., 0., 223., 255., 79., 2., 0., 0., 2., 79., 255., 255.,
          255., 0., 0., 0., 0., 0., 223., 255., 232., 84., 0., 0., 84.,
          232., 255., 255., 255., 0., 0., 0., 0., 0., 223., 255., 255.,
          211., 185., 185., 211., 255., 255., 232., 70., 0., 0., 0., 0.,
          0., 223., 255., 255., 255., 255., 255., 255., 255., 255., 223.,
          0., 0., 0., 0., 0., 0., 223., 255., 255., 255., 255., 255.,
          255., 255., 255., 223., 0., 0., 0., 0., 0., 0., 223., 255.,
          255., 211., 185., 185., 211., 255., 255., 223., 0., 0., 0., 0.,
          0., 0., 223., 255., 232., 84., 0., 0., 95., 255., 255., 223.,
          0., 0., 0., 0., 0., 0., 223., 255., 79., 2., 0., 0., 95., 255.,
          255., 223., 0., 0., 0., 0., 0., 0., 223., 255., 74., 0., 0.,
          0., 95., 255., 255., 223., 0., 0., 0., 0., 0., 172., 245.,
          255., 196., 172., 79., 79., 203., 255., 255., 223., 0., 0., 0.,
          0., 0., 255., 255., 255., 255., 255., 189., 189., 255., 255.,
          255., 223., 0., 0., 0., 0., 0., 255., 255., 255., 255., 255.,
          255., 255., 255., 255., 235., 139., 0., 0., 0., 0., 0., 198.,
          198., 243., 255., 255., 255., 229., 198., 198., 156., 0., 0.,
          0., 0., 0., 0., 0., 0., 202., 255., 255., 255., 138., 0., 0.,
          0., 0., 0., 0., 0. ]
      - [ 0., 0., 0., 0., 0., 0., 0., 0., 0., 0., 0., 0., 0., 0., 0., 0.,
          240., 21., 21., 21., 21., 21., 21., 21., 21., 21., 21., 12.,
          0., 0., 0., 0., 195., 255., 255., 255., 255., 255., 255., 255.,
          255., 255., 255., 171., 28., 0., 0., 0., 9., 169., 255., 255.,
          255., 255., 255., 255., 255., 255., 255., 255., 171., 33., 0.,
          0., 0., 48., 255., 255., 255., 255., 255., 255., 255., 255.,
          255., 255., 255., 182., 149., 9., 0., 48., 255., 255., 255.,
          255., 100., 64., 64., 64., 124., 255., 255., 255., 255., 16.,
          0., 48., 255., 255., 255., 255., 48., 0., 0., 0., 80., 255.,
          255., 255., 255., 16., 0., 48., 255., 255., 255., 255., 65.,
          1., 0., 4., 94., 255., 255., 255., 255., 16., 0., 36., 211.,
          255., 255., 255., 255., 76., 64., 100., 255., 255., 255., 211.,
          191., 12., 0., 0., 79., 255., 255., 255., 255., 255., 255.,
          255., 255., 255., 255., 79., 0., 0., 0., 28., 182., 255., 255.,
          255., 255., 255., 255., 255., 255., 255., 255., 79., 0., 0.,
          0., 48., 255., 255., 255., 255., 255., 76., 64., 100., 255.,
          255., 255., 211., 191., 12., 0., 48., 255., 255., 255., 255.,
          65., 1., 0., 4., 94., 255., 255., 255., 255., 16., 0., 48.,
          255., 255., 255., 80., 0., 0., 0., 0., 80., 255., 255., 255.,
          255., 16., 0., 48., 255., 255., 255., 124., 64., 64., 64., 64.,
          124., 255., 255., 255., 203., 12., 0., 48., 255., 255., 255.,
          255., 255., 255., 255., 255., 255., 255., 255., 182., 28., 0.,
          0., 48., 255., 255., 255., 255., 255., 255., 255., 255., 255.,
          255., 171., 33., 0., 0., 0., 48., 255., 255., 255., 255., 255.,
          255., 255., 255., 195., 64., 28., 0., 0., 0., 0., 4., 21., 21.,
          21., 21., 21., 21., 21., 21., 15., 0., 0., 0., 0., 219., 0.,
          0., 0., 0., 0., 0., 0., 0., 0., 0., 0., 0., 0., 0., 0., 0. ]
      - [ 0., 0., 0., 0., 0., 255., 255., 255., 255., 255., 255., 0., 0.,
          0., 0., 0., 0., 0., 0., 255., 255., 255., 255., 255., 255.,
          255., 255., 255., 255., 0., 0., 0., 0., 0., 0., 0., 255., 255.,
          255., 255., 255., 255., 255., 255., 255., 0., 0., 0., 0., 0.,
          0., 0., 255., 255., 255., 255., 0., 0., 255., 255., 255., 255.,
          0., 0., 0., 0., 0., 0., 255., 255., 255., 255., 0., 0., 0.,
          255., 255., 255., 0., 0., 0., 0., 0., 0., 255., 255., 255.,
          255., 0., 0., 0., 255., 255., 255., 0., 0., 0., 0., 0., 0.,
          255., 255., 255., 255., 255., 255., 255., 255., 255., 255., 0.,
          0., 0., 0., 0., 0., 255., 255., 255., 255., 255., 255., 255.,
          255., 255., 0., 0., 0., 0., 0., 0., 0., 255., 255., 255., 255.,
          255., 255., 255., 255., 255., 0., 0., 0., 0., 0., 0., 0., 255.,
          255., 255., 255., 255., 255., 255., 255., 255., 0., 0., 0., 0.,
          0., 0., 0., 255., 255., 255., 255., 255., 255., 255., 255.,
          255., 0., 0., 0., 0., 0., 0., 0., 255., 255., 0., 0., 0., 0.,
          0., 255., 255., 255., 0., 0., 0., 0., 0., 0., 255., 255., 0.,
          0., 0., 0., 0., 255., 255., 255., 0., 0., 0., 0., 0., 0., 255.,
          255., 255., 255., 0., 0., 0., 255., 255., 255., 0., 0., 0., 0.,
          0., 0., 255., 255., 255., 255., 255., 255., 255., 255., 255.,
          255., 0., 0., 0., 0., 0., 0., 255., 255., 255., 255., 255.,
          255., 255., 255., 255., 255., 0., 0., 0., 0., 0., 0., 255.,
          255., 255., 255., 255., 255., 255., 255., 255., 0., 0., 0., 0.,
          0., 0., 0., 255., 255., 255., 255., 255., 255., 255., 255., 0.,
          0., 0., 0., 0., 0., 0., 255., 255., 0., 0., 0., 0., 0., 0., 0.,
          0., 0., 0., 0., 0., 0., 255., 255., 0., 0., 0., 0., 0., 0., 0.,
          0., 0., 0., 0., 0. ]
      - [ 0., 0., 0., 0., 59., 235., 255., 255., 255., 255., 255., 235.,
          59., 0., 0., 0., 0., 0., 121., 121., 152., 245., 255., 255.,
          255., 255., 255., 245., 152., 65., 0., 0., 0., 0., 255., 255.,
          255., 255., 255., 245., 223., 245., 255., 255., 255., 152.,
          32., 0., 0., 0., 255., 255., 255., 255., 255., 194., 57., 194.,
          255., 255., 255., 228., 198., 0., 0., 0., 255., 255., 255.,
          255., 188., 102., 0., 102., 188., 255., 255., 255., 255., 0.,
          0., 0., 236., 246., 255., 255., 98., 0., 0., 0., 98., 255.,
          255., 255., 255., 0., 0., 0., 70., 170., 255., 255., 98., 0.,
          0., 0., 98., 255., 255., 255., 255., 0., 0., 0., 0., 137.,
          255., 255., 98., 0., 0., 0., 98., 255., 255., 255., 255., 0.,
          0., 0., 0., 137., 255., 255., 102., 6., 6., 6., 102., 255.,
          255., 255., 255., 0., 0., 0., 0., 137., 255., 255., 204., 172.,
          172., 172., 204., 255., 255., 255., 255., 0., 0., 0., 0., 137.,
          255., 255., 255., 255., 255., 255., 255., 255., 255., 255.,
          255., 0., 0., 0., 0., 137., 255., 255., 255., 255., 255., 255.,
          255., 255., 255., 255., 255., 0., 0., 0., 0., 137., 255., 255.,
          157., 96., 96., 96., 157., 255., 255., 255., 255., 0., 0., 0.,
          0., 137., 255., 255., 98., 0., 0., 0., 98., 255., 255., 255.,
          255., 0., 0., 0., 0., 137., 255., 255., 98., 0., 0., 0., 98.,
          255., 255., 255., 255., 0., 0., 0., 147., 205., 255., 255.,
          98., 0., 0., 0., 98., 255., 255., 255., 255., 0., 0., 0., 255.,
          255., 255., 255., 133., 40., 0., 40., 133., 255., 255., 255.,
          255., 0., 0., 0., 255., 255., 255., 255., 235., 154., 0., 154.,
          235., 255., 255., 255., 255., 0., 0., 0., 255., 255., 255.,
          255., 255., 218., 134., 218., 255., 255., 255., 193., 121., 0.,
          0., 0., 255., 255., 255., 255., 255., 255., 255., 255., 255.,
          255., 255., 137., 0., 0. ]
      - [ 0., 0., 0., 137., 255., 255., 255., 255., 255., 255., 255.,
          235., 59., 0., 0., 0., 0., 0., 121., 193., 255., 255., 255.,
          255., 255., 255., 255., 235., 59., 0., 0., 0., 0., 0., 255.,
          255., 255., 255., 255., 255., 255., 255., 255., 238., 83., 17.,
          0., 0., 0., 0., 255., 255., 255., 255., 255., 255., 255., 255.,
          255., 250., 211., 106., 0., 0., 0., 0., 147., 205., 255., 255.,
          255., 222., 147., 147., 188., 255., 255., 137., 0., 0., 0., 0.,
          0., 137., 255., 255., 243., 163., 0., 0., 98., 255., 255.,
          137., 0., 0., 0., 0., 0., 137., 255., 255., 141., 49., 0., 0.,
          98., 255., 255., 137., 0., 0., 0., 0., 0., 137., 255., 255.,
          98., 0., 0., 0., 98., 255., 255., 137., 0., 0., 0., 0., 0.,
          137., 255., 255., 102., 4., 0., 0., 98., 255., 255., 137., 0.,
          0., 0., 0., 0., 137., 255., 255., 204., 119., 0., 0., 98.,
          255., 255., 137., 0., 0., 0., 0., 0., 137., 255., 255., 255.,
          202., 83., 83., 149., 255., 255., 137., 0., 0., 0., 0., 0.,
          137., 255., 255., 255., 253., 249., 249., 251., 255., 255.,
          137., 0., 0., 0., 0., 0., 137., 255., 255., 255., 255., 255.,
          255., 255., 255., 255., 211., 159., 0., 0., 0., 0., 137., 255.,
          255., 212., 185., 185., 185., 212., 255., 255., 255., 255., 0.,
          0., 0., 0., 137., 255., 255., 110., 19., 19., 19., 110., 255.,
          255., 255., 255., 0., 0., 0., 0., 137., 255., 255., 98., 0.,
          0., 0., 98., 255., 255., 255., 255., 0., 0., 0., 0., 137.,
          255., 255., 133., 40., 0., 0., 98., 255., 255., 255., 255., 0.,
          0., 0., 0., 137., 255., 255., 235., 154., 0., 0., 98., 255.,
          255., 255., 255., 0., 0., 0., 0., 65., 152., 245., 255., 218.,
          134., 134., 180., 255., 255., 193., 121., 0., 0., 0., 0., 0.,
          59., 235., 255., 255., 255., 255., 255., 255., 255., 137., 0.,
          0. ]
      - [ 0., 0., 200., 255., 255., 255., 255., 255., 255., 255., 255.,
          255., 164., 0., 0., 0., 0., 198., 243., 255., 255., 255., 255.,
          255., 255., 255., 255., 255., 164., 0., 0., 0., 0., 255., 255.,
          255., 255., 255., 255., 255., 255., 255., 255., 255., 221.,
          125., 0., 0., 0., 255., 255., 255., 255., 212., 134., 142.,
          246., 255., 255., 255., 255., 226., 121., 0., 0., 255., 255.,
          255., 255., 164., 0., 12., 160., 172., 225., 255., 255., 255.,
          255., 0., 0., 255., 255., 255., 255., 164., 0., 0., 0., 0.,
          164., 255., 255., 255., 255., 0., 0., 255., 255., 255., 255.,
          166., 6., 6., 6., 6., 166., 255., 255., 254., 249., 0., 0.,
          255., 255., 255., 255., 243., 223., 223., 223., 223., 243.,
          255., 255., 207., 32., 0., 0., 255., 255., 255., 255., 255.,
          255., 255., 255., 255., 255., 255., 255., 200., 0., 0., 0.,
          255., 255., 255., 255., 255., 255., 255., 255., 255., 255.,
          255., 255., 200., 0., 0., 0., 255., 255., 255., 255., 216.,
          147., 154., 247., 255., 255., 255., 255., 224., 108., 0., 0.,
          255., 255., 255., 255., 164., 0., 13., 172., 185., 230., 255.,
          255., 255., 255., 0., 0., 255., 255., 255., 239., 143., 0., 0.,
          0., 0., 164., 255., 255., 255., 255., 0., 0., 255., 255., 255.,
          131., 4., 0., 0., 0., 0., 164., 255., 255., 255., 255., 0., 0.,
          255., 255., 255., 233., 135., 0., 0., 0., 0., 164., 255., 255.,
          255., 255., 0., 0., 255., 255., 255., 255., 225., 172., 172.,
          172., 172., 225., 255., 255., 255., 255., 0., 0., 255., 255.,
          255., 255., 255., 255., 255., 255., 255., 255., 255., 255.,
          226., 121., 0., 0., 255., 255., 255., 255., 255., 255., 255.,
          255., 255., 255., 255., 221., 125., 0., 0., 0., 198., 243.,
          255., 226., 198., 198., 198., 198., 198., 198., 198., 127., 0.,
          0., 0., 0., 0., 200., 255., 127., 0., 0., 0., 0., 0., 0., 0.,
          0., 0., 0., 0. ]
      - [ 0., 0., 0., 0., 185., 255., 255., 255., 255., 255., 255., 139.,
          0., 0., 0., 0., 0., 0., 0., 179., 234., 255., 255., 255., 255.,
          255., 255., 220., 179., 179., 0., 0., 0., 0., 0., 255., 255.,
          255., 255., 255., 255., 255., 255., 255., 255., 255., 0., 0.,
          0., 0., 0., 255., 255., 255., 255., 241., 179., 241., 255.,
          255., 255., 255., 0., 0., 0., 0., 0., 255., 255., 255., 245.,
          188., 0., 188., 245., 255., 255., 255., 0., 0., 0., 0., 0.,
          255., 255., 255., 171., 21., 0., 21., 171., 255., 255., 255.,
          0., 0., 0., 0., 0., 255., 255., 255., 162., 0., 0., 0., 162.,
          255., 255., 255., 0., 0., 0., 0., 0., 255., 255., 255., 209.,
          128., 128., 128., 209., 255., 255., 255., 0., 0., 0., 0., 0.,
          255., 255., 255., 255., 255., 255., 255., 255., 255., 255.,
          255., 0., 0., 0., 0., 0., 255., 255., 255., 255., 255., 255.,
          255., 255., 255., 255., 255., 0., 0., 0., 0., 0., 255., 255.,
          255., 255., 255., 255., 255., 255., 255., 255., 255., 0., 0.,
          0., 0., 0., 255., 255., 255., 255., 222., 76., 222., 255.,
          255., 255., 255., 0., 0., 0., 0., 0., 255., 255., 255., 209.,
          104., 0., 104., 209., 255., 255., 255., 0., 0., 0., 0., 0.,
          255., 255., 255., 162., 0., 0., 0., 162., 255., 255., 255., 0.,
          0., 0., 0., 0., 255., 255., 255., 171., 21., 0., 21., 171.,
          255., 255., 255., 0., 0., 0., 0., 0., 255., 255., 255., 245.,
          188., 0., 188., 245., 255., 255., 255., 0., 0., 0., 0., 0.,
          255., 255., 255., 255., 241., 179., 241., 255., 255., 255.,
          255., 0., 0., 0., 0., 0., 255., 255., 255., 255., 255., 255.,
          255., 255., 255., 255., 255., 0., 0., 0., 0., 0., 179., 179.,
          179., 179., 192., 255., 255., 255., 255., 234., 179., 0., 0.,
          0., 0., 0., 0., 0., 0., 0., 46., 255., 255., 255., 255., 185.,
          0., 0., 0. ]
      - [ 0., 0., 0., 0., 0., 49., 245., 255., 255., 255., 255., 255.,
          255., 167., 0., 0., 0., 0., 159., 159., 159., 178., 251., 255.,
          255., 255., 255., 255., 255., 167., 0., 0., 0., 0., 255., 255.,
          255., 255., 255., 255., 255., 255., 255., 255., 255., 167., 0.,
          0., 0., 0., 255., 255., 255., 249., 224., 223., 223., 232.,
          255., 255., 255., 167., 0., 0., 0., 0., 255., 255., 255., 212.,
          40., 32., 32., 92., 255., 255., 255., 167., 0., 0., 0., 0.,
          255., 255., 255., 206., 10., 0., 0., 68., 255., 255., 255.,
          167., 0., 0., 0., 0., 159., 222., 255., 206., 10., 0., 0., 68.,
          255., 255., 255., 167., 0., 0., 0., 0., 0., 167., 255., 212.,
          40., 32., 32., 92., 255., 255., 255., 167., 0., 0., 0., 0., 0.,
          167., 255., 249., 224., 223., 223., 232., 255., 255., 255.,
          167., 0., 0., 0., 0., 0., 167., 255., 255., 255., 255., 255.,
          255., 255., 255., 255., 167., 0., 0., 0., 0., 0., 167., 255.,
          255., 255., 255., 255., 255., 255., 255., 255., 167., 0., 0.,
          0., 0., 0., 167., 255., 255., 255., 232., 223., 232., 255.,
          255., 255., 167., 0., 0., 0., 0., 0., 167., 255., 255., 255.,
          92., 32., 92., 255., 255., 255., 167., 0., 0., 0., 0., 0.,
          167., 255., 224., 102., 26., 0., 68., 255., 255., 255., 222.,
          159., 0., 0., 0., 0., 167., 255., 224., 102., 26., 0., 68.,
          255., 255., 255., 255., 255., 0., 0., 0., 0., 167., 255., 255.,
          255., 92., 32., 92., 255., 255., 255., 255., 255., 0., 0., 0.,
          0., 167., 255., 255., 255., 232., 223., 232., 255., 255., 255.,
          255., 255., 0., 0., 0., 0., 167., 255., 255., 255., 255., 255.,
          255., 255., 255., 255., 200., 96., 0., 0., 0., 0., 167., 255.,
          255., 255., 255., 255., 255., 251., 178., 159., 104., 0., 0.,
          0., 0., 0., 167., 255., 255., 255., 255., 255., 255., 245.,
          49., 0., 0., 0., 0. ]
      - [ 0., 0., 228., 255., 255., 255., 255., 255., 255., 255., 255.,
          255., 209., 0., 0., 0., 0., 0., 228., 255., 255., 255., 255.,
          255., 255., 255., 255., 255., 209., 0., 0., 0., 0., 0., 228.,
          255., 255., 255., 255., 255., 255., 255., 255., 255., 244.,
          171., 0., 0., 0., 0., 228., 255., 255., 142., 89., 89., 89.,
          154., 255., 255., 255., 228., 0., 0., 0., 0., 228., 255., 255.,
          82., 0., 0., 0., 45., 160., 255., 255., 228., 0., 0., 0., 0.,
          228., 255., 255., 82., 0., 0., 0., 45., 160., 255., 255., 228.,
          0., 0., 0., 0., 228., 255., 255., 142., 89., 89., 89., 154.,
          255., 255., 255., 228., 0., 0., 0., 0., 228., 255., 255., 255.,
          255., 255., 255., 255., 255., 255., 255., 228., 0., 0., 0., 0.,
          228., 255., 255., 255., 255., 255., 255., 255., 255., 255.,
          255., 228., 0., 0., 0., 0., 228., 255., 255., 246., 242., 242.,
          242., 247., 255., 255., 255., 229., 13., 0., 0., 0., 228.,
          255., 255., 90., 13., 13., 13., 108., 255., 255., 255., 254.,
          242., 0., 0., 0., 228., 255., 255., 82., 0., 0., 0., 15., 108.,
          255., 255., 255., 255., 0., 0., 0., 228., 255., 255., 82., 0.,
          0., 0., 0., 82., 255., 255., 255., 255., 0., 0., 0., 228.,
          255., 255., 82., 0., 0., 0., 0., 82., 255., 255., 255., 255.,
          0., 0., 0., 228., 255., 255., 177., 140., 140., 140., 140.,
          177., 255., 255., 255., 255., 0., 0., 115., 240., 255., 255.,
          255., 255., 255., 255., 255., 255., 255., 234., 140., 140., 0.,
          0., 255., 255., 255., 255., 255., 255., 255., 255., 255., 255.,
          255., 209., 0., 0., 0., 0., 191., 191., 191., 191., 191., 191.,
          191., 191., 191., 191., 207., 221., 57., 0., 0., 0., 0., 0.,
          0., 0., 0., 0., 0., 0., 0., 0., 54., 224., 228., 0., 0., 0.,
          0., 0., 0., 0., 0., 0., 0., 0., 0., 0., 0., 46., 228., 0., 0. ]
      - [ 0., 0., 0., 255., 255., 255., 255., 255., 255., 255., 255.,
          255., 0., 0., 0., 0., 0., 236., 236., 255., 255., 255., 255.,
          255., 255., 255., 255., 255., 236., 0., 0., 0., 0., 255., 255.,
          255., 255., 255., 255., 255., 255., 255., 255., 255., 255., 0.,
          0., 0., 0., 45., 255., 255., 255., 255., 45., 45., 45., 45.,
          45., 255., 255., 210., 210., 0., 0., 0., 255., 255., 255., 57.,
          0., 0., 0., 0., 0., 57., 255., 255., 255., 0., 0., 185., 255.,
          255., 255., 0., 0., 0., 0., 0., 0., 0., 255., 255., 255., 0.,
          0., 83., 255., 255., 255., 0., 0., 0., 0., 0., 0., 172., 255.,
          255., 255., 0., 0., 0., 255., 255., 255., 159., 159., 159.,
          159., 159., 159., 255., 255., 255., 96., 0., 0., 0., 255.,
          255., 255., 255., 255., 255., 255., 255., 255., 255., 255.,
          255., 0., 0., 0., 0., 255., 255., 255., 255., 255., 255., 255.,
          255., 255., 255., 255., 121., 0., 0., 0., 0., 255., 255., 255.,
          255., 255., 255., 255., 255., 255., 255., 255., 121., 0., 0.,
          0., 0., 255., 255., 255., 147., 147., 147., 147., 147., 147.,
          147., 255., 255., 108., 0., 0., 0., 255., 255., 255., 0., 0.,
          0., 0., 0., 0., 0., 255., 255., 255., 0., 0., 0., 255., 255.,
          255., 0., 0., 0., 0., 0., 0., 0., 255., 255., 255., 0., 0., 0.,
          255., 255., 255., 0., 0., 0., 0., 0., 0., 70., 255., 255.,
          255., 0., 0., 0., 255., 255., 255., 57., 57., 57., 57., 57.,
          57., 255., 255., 255., 198., 0., 0., 45., 255., 255., 255.,
          255., 255., 255., 255., 255., 255., 255., 255., 210., 0., 0.,
          0., 255., 255., 255., 255., 255., 255., 255., 255., 255., 255.,
          223., 223., 0., 0., 0., 0., 236., 236., 236., 255., 255., 255.,
          236., 236., 236., 236., 0., 0., 0., 0., 0., 0., 0., 0., 0.,
          255., 255., 255., 0., 0., 0., 0., 0., 0., 0., 0., 0. ]
      - [ 0., 0., 255., 255., 255., 255., 255., 255., 255., 255., 255.,
          235., 59., 0., 0., 0., 0., 0., 255., 255., 255., 255., 255.,
          255., 255., 255., 255., 245., 152., 65., 0., 0., 0., 0., 255.,
          255., 255., 255., 255., 245., 223., 223., 235., 255., 255.,
          137., 0., 0., 0., 0., 255., 255., 255., 255., 255., 194., 57.,
          57., 133., 255., 255., 137., 0., 0., 0., 0., 255., 255., 255.,
          255., 188., 102., 0., 0., 98., 255., 255., 187., 108., 0., 0.,
          0., 236., 246., 255., 255., 98., 0., 0., 0., 98., 255., 255.,
          255., 255., 0., 0., 0., 70., 170., 255., 255., 98., 0., 0., 0.,
          98., 255., 255., 255., 255., 0., 0., 0., 0., 137., 255., 255.,
          98., 0., 0., 0., 98., 255., 255., 211., 159., 0., 0., 0., 0.,
          137., 255., 255., 102., 6., 6., 6., 102., 255., 255., 137., 0.,
          0., 0., 0., 0., 137., 255., 255., 204., 172., 172., 172., 204.,
          255., 255., 137., 0., 0., 0., 0., 0., 137., 255., 255., 255.,
          255., 255., 255., 255., 255., 255., 137., 0., 0., 0., 0., 0.,
          137., 255., 255., 255., 255., 255., 255., 255., 255., 255.,
          137., 0., 0., 0., 0., 0., 137., 255., 255., 255., 206., 96.,
          96., 96., 108., 218., 211., 159., 0., 0., 0., 0., 137., 255.,
          255., 212., 128., 0., 0., 0., 20., 196., 255., 255., 0., 0.,
          0., 0., 137., 255., 255., 110., 13., 0., 0., 0., 19., 196.,
          255., 255., 0., 0., 0., 0., 137., 255., 255., 98., 0., 0., 0.,
          56., 155., 230., 255., 255., 0., 0., 0., 0., 137., 255., 255.,
          133., 40., 0., 0., 98., 255., 255., 255., 255., 0., 0., 0., 0.,
          137., 255., 255., 235., 154., 0., 0., 98., 255., 255., 255.,
          255., 0., 0., 0., 0., 137., 255., 255., 255., 218., 134., 134.,
          180., 255., 255., 193., 121., 0., 0., 0., 0., 137., 255., 255.,
          255., 255., 255., 255., 255., 255., 255., 137., 0., 0. ]
      - [ 0., 0., 0., 0., 96., 255., 255., 255., 255., 223., 32., 0., 0.,
          0., 0., 0., 0., 0., 140., 140., 183., 255., 255., 255., 255.,
          240., 155., 140., 88., 0., 0., 0., 0., 0., 255., 255., 255.,
          255., 255., 255., 255., 255., 255., 255., 183., 64., 0., 0.,
          0., 0., 255., 255., 255., 255., 255., 255., 255., 255., 255.,
          255., 250., 242., 0., 0., 0., 0., 89., 193., 193., 89., 89.,
          89., 89., 89., 89., 193., 255., 255., 0., 0., 0., 0., 0., 159.,
          159., 0., 0., 0., 0., 0., 0., 104., 166., 166., 0., 0., 0., 0.,
          0., 159., 164., 11., 2., 0., 0., 0., 0., 8., 13., 13., 0., 0.,
          0., 0., 0., 159., 231., 167., 24., 0., 0., 0., 0., 120., 191.,
          191., 0., 0., 0., 0., 0., 159., 255., 237., 132., 115., 115.,
          115., 115., 202., 212., 140., 0., 0., 0., 0., 0., 159., 255.,
          255., 255., 255., 255., 255., 255., 255., 159., 0., 0., 0., 0.,
          0., 0., 159., 255., 255., 255., 255., 255., 255., 255., 255.,
          159., 0., 0., 0., 0., 0., 0., 159., 255., 255., 255., 255.,
          255., 255., 255., 255., 159., 0., 0., 0., 0., 0., 0., 159.,
          231., 191., 191., 191., 191., 191., 191., 231., 183., 64., 0.,
          0., 0., 0., 0., 159., 164., 13., 13., 13., 13., 13., 13., 164.,
          250., 242., 0., 0., 0., 0., 0., 159., 159., 0., 0., 0., 0., 0.,
          0., 159., 255., 255., 0., 0., 0., 0., 0., 159., 193., 78., 11.,
          0., 0., 11., 78., 193., 255., 255., 0., 0., 0., 0., 0., 159.,
          255., 225., 43., 5., 5., 43., 225., 255., 255., 255., 0., 0.,
          0., 0., 0., 159., 255., 247., 199., 72., 72., 199., 247., 255.,
          255., 255., 0., 0., 0., 0., 115., 202., 255., 255., 255., 167.,
          167., 255., 255., 255., 255., 255., 0., 0., 0., 0., 255., 255.,
          255., 255., 255., 255., 255., 255., 255., 255., 255., 255., 0.,
          0. ]
      - [ 0., 0., 146., 255., 255., 255., 255., 255., 255., 109., 0., 0.,
          0., 0., 0., 0., 0., 140., 206., 255., 255., 255., 255., 255.,
          255., 189., 100., 0., 0., 0., 0., 0., 0., 255., 255., 255.,
          255., 255., 255., 255., 255., 255., 200., 64., 18., 0., 0., 0.,
          0., 255., 255., 255., 255., 255., 255., 255., 255., 255., 251.,
          242., 69., 0., 0., 0., 0., 255., 255., 208., 89., 89., 89.,
          89., 89., 89., 137., 255., 191., 95., 0., 0., 0., 255., 255.,
          182., 0., 0., 0., 0., 0., 0., 73., 255., 255., 184., 89., 0.,
          0., 255., 255., 182., 0., 0., 0., 0., 0., 0., 73., 255., 255.,
          255., 255., 0., 0., 255., 255., 182., 0., 0., 0., 0., 0., 0.,
          73., 255., 255., 255., 255., 0., 0., 255., 255., 215., 115.,
          33., 0., 0., 0., 66., 155., 255., 255., 206., 140., 0., 0.,
          255., 255., 255., 255., 100., 38., 38., 38., 162., 255., 255.,
          255., 146., 0., 0., 0., 255., 255., 255., 255., 228., 217.,
          217., 217., 239., 255., 255., 255., 146., 0., 0., 0., 255.,
          255., 255., 255., 255., 255., 255., 255., 255., 255., 255.,
          255., 146., 0., 0., 0., 255., 255., 237., 191., 191., 191.,
          191., 191., 191., 209., 255., 255., 173., 64., 0., 0., 255.,
          255., 186., 13., 13., 13., 13., 13., 13., 82., 255., 255.,
          250., 242., 0., 0., 255., 255., 182., 0., 0., 0., 0., 0., 0.,
          73., 255., 255., 255., 255., 0., 0., 255., 255., 182., 0., 0.,
          0., 0., 0., 0., 73., 255., 255., 255., 255., 0., 0., 255.,
          255., 186., 13., 4., 0., 2., 11., 13., 82., 255., 255., 250.,
          242., 0., 0., 255., 255., 237., 191., 55., 0., 27., 164., 191.,
          209., 255., 255., 173., 64., 0., 0., 255., 255., 255., 255.,
          155., 115., 135., 235., 255., 255., 255., 255., 146., 0., 0.,
          0., 255., 255., 255., 255., 255., 255., 255., 255., 255., 255.,
          255., 255., 146., 0., 0. ]
      - [ 0., 0., 0., 0., 0., 186., 255., 255., 127., 0., 0., 0., 0., 0.,
          0., 0., 0., 0., 217., 217., 217., 245., 255., 255., 236., 217.,
          217., 158., 0., 0., 0., 0., 0., 0., 255., 255., 255., 255.,
          255., 255., 255., 255., 255., 238., 191., 169., 0., 0., 0., 0.,
          255., 255., 255., 255., 147., 89., 89., 159., 255., 255., 255.,
          225., 0., 0., 0., 0., 255., 255., 142., 115., 40., 0., 0., 49.,
          115., 152., 255., 242., 140., 0., 0., 0., 255., 255., 49., 0.,
          0., 0., 0., 0., 0., 68., 255., 255., 255., 0., 0., 0., 255.,
          255., 49., 0., 0., 0., 0., 0., 0., 69., 255., 255., 255., 0.,
          0., 0., 255., 255., 101., 17., 0., 0., 0., 0., 22., 115., 255.,
          255., 255., 0., 0., 0., 255., 255., 255., 96., 38., 38., 38.,
          38., 113., 255., 255., 251., 217., 0., 0., 0., 255., 255.,
          255., 255., 255., 255., 255., 255., 255., 255., 255., 225., 0.,
          0., 0., 0., 255., 255., 255., 255., 255., 255., 255., 255.,
          255., 255., 255., 225., 0., 0., 0., 0., 255., 255., 255., 255.,
          255., 255., 255., 255., 255., 255., 255., 226., 0., 0., 0., 0.,
          255., 255., 255., 115., 64., 64., 64., 64., 130., 255., 255.,
          248., 191., 0., 0., 0., 255., 255., 121., 24., 0., 0., 0., 0.,
          31., 134., 255., 255., 255., 0., 0., 0., 255., 255., 49., 0.,
          0., 0., 0., 0., 0., 68., 255., 255., 255., 0., 0., 0., 255.,
          255., 49., 0., 0., 0., 0., 0., 40., 152., 255., 255., 255., 0.,
          0., 0., 255., 255., 121., 89., 31., 0., 0., 38., 147., 255.,
          255., 244., 166., 0., 0., 0., 255., 255., 255., 255., 130.,
          64., 64., 145., 255., 255., 243., 169., 0., 0., 0., 0., 255.,
          255., 255., 255., 255., 255., 255., 255., 255., 245., 175., 0.,
          0., 0., 0., 0., 255., 255., 255., 255., 255., 255., 255., 255.,
          255., 186., 0., 0., 0., 0. ]
      - [ 0., 0., 127., 255., 255., 255., 255., 255., 255., 255., 255.,
          127., 0., 0., 0., 0., 0., 121., 188., 255., 255., 255., 255.,
          255., 255., 255., 255., 188., 101., 20., 0., 0., 0., 255.,
          255., 255., 255., 255., 255., 255., 255., 255., 255., 255.,
          218., 69., 16., 0., 0., 255., 255., 255., 255., 255., 255.,
          255., 255., 255., 255., 255., 245., 207., 99., 0., 0., 255.,
          255., 255., 255., 255., 237., 165., 147., 165., 237., 255.,
          255., 255., 182., 108., 0., 255., 255., 255., 255., 255., 212.,
          42., 0., 42., 212., 255., 255., 255., 255., 255., 0., 255.,
          255., 255., 255., 255., 212., 42., 0., 42., 212., 255., 255.,
          255., 255., 255., 0., 159., 207., 255., 255., 255., 228., 122.,
          96., 122., 228., 255., 255., 255., 255., 255., 0., 0., 127.,
          255., 255., 255., 255., 255., 255., 255., 255., 255., 255.,
          255., 255., 255., 0., 0., 127., 255., 255., 255., 255., 255.,
          255., 255., 255., 255., 255., 255., 255., 255., 0., 83., 169.,
          255., 255., 255., 255., 255., 255., 255., 255., 255., 255.,
          255., 255., 255., 0., 249., 252., 255., 255., 255., 255., 255.,
          255., 255., 255., 255., 255., 255., 255., 255., 0., 255., 255.,
          255., 255., 255., 228., 122., 96., 96., 96., 175., 255., 255.,
          255., 255., 0., 185., 220., 255., 255., 255., 212., 42., 0.,
          0., 0., 127., 255., 255., 255., 255., 0., 19., 137., 255.,
          255., 255., 212., 42., 0., 0., 0., 127., 255., 255., 255.,
          255., 0., 147., 201., 255., 255., 255., 213., 42., 0., 24.,
          122., 201., 255., 255., 255., 255., 0., 255., 255., 255., 255.,
          255., 222., 90., 57., 90., 222., 255., 255., 255., 255., 255.,
          0., 255., 255., 255., 255., 255., 250., 228., 223., 228., 250.,
          255., 255., 255., 255., 255., 0., 121., 188., 255., 255., 255.,
          255., 255., 255., 255., 255., 255., 255., 255., 255., 255., 0.,
          0., 127., 255., 255., 255., 255., 255., 255., 255., 255., 255.,
          255., 255., 255., 255. ]
      - [ 0., 0., 78., 134., 134., 134., 134., 184., 134., 134., 255.,
          245., 0., 0., 0., 0., 0., 0., 255., 255., 255., 255., 255.,
          255., 255., 255., 255., 255., 228., 0., 0., 0., 0., 0., 255.,
          255., 255., 255., 255., 255., 255., 255., 255., 255., 255.,
          149., 0., 0., 0., 0., 255., 255., 255., 255., 255., 255., 255.,
          255., 255., 255., 255., 255., 0., 0., 0., 0., 255., 255., 255.,
          239., 0., 0., 0., 0., 240., 255., 255., 255., 0., 0., 0., 0.,
          255., 255., 255., 0., 0., 0., 0., 0., 234., 255., 255., 255.,
          0., 0., 0., 0., 255., 255., 255., 193., 0., 0., 0., 0., 234.,
          255., 255., 255., 0., 0., 0., 0., 255., 255., 255., 233., 0.,
          0., 0., 0., 252., 255., 255., 149., 0., 0., 0., 0., 255., 255.,
          255., 255., 236., 236., 236., 255., 255., 255., 255., 11., 0.,
          0., 0., 0., 255., 255., 255., 255., 255., 255., 255., 255.,
          255., 255., 255., 0., 0., 0., 0., 0., 255., 255., 255., 255.,
          255., 255., 255., 255., 255., 255., 255., 4., 0., 0., 0., 0.,
          255., 255., 255., 255., 236., 236., 236., 236., 253., 255.,
          255., 255., 0., 0., 0., 0., 255., 255., 255., 255., 0., 0., 0.,
          0., 204., 255., 255., 255., 0., 0., 0., 0., 255., 255., 255.,
          234., 0., 0., 0., 0., 234., 255., 255., 255., 0., 0., 0., 0.,
          255., 255., 255., 238., 0., 0., 0., 0., 234., 255., 255., 255.,
          0., 0., 0., 0., 255., 255., 255., 255., 70., 70., 70., 70.,
          255., 255., 255., 255., 0., 0., 0., 0., 255., 255., 255., 255.,
          255., 255., 255., 255., 255., 255., 255., 220., 0., 0., 0., 0.,
          215., 255., 255., 255., 255., 255., 255., 255., 255., 255.,
          255., 93., 0., 0., 0., 0., 149., 255., 255., 255., 255., 255.,
          255., 255., 255., 246., 110., 0., 0., 0., 0., 0., 149., 255.,
          134., 134., 134., 134., 134., 134., 11., 0., 0., 0., 0., 0. ]
      - [ 0., 0., 229., 255., 255., 255., 255., 255., 255., 144., 0., 0.,
          0., 0., 0., 0., 0., 217., 251., 255., 255., 255., 255., 255.,
          255., 238., 217., 152., 0., 0., 0., 0., 0., 255., 255., 255.,
          255., 255., 255., 255., 255., 255., 255., 178., 0., 0., 0., 0.,
          0., 255., 255., 255., 255., 139., 89., 89., 89., 89., 89.,
          112., 166., 166., 149., 0., 0., 255., 255., 255., 147., 34.,
          0., 0., 0., 0., 0., 76., 255., 255., 229., 0., 0., 255., 255.,
          255., 59., 0., 0., 0., 0., 0., 0., 76., 255., 255., 229., 0.,
          0., 166., 246., 255., 59., 0., 0., 0., 0., 0., 0., 76., 255.,
          255., 229., 0., 0., 0., 229., 255., 108., 64., 23., 0., 0., 0.,
          23., 121., 255., 255., 229., 0., 0., 0., 229., 255., 255.,
          255., 117., 38., 38., 38., 117., 255., 255., 249., 195., 0.,
          0., 0., 229., 255., 255., 255., 255., 255., 255., 255., 255.,
          255., 252., 202., 0., 0., 0., 0., 229., 255., 255., 255., 255.,
          255., 255., 255., 255., 255., 198., 11., 0., 0., 0., 217.,
          251., 255., 255., 255., 255., 255., 255., 161., 38., 103.,
          195., 0., 0., 0., 0., 255., 255., 255., 108., 64., 64., 64.,
          64., 36., 0., 76., 240., 191., 172., 0., 0., 255., 255., 255.,
          59., 0., 0., 0., 0., 0., 0., 76., 255., 255., 246., 166., 0.,
          255., 255., 255., 59., 0., 0., 0., 0., 0., 0., 76., 255., 255.,
          241., 115., 0., 255., 255., 255., 59., 0., 0., 0., 0., 0., 42.,
          157., 255., 255., 229., 0., 0., 255., 255., 255., 128., 89.,
          89., 89., 89., 89., 150., 255., 255., 240., 149., 0., 0., 255.,
          255., 255., 255., 255., 255., 255., 255., 255., 255., 255.,
          240., 159., 0., 0., 0., 217., 251., 255., 255., 255., 255.,
          255., 255., 255., 255., 244., 166., 0., 0., 0., 0., 0., 229.,
          255., 255., 255., 255., 255., 255., 255., 255., 178., 0., 0.,
          0., 0. ]
      - [ 0., 0., 153., 255., 255., 255., 255., 255., 255., 255., 255.,
          204., 17., 0., 0., 0., 0., 140., 209., 255., 255., 255., 255.,
          255., 255., 255., 255., 232., 148., 47., 0., 0., 0., 255.,
          255., 255., 255., 255., 221., 191., 191., 191., 221., 255.,
          255., 128., 38., 0., 0., 255., 255., 255., 255., 255., 126.,
          13., 13., 13., 126., 255., 255., 247., 145., 0., 0., 255.,
          255., 255., 244., 122., 42., 0., 0., 0., 119., 255., 255.,
          255., 219., 166., 0., 255., 255., 255., 238., 51., 0., 0., 0.,
          0., 77., 183., 249., 255., 255., 255., 0., 255., 255., 255.,
          239., 61., 6., 0., 0., 0., 6., 61., 239., 255., 255., 255., 0.,
          255., 255., 255., 251., 204., 89., 0., 0., 0., 89., 204., 251.,
          255., 255., 255., 0., 255., 255., 255., 255., 255., 180., 115.,
          115., 115., 180., 255., 255., 255., 209., 140., 0., 255., 255.,
          255., 255., 255., 255., 255., 255., 255., 255., 255., 255.,
          255., 153., 0., 0., 255., 255., 255., 255., 255., 255., 255.,
          255., 255., 255., 255., 255., 255., 153., 0., 0., 255., 255.,
          255., 255., 255., 180., 115., 115., 115., 180., 255., 255.,
          255., 209., 140., 0., 255., 255., 255., 251., 204., 89., 0.,
          0., 0., 89., 204., 251., 255., 255., 255., 0., 255., 255.,
          255., 239., 61., 6., 0., 0., 0., 6., 61., 239., 255., 255.,
          255., 0., 255., 255., 255., 238., 51., 0., 0., 0., 0., 0., 51.,
          238., 255., 255., 255., 0., 255., 255., 255., 244., 122., 42.,
          24., 89., 89., 89., 122., 244., 255., 255., 255., 0., 242.,
          250., 255., 255., 255., 126., 77., 255., 255., 255., 255.,
          255., 255., 250., 242., 0., 64., 179., 255., 255., 255., 221.,
          208., 255., 255., 255., 255., 255., 255., 179., 64., 0., 0.,
          84., 178., 255., 255., 255., 255., 255., 255., 201., 140.,
          140., 140., 84., 0., 0., 0., 0., 85., 255., 255., 255., 255.,
          255., 255., 136., 0., 0., 0., 0., 0. ]
      - [ 0., 0., 0., 225., 255., 255., 255., 255., 255., 255., 255.,
          255., 206., 0., 0., 0., 0., 0., 0., 226., 255., 255., 255.,
          255., 255., 255., 255., 255., 206., 0., 0., 0., 0., 0., 0.,
          225., 255., 255., 255., 255., 255., 255., 255., 255., 206., 0.,
          0., 0., 0., 0., 0., 225., 255., 255., 255., 255., 255., 255.,
          255., 255., 238., 147., 0., 0., 0., 0., 0., 226., 255., 255.,
          255., 255., 255., 255., 255., 255., 255., 242., 140., 0., 0.,
          0., 0., 226., 255., 255., 255., 189., 140., 189., 255., 255.,
          255., 255., 255., 0., 0., 0., 0., 225., 255., 255., 255., 159.,
          89., 159., 255., 255., 255., 255., 255., 0., 0., 0., 0., 225.,
          255., 255., 255., 255., 255., 255., 255., 255., 255., 248.,
          191., 0., 0., 0., 0., 192., 248., 255., 255., 255., 255., 255.,
          255., 255., 255., 226., 0., 0., 0., 0., 0., 0., 206., 255.,
          255., 255., 255., 255., 255., 255., 255., 225., 0., 0., 0., 0.,
          0., 0., 206., 255., 255., 255., 255., 255., 255., 255., 255.,
          225., 0., 0., 0., 0., 0., 0., 206., 255., 255., 255., 255.,
          255., 255., 255., 255., 226., 0., 0., 0., 0., 0., 0., 206.,
          255., 255., 145., 64., 64., 130., 255., 255., 248., 191., 0.,
          0., 0., 0., 0., 206., 255., 255., 203., 166., 166., 196., 255.,
          255., 255., 255., 0., 0., 0., 0., 0., 206., 255., 255., 255.,
          255., 255., 255., 255., 255., 255., 255., 0., 0., 0., 0., 102.,
          228., 255., 255., 255., 255., 255., 255., 255., 255., 255.,
          255., 0., 0., 0., 0., 147., 238., 255., 255., 255., 255., 255.,
          255., 255., 255., 244., 166., 0., 0., 0., 0., 0., 206., 255.,
          255., 255., 223., 191., 191., 191., 191., 169., 0., 0., 0., 0.,
          38., 38., 182., 217., 217., 217., 108., 0., 0., 0., 0., 0., 0.,
          0., 0., 0., 255., 255., 49., 0., 0., 0., 0., 0., 0., 0., 0.,
          0., 0., 0. ]
      - [ 0., 0., 0., 0., 0., 83., 103., 255., 255., 255., 255., 255.,
          255., 255., 83., 0., 0., 0., 0., 0., 182., 255., 255., 255.,
          255., 255., 255., 255., 255., 255., 255., 0., 0., 0., 0., 163.,
          255., 255., 255., 255., 255., 255., 255., 255., 255., 255.,
          255., 0., 0., 0., 0., 255., 255., 255., 255., 255., 255., 255.,
          255., 255., 255., 255., 255., 0., 0., 0., 0., 255., 255., 255.,
          255., 64., 19., 19., 19., 19., 255., 255., 101., 0., 0., 0.,
          88., 255., 255., 255., 96., 0., 0., 0., 0., 0., 0., 0., 0., 0.,
          0., 0., 88., 255., 255., 255., 0., 0., 0., 0., 0., 0., 0., 0.,
          0., 0., 0., 0., 88., 255., 255., 255., 0., 0., 0., 0., 0., 0.,
          0., 0., 0., 0., 0., 0., 88., 255., 255., 255., 0., 0., 0., 0.,
          0., 0., 0., 0., 0., 0., 0., 0., 88., 255., 255., 236., 0., 0.,
          0., 0., 0., 0., 0., 0., 0., 0., 0., 0., 88., 255., 255., 147.,
          0., 0., 0., 0., 0., 0., 0., 0., 0., 0., 0., 0., 88., 255.,
          255., 147., 0., 0., 0., 0., 0., 0., 0., 0., 0., 0., 0., 0.,
          88., 255., 255., 147., 0., 0., 0., 0., 0., 0., 0., 0., 0., 0.,
          0., 0., 88., 255., 255., 147., 0., 0., 0., 0., 0., 0., 0., 0.,
          0., 0., 0., 0., 88., 255., 255., 147., 0., 0., 0., 0., 0., 0.,
          0., 0., 0., 0., 0., 0., 255., 255., 255., 155., 0., 0., 0., 0.,
          0., 19., 0., 0., 0., 0., 0., 0., 255., 255., 255., 255., 185.,
          36., 0., 0., 164., 255., 135., 0., 0., 0., 0., 0., 0., 255.,
          255., 255., 255., 255., 255., 255., 255., 255., 255., 255.,
          33., 0., 0., 0., 0., 10., 253., 255., 255., 255., 255., 255.,
          255., 255., 255., 249., 0., 0., 0., 0., 0., 0., 61., 83., 83.,
          222., 255., 255., 255., 255., 83., 3., 0., 0. ]
      - [ 0., 0., 1., 73., 255., 255., 255., 255., 255., 255., 255.,
          146., 19., 4., 0., 0., 0., 0., 19., 255., 255., 255., 255.,
          255., 255., 255., 255., 255., 255., 103., 4., 0., 0., 0., 108.,
          255., 255., 255., 255., 255., 255., 255., 255., 255., 255.,
          255., 20., 0., 0., 0., 255., 255., 255., 255., 162., 121.,
          121., 255., 255., 255., 255., 255., 20., 0., 0., 0., 255.,
          255., 255., 255., 78., 0., 0., 83., 136., 255., 149., 83., 6.,
          0., 0., 0., 255., 255., 255., 255., 78., 0., 0., 0., 14., 45.,
          17., 0., 0., 0., 0., 0., 255., 255., 255., 255., 78., 0., 0.,
          0., 0., 0., 0., 0., 0., 0., 0., 0., 255., 255., 255., 255.,
          78., 0., 0., 0., 0., 0., 0., 0., 0., 0., 0., 0., 255., 255.,
          255., 217., 57., 0., 0., 0., 0., 0., 0., 0., 0., 0., 0., 0.,
          255., 255., 255., 117., 0., 0., 0., 0., 0., 0., 0., 0., 0., 0.,
          0., 0., 255., 255., 255., 117., 0., 0., 0., 0., 0., 0., 0., 0.,
          0., 0., 0., 0., 255., 255., 255., 118., 0., 0., 0., 0., 0., 0.,
          0., 0., 0., 0., 0., 0., 255., 255., 255., 117., 0., 0., 0., 0.,
          0., 0., 0., 0., 0., 0., 0., 0., 255., 255., 255., 121., 2., 0.,
          0., 6., 6., 6., 6., 1., 0., 0., 0., 0., 255., 255., 255., 255.,
          109., 45., 45., 255., 255., 255., 255., 93., 3., 0., 0., 0.,
          255., 255., 255., 255., 255., 255., 255., 255., 255., 255.,
          255., 255., 20., 0., 0., 0., 143., 255., 255., 255., 255.,
          255., 255., 255., 255., 255., 255., 162., 10., 0., 0., 0., 7.,
          132., 255., 255., 255., 255., 255., 255., 255., 255., 255.,
          59., 147., 0., 0., 0., 0., 13., 57., 57., 57., 57., 57., 57.,
          118., 255., 255., 211., 251., 0., 0., 0., 0., 0., 0., 0., 0.,
          0., 0., 0., 6., 128., 255., 255., 255., 0. ]
      - [ 0., 0., 0., 0., 255., 255., 255., 255., 255., 255., 255., 255.,
          255., 255., 255., 0., 0., 0., 0., 0., 19., 255., 255., 255.,
          19., 19., 255., 255., 255., 255., 19., 0., 0., 0., 0., 0.,
          223., 255., 255., 32., 0., 0., 32., 32., 32., 32., 0., 0., 0.,
          0., 0., 210., 255., 255., 255., 0., 0., 0., 0., 0., 0., 0., 0.,
          0., 0., 0., 0., 255., 255., 255., 255., 0., 0., 0., 0., 0., 0.,
          0., 0., 0., 0., 0., 0., 255., 255., 255., 255., 0., 0., 0., 0.,
          0., 0., 0., 0., 0., 0., 0., 0., 255., 255., 255., 83., 0., 0.,
          0., 0., 0., 0., 0., 0., 0., 0., 0., 0., 255., 255., 255., 159.,
          0., 0., 0., 0., 0., 0., 0., 0., 0., 0., 0., 0., 255., 255.,
          255., 255., 0., 0., 0., 0., 0., 0., 0., 0., 0., 0., 0., 0.,
          255., 255., 255., 255., 0., 0., 0., 0., 0., 0., 0., 0., 0., 0.,
          0., 0., 255., 255., 255., 255., 0., 0., 0., 0., 0., 0., 0., 0.,
          0., 0., 0., 0., 255., 255., 255., 255., 0., 0., 0., 0., 0., 0.,
          0., 0., 0., 0., 0., 0., 255., 255., 255., 255., 0., 0., 0., 0.,
          0., 0., 0., 0., 0., 0., 0., 0., 255., 255., 255., 255., 83.,
          0., 0., 0., 83., 83., 83., 0., 0., 0., 0., 0., 255., 255.,
          255., 255., 255., 70., 70., 70., 255., 255., 255., 70., 0., 0.,
          0., 0., 198., 255., 255., 255., 255., 255., 255., 255., 255.,
          255., 255., 255., 0., 0., 0., 45., 45., 255., 255., 255., 255.,
          255., 255., 255., 255., 255., 210., 210., 0., 0., 0., 255.,
          255., 255., 255., 255., 223., 223., 223., 223., 255., 255., 0.,
          0., 0., 0., 0., 255., 255., 255., 255., 255., 0., 0., 0., 0.,
          236., 236., 0., 0., 0., 0., 0., 255., 255., 255., 255., 255.,
          0., 0., 0., 0., 0., 0., 0., 0., 0. ]
      - [ 0., 0., 12., 192., 255., 255., 239., 161., 255., 51., 239.,
          176., 8., 0., 0., 0., 0., 0., 59., 255., 255., 255., 255.,
          255., 255., 255., 255., 255., 169., 106., 0., 0., 0., 0., 255.,
          255., 255., 255., 255., 255., 255., 255., 255., 255., 255.,
          177., 0., 0., 0., 0., 255., 255., 255., 255., 255., 255., 255.,
          255., 255., 255., 169., 106., 0., 0., 0., 0., 255., 255., 255.,
          255., 239., 51., 51., 51., 51., 51., 8., 0., 0., 0., 0., 0.,
          255., 255., 255., 98., 0., 0., 0., 0., 0., 0., 0., 0., 0., 0.,
          0., 0., 137., 255., 255., 98., 0., 0., 0., 0., 0., 0., 0., 0.,
          0., 0., 0., 0., 59., 255., 255., 98., 0., 0., 0., 0., 0., 0.,
          216., 0., 0., 0., 0., 0., 255., 255., 255., 255., 0., 0., 0.,
          0., 0., 0., 216., 0., 0., 0., 0., 0., 255., 255., 255., 255.,
          188., 0., 0., 0., 0., 0., 43., 0., 0., 0., 0., 0., 216., 255.,
          255., 255., 235., 0., 0., 0., 0., 0., 0., 0., 0., 0., 0., 0.,
          59., 255., 255., 255., 235., 0., 0., 0., 0., 0., 0., 0., 0.,
          0., 0., 0., 59., 255., 255., 255., 235., 0., 0., 0., 0., 0.,
          0., 0., 0., 0., 0., 0., 35., 224., 255., 255., 235., 0., 0.,
          0., 0., 0., 0., 0., 0., 0., 0., 0., 0., 176., 255., 255., 235.,
          0., 0., 0., 0., 0., 0., 0., 0., 0., 0., 0., 0., 176., 255.,
          255., 239., 51., 0., 0., 0., 51., 51., 51., 12., 0., 0., 0.,
          0., 176., 255., 255., 255., 255., 153., 153., 153., 255., 255.,
          255., 177., 0., 0., 0., 0., 177., 255., 255., 255., 255., 255.,
          255., 255., 255., 255., 255., 255., 0., 0., 0., 0., 106., 255.,
          255., 255., 255., 255., 255., 255., 255., 255., 255., 177., 0.,
          0., 0., 0., 0., 255., 255., 255., 255., 255., 255., 255., 255.,
          82., 51., 12., 0. ]
      - [ 0., 0., 255., 255., 255., 255., 255., 255., 255., 255., 255.,
          255., 255., 0., 0., 0., 0., 0., 255., 255., 255., 255., 255.,
          255., 255., 255., 255., 255., 255., 0., 0., 0., 0., 0., 255.,
          255., 255., 255., 255., 0., 255., 255., 255., 255., 255., 0.,
          0., 0., 0., 0., 255., 255., 255., 255., 0., 0., 0., 0., 255.,
          255., 255., 0., 0., 0., 0., 0., 255., 255., 255., 0., 0., 0.,
          0., 0., 0., 0., 0., 0., 0., 0., 0., 0., 255., 255., 255., 0.,
          0., 0., 0., 0., 0., 0., 0., 0., 0., 0., 0., 0., 255., 255.,
          255., 0., 0., 0., 0., 0., 0., 0., 0., 0., 0., 0., 0., 0., 255.,
          255., 255., 0., 0., 0., 0., 0., 0., 0., 0., 0., 0., 0., 0., 0.,
          255., 255., 255., 0., 0., 0., 0., 0., 0., 0., 0., 0., 0., 0.,
          0., 0., 255., 255., 255., 0., 0., 0., 0., 0., 0., 0., 0., 0.,
          0., 0., 0., 0., 255., 255., 255., 0., 0., 0., 0., 0., 0., 0.,
          0., 0., 0., 0., 0., 0., 255., 255., 255., 0., 0., 0., 0., 0.,
          0., 0., 0., 0., 0., 0., 0., 0., 255., 255., 255., 0., 0., 0.,
          0., 0., 0., 0., 0., 0., 0., 0., 0., 0., 255., 255., 255., 0.,
          0., 0., 0., 0., 0., 0., 0., 0., 0., 0., 0., 0., 255., 255.,
          255., 255., 0., 0., 0., 255., 255., 255., 0., 0., 0., 0., 0.,
          0., 255., 255., 255., 255., 255., 255., 255., 255., 255., 255.,
          255., 0., 0., 0., 0., 0., 255., 255., 255., 255., 255., 255.,
          255., 255., 255., 255., 255., 0., 0., 0., 0., 0., 255., 255.,
          255., 255., 255., 255., 255., 255., 255., 255., 0., 0., 0., 0.,
          0., 0., 0., 0., 255., 255., 0., 0., 0., 0., 0., 0., 0., 0., 0.,
          0., 0., 0., 0., 0., 0., 0., 0., 0., 0., 0., 0., 0., 0., 255.,
          0., 0. ]
      - [ 0., 0., 0., 0., 78., 89., 89., 110., 255., 255., 255., 255.,
          110., 0., 0., 0., 0., 0., 5., 43., 255., 255., 255., 255.,
          255., 255., 255., 255., 255., 96., 0., 0., 0., 0., 95., 255.,
          255., 255., 255., 255., 255., 255., 255., 255., 255., 215., 0.,
