%YAML:1.0
my_svm: !!opencv-ml-svm
   svm_type: C_SVC
   kernel: { type:LINEAR }
   C: 1.
   term_criteria: { epsilon:1.1920928955078125e-007, iterations:1000 }
   var_all: 300
   var_count: 300
   class_count: 26
   class_labels: !!opencv-matrix
      rows: 1
      cols: 26
      dt: i
      data: [ 0, 1, 2, 3, 4, 5, 6, 7, 8, 9, 10, 11, 12, 13, 14, 15, 16,
          17, 18, 19, 20, 21, 22, 23, 24, 25 ]
   sv_total: 629
   support_vectors:
      - [ 205., 205., 0., 0., 0., 255., 255., 0., 0., 0., 0., 0., 205.,
          205., 205., 205., 205., 205., 0., 0., 0., 255., 255., 0., 0.,
          0., 0., 0., 205., 205., 205., 205., 205., 205., 0., 0., 223.,
          255., 255., 223., 223., 0., 0., 0., 205., 205., 205., 205.,
          205., 205., 0., 0., 255., 255., 255., 255., 255., 0., 0., 0.,
          205., 205., 205., 205., 205., 205., 0., 0., 255., 255., 255.,
          255., 255., 0., 0., 0., 205., 205., 205., 205., 205., 205., 0.,
          0., 255., 255., 255., 255., 255., 0., 0., 0., 205., 205., 205.,
          205., 205., 205., 0., 0., 83., 255., 255., 255., 255., 0., 0.,
          0., 205., 205., 205., 205., 205., 205., 0., 0., 0., 255., 255.,
          255., 255., 0., 0., 0., 205., 205., 205., 205., 205., 205., 0.,
          0., 0., 108., 255., 255., 255., 0., 0., 0., 205., 205., 205.,
          205., 205., 205., 0., 134., 134., 134., 255., 255., 255., 134.,
          0., 0., 205., 205., 205., 205., 205., 205., 0., 255., 255.,
          255., 134., 255., 255., 255., 0., 0., 205., 205., 205., 205.,
          205., 205., 0., 255., 255., 255., 108., 255., 255., 255., 0.,
          0., 205., 205., 205., 205., 205., 205., 96., 255., 255., 255.,
          255., 255., 255., 255., 96., 0., 205., 205., 205., 205., 205.,
          205., 255., 255., 255., 255., 255., 255., 255., 255., 255., 0.,
          205., 205., 205., 205., 205., 205., 255., 255., 255., 255.,
          255., 255., 255., 255., 255., 0., 205., 205., 205., 205., 205.,
          205., 255., 255., 255., 255., 255., 255., 255., 255., 255., 0.,
          205., 205., 205., 205., 205., 205., 255., 255., 255., 255.,
          255., 255., 255., 255., 255., 45., 205., 205., 205., 205.,
          205., 205., 255., 255., 255., 223., 223., 223., 255., 255.,
          255., 255., 205., 205., 205., 205., 205., 205., 255., 255.,
          236., 0., 0., 0., 236., 236., 236., 236. ]
      - [ 0., 0., 0., 0., 146., 255., 123., 0., 0., 0., 0., 0., 0., 0.,
          205., 205., 0., 0., 0., 0., 236., 255., 255., 0., 0., 0., 0.,
          210., 210., 210., 205., 205., 96., 14., 0., 96., 255., 255.,
          255., 209., 96., 0., 0., 0., 23., 159., 205., 205., 19., 3.,
          0., 255., 255., 255., 255., 255., 255., 0., 0., 0., 0., 0.,
          205., 205., 0., 0., 0., 255., 255., 255., 255., 255., 255.,
          126., 134., 0., 151., 255., 205., 205., 0., 0., 0., 255., 255.,
          255., 255., 255., 255., 146., 0., 0., 5., 0., 205., 205., 0.,
          0., 0., 255., 255., 255., 255., 255., 255., 146., 0., 0., 219.,
          0., 205., 205., 0., 0., 0., 255., 255., 255., 255., 255., 255.,
          255., 32., 0., 255., 232., 205., 205., 0., 0., 0., 255., 255.,
          255., 255., 255., 255., 255., 255., 0., 83., 24., 205., 205.,
          0., 0., 109., 255., 255., 255., 255., 255., 255., 255., 255.,
          142., 0., 0., 205., 205., 0., 0., 109., 255., 255., 255., 255.,
          255., 255., 255., 255., 255., 0., 0., 205., 205., 0., 0., 109.,
          255., 255., 255., 255., 255., 255., 255., 255., 255., 0., 0.,
          205., 205., 0., 0., 237., 255., 255., 255., 255., 255., 255.,
          255., 255., 255., 191., 0., 205., 205., 0., 0., 255., 255.,
          255., 255., 255., 255., 255., 255., 255., 255., 234., 31.,
          205., 205., 0., 213., 255., 255., 255., 255., 255., 255., 255.,
          255., 255., 255., 255., 73., 205., 205., 0., 218., 255., 255.,
          255., 0., 0., 0., 0., 0., 121., 255., 255., 73., 205., 205.,
          236., 252., 255., 255., 109., 0., 0., 0., 0., 0., 0., 255.,
          219., 0., 205., 205., 0., 218., 255., 255., 41., 0., 0., 0.,
          0., 91., 0., 255., 82., 0., 205., 205., 0., 180., 210., 210.,
          0., 0., 0., 0., 218., 255., 0., 145. ]
      - [ 205., 205., 205., 0., 0., 175., 255., 143., 0., 0., 0., 205.,
          205., 205., 205., 205., 205., 205., 205., 0., 0., 175., 255.,
          230., 136., 0., 0., 205., 205., 205., 205., 205., 205., 205.,
          205., 0., 0., 175., 255., 255., 175., 0., 0., 205., 205., 205.,
          205., 205., 205., 205., 205., 0., 0., 175., 255., 255., 175.,
          0., 0., 205., 205., 205., 205., 205., 205., 205., 205., 0., 0.,
          175., 255., 255., 175., 0., 0., 205., 205., 205., 205., 205.,
          205., 205., 205., 0., 36., 189., 255., 255., 175., 0., 0.,
          205., 205., 205., 205., 205., 205., 205., 205., 0., 207., 255.,
          255., 255., 175., 0., 0., 205., 205., 205., 205., 205., 205.,
          205., 205., 0., 207., 255., 255., 255., 175., 0., 0., 205.,
          205., 205., 205., 205., 205., 205., 205., 0., 207., 255., 255.,
          255., 175., 0., 0., 205., 205., 205., 205., 205., 205., 205.,
          205., 0., 207., 255., 255., 255., 221., 119., 0., 205., 205.,
          205., 205., 205., 205., 205., 205., 0., 207., 255., 194., 194.,
          255., 207., 0., 205., 205., 205., 205., 205., 205., 205., 205.,
          0., 207., 255., 111., 112., 255., 207., 0., 205., 205., 205.,
          205., 205., 205., 205., 205., 0., 207., 255., 111., 112., 255.,
          213., 32., 205., 205., 205., 205., 205., 205., 205., 205., 0.,
          207., 255., 112., 112., 255., 254., 249., 205., 205., 205.,
          205., 205., 205., 205., 205., 0., 207., 255., 230., 230., 255.,
          255., 255., 205., 205., 205., 205., 205., 205., 205., 205.,
          172., 239., 255., 255., 255., 255., 255., 255., 205., 205.,
          205., 205., 205., 205., 205., 205., 255., 255., 255., 180.,
          121., 163., 255., 255., 205., 205., 205., 205., 205., 205.,
          205., 205., 255., 255., 189., 70., 0., 80., 255., 255., 205.,
          205., 205., 205., 205., 205., 205., 205., 255., 255., 80., 0.,
          0., 62., 198., 198., 205. ]
      - [ 0., 0., 0., 0., 73., 255., 255., 223., 18., 0., 0., 0., 0., 0.,
          205., 205., 0., 0., 0., 0., 73., 255., 255., 255., 146., 0.,
          0., 0., 0., 0., 205., 205., 0., 0., 0., 0., 73., 255., 255.,
          255., 146., 0., 0., 0., 0., 0., 205., 205., 0., 0., 0., 0.,
          73., 255., 255., 255., 145., 0., 0., 0., 0., 0., 205., 205.,
          0., 0., 0., 0., 255., 255., 255., 255., 145., 0., 0., 0., 0.,
          0., 205., 205., 0., 0., 0., 0., 255., 255., 255., 255., 146.,
          0., 0., 0., 0., 0., 205., 205., 0., 0., 0., 0., 255., 255.,
          255., 255., 146., 0., 0., 0., 0., 0., 205., 205., 0., 0., 0.,
          223., 255., 255., 255., 255., 241., 64., 0., 0., 0., 0., 205.,
          205., 0., 0., 23., 255., 255., 255., 255., 255., 255., 73., 0.,
          0., 0., 0., 205., 205., 0., 0., 182., 255., 255., 255., 255.,
          255., 255., 73., 0., 0., 0., 82., 205., 205., 0., 0., 182.,
          255., 255., 255., 255., 255., 255., 73., 0., 0., 0., 82., 205.,
          205., 0., 0., 182., 255., 255., 255., 255., 255., 255., 73.,
          0., 0., 0., 0., 205., 205., 0., 109., 255., 255., 255., 255.,
          255., 255., 255., 95., 0., 0., 0., 0., 205., 205., 0., 109.,
          255., 255., 255., 255., 255., 255., 255., 187., 0., 0., 0., 0.,
          205., 205., 23., 200., 255., 255., 255., 255., 255., 255.,
          255., 187., 0., 0., 0., 0., 205., 205., 228., 255., 255., 255.,
          191., 159., 255., 255., 255., 255., 0., 0., 0., 0., 205., 205.,
          255., 255., 255., 255., 255., 255., 255., 228., 255., 255.,
          255., 255., 128., 32., 205., 205., 255., 255., 255., 255.,
          255., 255., 255., 118., 255., 255., 255., 255., 255., 255.,
          205., 205., 255., 255., 255., 255., 255., 255., 255., 255.,
          255., 255., 255., 255. ]
      - [ 205., 205., 0., 0., 0., 0., 3., 143., 255., 255., 38., 0.,
          205., 205., 205., 205., 205., 205., 0., 0., 0., 0., 115., 255.,
          255., 255., 38., 0., 205., 205., 205., 205., 205., 205., 0.,
          0., 0., 11., 132., 255., 255., 255., 38., 0., 205., 205., 205.,
          205., 205., 205., 0., 0., 0., 89., 255., 255., 255., 255., 38.,
          0., 205., 205., 205., 205., 205., 205., 0., 0., 0., 89., 255.,
          255., 255., 255., 38., 0., 205., 205., 205., 205., 205., 205.,
          0., 0., 18., 135., 255., 255., 255., 255., 38., 0., 205., 205.,
          205., 205., 205., 205., 0., 0., 64., 255., 255., 255., 255.,
          255., 38., 0., 205., 205., 205., 205., 205., 205., 0., 0., 64.,
          255., 255., 255., 255., 255., 38., 0., 205., 205., 205., 205.,
          205., 205., 0., 0., 64., 255., 255., 255., 255., 255., 130.,
          5., 205., 205., 205., 205., 205., 205., 0., 18., 154., 255.,
          255., 255., 255., 255., 255., 13., 205., 205., 205., 205.,
          205., 205., 0., 38., 255., 255., 255., 255., 255., 255., 255.,
          13., 205., 205., 205., 205., 205., 205., 7., 163., 255., 204.,
          108., 189., 255., 255., 255., 13., 205., 205., 205., 205.,
          205., 205., 13., 255., 255., 221., 159., 212., 255., 255.,
          255., 13., 205., 205., 205., 205., 205., 205., 13., 255., 255.,
          255., 255., 255., 255., 255., 255., 13., 205., 205., 205.,
          205., 205., 205., 12., 255., 255., 255., 255., 255., 255.,
          255., 255., 13., 205., 205., 205., 205., 205., 205., 200.,
          255., 255., 255., 255., 255., 255., 255., 255., 13., 205.,
          205., 205., 205., 205., 205., 255., 255., 255., 255., 255.,
          255., 255., 255., 255., 13., 205., 205., 205., 205., 205.,
          205., 255., 255., 255., 177., 32., 154., 255., 255., 255., 13.,
          205., 205., 205., 205., 205., 205., 19., 19., 19., 12., 0.,
          11., 172., 255., 255., 13. ]
      - [ 205., 205., 0., 0., 0., 0., 0., 255., 255., 0., 0., 0., 205.,
          205., 205., 205., 205., 205., 0., 0., 0., 0., 0., 255., 255.,
          236., 0., 0., 205., 205., 205., 205., 205., 205., 0., 0., 0.,
          0., 223., 255., 255., 255., 0., 0., 205., 205., 205., 205.,
          205., 205., 0., 0., 0., 0., 255., 255., 255., 255., 0., 0.,
          205., 205., 205., 205., 205., 205., 0., 0., 0., 0., 255., 255.,
          255., 255., 0., 0., 205., 205., 205., 205., 205., 205., 0., 0.,
          0., 0., 255., 255., 255., 255., 0., 0., 205., 205., 205., 205.,
          205., 205., 0., 0., 0., 0., 255., 255., 255., 255., 0., 0.,
          205., 205., 205., 205., 205., 205., 0., 0., 0., 0., 255., 255.,
          255., 255., 159., 0., 205., 205., 205., 205., 205., 205., 0.,
          0., 0., 147., 255., 255., 255., 255., 255., 0., 205., 205.,
          205., 205., 205., 205., 0., 0., 0., 255., 255., 121., 255.,
          255., 255., 0., 205., 205., 205., 205., 205., 205., 0., 0., 0.,
          255., 255., 0., 134., 255., 255., 0., 205., 205., 205., 205.,
          205., 205., 0., 0., 0., 255., 255., 108., 108., 255., 255., 0.,
          205., 205., 205., 205., 205., 205., 0., 0., 0., 255., 255.,
          255., 255., 255., 255., 0., 205., 205., 205., 205., 205., 205.,
          0., 0., 83., 255., 255., 255., 255., 255., 255., 83., 205.,
          205., 205., 205., 205., 205., 0., 0., 255., 255., 255., 255.,
          255., 255., 255., 255., 205., 205., 205., 205., 205., 205., 0.,
          0., 255., 255., 255., 198., 198., 255., 255., 255., 205., 205.,
          205., 205., 205., 205., 0., 0., 255., 255., 210., 0., 0., 210.,
          255., 255., 205., 205., 205., 205., 205., 205., 0., 32., 255.,
          223., 0., 0., 0., 0., 255., 255., 205., 205., 205., 205., 205.,
          205., 19., 255., 236., 0., 0., 0., 0., 0., 236., 236. ]
      - [ 205., 205., 205., 0., 0., 0., 0., 29., 68., 255., 212., 0.,
          205., 205., 205., 205., 205., 205., 205., 0., 0., 0., 0., 127.,
          255., 255., 212., 0., 205., 205., 205., 205., 205., 205., 205.,
          184., 0., 0., 0., 143., 255., 255., 212., 0., 205., 205., 205.,
          205., 205., 205., 205., 184., 0., 0., 0., 255., 255., 255.,
          213., 0., 205., 205., 205., 205., 205., 205., 205., 180., 0.,
          0., 241., 255., 255., 255., 212., 0., 205., 205., 205., 205.,
          205., 205., 205., 0., 0., 0., 241., 255., 255., 255., 233.,
          34., 205., 205., 205., 205., 205., 205., 205., 0., 0., 0.,
          241., 255., 255., 255., 255., 71., 205., 205., 205., 205.,
          205., 205., 205., 0., 0., 0., 241., 255., 255., 255., 255.,
          71., 205., 205., 205., 205., 205., 205., 205., 0., 0., 82.,
          252., 255., 255., 255., 255., 71., 205., 205., 205., 205.,
          205., 205., 205., 0., 0., 99., 255., 255., 255., 255., 255.,
          71., 205., 205., 205., 205., 205., 205., 205., 0., 0., 212.,
          255., 255., 255., 255., 255., 71., 205., 205., 205., 205.,
          205., 205., 205., 0., 0., 255., 255., 255., 255., 255., 255.,
          255., 205., 205., 205., 205., 205., 205., 205., 0., 0., 255.,
          255., 255., 255., 255., 255., 255., 205., 205., 205., 205.,
          205., 205., 205., 0., 212., 255., 255., 255., 255., 255., 255.,
          255., 205., 205., 205., 205., 205., 205., 205., 0., 212., 255.,
          255., 255., 255., 255., 255., 255., 205., 205., 205., 205.,
          205., 205., 205., 0., 212., 255., 255., 255., 255., 255., 255.,
          255., 205., 205., 205., 205., 205., 205., 205., 71., 255.,
          255., 255., 255., 255., 255., 255., 255., 205., 205., 205.,
          205., 205., 205., 205., 71., 255., 255., 255., 32., 255., 255.,
          255., 255., 205., 205., 205., 205., 205., 205., 205., 71.,
          255., 255., 14., 0., 0., 156., 255., 255. ]
      - [ 205., 205., 0., 0., 0., 0., 0., 21., 70., 35., 0., 0., 205.,
          205., 205., 205., 205., 205., 0., 0., 0., 0., 147., 224., 255.,
          127., 0., 0., 205., 205., 205., 205., 205., 205., 67., 0., 0.,
          0., 178., 255., 255., 127., 0., 0., 205., 205., 205., 205.,
          205., 205., 178., 0., 0., 24., 249., 255., 255., 127., 0., 0.,
          205., 205., 205., 205., 205., 205., 178., 0., 0., 134., 255.,
          255., 255., 127., 0., 0., 205., 205., 205., 205., 205., 205.,
          0., 0., 0., 255., 255., 255., 255., 131., 0., 0., 205., 205.,
          205., 205., 205., 205., 0., 0., 0., 255., 255., 255., 255.,
          255., 0., 0., 205., 205., 205., 205., 205., 205., 0., 0., 0.,
          255., 255., 255., 255., 255., 0., 0., 205., 205., 205., 205.,
          205., 205., 0., 0., 86., 255., 255., 255., 255., 255., 0., 0.,
          205., 205., 205., 205., 205., 205., 0., 0., 127., 255., 255.,
          255., 255., 255., 0., 0., 205., 205., 205., 205., 205., 205.,
          0., 0., 226., 255., 255., 255., 255., 255., 0., 0., 205., 205.,
          205., 205., 205., 205., 0., 0., 255., 255., 255., 255., 255.,
          255., 229., 0., 205., 205., 205., 205., 205., 205., 0., 0.,
          255., 255., 255., 255., 255., 255., 229., 0., 205., 205., 205.,
          205., 205., 205., 0., 229., 255., 255., 255., 255., 255., 255.,
          229., 0., 205., 205., 205., 205., 205., 205., 0., 229., 255.,
          255., 255., 255., 255., 255., 229., 0., 205., 205., 205., 205.,
          205., 205., 40., 243., 255., 255., 255., 255., 255., 255.,
          229., 0., 205., 205., 205., 205., 205., 205., 76., 255., 255.,
          253., 236., 255., 255., 255., 229., 0., 205., 205., 205., 205.,
          205., 205., 76., 255., 255., 86., 0., 96., 239., 255., 229.,
          0., 205., 205., 205., 205., 205., 205., 76., 255., 233., 0.,
          0., 0., 189., 255., 189., 0. ]
      - [ 205., 205., 205., 0., 0., 0., 0., 0., 0., 0., 0., 0., 205.,
          205., 205., 205., 205., 205., 205., 0., 0., 0., 0., 0., 0., 0.,
          0., 0., 205., 205., 205., 205., 205., 205., 205., 0., 0., 0.,
          0., 0., 0., 0., 0., 0., 205., 205., 205., 205., 205., 205.,
          205., 0., 0., 0., 0., 0., 0., 0., 0., 0., 205., 205., 205.,
          205., 205., 205., 205., 0., 0., 0., 89., 45., 0., 0., 0., 0.,
          205., 205., 205., 205., 205., 205., 205., 0., 0., 138., 255.,
          210., 28., 0., 0., 0., 205., 205., 205., 205., 205., 205.,
          205., 0., 0., 212., 255., 255., 42., 0., 0., 0., 205., 205.,
          205., 205., 205., 205., 205., 0., 0., 212., 255., 255., 42.,
          0., 0., 0., 205., 205., 205., 205., 205., 205., 205., 0., 0.,
          212., 255., 255., 42., 0., 0., 0., 205., 205., 205., 205.,
          205., 205., 205., 0., 0., 212., 255., 255., 42., 0., 0., 0.,
          205., 205., 205., 205., 205., 205., 205., 0., 127., 255., 255.,
          255., 255., 0., 0., 0., 205., 205., 205., 205., 205., 205.,
          205., 0., 127., 255., 255., 255., 255., 0., 0., 0., 205., 205.,
          205., 205., 205., 205., 205., 0., 127., 255., 255., 255., 255.,
          0., 0., 0., 205., 205., 205., 205., 205., 205., 205., 0., 127.,
          255., 255., 255., 255., 212., 0., 0., 205., 205., 205., 205.,
          205., 205., 205., 0., 127., 255., 255., 255., 255., 212., 0.,
          0., 205., 205., 205., 205., 205., 205., 205., 28., 210., 255.,
          255., 255., 255., 240., 83., 0., 205., 205., 205., 205., 205.,
          205., 205., 42., 255., 255., 13., 13., 214., 255., 127., 0.,
          205., 205., 205., 205., 205., 205., 205., 42., 255., 255., 0.,
          0., 159., 244., 96., 0., 205., 205., 205., 205., 205., 205.,
          205., 19., 115., 115., 0., 0., 0., 96., 0., 0. ]
      - [ 205., 205., 255., 255., 255., 255., 204., 51., 0., 0., 0., 0.,
          205., 205., 205., 205., 205., 205., 172., 205., 255., 255.,
          204., 51., 0., 0., 0., 0., 205., 205., 205., 205., 205., 205.,
          32., 121., 255., 255., 204., 51., 0., 0., 0., 0., 205., 205.,
          205., 205., 205., 205., 108., 167., 255., 255., 226., 138.,
          65., 0., 0., 0., 205., 205., 205., 205., 205., 205., 249.,
          251., 255., 255., 254., 250., 149., 0., 0., 0., 205., 205.,
          205., 205., 205., 205., 255., 255., 255., 255., 255., 255.,
          153., 0., 0., 0., 205., 205., 205., 205., 205., 205., 255.,
          255., 255., 255., 255., 255., 161., 19., 8., 0., 205., 205.,
          205., 205., 205., 205., 255., 255., 255., 255., 255., 255.,
          217., 159., 64., 0., 205., 205., 205., 205., 205., 205., 255.,
          255., 255., 255., 255., 255., 255., 255., 102., 0., 205., 205.,
          205., 205., 205., 205., 255., 255., 255., 255., 255., 255.,
          255., 255., 102., 0., 205., 205., 205., 205., 205., 205., 255.,
          255., 255., 213., 199., 241., 255., 255., 102., 0., 205., 205.,
          205., 205., 205., 205., 255., 255., 255., 129., 87., 213.,
          255., 255., 102., 0., 205., 205., 205., 205., 205., 205., 255.,
          255., 255., 102., 51., 204., 255., 255., 102., 0., 205., 205.,
          205., 205., 205., 205., 255., 255., 255., 102., 51., 204.,
          255., 255., 102., 0., 205., 205., 205., 205., 205., 205., 255.,
          255., 255., 175., 148., 228., 255., 255., 175., 121., 205.,
          205., 205., 205., 205., 205., 255., 255., 255., 255., 255.,
          255., 255., 255., 255., 255., 205., 205., 205., 205., 205.,
          205., 255., 255., 255., 255., 255., 255., 255., 255., 255.,
          255., 205., 205., 205., 205., 205., 205., 255., 255., 255.,
          236., 223., 223., 223., 223., 242., 255., 205., 205., 205.,
          205., 205., 205., 255., 255., 255., 152., 83., 83., 83., 83.,
          186., 255. ]
      - [ 205., 0., 0., 96., 255., 255., 96., 0., 0., 0., 0., 0., 0.,
          205., 205., 205., 205., 0., 0., 96., 255., 255., 183., 88., 0.,
          0., 0., 0., 0., 205., 205., 205., 205., 0., 0., 95., 255.,
          255., 255., 159., 0., 0., 0., 0., 0., 205., 205., 205., 205.,
          0., 0., 96., 255., 255., 255., 159., 0., 0., 0., 0., 0., 205.,
          205., 205., 205., 0., 0., 95., 255., 255., 255., 221., 145.,
          21., 0., 0., 0., 205., 205., 205., 205., 0., 0., 95., 255.,
          255., 255., 255., 223., 32., 0., 0., 0., 205., 205., 205.,
          205., 0., 0., 96., 255., 255., 255., 255., 225., 43., 5., 0.,
          0., 205., 205., 205., 205., 0., 0., 95., 255., 255., 255.,
          255., 247., 199., 72., 0., 0., 205., 205., 205., 205., 0., 0.,
          96., 255., 255., 255., 255., 255., 255., 96., 0., 0., 205.,
          205., 205., 205., 0., 0., 96., 255., 255., 231., 231., 255.,
          255., 96., 0., 0., 205., 205., 205., 205., 0., 0., 96., 255.,
          255., 119., 119., 255., 255., 96., 0., 0., 205., 205., 205.,
          205., 0., 0., 96., 255., 255., 96., 96., 255., 255., 183., 88.,
          0., 205., 205., 205., 205., 0., 0., 95., 255., 255., 135.,
          135., 255., 255., 255., 159., 0., 205., 205., 205., 205., 0.,
          0., 96., 255., 255., 247., 247., 255., 255., 255., 159., 0.,
          205., 205., 205., 205., 0., 0., 95., 255., 255., 255., 255.,
          255., 255., 255., 222., 166., 205., 205., 205., 205., 0., 0.,
          95., 255., 255., 199., 166., 166., 166., 222., 255., 255.,
          205., 205., 205., 205., 0., 0., 91., 242., 242., 91., 0., 0.,
          0., 151., 242., 242., 205., 205., 205., 205., 0., 0., 24., 64.,
          64., 24., 0., 0., 0., 40., 64., 64., 205., 205., 205., 205.,
          115., 115., 115., 100., 14., 0., 0., 0., 0., 0., 0. ]
      - [ 205., 205., 205., 0., 0., 42., 212., 255., 212., 42., 0., 0.,
          205., 205., 205., 205., 205., 205., 205., 0., 0., 42., 212.,
          255., 212., 42., 0., 0., 205., 205., 205., 205., 205., 205.,
          205., 0., 0., 42., 212., 255., 212., 42., 0., 0., 205., 205.,
          205., 205., 205., 205., 205., 0., 0., 42., 212., 255., 212.,
          42., 0., 0., 205., 205., 205., 205., 205., 205., 205., 0., 54.,
          133., 231., 255., 231., 133., 54., 0., 205., 205., 205., 205.,
          205., 205., 205., 0., 127., 255., 255., 255., 255., 255., 127.,
          0., 205., 205., 205., 205., 205., 205., 205., 0., 127., 255.,
          255., 255., 255., 255., 127., 0., 205., 205., 205., 205., 205.,
          205., 205., 0., 127., 255., 255., 255., 255., 255., 127., 0.,
          205., 205., 205., 205., 205., 205., 205., 6., 131., 255., 255.,
          255., 255., 255., 127., 0., 205., 205., 205., 205., 205., 205.,
          205., 172., 213., 255., 255., 255., 255., 255., 127., 0., 205.,
          205., 205., 205., 205., 205., 205., 255., 255., 241., 186.,
          172., 186., 241., 127., 0., 205., 205., 205., 205., 205., 205.,
          205., 255., 255., 213., 48., 6., 48., 213., 127., 0., 205.,
          205., 205., 205., 205., 205., 205., 255., 255., 212., 42., 0.,
          42., 212., 127., 0., 205., 205., 205., 205., 205., 205., 205.,
          255., 220., 154., 31., 0., 42., 212., 162., 70., 205., 205.,
          205., 205., 205., 205., 205., 255., 137., 16., 3., 0., 42.,
          212., 245., 236., 205., 205., 205., 205., 205., 205., 205.,
          255., 201., 147., 147., 147., 165., 237., 255., 255., 205.,
          205., 205., 205., 205., 205., 205., 198., 198., 207., 245.,
          255., 255., 255., 255., 255., 205., 205., 205., 205., 205.,
          205., 205., 32., 32., 69., 218., 255., 255., 255., 255., 255.,
          205., 205., 205., 205., 205., 205., 205., 0., 0., 20., 101.,
          121., 121., 121., 188., 255. ]
      - [ 205., 205., 0., 230., 255., 255., 174., 0., 0., 0., 0., 0., 0.,
          205., 205., 205., 205., 205., 0., 255., 255., 255., 255., 0.,
          0., 0., 0., 0., 0., 205., 205., 205., 205., 205., 0., 255.,
          255., 255., 255., 127., 0., 0., 0., 0., 0., 205., 205., 205.,
          205., 205., 151., 255., 255., 255., 255., 255., 0., 0., 0., 0.,
          0., 205., 205., 205., 205., 205., 151., 255., 255., 255., 255.,
          255., 14., 0., 0., 0., 0., 205., 205., 205., 205., 205., 150.,
          255., 255., 255., 255., 255., 81., 0., 0., 0., 0., 205., 205.,
          205., 205., 205., 151., 255., 255., 255., 255., 255., 255., 0.,
          0., 0., 0., 205., 205., 205., 205., 205., 150., 255., 255.,
          255., 255., 255., 255., 22., 0., 0., 0., 205., 205., 205.,
          205., 205., 150., 255., 255., 255., 255., 255., 255., 35., 0.,
          0., 0., 205., 205., 205., 205., 205., 151., 255., 255., 255.,
          255., 255., 255., 255., 0., 0., 0., 205., 205., 205., 205.,
          205., 151., 255., 255., 255., 81., 255., 255., 255., 0., 0.,
          0., 205., 205., 205., 205., 205., 150., 255., 255., 255., 0.,
          255., 255., 255., 55., 0., 0., 205., 205., 205., 205., 205.,
          150., 255., 255., 255., 0., 255., 255., 255., 243., 0., 0.,
          205., 205., 205., 205., 205., 255., 255., 255., 255., 216.,
          255., 255., 255., 255., 0., 0., 205., 205., 205., 205., 205.,
          184., 255., 255., 255., 255., 255., 255., 255., 255., 133., 0.,
          205., 205., 205., 205., 205., 255., 255., 255., 255., 255.,
          255., 255., 255., 255., 245., 0., 205., 205., 205., 205., 205.,
          255., 255., 255., 255., 255., 255., 255., 255., 255., 255., 0.,
          205., 205., 205., 205., 205., 255., 255., 255., 255., 0., 0.,
          0., 255., 255., 255., 151., 205., 205., 205., 205., 205., 255.,
          255., 255., 255., 0., 0., 0., 255., 255., 255. ]
      - [ 205., 0., 223., 53., 0., 0., 0., 0., 0., 0., 0., 0., 0., 205.,
          205., 205., 205., 0., 33., 8., 0., 135., 217., 217., 135., 0.,
          0., 0., 0., 205., 205., 205., 205., 0., 0., 0., 0., 159., 255.,
          255., 231., 135., 0., 0., 0., 205., 205., 205., 205., 166.,
          21., 0., 0., 159., 255., 255., 255., 181., 0., 0., 0., 205.,
          205., 205., 205., 115., 14., 0., 0., 159., 255., 255., 255.,
          181., 0., 0., 0., 205., 205., 205., 205., 0., 0., 0., 81.,
          202., 255., 255., 255., 181., 0., 0., 0., 205., 205., 205.,
          205., 0., 0., 0., 181., 255., 255., 255., 255., 207., 71., 0.,
          0., 205., 205., 205., 205., 0., 0., 50., 199., 255., 255.,
          255., 255., 255., 202., 0., 0., 205., 205., 205., 205., 0., 0.,
          172., 244., 255., 255., 255., 255., 255., 202., 0., 0., 205.,
          205., 205., 205., 0., 0., 0., 180., 255., 255., 255., 255.,
          255., 202., 0., 0., 205., 205., 205., 205., 0., 0., 0., 180.,
          255., 255., 255., 255., 255., 202., 0., 0., 205., 205., 205.,
          205., 0., 0., 172., 244., 255., 255., 155., 119., 255., 202.,
          0., 0., 205., 205., 205., 205., 0., 0., 202., 255., 255., 151.,
          122., 215., 255., 202., 0., 0., 205., 205., 205., 205., 0., 0.,
          202., 255., 255., 206., 206., 255., 255., 236., 145., 0., 205.,
          205., 205., 205., 0., 0., 202., 255., 255., 255., 255., 255.,
          255., 255., 223., 0., 205., 205., 205., 205., 0., 100., 226.,
          255., 183., 202., 255., 255., 255., 255., 223., 0., 205., 205.,
          205., 205., 0., 223., 255., 192., 62., 90., 166., 166., 192.,
          255., 234., 89., 205., 205., 205., 205., 0., 223., 255., 74.,
          0., 0., 0., 0., 74., 255., 247., 191., 205., 205., 205., 205.,
          0., 223., 225., 63., 0., 0., 0., 0., 63., 217., 190. ]
      - [ 0., 0., 0., 0., 0., 255., 255., 255., 217., 0., 0., 0., 0., 0.,
          205., 205., 0., 0., 0., 0., 91., 255., 255., 255., 255., 0.,
          0., 0., 0., 0., 205., 205., 0., 0., 0., 0., 255., 255., 255.,
          255., 255., 0., 0., 0., 0., 0., 205., 205., 0., 0., 0., 0.,
          255., 255., 255., 255., 255., 0., 0., 0., 0., 0., 205., 205.,
          0., 0., 0., 0., 255., 255., 255., 255., 255., 91., 0., 0., 0.,
          0., 205., 205., 0., 0., 0., 45., 255., 255., 255., 255., 255.,
          148., 0., 0., 0., 0., 205., 205., 0., 0., 0., 127., 255., 255.,
          255., 255., 255., 255., 0., 0., 0., 0., 205., 205., 0., 0., 0.,
          255., 255., 255., 255., 255., 255., 255., 0., 0., 0., 0., 205.,
          205., 0., 0., 0., 255., 255., 255., 0., 237., 255., 255., 185.,
          0., 0., 0., 205., 205., 0., 0., 25., 255., 255., 255., 0., 0.,
          255., 255., 255., 0., 0., 0., 205., 205., 0., 0., 164., 255.,
          255., 255., 0., 0., 255., 255., 255., 0., 0., 0., 205., 205.,
          0., 0., 255., 255., 255., 200., 0., 0., 255., 255., 255., 0.,
          0., 0., 205., 205., 0., 0., 255., 255., 255., 50., 0., 0.,
          200., 255., 255., 164., 0., 0., 205., 205., 0., 0., 255., 255.,
          255., 255., 242., 242., 255., 255., 255., 164., 0., 0., 205.,
          205., 0., 200., 255., 255., 255., 255., 255., 255., 255., 255.,
          255., 255., 0., 0., 205., 205., 0., 219., 255., 255., 255.,
          255., 255., 255., 255., 255., 255., 255., 0., 0., 205., 205.,
          0., 255., 255., 255., 255., 255., 242., 242., 242., 242., 255.,
          255., 200., 0., 205., 205., 0., 255., 255., 255., 41., 0., 0.,
          0., 0., 0., 255., 255., 255., 0., 205., 205., 245., 255., 255.,
          197., 0., 0., 0., 0., 0., 0., 127., 255. ]
      - [ 205., 205., 0., 0., 0., 125., 255., 38., 15., 0., 0., 0., 205.,
          205., 205., 205., 205., 205., 0., 0., 115., 255., 255., 255.,
          102., 0., 0., 0., 205., 205., 205., 205., 205., 205., 0., 0.,
          255., 255., 255., 255., 102., 0., 0., 0., 205., 205., 205.,
          205., 205., 205., 0., 0., 255., 255., 255., 255., 255., 0., 0.,
          0., 205., 205., 205., 205., 205., 205., 0., 0., 255., 255.,
          255., 255., 255., 0., 0., 0., 205., 205., 205., 205., 205.,
          205., 0., 99., 255., 255., 255., 255., 255., 166., 0., 0.,
          205., 205., 205., 205., 205., 205., 0., 153., 255., 255., 255.,
          255., 255., 255., 0., 0., 205., 205., 205., 205., 205., 205.,
          0., 153., 255., 255., 255., 255., 255., 255., 38., 0., 205.,
          205., 205., 205., 205., 205., 0., 153., 255., 255., 255., 255.,
          255., 255., 153., 0., 205., 205., 205., 205., 205., 205., 43.,
          240., 255., 255., 255., 255., 255., 255., 153., 0., 205., 205.,
          205., 205., 205., 205., 51., 255., 255., 255., 255., 224.,
          255., 255., 153., 0., 205., 205., 205., 205., 205., 205., 51.,
          255., 255., 255., 255., 143., 255., 255., 199., 23., 205.,
          205., 205., 205., 205., 205., 51., 255., 255., 255., 255.,
          255., 255., 255., 255., 51., 205., 205., 205., 205., 205.,
          205., 255., 255., 255., 255., 255., 255., 255., 255., 255.,
          51., 205., 205., 205., 205., 205., 205., 255., 255., 255.,
          255., 255., 255., 255., 255., 255., 51., 205., 205., 205.,
          205., 205., 205., 255., 255., 255., 255., 255., 255., 255.,
          255., 255., 184., 205., 205., 205., 205., 205., 205., 255.,
          255., 255., 158., 13., 13., 158., 255., 255., 255., 205., 205.,
          205., 205., 205., 205., 255., 255., 191., 0., 0., 0., 0., 255.,
          255., 255., 205., 205., 205., 205., 205., 205., 255., 255., 0.,
          0., 0., 0., 0., 115., 255., 255. ]
      - [ 205., 205., 205., 205., 205., 205., 205., 205., 205., 205.,
          205., 205., 205., 205., 205., 205., 255., 255., 228., 161.,
          139., 90., 90., 90., 255., 255., 255., 90., 255., 255., 255.,
          205., 255., 255., 0., 0., 15., 0., 240., 240., 255., 255.,
          255., 0., 12., 255., 255., 205., 0., 20., 0., 0., 0., 58.,
          255., 255., 255., 255., 255., 110., 0., 26., 255., 205., 0.,
          0., 0., 0., 0., 246., 255., 255., 255., 255., 255., 255., 0.,
          0., 0., 205., 0., 0., 0., 0., 0., 255., 255., 127., 0., 255.,
          255., 255., 0., 0., 0., 205., 0., 0., 0., 0., 188., 255., 248.,
          0., 0., 226., 255., 255., 5., 0., 0., 205., 0., 0., 0., 0.,
          255., 255., 195., 0., 0., 8., 255., 255., 42., 0., 0., 205.,
          0., 0., 0., 110., 255., 255., 0., 0., 0., 0., 255., 255., 255.,
          0., 0., 205., 0., 0., 0., 255., 255., 255., 0., 0., 0., 0.,
          255., 255., 255., 0., 0., 205., 0., 0., 12., 255., 255., 8.,
          0., 0., 0., 0., 76., 255., 255., 0., 0., 205., 0., 0., 42.,
          255., 255., 255., 150., 150., 150., 150., 255., 255., 255., 0.,
          0., 205., 0., 0., 255., 255., 255., 255., 255., 255., 255.,
          255., 255., 255., 255., 202., 0., 205., 0., 0., 255., 255.,
          255., 255., 255., 255., 255., 211., 255., 255., 255., 255., 0.,
          205., 0., 229., 255., 255., 40., 0., 0., 0., 0., 0., 0., 203.,
          255., 255., 0., 205., 0., 249., 255., 171., 0., 0., 0., 0., 0.,
          0., 0., 0., 255., 255., 161., 205., 9., 255., 255., 136., 0.,
          0., 0., 0., 0., 0., 0., 0., 213., 255., 250., 205., 0., 255.,
          165., 0., 0., 0., 0., 0., 0., 0., 0., 0., 0., 165., 104., 205.,
          205., 205., 205., 205., 205., 205., 205., 205., 205., 205.,
          205., 205. ]
      - [ 205., 205., 0., 0., 0., 0., 0., 140., 255., 64., 0., 0., 0.,
          205., 205., 205., 205., 205., 0., 0., 0., 75., 255., 255.,
          255., 206., 0., 0., 0., 205., 205., 205., 205., 205., 0., 0.,
          0., 116., 255., 255., 255., 255., 0., 0., 0., 205., 205., 205.,
          205., 205., 0., 0., 0., 255., 255., 255., 255., 255., 0., 0.,
          0., 205., 205., 205., 205., 205., 0., 0., 0., 255., 255., 255.,
          255., 255., 46., 0., 0., 205., 205., 205., 205., 205., 0., 0.,
          2., 255., 255., 255., 255., 255., 255., 0., 0., 205., 205.,
          205., 205., 205., 0., 0., 46., 255., 255., 255., 255., 255.,
          255., 0., 0., 205., 205., 205., 205., 205., 0., 0., 255., 255.,
          255., 191., 255., 255., 255., 0., 0., 205., 205., 205., 205.,
          205., 0., 0., 255., 255., 255., 0., 255., 255., 255., 0., 0.,
          205., 205., 205., 205., 205., 0., 0., 255., 255., 255., 0.,
          255., 255., 255., 0., 0., 205., 205., 205., 205., 205., 0., 0.,
          255., 255., 255., 0., 153., 255., 255., 0., 0., 205., 205.,
          205., 205., 205., 0., 151., 255., 255., 134., 0., 69., 255.,
          255., 151., 0., 205., 205., 205., 205., 205., 0., 232., 255.,
          255., 69., 0., 69., 255., 255., 232., 0., 205., 205., 205.,
          205., 205., 0., 232., 255., 255., 227., 217., 255., 255., 255.,
          252., 0., 205., 205., 205., 205., 205., 0., 255., 255., 255.,
          255., 255., 255., 255., 255., 255., 0., 205., 205., 205., 205.,
          205., 0., 255., 255., 255., 255., 255., 255., 255., 255., 255.,
          8., 205., 205., 205., 205., 205., 0., 255., 255., 255., 217.,
          217., 217., 238., 255., 255., 162., 205., 205., 205., 205.,
          205., 162., 255., 255., 139., 0., 0., 0., 0., 255., 255., 185.,
          205., 205., 205., 205., 205., 195., 255., 255., 0., 0., 0., 0.,
          0., 239., 255. ]
      - [ 205., 0., 0., 0., 228., 255., 255., 244., 0., 0., 0., 0., 0.,
          205., 205., 205., 205., 0., 0., 181., 255., 255., 255., 255.,
          0., 0., 0., 0., 0., 205., 205., 205., 205., 0., 0., 181., 255.,
          255., 255., 255., 223., 0., 0., 0., 0., 205., 205., 205., 205.,
          0., 0., 218., 255., 255., 255., 255., 223., 0., 0., 0., 0.,
          205., 205., 205., 205., 0., 0., 255., 255., 255., 255., 255.,
          255., 0., 0., 0., 0., 205., 205., 205., 205., 0., 0., 255.,
          255., 255., 255., 255., 255., 101., 0., 0., 0., 205., 205.,
          205., 205., 0., 0., 255., 255., 255., 255., 255., 255., 202.,
          0., 0., 0., 205., 205., 205., 205., 0., 80., 255., 255., 255.,
          255., 255., 255., 255., 0., 0., 0., 205., 205., 205., 205., 0.,
          159., 255., 255., 255., 255., 255., 255., 255., 0., 0., 0.,
          205., 205., 205., 205., 0., 159., 255., 255., 255., 128., 255.,
          255., 255., 90., 0., 0., 205., 205., 205., 205., 0., 255.,
          255., 255., 255., 0., 255., 255., 255., 255., 0., 0., 205.,
          205., 205., 205., 0., 255., 255., 255., 255., 0., 255., 255.,
          255., 255., 0., 0., 205., 205., 205., 205., 0., 255., 255.,
          255., 255., 5., 255., 255., 255., 255., 0., 0., 205., 205.,
          205., 205., 69., 255., 255., 255., 255., 255., 255., 255.,
          255., 255., 159., 0., 205., 205., 205., 205., 138., 255., 255.,
          255., 255., 255., 255., 255., 255., 255., 207., 0., 205., 205.,
          205., 205., 138., 255., 255., 255., 255., 255., 255., 255.,
          255., 255., 255., 69., 205., 205., 205., 205., 197., 255.,
          255., 255., 255., 128., 133., 255., 255., 255., 255., 138.,
          205., 205., 205., 205., 255., 255., 255., 255., 16., 0., 0.,
          16., 255., 255., 255., 255., 205., 205., 205., 205., 255.,
          255., 255., 27., 0., 0., 0., 0., 154., 255., 175. ]
      - [ 0., 0., 0., 0., 0., 80., 255., 255., 255., 0., 0., 0., 0., 0.,
          205., 205., 0., 0., 0., 0., 0., 255., 255., 255., 255., 27.,
          0., 0., 0., 0., 205., 205., 0., 0., 0., 0., 27., 255., 255.,
          255., 255., 27., 0., 0., 0., 0., 205., 205., 0., 0., 0., 0.,
          27., 255., 255., 255., 255., 192., 0., 0., 0., 0., 205., 205.,
          0., 0., 0., 0., 255., 255., 255., 255., 255., 255., 0., 0., 0.,
          0., 205., 205., 0., 0., 0., 0., 255., 255., 255., 255., 255.,
          255., 0., 0., 0., 0., 205., 205., 0., 0., 0., 0., 255., 255.,
          255., 255., 255., 255., 0., 0., 0., 0., 205., 205., 0., 0., 0.,
          191., 255., 255., 255., 223., 255., 255., 191., 0., 0., 0.,
          205., 205., 0., 0., 0., 255., 255., 255., 155., 0., 255., 255.,
          221., 0., 0., 0., 205., 205., 0., 0., 0., 255., 255., 255.,
          45., 0., 255., 255., 255., 100., 0., 0., 205., 205., 0., 0.,
          100., 255., 255., 234., 0., 0., 234., 255., 255., 100., 0., 0.,
          205., 205., 0., 0., 255., 255., 255., 136., 0., 0., 136., 255.,
          255., 181., 0., 0., 205., 205., 0., 0., 255., 255., 255., 137.,
          0., 0., 240., 255., 255., 255., 0., 0., 205., 205., 0., 2.,
          255., 255., 255., 255., 93., 255., 255., 255., 255., 255., 2.,
          0., 205., 205., 0., 9., 255., 255., 255., 255., 255., 255.,
          255., 255., 255., 255., 151., 0., 205., 205., 0., 255., 255.,
          255., 255., 255., 255., 255., 255., 255., 255., 255., 255., 0.,
          205., 205., 0., 255., 255., 255., 185., 185., 185., 185., 185.,
          0., 255., 255., 255., 0., 205., 205., 173., 255., 255., 255.,
          0., 0., 0., 0., 0., 0., 64., 255., 255., 108., 205., 205.,
          255., 255., 255., 64., 0., 0., 0., 0., 0., 0., 64., 255. ]
      - [ 205., 205., 0., 0., 0., 0., 0., 204., 255., 255., 63., 0., 0.,
          205., 205., 205., 205., 205., 0., 0., 0., 0., 35., 255., 255.,
          255., 104., 0., 0., 205., 205., 205., 205., 205., 0., 0., 0.,
          0., 35., 255., 255., 255., 104., 0., 0., 205., 205., 205.,
          205., 205., 0., 0., 0., 0., 255., 255., 255., 255., 104., 0.,
          0., 205., 205., 205., 205., 205., 0., 0., 0., 0., 255., 255.,
          255., 255., 255., 0., 0., 205., 205., 205., 205., 205., 0., 0.,
          0., 197., 255., 255., 255., 255., 255., 0., 0., 205., 205.,
          205., 205., 205., 204., 204., 255., 255., 255., 255., 255.,
          255., 255., 206., 65., 205., 205., 205., 205., 205., 174.,
          255., 255., 255., 255., 255., 255., 255., 255., 255., 255.,
          205., 205., 205., 205., 205., 0., 255., 255., 255., 255., 255.,
          255., 255., 255., 255., 0., 205., 205., 205., 205., 205., 81.,
          11., 255., 255., 255., 255., 255., 255., 255., 255., 0., 205.,
          205., 205., 205., 205., 81., 11., 255., 255., 255., 255., 255.,
          255., 255., 255., 174., 205., 205., 205., 205., 205., 0., 255.,
          255., 255., 255., 255., 255., 255., 255., 255., 35., 205.,
          205., 205., 205., 205., 0., 255., 255., 255., 255., 255., 255.,
          255., 255., 255., 0., 205., 205., 205., 205., 205., 35., 255.,
          255., 255., 0., 0., 0., 255., 255., 255., 0., 205., 205., 205.,
          205., 205., 174., 255., 255., 255., 0., 0., 0., 255., 255.,
          255., 104., 205., 205., 205., 205., 205., 174., 255., 255.,
          58., 0., 0., 0., 255., 255., 255., 0., 205., 205., 205., 205.,
          205., 0., 255., 171., 12., 0., 0., 0., 0., 120., 206., 204.,
          205., 205., 205., 205., 205., 0., 0., 0., 0., 0., 0., 0., 58.,
          255., 255., 255., 205., 205., 205., 205., 205., 0., 0., 0., 0.,
          0., 0., 0., 0., 234., 255. ]
      - [ 205., 205., 0., 0., 0., 0., 0., 255., 247., 236., 182., 0., 0.,
          205., 205., 205., 205., 205., 0., 0., 0., 0., 150., 255., 255.,
          255., 255., 0., 0., 205., 205., 205., 205., 205., 0., 0., 0.,
          0., 150., 255., 255., 255., 255., 0., 0., 205., 205., 205.,
          205., 205., 0., 0., 0., 0., 255., 255., 255., 255., 255., 0.,
          0., 205., 205., 205., 205., 205., 0., 0., 0., 0., 255., 255.,
          255., 255., 255., 0., 0., 205., 205., 205., 205., 205., 0., 0.,
          0., 0., 255., 255., 255., 255., 255., 0., 0., 205., 205., 205.,
          205., 205., 0., 0., 0., 174., 255., 255., 255., 255., 255.,
          220., 0., 205., 205., 205., 205., 205., 0., 0., 0., 174., 255.,
          255., 255., 255., 255., 220., 0., 205., 205., 205., 205., 205.,
          0., 0., 0., 255., 255., 255., 255., 255., 255., 255., 0., 205.,
          205., 205., 205., 205., 0., 0., 0., 255., 255., 255., 44.,
          255., 255., 255., 0., 205., 205., 205., 205., 205., 0., 0.,
          197., 255., 255., 127., 0., 255., 255., 255., 0., 205., 205.,
          205., 205., 205., 0., 0., 213., 255., 255., 0., 0., 255., 255.,
          255., 0., 205., 205., 205., 205., 205., 0., 0., 255., 255.,
          255., 255., 255., 255., 255., 255., 0., 205., 205., 205., 205.,
          205., 0., 0., 255., 255., 255., 255., 255., 255., 255., 255.,
          237., 205., 205., 205., 205., 205., 0., 182., 255., 255., 255.,
          255., 255., 255., 255., 255., 243., 205., 205., 205., 205.,
          205., 0., 244., 255., 255., 255., 255., 153., 255., 255., 255.,
          255., 205., 205., 205., 205., 205., 0., 255., 255., 255., 0.,
          0., 0., 0., 255., 255., 255., 205., 205., 205., 205., 205., 0.,
          242., 255., 81., 0., 0., 0., 0., 255., 255., 255., 205., 205.,
          205., 205., 205., 255., 255., 0., 0., 0., 0., 0., 0., 0., 27. ]
      - [ 205., 205., 0., 0., 0., 0., 0., 242., 242., 121., 0., 0., 205.,
          205., 205., 205., 205., 205., 0., 0., 0., 0., 0., 0., 0., 0.,
          0., 0., 205., 205., 205., 205., 205., 205., 0., 0., 0., 0., 0.,
          0., 0., 0., 0., 0., 205., 205., 205., 205., 205., 205., 9.,
          89., 89., 89., 89., 89., 89., 89., 27., 0., 205., 205., 205.,
          205., 205., 205., 25., 255., 255., 255., 255., 255., 255.,
          255., 76., 0., 205., 205., 205., 205., 205., 205., 25., 255.,
          255., 255., 255., 255., 255., 255., 76., 0., 205., 205., 205.,
          205., 205., 205., 25., 255., 255., 255., 255., 255., 255.,
          255., 192., 17., 205., 205., 205., 205., 205., 205., 25., 255.,
          255., 255., 255., 255., 255., 255., 255., 198., 205., 205.,
          205., 205., 205., 205., 25., 255., 255., 255., 60., 60., 255.,
          255., 255., 255., 205., 205., 205., 205., 205., 205., 26.,
          255., 255., 255., 244., 244., 255., 255., 255., 255., 205.,
          205., 205., 205., 205., 205., 24., 246., 255., 255., 255.,
          255., 255., 255., 255., 26., 205., 205., 205., 205., 205.,
          205., 0., 76., 255., 255., 255., 255., 255., 255., 255., 26.,
          205., 205., 205., 205., 205., 205., 0., 76., 255., 255., 255.,
          255., 255., 255., 255., 26., 205., 205., 205., 205., 205.,
          205., 0., 76., 255., 255., 174., 166., 192., 255., 255., 106.,
          205., 205., 205., 205., 205., 205., 0., 76., 255., 255., 129.,
          115., 157., 255., 255., 255., 205., 205., 205., 205., 205.,
          205., 0., 76., 255., 255., 255., 255., 255., 255., 255., 255.,
          205., 205., 205., 205., 205., 205., 17., 192., 255., 255.,
          255., 255., 255., 255., 255., 255., 205., 205., 205., 205.,
          205., 205., 6., 121., 255., 255., 255., 255., 255., 255., 255.,
          83., 205., 205., 205., 205., 205., 205., 0., 76., 255., 255.,
          255., 38., 38., 38., 38., 4. ]
      - [ 205., 0., 0., 255., 255., 255., 255., 255., 255., 255., 255.,
          0., 0., 0., 205., 205., 205., 255., 255., 255., 255., 255.,
          255., 255., 255., 255., 255., 255., 0., 0., 205., 205., 205.,
          255., 255., 255., 255., 255., 255., 255., 255., 255., 255.,
          255., 0., 0., 205., 205., 205., 255., 255., 255., 255., 255.,
          0., 0., 0., 255., 255., 255., 255., 0., 205., 205., 205., 255.,
          255., 255., 255., 0., 0., 0., 0., 255., 255., 255., 255., 0.,
          205., 205., 205., 255., 255., 255., 255., 0., 0., 0., 0., 0.,
          255., 255., 255., 0., 205., 205., 205., 255., 255., 255., 255.,
          0., 255., 255., 255., 255., 255., 255., 255., 0., 205., 205.,
          205., 255., 255., 255., 255., 255., 255., 255., 255., 255.,
          255., 255., 255., 0., 205., 205., 205., 255., 255., 255., 255.,
          255., 255., 255., 255., 255., 255., 255., 255., 255., 205.,
          205., 205., 255., 255., 255., 255., 255., 255., 255., 255.,
          255., 255., 255., 255., 255., 205., 205., 205., 255., 255.,
          255., 255., 255., 255., 255., 255., 255., 255., 255., 255.,
          255., 205., 205., 205., 255., 255., 255., 255., 0., 0., 0., 0.,
          0., 0., 255., 255., 255., 205., 205., 205., 255., 255., 255.,
          255., 0., 0., 0., 0., 0., 255., 255., 255., 255., 205., 205.,
          205., 255., 255., 255., 255., 0., 0., 0., 0., 0., 255., 255.,
          255., 255., 205., 205., 205., 255., 255., 255., 255., 0., 0.,
          0., 0., 0., 255., 255., 255., 255., 205., 205., 205., 255.,
          255., 255., 255., 255., 0., 0., 0., 255., 255., 255., 255.,
          255., 205., 205., 205., 255., 255., 255., 255., 255., 255.,
          255., 255., 255., 255., 255., 255., 255., 205., 205., 205.,
          255., 255., 255., 255., 255., 255., 255., 255., 255., 255.,
          255., 255., 0., 205., 205., 205., 255., 255., 255., 255., 255.,
          255., 255., 255., 255., 255., 255. ]
      - [ 205., 0., 0., 0., 255., 255., 255., 255., 255., 255., 0., 0.,
          0., 205., 205., 205., 205., 0., 255., 255., 255., 255., 255.,
          255., 255., 255., 255., 255., 0., 205., 205., 205., 205., 0.,
          0., 255., 255., 255., 255., 255., 255., 255., 255., 255., 0.,
          205., 205., 205., 205., 0., 0., 255., 255., 255., 255., 0., 0.,
          255., 255., 255., 255., 205., 205., 205., 205., 0., 0., 255.,
          255., 255., 255., 0., 0., 0., 255., 255., 255., 205., 205.,
          205., 205., 0., 0., 255., 255., 255., 255., 0., 0., 0., 255.,
          255., 255., 205., 205., 205., 205., 0., 0., 255., 255., 255.,
          255., 255., 255., 255., 255., 255., 255., 205., 205., 205.,
          205., 0., 0., 255., 255., 255., 255., 255., 255., 255., 255.,
          255., 0., 205., 205., 205., 205., 0., 0., 255., 255., 255.,
          255., 255., 255., 255., 255., 255., 0., 205., 205., 205., 205.,
          0., 0., 255., 255., 255., 255., 255., 255., 255., 255., 255.,
          0., 205., 205., 205., 205., 0., 0., 255., 255., 255., 255.,
          255., 255., 255., 255., 255., 0., 205., 205., 205., 205., 0.,
          0., 255., 255., 0., 0., 0., 0., 0., 255., 255., 255., 205.,
          205., 205., 205., 0., 0., 255., 255., 0., 0., 0., 0., 0., 255.,
          255., 255., 205., 205., 205., 205., 0., 0., 255., 255., 255.,
          255., 0., 0., 0., 255., 255., 255., 205., 205., 205., 205., 0.,
          0., 255., 255., 255., 255., 255., 255., 255., 255., 255., 255.,
          205., 205., 205., 205., 0., 0., 255., 255., 255., 255., 255.,
          255., 255., 255., 255., 255., 205., 205., 205., 205., 0., 0.,
          255., 255., 255., 255., 255., 255., 255., 255., 255., 0., 205.,
          205., 205., 205., 0., 0., 255., 255., 255., 255., 255., 255.,
          255., 255., 0., 0., 205., 205., 205., 205., 0., 255., 255., 0.,
          0., 0., 0., 0., 0., 0., 0. ]
      - [ 0., 0., 0., 0., 173., 255., 255., 255., 255., 173., 0., 0., 0.,
          0., 205., 205., 0., 194., 217., 217., 243., 255., 255., 255.,
          255., 243., 163., 0., 0., 0., 205., 205., 0., 228., 255., 255.,
          255., 255., 255., 255., 255., 255., 239., 157., 0., 0., 205.,
          205., 0., 228., 255., 255., 255., 255., 255., 255., 255., 255.,
          255., 209., 0., 0., 205., 205., 0., 228., 255., 255., 255.,
          255., 255., 255., 255., 255., 255., 209., 0., 0., 205., 205.,
          0., 125., 234., 255., 255., 185., 140., 140., 185., 255., 255.,
          209., 0., 0., 205., 205., 0., 0., 209., 255., 255., 154., 89.,
          89., 154., 255., 255., 209., 0., 0., 205., 205., 0., 0., 209.,
          255., 255., 255., 255., 255., 255., 255., 255., 221., 64., 64.,
          205., 205., 0., 0., 209., 255., 255., 255., 255., 255., 255.,
          255., 255., 248., 217., 217., 205., 205., 0., 0., 209., 255.,
          255., 255., 255., 255., 255., 255., 255., 209., 0., 0., 205.,
          205., 0., 0., 209., 255., 255., 255., 255., 255., 255., 255.,
          255., 209., 0., 0., 205., 205., 0., 0., 209., 255., 255., 255.,
          255., 255., 255., 255., 255., 248., 194., 0., 205., 205., 0.,
          0., 209., 255., 255., 139., 64., 64., 139., 255., 255., 255.,
          228., 0., 205., 205., 0., 0., 209., 255., 255., 201., 166.,
          166., 201., 255., 255., 255., 228., 0., 205., 205., 0., 0.,
          209., 255., 255., 255., 255., 255., 255., 255., 255., 230.,
          103., 0., 205., 205., 0., 0., 209., 255., 255., 255., 255.,
          255., 255., 255., 255., 209., 0., 0., 205., 205., 89., 89.,
          225., 255., 255., 255., 255., 255., 255., 255., 255., 209., 0.,
          0., 205., 205., 255., 255., 255., 255., 255., 255., 221., 191.,
          191., 191., 191., 157., 0., 0., 205., 205., 255., 221., 217.,
          217., 217., 217., 101., 0., 0., 0., 0., 0. ]
      - [ 205., 78., 134., 134., 134., 134., 184., 134., 134., 255.,
          245., 0., 0., 205., 205., 205., 205., 255., 255., 255., 255.,
          255., 255., 255., 255., 255., 255., 228., 0., 205., 205., 205.,
          205., 255., 255., 255., 255., 255., 255., 255., 255., 255.,
          255., 255., 149., 205., 205., 205., 205., 255., 255., 255.,
          255., 255., 255., 255., 255., 255., 255., 255., 255., 205.,
          205., 205., 205., 255., 255., 255., 239., 0., 0., 0., 0., 240.,
          255., 255., 255., 205., 205., 205., 205., 255., 255., 255., 0.,
          0., 0., 0., 0., 234., 255., 255., 255., 205., 205., 205., 205.,
          255., 255., 255., 193., 0., 0., 0., 0., 234., 255., 255., 255.,
          205., 205., 205., 205., 255., 255., 255., 233., 0., 0., 0., 0.,
          252., 255., 255., 149., 205., 205., 205., 205., 255., 255.,
          255., 255., 236., 236., 236., 255., 255., 255., 255., 11.,
          205., 205., 205., 205., 255., 255., 255., 255., 255., 255.,
          255., 255., 255., 255., 255., 0., 205., 205., 205., 205., 255.,
          255., 255., 255., 255., 255., 255., 255., 255., 255., 255., 4.,
          205., 205., 205., 205., 255., 255., 255., 255., 236., 236.,
          236., 236., 253., 255., 255., 255., 205., 205., 205., 205.,
          255., 255., 255., 255., 0., 0., 0., 0., 204., 255., 255., 255.,
          205., 205., 205., 205., 255., 255., 255., 234., 0., 0., 0., 0.,
          234., 255., 255., 255., 205., 205., 205., 205., 255., 255.,
          255., 238., 0., 0., 0., 0., 234., 255., 255., 255., 205., 205.,
          205., 205., 255., 255., 255., 255., 70., 70., 70., 70., 255.,
          255., 255., 255., 205., 205., 205., 205., 255., 255., 255.,
          255., 255., 255., 255., 255., 255., 255., 255., 220., 205.,
          205., 205., 205., 215., 255., 255., 255., 255., 255., 255.,
          255., 255., 255., 255., 93., 205., 205., 205., 205., 149.,
          255., 255., 255., 255., 255., 255., 255., 255., 246., 110. ]
      - [ 205., 205., 205., 205., 205., 205., 205., 205., 205., 205.,
          205., 205., 205., 205., 205., 205., 0., 0., 209., 255., 255.,
          255., 255., 136., 0., 0., 0., 0., 0., 0., 205., 205., 213.,
          213., 247., 255., 255., 255., 255., 235., 213., 144., 0., 0.,
          0., 0., 205., 205., 255., 255., 255., 255., 255., 255., 156.,
          156., 255., 232., 138., 0., 0., 0., 205., 205., 99., 238.,
          255., 255., 149., 99., 46., 118., 255., 255., 230., 128., 0.,
          0., 205., 205., 0., 228., 255., 159., 41., 0., 0., 118., 255.,
          255., 255., 232., 114., 0., 205., 205., 0., 228., 255., 64.,
          0., 0., 0., 72., 195., 255., 255., 255., 238., 99., 205., 205.,
          0., 164., 242., 117., 23., 0., 0., 33., 143., 255., 255., 242.,
          184., 184., 205., 205., 0., 0., 209., 255., 111., 42., 42.,
          141., 255., 241., 213., 175., 0., 0., 205., 205., 0., 0., 209.,
          255., 255., 255., 255., 255., 255., 173., 0., 0., 0., 0., 205.,
          205., 0., 0., 209., 255., 255., 255., 255., 255., 255., 173.,
          0., 0., 0., 0., 205., 205., 0., 190., 247., 255., 111., 42.,
          42., 141., 255., 241., 159., 0., 0., 0., 205., 205., 0., 228.,
          255., 117., 23., 0., 0., 33., 143., 255., 237., 151., 0., 0.,
          205., 205., 0., 228., 255., 64., 0., 0., 0., 0., 100., 255.,
          255., 209., 0., 0., 205., 205., 0., 228., 255., 159., 41., 0.,
          0., 0., 100., 255., 255., 209., 0., 0., 205., 205., 99., 238.,
          255., 255., 149., 39., 0., 46., 160., 255., 255., 209., 0., 0.,
          205., 205., 184., 247., 255., 255., 255., 143., 71., 156.,
          255., 232., 184., 151., 0., 0., 205., 205., 0., 228., 255.,
          255., 255., 255., 255., 235., 213., 144., 0., 0., 0., 0., 205.,
          205., 0., 228., 255., 255., 255., 255., 255., 136., 0., 0., 0.,
          0. ]
      - [ 0., 178., 255., 255., 255., 255., 255., 255., 255., 255., 255.,
          255., 128., 0., 0., 205., 0., 179., 255., 255., 255., 255.,
          255., 255., 255., 255., 255., 255., 217., 125., 0., 205., 0.,
          89., 191., 255., 255., 255., 255., 191., 128., 140., 242.,
          255., 255., 217., 128., 205., 0., 0., 127., 255., 247., 186.,
          179., 89., 0., 18., 161., 232., 255., 255., 255., 205., 0., 0.,
          127., 255., 229., 25., 0., 0., 0., 0., 0., 178., 255., 255.,
          255., 205., 0., 0., 127., 255., 229., 25., 0., 0., 0., 0., 0.,
          178., 255., 255., 255., 205., 0., 0., 127., 255., 229., 25.,
          0., 0., 0., 0., 0., 179., 255., 255., 255., 205., 0., 0., 128.,
          255., 242., 140., 128., 64., 0., 0., 0., 179., 255., 255.,
          255., 205., 0., 0., 127., 255., 255., 255., 255., 166., 76.,
          76., 76., 201., 217., 179., 179., 205., 0., 0., 127., 255.,
          255., 255., 255., 255., 255., 255., 255., 255., 128., 0., 0.,
          205., 0., 0., 127., 255., 255., 255., 255., 255., 255., 255.,
          255., 255., 128., 0., 0., 205., 0., 0., 127., 255., 237., 94.,
          76., 76., 76., 94., 237., 255., 217., 125., 0., 205., 0., 0.,
          128., 255., 229., 26., 0., 0., 0., 26., 229., 255., 255., 179.,
          0., 205., 0., 54., 166., 232., 161., 18., 0., 0., 0., 18.,
          161., 232., 255., 179., 0., 205., 0., 178., 255., 186., 23.,
          3., 0., 0., 0., 3., 23., 186., 255., 179., 0., 205., 0., 178.,
          255., 247., 206., 23., 0., 0., 0., 23., 206., 247., 255., 179.,
          0., 205., 179., 232., 255., 255., 247., 186., 179., 179., 179.,
          186., 247., 255., 255., 179., 0., 205., 255., 255., 255., 255.,
          255., 255., 255., 255., 255., 255., 255., 255., 191., 89., 0.,
          205., 179., 232., 255., 255., 255., 255., 255., 255., 255.,
          255., 255., 201. ]
      - [ 205., 0., 223., 255., 255., 255., 255., 255., 255., 181., 0.,
          0., 0., 205., 205., 205., 205., 198., 248., 255., 255., 255.,
          255., 255., 255., 238., 198., 173., 0., 205., 205., 205., 205.,
          255., 255., 255., 255., 255., 255., 255., 255., 255., 255.,
          243., 159., 205., 205., 205., 205., 134., 240., 255., 255.,
          179., 134., 134., 179., 255., 255., 255., 255., 205., 205.,
          205., 205., 0., 223., 255., 196., 65., 0., 0., 65., 196., 255.,
          255., 255., 205., 205., 205., 205., 0., 223., 255., 74., 0.,
          0., 0., 0., 74., 255., 255., 255., 205., 205., 205., 205., 0.,
          223., 255., 79., 2., 0., 0., 2., 79., 255., 255., 255., 205.,
          205., 205., 205., 0., 223., 255., 232., 84., 0., 0., 84., 232.,
          255., 255., 255., 205., 205., 205., 205., 0., 223., 255., 255.,
          211., 185., 185., 211., 255., 255., 232., 70., 205., 205.,
          205., 205., 0., 223., 255., 255., 255., 255., 255., 255., 255.,
          255., 223., 0., 205., 205., 205., 205., 0., 223., 255., 255.,
          255., 255., 255., 255., 255., 255., 223., 0., 205., 205., 205.,
          205., 0., 223., 255., 255., 211., 185., 185., 211., 255., 255.,
          223., 0., 205., 205., 205., 205., 0., 223., 255., 232., 84.,
          0., 0., 95., 255., 255., 223., 0., 205., 205., 205., 205., 0.,
          223., 255., 79., 2., 0., 0., 95., 255., 255., 223., 0., 205.,
          205., 205., 205., 0., 223., 255., 74., 0., 0., 0., 95., 255.,
          255., 223., 0., 205., 205., 205., 205., 172., 245., 255., 196.,
          172., 79., 79., 203., 255., 255., 223., 0., 205., 205., 205.,
          205., 255., 255., 255., 255., 255., 189., 189., 255., 255.,
          255., 223., 0., 205., 205., 205., 205., 255., 255., 255., 255.,
          255., 255., 255., 255., 255., 235., 139., 0., 205., 205., 205.,
          205., 198., 198., 243., 255., 255., 255., 229., 198., 198.,
          156., 0. ]
      - [ 0., 0., 255., 255., 255., 255., 255., 255., 255., 255., 255.,
          0., 0., 0., 205., 205., 236., 236., 255., 255., 255., 255.,
          255., 255., 255., 255., 255., 236., 0., 0., 205., 205., 255.,
          255., 255., 255., 255., 255., 255., 255., 255., 255., 255.,
          255., 0., 0., 205., 205., 45., 255., 255., 255., 255., 45.,
          45., 45., 45., 45., 255., 255., 210., 210., 205., 205., 0.,
          255., 255., 255., 57., 0., 0., 0., 0., 0., 57., 255., 255.,
          255., 205., 205., 185., 255., 255., 255., 0., 0., 0., 0., 0.,
          0., 0., 255., 255., 255., 205., 205., 83., 255., 255., 255.,
          0., 0., 0., 0., 0., 0., 172., 255., 255., 255., 205., 205., 0.,
          255., 255., 255., 159., 159., 159., 159., 159., 159., 255.,
          255., 255., 96., 205., 205., 0., 255., 255., 255., 255., 255.,
          255., 255., 255., 255., 255., 255., 255., 0., 205., 205., 0.,
          255., 255., 255., 255., 255., 255., 255., 255., 255., 255.,
          255., 121., 0., 205., 205., 0., 255., 255., 255., 255., 255.,
          255., 255., 255., 255., 255., 255., 121., 0., 205., 205., 0.,
          255., 255., 255., 147., 147., 147., 147., 147., 147., 147.,
          255., 255., 108., 205., 205., 0., 255., 255., 255., 0., 0., 0.,
          0., 0., 0., 0., 255., 255., 255., 205., 205., 0., 255., 255.,
          255., 0., 0., 0., 0., 0., 0., 0., 255., 255., 255., 205., 205.,
          0., 255., 255., 255., 0., 0., 0., 0., 0., 0., 70., 255., 255.,
          255., 205., 205., 0., 255., 255., 255., 57., 57., 57., 57.,
          57., 57., 255., 255., 255., 198., 205., 205., 45., 255., 255.,
          255., 255., 255., 255., 255., 255., 255., 255., 255., 210., 0.,
          205., 205., 255., 255., 255., 255., 255., 255., 255., 255.,
          255., 255., 223., 223., 0., 0., 205., 205., 236., 236., 236.,
          255., 255., 255., 236., 236., 236., 236., 0., 0. ]
      - [ 0., 200., 255., 255., 255., 255., 255., 255., 255., 255., 255.,
          164., 0., 0., 205., 205., 198., 243., 255., 255., 255., 255.,
          255., 255., 255., 255., 255., 164., 0., 0., 205., 205., 255.,
          255., 255., 255., 255., 255., 255., 255., 255., 255., 255.,
          221., 125., 0., 205., 205., 255., 255., 255., 255., 212., 134.,
          142., 246., 255., 255., 255., 255., 226., 121., 205., 205.,
          255., 255., 255., 255., 164., 0., 12., 160., 172., 225., 255.,
          255., 255., 255., 205., 205., 255., 255., 255., 255., 164., 0.,
          0., 0., 0., 164., 255., 255., 255., 255., 205., 205., 255.,
          255., 255., 255., 166., 6., 6., 6., 6., 166., 255., 255., 254.,
          249., 205., 205., 255., 255., 255., 255., 243., 223., 223.,
          223., 223., 243., 255., 255., 207., 32., 205., 205., 255.,
          255., 255., 255., 255., 255., 255., 255., 255., 255., 255.,
          255., 200., 0., 205., 205., 255., 255., 255., 255., 255., 255.,
          255., 255., 255., 255., 255., 255., 200., 0., 205., 205., 255.,
          255., 255., 255., 216., 147., 154., 247., 255., 255., 255.,
          255., 224., 108., 205., 205., 255., 255., 255., 255., 164., 0.,
          13., 172., 185., 230., 255., 255., 255., 255., 205., 205.,
          255., 255., 255., 239., 143., 0., 0., 0., 0., 164., 255., 255.,
          255., 255., 205., 205., 255., 255., 255., 131., 4., 0., 0., 0.,
          0., 164., 255., 255., 255., 255., 205., 205., 255., 255., 255.,
          233., 135., 0., 0., 0., 0., 164., 255., 255., 255., 255., 205.,
          205., 255., 255., 255., 255., 225., 172., 172., 172., 172.,
          225., 255., 255., 255., 255., 205., 205., 255., 255., 255.,
          255., 255., 255., 255., 255., 255., 255., 255., 255., 226.,
          121., 205., 205., 255., 255., 255., 255., 255., 255., 255.,
          255., 255., 255., 255., 221., 125., 0., 205., 205., 198., 243.,
          255., 226., 198., 198., 198., 198., 198., 198., 198., 127. ]
      - [ 205., 205., 255., 69., 139., 255., 255., 255., 255., 255.,
          139., 0., 0., 205., 205., 205., 205., 205., 255., 199., 220.,
          255., 255., 255., 255., 255., 220., 130., 0., 205., 205., 205.,
          205., 205., 255., 255., 255., 255., 255., 255., 255., 255.,
          255., 185., 0., 205., 205., 205., 205., 205., 255., 255., 255.,
          227., 179., 179., 241., 255., 255., 185., 0., 205., 205., 205.,
          205., 205., 255., 255., 255., 162., 0., 0., 209., 255., 255.,
          185., 0., 205., 205., 205., 205., 205., 255., 255., 255., 162.,
          0., 0., 209., 255., 255., 185., 0., 205., 205., 205., 205.,
          205., 76., 206., 255., 227., 179., 179., 241., 255., 255.,
          185., 0., 205., 205., 205., 205., 205., 0., 185., 255., 255.,
          255., 255., 255., 255., 255., 185., 0., 205., 205., 205., 205.,
          205., 76., 206., 255., 255., 255., 255., 255., 255., 255.,
          185., 0., 205., 205., 205., 205., 205., 255., 255., 255., 245.,
          229., 229., 250., 255., 255., 185., 0., 205., 205., 205., 205.,
          205., 255., 255., 255., 171., 26., 26., 213., 255., 255., 185.,
          0., 205., 205., 205., 205., 205., 255., 255., 255., 162., 0.,
          0., 209., 255., 255., 185., 0., 205., 205., 205., 205., 205.,
          255., 255., 255., 209., 128., 128., 232., 255., 255., 220.,
          128., 205., 205., 205., 205., 205., 255., 255., 255., 255.,
          255., 255., 255., 255., 255., 234., 179., 205., 205., 205.,
          205., 205., 255., 255., 255., 255., 255., 255., 255., 255.,
          243., 167., 0., 205., 205., 205., 205., 205., 255., 255., 255.,
          255., 255., 255., 255., 255., 151., 19., 0., 205., 205., 205.,
          205., 205., 76., 76., 174., 255., 255., 255., 255., 141., 42.,
          0., 0., 205., 205., 205., 205., 205., 128., 128., 197., 255.,
          255., 255., 255., 174., 70., 0., 0., 205., 205., 205., 205.,
          205., 255., 255., 255., 255., 255., 255., 255., 206., 97., 0. ]
      - [ 205., 0., 0., 0., 49., 245., 255., 255., 255., 255., 255.,
          255., 167., 0., 205., 205., 205., 159., 159., 159., 178., 251.,
          255., 255., 255., 255., 255., 255., 167., 0., 205., 205., 205.,
          255., 255., 255., 255., 255., 255., 255., 255., 255., 255.,
          255., 167., 0., 205., 205., 205., 255., 255., 255., 249., 224.,
          223., 223., 232., 255., 255., 255., 167., 0., 205., 205., 205.,
          255., 255., 255., 212., 40., 32., 32., 92., 255., 255., 255.,
          167., 0., 205., 205., 205., 255., 255., 255., 206., 10., 0.,
          0., 68., 255., 255., 255., 167., 0., 205., 205., 205., 159.,
          222., 255., 206., 10., 0., 0., 68., 255., 255., 255., 167., 0.,
          205., 205., 205., 0., 167., 255., 212., 40., 32., 32., 92.,
          255., 255., 255., 167., 0., 205., 205., 205., 0., 167., 255.,
          249., 224., 223., 223., 232., 255., 255., 255., 167., 0., 205.,
          205., 205., 0., 167., 255., 255., 255., 255., 255., 255., 255.,
          255., 255., 167., 0., 205., 205., 205., 0., 167., 255., 255.,
          255., 255., 255., 255., 255., 255., 255., 167., 0., 205., 205.,
          205., 0., 167., 255., 255., 255., 232., 223., 232., 255., 255.,
          255., 167., 0., 205., 205., 205., 0., 167., 255., 255., 255.,
          92., 32., 92., 255., 255., 255., 167., 0., 205., 205., 205.,
          0., 167., 255., 224., 102., 26., 0., 68., 255., 255., 255.,
          222., 159., 205., 205., 205., 0., 167., 255., 224., 102., 26.,
          0., 68., 255., 255., 255., 255., 255., 205., 205., 205., 0.,
          167., 255., 255., 255., 92., 32., 92., 255., 255., 255., 255.,
          255., 205., 205., 205., 0., 167., 255., 255., 255., 232., 223.,
          232., 255., 255., 255., 255., 255., 205., 205., 205., 0., 167.,
          255., 255., 255., 255., 255., 255., 255., 255., 255., 200.,
          96., 205., 205., 205., 0., 167., 255., 255., 255., 255., 255.,
          255., 251., 178., 159. ]
      - [ 205., 255., 255., 255., 255., 255., 255., 255., 255., 255.,
          235., 59., 0., 0., 205., 205., 205., 255., 255., 255., 255.,
          255., 255., 255., 255., 255., 245., 152., 65., 0., 205., 205.,
          205., 255., 255., 255., 255., 255., 245., 223., 223., 235.,
          255., 255., 137., 0., 205., 205., 205., 255., 255., 255., 255.,
          255., 194., 57., 57., 133., 255., 255., 137., 0., 205., 205.,
          205., 255., 255., 255., 255., 188., 102., 0., 0., 98., 255.,
          255., 187., 108., 205., 205., 205., 236., 246., 255., 255.,
          98., 0., 0., 0., 98., 255., 255., 255., 255., 205., 205., 205.,
          70., 170., 255., 255., 98., 0., 0., 0., 98., 255., 255., 255.,
          255., 205., 205., 205., 0., 137., 255., 255., 98., 0., 0., 0.,
          98., 255., 255., 211., 159., 205., 205., 205., 0., 137., 255.,
          255., 102., 6., 6., 6., 102., 255., 255., 137., 0., 205., 205.,
          205., 0., 137., 255., 255., 204., 172., 172., 172., 204., 255.,
          255., 137., 0., 205., 205., 205., 0., 137., 255., 255., 255.,
          255., 255., 255., 255., 255., 255., 137., 0., 205., 205., 205.,
          0., 137., 255., 255., 255., 255., 255., 255., 255., 255., 255.,
          137., 0., 205., 205., 205., 0., 137., 255., 255., 255., 206.,
          96., 96., 96., 108., 218., 211., 159., 205., 205., 205., 0.,
          137., 255., 255., 212., 128., 0., 0., 0., 20., 196., 255.,
          255., 205., 205., 205., 0., 137., 255., 255., 110., 13., 0.,
          0., 0., 19., 196., 255., 255., 205., 205., 205., 0., 137.,
          255., 255., 98., 0., 0., 0., 56., 155., 230., 255., 255., 205.,
          205., 205., 0., 137., 255., 255., 133., 40., 0., 0., 98., 255.,
          255., 255., 255., 205., 205., 205., 0., 137., 255., 255., 235.,
          154., 0., 0., 98., 255., 255., 255., 255., 205., 205., 205.,
          0., 137., 255., 255., 255., 218., 134., 134., 180., 255., 255. ]
      - [ 205., 0., 0., 59., 235., 255., 255., 255., 255., 255., 235.,
          59., 0., 0., 205., 205., 205., 121., 121., 152., 245., 255.,
          255., 255., 255., 255., 245., 152., 65., 0., 205., 205., 205.,
          255., 255., 255., 255., 255., 245., 223., 245., 255., 255.,
          255., 152., 32., 205., 205., 205., 255., 255., 255., 255.,
          255., 194., 57., 194., 255., 255., 255., 228., 198., 205.,
          205., 205., 255., 255., 255., 255., 188., 102., 0., 102., 188.,
          255., 255., 255., 255., 205., 205., 205., 236., 246., 255.,
          255., 98., 0., 0., 0., 98., 255., 255., 255., 255., 205., 205.,
          205., 70., 170., 255., 255., 98., 0., 0., 0., 98., 255., 255.,
          255., 255., 205., 205., 205., 0., 137., 255., 255., 98., 0.,
          0., 0., 98., 255., 255., 255., 255., 205., 205., 205., 0.,
          137., 255., 255., 102., 6., 6., 6., 102., 255., 255., 255.,
          255., 205., 205., 205., 0., 137., 255., 255., 204., 172., 172.,
          172., 204., 255., 255., 255., 255., 205., 205., 205., 0., 137.,
          255., 255., 255., 255., 255., 255., 255., 255., 255., 255.,
          255., 205., 205., 205., 0., 137., 255., 255., 255., 255., 255.,
          255., 255., 255., 255., 255., 255., 205., 205., 205., 0., 137.,
          255., 255., 157., 96., 96., 96., 157., 255., 255., 255., 255.,
          205., 205., 205., 0., 137., 255., 255., 98., 0., 0., 0., 98.,
          255., 255., 255., 255., 205., 205., 205., 0., 137., 255., 255.,
          98., 0., 0., 0., 98., 255., 255., 255., 255., 205., 205., 205.,
          147., 205., 255., 255., 98., 0., 0., 0., 98., 255., 255., 255.,
          255., 205., 205., 205., 255., 255., 255., 255., 133., 40., 0.,
          40., 133., 255., 255., 255., 255., 205., 205., 205., 255.,
          255., 255., 255., 235., 154., 0., 154., 235., 255., 255., 255.,
          255., 205., 205., 205., 255., 255., 255., 255., 255., 218.,
          134., 218., 255., 255., 255. ]
      - [ 0., 102., 255., 255., 255., 255., 255., 255., 255., 255., 255.,
          153., 0., 0., 0., 205., 102., 163., 255., 255., 255., 255.,
          255., 255., 255., 255., 255., 153., 0., 0., 0., 205., 255.,
          255., 255., 255., 255., 255., 255., 255., 255., 255., 255.,
          153., 0., 0., 0., 205., 255., 255., 255., 255., 255., 255.,
          255., 255., 255., 255., 255., 214., 153., 61., 0., 205., 204.,
          224., 255., 255., 255., 255., 234., 204., 204., 214., 245.,
          255., 255., 102., 0., 205., 51., 133., 255., 255., 255., 255.,
          173., 51., 51., 92., 214., 255., 255., 102., 0., 205., 0.,
          102., 255., 255., 235., 173., 92., 0., 0., 51., 204., 255.,
          255., 102., 0., 205., 0., 102., 255., 255., 204., 51., 0., 0.,
          0., 51., 204., 255., 255., 102., 0., 205., 0., 102., 255.,
          255., 204., 51., 0., 0., 0., 51., 204., 255., 255., 102., 0.,
          205., 0., 102., 255., 255., 214., 92., 31., 0., 0., 51., 204.,
          255., 255., 102., 0., 205., 0., 102., 255., 255., 245., 214.,
          122., 0., 0., 51., 204., 255., 255., 102., 0., 205., 0., 102.,
          255., 255., 255., 255., 194., 102., 102., 132., 224., 255.,
          255., 102., 0., 205., 0., 102., 255., 255., 255., 255., 255.,
          255., 255., 255., 255., 255., 255., 102., 0., 205., 0., 102.,
          255., 255., 255., 255., 255., 255., 255., 255., 255., 255.,
          255., 194., 153., 205., 0., 102., 255., 255., 245., 214., 204.,
          204., 204., 214., 245., 255., 255., 255., 255., 205., 0., 102.,
          255., 255., 214., 92., 51., 51., 51., 92., 214., 255., 255.,
          255., 255., 205., 0., 102., 255., 255., 204., 51., 0., 0., 0.,
          51., 204., 255., 255., 255., 255., 205., 0., 102., 255., 255.,
          204., 51., 0., 0., 0., 51., 204., 255., 255., 255., 255., 205.,
          0., 102., 255., 255., 235., 173., 92., 0., 0., 51., 204., 255. ]
      - [ 0., 173., 255., 255., 255., 255., 255., 255., 255., 255., 64.,
          0., 0., 0., 205., 205., 154., 223., 255., 255., 255., 255.,
          255., 255., 255., 255., 179., 72., 0., 0., 205., 205., 255.,
          255., 255., 255., 252., 183., 168., 168., 183., 252., 255.,
          165., 59., 0., 205., 205., 255., 255., 255., 250., 226., 42.,
          0., 0., 45., 246., 255., 255., 180., 20., 205., 205., 255.,
          255., 255., 203., 45., 8., 0., 0., 45., 246., 255., 255., 240.,
          208., 205., 205., 255., 255., 255., 191., 0., 0., 0., 0., 20.,
          110., 220., 255., 255., 255., 205., 205., 255., 255., 255.,
          210., 71., 13., 0., 0., 13., 71., 210., 255., 255., 255., 205.,
          205., 255., 255., 255., 255., 246., 51., 7., 7., 51., 246.,
          255., 255., 253., 248., 205., 205., 255., 255., 255., 255.,
          253., 205., 195., 195., 205., 253., 255., 255., 192., 60.,
          205., 205., 255., 255., 255., 255., 255., 255., 255., 255.,
          255., 255., 255., 255., 173., 0., 205., 205., 255., 255., 255.,
          255., 253., 205., 195., 195., 205., 253., 255., 255., 192.,
          60., 205., 205., 255., 255., 255., 255., 246., 51., 7., 7.,
          51., 246., 255., 255., 253., 248., 205., 205., 255., 255.,
          255., 210., 71., 13., 0., 0., 13., 71., 210., 255., 255., 255.,
          205., 205., 255., 255., 255., 191., 0., 0., 0., 0., 0., 0.,
          191., 255., 255., 255., 205., 205., 255., 255., 255., 203.,
          45., 8., 28., 47., 47., 47., 203., 255., 255., 255., 205.,
          205., 255., 255., 255., 250., 226., 42., 143., 235., 235.,
          235., 250., 255., 255., 255., 205., 205., 87., 201., 255.,
          255., 252., 183., 220., 255., 255., 255., 255., 255., 201.,
          87., 205., 205., 0., 105., 201., 255., 255., 255., 255., 255.,
          237., 158., 154., 154., 105., 0., 205., 205., 0., 0., 118.,
          255., 255., 255., 255., 255., 209., 9., 0., 0. ]
      - [ 0., 127., 255., 255., 255., 255., 255., 255., 213., 42., 0.,
          0., 0., 0., 0., 205., 134., 194., 255., 255., 255., 255., 255.,
          255., 235., 154., 67., 0., 0., 0., 0., 205., 255., 255., 255.,
          255., 255., 255., 255., 255., 255., 255., 154., 45., 9., 0.,
          0., 205., 255., 255., 255., 255., 255., 255., 255., 255., 255.,
          255., 241., 190., 38., 0., 0., 205., 255., 255., 230., 132.,
          107., 107., 107., 107., 107., 107., 181., 237., 166., 74., 0.,
          205., 255., 255., 212., 42., 0., 0., 0., 0., 0., 0., 127.,
          255., 255., 161., 67., 205., 255., 255., 212., 42., 0., 0., 0.,
          0., 0., 0., 127., 255., 255., 248., 242., 205., 255., 255.,
          212., 42., 0., 0., 0., 0., 0., 0., 127., 255., 255., 255.,
          255., 205., 255., 255., 226., 110., 40., 0., 0., 0., 13., 67.,
          168., 255., 255., 215., 174., 205., 255., 255., 255., 255.,
          128., 0., 0., 0., 42., 213., 255., 255., 255., 128., 0., 205.,
          255., 255., 255., 255., 215., 174., 174., 174., 188., 241.,
          255., 255., 255., 128., 0., 205., 255., 255., 255., 255., 255.,
          255., 255., 255., 255., 255., 255., 255., 255., 128., 0., 205.,
          255., 255., 253., 244., 242., 242., 242., 242., 242., 242.,
          248., 255., 255., 134., 13., 205., 255., 255., 224., 98., 67.,
          67., 67., 67., 67., 67., 161., 255., 255., 221., 188., 205.,
          255., 255., 212., 42., 0., 0., 0., 0., 0., 0., 127., 255.,
          255., 255., 255., 205., 255., 255., 212., 42., 0., 0., 0., 0.,
          0., 0., 127., 255., 255., 255., 255., 205., 255., 255., 212.,
          42., 0., 0., 0., 0., 0., 0., 127., 255., 255., 255., 255.,
          205., 255., 255., 233., 143., 60., 0., 0., 60., 121., 121.,
          188., 255., 255., 195., 134., 205., 255., 255., 255., 255.,
          127., 0., 0., 127., 255., 255., 255., 255. ]
      - [ 255., 255., 255., 255., 255., 255., 255., 255., 255., 255.,
          255., 118., 0., 0., 205., 205., 255., 255., 255., 255., 255.,
          255., 255., 255., 255., 255., 255., 118., 0., 0., 205., 205.,
          255., 255., 255., 255., 255., 255., 255., 255., 255., 255.,
          255., 170., 96., 96., 205., 205., 255., 255., 255., 247., 223.,
          223., 223., 223., 223., 223., 247., 255., 255., 255., 205.,
          205., 255., 255., 255., 199., 32., 32., 32., 32., 32., 32.,
          199., 255., 255., 255., 205., 205., 255., 255., 255., 191., 0.,
          0., 0., 0., 0., 0., 191., 255., 255., 255., 205., 205., 255.,
          255., 255., 215., 92., 17., 0., 0., 17., 92., 215., 255., 255.,
          255., 205., 205., 255., 255., 255., 255., 247., 72., 32., 32.,
          72., 247., 255., 255., 255., 255., 205., 205., 255., 255.,
          255., 255., 254., 229., 223., 223., 229., 254., 255., 255.,
          255., 255., 205., 205., 255., 255., 255., 255., 255., 255.,
          255., 255., 255., 255., 255., 255., 204., 96., 205., 205.,
          255., 255., 255., 255., 255., 255., 255., 255., 255., 255.,
          255., 255., 173., 0., 205., 205., 255., 255., 255., 247., 223.,
          223., 223., 223., 223., 223., 247., 255., 183., 32., 205.,
          205., 255., 255., 255., 199., 32., 32., 32., 32., 32., 32.,
          199., 255., 245., 223., 205., 205., 255., 255., 255., 191., 0.,
          0., 0., 0., 0., 0., 191., 255., 255., 255., 205., 205., 255.,
          255., 255., 215., 96., 96., 96., 96., 96., 96., 215., 255.,
          255., 255., 205., 205., 255., 255., 255., 255., 255., 255.,
          255., 255., 255., 255., 255., 255., 255., 255., 205., 205.,
          255., 255., 255., 255., 255., 255., 255., 255., 255., 255.,
          255., 255., 255., 255., 205., 205., 96., 204., 255., 255.,
          255., 255., 255., 255., 255., 255., 255., 255., 204., 96.,
          205., 205., 0., 108., 159., 159., 159., 159., 217., 217., 159.,
          159., 159., 159. ]
      - [ 205., 205., 205., 205., 205., 205., 205., 205., 205., 205.,
          205., 205., 205., 205., 205., 205., 0., 173., 255., 255., 255.,
          255., 255., 255., 209., 9., 0., 0., 0., 0., 205., 205., 165.,
          226., 255., 255., 255., 255., 255., 255., 239., 168., 41., 0.,
          0., 0., 205., 205., 255., 255., 255., 229., 150., 150., 150.,
          191., 255., 255., 142., 49., 0., 0., 205., 205., 210., 241.,
          255., 191., 0., 0., 0., 83., 218., 253., 255., 118., 0., 0.,
          205., 205., 15., 178., 255., 191., 0., 0., 0., 6., 58., 246.,
          255., 118., 0., 0., 205., 205., 0., 173., 255., 191., 0., 0.,
          0., 71., 193., 252., 255., 118., 0., 0., 205., 205., 0., 173.,
          255., 191., 0., 0., 73., 173., 255., 255., 255., 118., 0., 0.,
          205., 205., 0., 173., 255., 206., 60., 60., 178., 255., 255.,
          255., 255., 118., 0., 0., 205., 205., 0., 173., 255., 255.,
          255., 255., 255., 255., 255., 255., 255., 118., 0., 0., 205.,
          205., 0., 173., 255., 255., 248., 95., 178., 255., 255., 255.,
          255., 223., 132., 0., 205., 205., 0., 173., 255., 221., 116.,
          21., 73., 120., 144., 250., 255., 255., 173., 0., 205., 205.,
          0., 173., 255., 191., 0., 0., 0., 0., 45., 246., 255., 255.,
          197., 75., 205., 205., 0., 173., 255., 191., 0., 0., 0., 0.,
          45., 246., 255., 255., 255., 255., 205., 205., 0., 173., 255.,
          191., 0., 0., 0., 0., 46., 246., 255., 255., 255., 255., 205.,
          205., 0., 173., 255., 229., 150., 150., 150., 150., 169., 251.,
          255., 255., 207., 105., 205., 205., 0., 173., 255., 255., 255.,
          255., 255., 255., 255., 255., 255., 207., 112., 0., 205., 205.,
          0., 173., 255., 255., 255., 255., 255., 255., 255., 255., 255.,
          118., 0., 0., 205., 205., 205., 205., 205., 205., 205., 205.,
          205., 205., 205., 205., 205., 205. ]
      - [ 205., 0., 0., 96., 255., 255., 255., 255., 223., 32., 0., 0.,
          0., 205., 205., 205., 205., 140., 140., 183., 255., 255., 255.,
          255., 240., 155., 140., 88., 0., 205., 205., 205., 205., 255.,
          255., 255., 255., 255., 255., 255., 255., 255., 255., 183.,
          64., 205., 205., 205., 205., 255., 255., 255., 255., 255.,
          255., 255., 255., 255., 255., 250., 242., 205., 205., 205.,
          205., 89., 193., 193., 89., 89., 89., 89., 89., 89., 193.,
          255., 255., 205., 205., 205., 205., 0., 159., 159., 0., 0., 0.,
          0., 0., 0., 104., 166., 166., 205., 205., 205., 205., 0., 159.,
          164., 11., 2., 0., 0., 0., 0., 8., 13., 13., 205., 205., 205.,
          205., 0., 159., 231., 167., 24., 0., 0., 0., 0., 120., 191.,
          191., 205., 205., 205., 205., 0., 159., 255., 237., 132., 115.,
          115., 115., 115., 202., 212., 140., 205., 205., 205., 205., 0.,
          159., 255., 255., 255., 255., 255., 255., 255., 255., 159., 0.,
          205., 205., 205., 205., 0., 159., 255., 255., 255., 255., 255.,
          255., 255., 255., 159., 0., 205., 205., 205., 205., 0., 159.,
          255., 255., 255., 255., 255., 255., 255., 255., 159., 0., 205.,
          205., 205., 205., 0., 159., 231., 191., 191., 191., 191., 191.,
          191., 231., 183., 64., 205., 205., 205., 205., 0., 159., 164.,
          13., 13., 13., 13., 13., 13., 164., 250., 242., 205., 205.,
          205., 205., 0., 159., 159., 0., 0., 0., 0., 0., 0., 159., 255.,
          255., 205., 205., 205., 205., 0., 159., 193., 78., 11., 0., 0.,
          11., 78., 193., 255., 255., 205., 205., 205., 205., 0., 159.,
          255., 225., 43., 5., 5., 43., 225., 255., 255., 255., 205.,
          205., 205., 205., 0., 159., 255., 247., 199., 72., 72., 199.,
          247., 255., 255., 255., 205., 205., 205., 205., 115., 202.,
          255., 255., 255., 167., 167., 255., 255., 255., 255. ]
      - [ 0., 229., 255., 255., 255., 255., 255., 255., 144., 0., 0., 0.,
          0., 0., 0., 205., 235., 253., 255., 255., 255., 255., 255.,
          255., 246., 235., 164., 0., 0., 0., 0., 205., 255., 255., 255.,
          255., 255., 255., 255., 255., 255., 255., 178., 0., 0., 0., 0.,
          205., 255., 255., 255., 255., 109., 47., 47., 47., 47., 47.,
          95., 208., 208., 187., 0., 205., 255., 255., 255., 106., 18.,
          0., 0., 0., 0., 0., 76., 255., 255., 229., 0., 205., 255.,
          255., 255., 59., 0., 0., 0., 0., 0., 0., 76., 255., 255., 229.,
          0., 205., 87., 238., 255., 59., 0., 0., 0., 0., 0., 0., 76.,
          255., 255., 229., 0., 205., 0., 229., 255., 178., 154., 57.,
          0., 0., 0., 57., 184., 255., 255., 229., 0., 205., 0., 229.,
          255., 255., 255., 183., 141., 141., 141., 183., 255., 255.,
          232., 103., 0., 205., 0., 229., 255., 255., 255., 255., 255.,
          255., 255., 255., 255., 225., 106., 0., 0., 205., 114., 241.,
          255., 255., 255., 255., 255., 255., 205., 141., 175., 195., 0.,
          0., 0., 205., 255., 255., 255., 178., 154., 154., 154., 154.,
          88., 0., 76., 219., 101., 91., 0., 205., 255., 255., 255., 59.,
          0., 0., 0., 0., 0., 0., 76., 255., 255., 238., 87., 205., 255.,
          255., 255., 59., 0., 0., 0., 0., 0., 0., 76., 255., 255., 248.,
          181., 205., 255., 255., 255., 59., 0., 0., 0., 0., 0., 22.,
          119., 255., 255., 229., 0., 205., 255., 255., 255., 95., 47.,
          47., 47., 47., 47., 123., 255., 255., 247., 187., 0., 205.,
          255., 255., 255., 255., 255., 255., 255., 255., 255., 255.,
          255., 247., 185., 0., 0., 205., 235., 253., 255., 255., 255.,
          255., 255., 255., 255., 255., 249., 180., 0., 0., 0., 205., 0.,
          229., 255., 255., 255., 255., 255., 255., 255., 255., 178., 0. ]
      - [ 205., 0., 0., 0., 186., 255., 255., 127., 0., 0., 0., 0., 0.,
          0., 205., 205., 205., 217., 217., 217., 245., 255., 255., 236.,
          217., 217., 158., 0., 0., 0., 205., 205., 205., 255., 255.,
          255., 255., 255., 255., 255., 255., 255., 238., 191., 169., 0.,
          205., 205., 205., 255., 255., 255., 255., 147., 89., 89., 159.,
          255., 255., 255., 225., 0., 205., 205., 205., 255., 255., 142.,
          115., 40., 0., 0., 49., 115., 152., 255., 242., 140., 205.,
          205., 205., 255., 255., 49., 0., 0., 0., 0., 0., 0., 68., 255.,
          255., 255., 205., 205., 205., 255., 255., 49., 0., 0., 0., 0.,
          0., 0., 69., 255., 255., 255., 205., 205., 205., 255., 255.,
          101., 17., 0., 0., 0., 0., 22., 115., 255., 255., 255., 205.,
          205., 205., 255., 255., 255., 96., 38., 38., 38., 38., 113.,
          255., 255., 251., 217., 205., 205., 205., 255., 255., 255.,
          255., 255., 255., 255., 255., 255., 255., 255., 225., 0., 205.,
          205., 205., 255., 255., 255., 255., 255., 255., 255., 255.,
          255., 255., 255., 225., 0., 205., 205., 205., 255., 255., 255.,
          255., 255., 255., 255., 255., 255., 255., 255., 226., 0., 205.,
          205., 205., 255., 255., 255., 115., 64., 64., 64., 64., 130.,
          255., 255., 248., 191., 205., 205., 205., 255., 255., 121.,
          24., 0., 0., 0., 0., 31., 134., 255., 255., 255., 205., 205.,
          205., 255., 255., 49., 0., 0., 0., 0., 0., 0., 68., 255., 255.,
          255., 205., 205., 205., 255., 255., 49., 0., 0., 0., 0., 0.,
          40., 152., 255., 255., 255., 205., 205., 205., 255., 255.,
          121., 89., 31., 0., 0., 38., 147., 255., 255., 244., 166.,
          205., 205., 205., 255., 255., 255., 255., 130., 64., 64., 145.,
          255., 255., 243., 169., 0., 205., 205., 205., 255., 255., 255.,
          255., 255., 255., 255., 255., 255., 245., 175. ]
      - [ 205., 205., 0., 185., 255., 255., 255., 255., 255., 255., 139.,
          0., 0., 205., 205., 205., 205., 205., 179., 234., 255., 255.,
          255., 255., 255., 255., 220., 179., 179., 205., 205., 205.,
          205., 205., 255., 255., 255., 255., 255., 255., 255., 255.,
          255., 255., 255., 205., 205., 205., 205., 205., 255., 255.,
          255., 255., 241., 179., 241., 255., 255., 255., 255., 205.,
          205., 205., 205., 205., 255., 255., 255., 245., 188., 0., 188.,
          245., 255., 255., 255., 205., 205., 205., 205., 205., 255.,
          255., 255., 171., 21., 0., 21., 171., 255., 255., 255., 205.,
          205., 205., 205., 205., 255., 255., 255., 162., 0., 0., 0.,
          162., 255., 255., 255., 205., 205., 205., 205., 205., 255.,
          255., 255., 209., 128., 128., 128., 209., 255., 255., 255.,
          205., 205., 205., 205., 205., 255., 255., 255., 255., 255.,
          255., 255., 255., 255., 255., 255., 205., 205., 205., 205.,
          205., 255., 255., 255., 255., 255., 255., 255., 255., 255.,
          255., 255., 205., 205., 205., 205., 205., 255., 255., 255.,
          255., 255., 255., 255., 255., 255., 255., 255., 205., 205.,
          205., 205., 205., 255., 255., 255., 255., 222., 76., 222.,
          255., 255., 255., 255., 205., 205., 205., 205., 205., 255.,
          255., 255., 209., 104., 0., 104., 209., 255., 255., 255., 205.,
          205., 205., 205., 205., 255., 255., 255., 162., 0., 0., 0.,
          162., 255., 255., 255., 205., 205., 205., 205., 205., 255.,
          255., 255., 171., 21., 0., 21., 171., 255., 255., 255., 205.,
          205., 205., 205., 205., 255., 255., 255., 245., 188., 0., 188.,
          245., 255., 255., 255., 205., 205., 205., 205., 205., 255.,
          255., 255., 255., 241., 179., 241., 255., 255., 255., 255.,
          205., 205., 205., 205., 205., 255., 255., 255., 255., 255.,
          255., 255., 255., 255., 255., 255., 205., 205., 205., 205.,
          205., 179., 179., 179., 179., 192., 255., 255., 255., 255.,
          234. ]
      - [ 205., 205., 205., 205., 205., 205., 205., 205., 205., 205.,
          205., 205., 205., 205., 205., 205., 232., 30., 30., 30., 30.,
          30., 30., 30., 30., 30., 27., 0., 0., 0., 0., 205., 174., 255.,
          255., 255., 255., 255., 255., 255., 255., 255., 238., 63., 0.,
          0., 0., 205., 11., 150., 255., 255., 255., 255., 255., 255.,
          255., 255., 255., 223., 75., 0., 0., 205., 0., 76., 255., 255.,
          255., 255., 255., 255., 255., 255., 255., 255., 233., 210.,
          21., 205., 0., 76., 255., 255., 255., 229., 0., 0., 0., 0.,
          255., 255., 255., 255., 26., 205., 0., 76., 255., 255., 255.,
          229., 0., 0., 0., 0., 255., 255., 255., 255., 26., 205., 0.,
          76., 255., 255., 255., 243., 95., 0., 0., 121., 255., 255.,
          255., 255., 26., 205., 0., 18., 157., 255., 255., 255., 237.,
          195., 195., 249., 255., 255., 158., 60., 6., 205., 0., 0.,
          128., 255., 255., 255., 255., 255., 255., 255., 255., 255.,
          128., 0., 0., 205., 0., 76., 255., 255., 255., 255., 237.,
          195., 195., 249., 255., 255., 158., 60., 6., 205., 0., 76.,
          255., 255., 255., 243., 95., 0., 0., 121., 255., 255., 255.,
          255., 26., 205., 0., 76., 255., 255., 255., 67., 0., 0., 0.,
          0., 255., 255., 255., 255., 26., 205., 0., 76., 255., 255.,
          255., 0., 0., 0., 0., 0., 255., 255., 255., 255., 26., 205.,
          0., 76., 255., 255., 255., 255., 255., 255., 255., 255., 255.,
          255., 233., 63., 0., 205., 0., 76., 255., 255., 255., 255.,
          255., 255., 255., 255., 255., 223., 75., 0., 0., 205., 0., 76.,
          255., 255., 255., 255., 255., 255., 255., 255., 90., 63., 0.,
          0., 0., 205., 0., 9., 30., 30., 30., 30., 30., 30., 30., 30.,
          0., 0., 0., 0., 202., 205., 205., 205., 205., 205., 205., 205.,
          205., 205., 205., 205., 205., 205. ]
      - [ 255., 255., 255., 255., 255., 255., 255., 255., 234., 229.,
          229., 229., 229., 229., 205., 205., 179., 179., 179., 179.,
          179., 179., 179., 179., 32., 0., 0., 0., 0., 0., 205., 205.,
          0., 0., 0., 0., 0., 0., 0., 0., 0., 0., 0., 0., 0., 0., 205.,
          205., 0., 57., 179., 179., 179., 179., 179., 179., 179., 0.,
          0., 0., 0., 0., 205., 205., 25., 237., 255., 255., 255., 255.,
          255., 255., 255., 229., 172., 0., 0., 0., 205., 205., 27.,
          255., 255., 255., 255., 255., 255., 255., 255., 255., 255.,
          255., 82., 0., 205., 205., 27., 255., 255., 255., 255., 241.,
          179., 179., 179., 255., 255., 255., 134., 8., 205., 205., 27.,
          255., 255., 255., 255., 105., 0., 0., 0., 255., 255., 255.,
          255., 27., 205., 205., 27., 255., 255., 255., 255., 0., 0., 0.,
          0., 255., 255., 255., 255., 27., 205., 205., 27., 255., 255.,
          255., 255., 0., 0., 0., 0., 255., 255., 255., 255., 27., 205.,
          205., 0., 82., 255., 255., 255., 255., 255., 255., 255., 255.,
          255., 255., 82., 0., 205., 205., 8., 134., 255., 255., 255.,
          255., 255., 255., 255., 255., 255., 255., 82., 0., 205., 205.,
          27., 255., 255., 255., 255., 255., 255., 255., 255., 255.,
          255., 255., 168., 14., 205., 205., 27., 255., 255., 255., 255.,
          76., 76., 76., 76., 255., 255., 255., 255., 27., 205., 205.,
          27., 255., 255., 255., 255., 0., 0., 0., 0., 255., 255., 255.,
          255., 27., 205., 205., 27., 255., 255., 255., 255., 0., 0., 0.,
          0., 255., 255., 255., 255., 27., 205., 205., 27., 255., 255.,
          255., 255., 76., 76., 76., 76., 255., 255., 255., 203., 19.,
          205., 205., 27., 255., 255., 255., 255., 255., 255., 255.,
          255., 255., 255., 255., 82., 0., 205., 205., 27., 255., 255.,
          255., 255., 255., 255., 255., 255., 255., 210., 76. ]
      - [ 0., 228., 255., 255., 255., 255., 255., 255., 255., 255., 255.,
          209., 0., 0., 205., 205., 0., 228., 255., 255., 255., 255.,
          255., 255., 255., 255., 255., 209., 0., 0., 205., 205., 0.,
          228., 255., 255., 255., 255., 255., 255., 255., 255., 255.,
          244., 171., 0., 205., 205., 0., 228., 255., 255., 142., 89.,
          89., 89., 154., 255., 255., 255., 228., 0., 205., 205., 0.,
          228., 255., 255., 82., 0., 0., 0., 45., 160., 255., 255., 228.,
          0., 205., 205., 0., 228., 255., 255., 82., 0., 0., 0., 45.,
          160., 255., 255., 228., 0., 205., 205., 0., 228., 255., 255.,
          142., 89., 89., 89., 154., 255., 255., 255., 228., 0., 205.,
          205., 0., 228., 255., 255., 255., 255., 255., 255., 255., 255.,
          255., 255., 228., 0., 205., 205., 0., 228., 255., 255., 255.,
          255., 255., 255., 255., 255., 255., 255., 228., 0., 205., 205.,
          0., 228., 255., 255., 246., 242., 242., 242., 247., 255., 255.,
          255., 229., 13., 205., 205., 0., 228., 255., 255., 90., 13.,
          13., 13., 108., 255., 255., 255., 254., 242., 205., 205., 0.,
          228., 255., 255., 82., 0., 0., 0., 15., 108., 255., 255., 255.,
          255., 205., 205., 0., 228., 255., 255., 82., 0., 0., 0., 0.,
          82., 255., 255., 255., 255., 205., 205., 0., 228., 255., 255.,
          82., 0., 0., 0., 0., 82., 255., 255., 255., 255., 205., 205.,
          0., 228., 255., 255., 177., 140., 140., 140., 140., 177., 255.,
          255., 255., 255., 205., 205., 115., 240., 255., 255., 255.,
          255., 255., 255., 255., 255., 255., 234., 140., 140., 205.,
          205., 255., 255., 255., 255., 255., 255., 255., 255., 255.,
          255., 255., 209., 0., 0., 205., 205., 191., 191., 191., 191.,
          191., 191., 191., 191., 191., 191., 207., 221., 57., 0., 205.,
          205., 0., 0., 0., 0., 0., 0., 0., 0., 0., 0., 54., 224. ]
      - [ 205., 12., 192., 255., 255., 239., 161., 255., 51., 239., 176.,
          8., 0., 0., 205., 205., 205., 59., 255., 255., 255., 255.,
          255., 255., 255., 255., 255., 169., 106., 0., 205., 205., 205.,
          255., 255., 255., 255., 255., 255., 255., 255., 255., 255.,
          255., 177., 0., 205., 205., 205., 255., 255., 255., 255., 255.,
          255., 255., 255., 255., 255., 169., 106., 0., 205., 205., 205.,
          255., 255., 255., 255., 239., 51., 51., 51., 51., 51., 8., 0.,
          0., 205., 205., 205., 255., 255., 255., 98., 0., 0., 0., 0.,
          0., 0., 0., 0., 0., 205., 205., 205., 137., 255., 255., 98.,
          0., 0., 0., 0., 0., 0., 0., 0., 0., 205., 205., 205., 59.,
          255., 255., 98., 0., 0., 0., 0., 0., 0., 216., 0., 0., 205.,
          205., 205., 255., 255., 255., 255., 0., 0., 0., 0., 0., 0.,
          216., 0., 0., 205., 205., 205., 255., 255., 255., 255., 188.,
          0., 0., 0., 0., 0., 43., 0., 0., 205., 205., 205., 216., 255.,
          255., 255., 235., 0., 0., 0., 0., 0., 0., 0., 0., 205., 205.,
          205., 59., 255., 255., 255., 235., 0., 0., 0., 0., 0., 0., 0.,
          0., 205., 205., 205., 59., 255., 255., 255., 235., 0., 0., 0.,
          0., 0., 0., 0., 0., 205., 205., 205., 35., 224., 255., 255.,
          235., 0., 0., 0., 0., 0., 0., 0., 0., 205., 205., 205., 0.,
          176., 255., 255., 235., 0., 0., 0., 0., 0., 0., 0., 0., 205.,
          205., 205., 0., 176., 255., 255., 239., 51., 0., 0., 0., 51.,
          51., 51., 12., 205., 205., 205., 0., 176., 255., 255., 255.,
          255., 153., 153., 153., 255., 255., 255., 177., 205., 205.,
          205., 0., 177., 255., 255., 255., 255., 255., 255., 255., 255.,
          255., 255., 255., 205., 205., 205., 0., 106., 255., 255., 255.,
          255., 255., 255., 255., 255., 255. ]
      - [ 205., 255., 255., 255., 255., 255., 255., 255., 255., 255.,
          255., 255., 0., 205., 205., 205., 205., 255., 255., 255., 255.,
          255., 255., 255., 255., 255., 255., 255., 0., 205., 205., 205.,
          205., 255., 255., 255., 255., 255., 0., 255., 255., 255., 255.,
          255., 0., 205., 205., 205., 205., 255., 255., 255., 255., 0.,
          0., 0., 0., 255., 255., 255., 0., 205., 205., 205., 205., 255.,
          255., 255., 0., 0., 0., 0., 0., 0., 0., 0., 0., 205., 205.,
          205., 205., 255., 255., 255., 0., 0., 0., 0., 0., 0., 0., 0.,
          0., 205., 205., 205., 205., 255., 255., 255., 0., 0., 0., 0.,
          0., 0., 0., 0., 0., 205., 205., 205., 205., 255., 255., 255.,
          0., 0., 0., 0., 0., 0., 0., 0., 0., 205., 205., 205., 205.,
          255., 255., 255., 0., 0., 0., 0., 0., 0., 0., 0., 0., 205.,
          205., 205., 205., 255., 255., 255., 0., 0., 0., 0., 0., 0., 0.,
          0., 0., 205., 205., 205., 205., 255., 255., 255., 0., 0., 0.,
          0., 0., 0., 0., 0., 0., 205., 205., 205., 205., 255., 255.,
          255., 0., 0., 0., 0., 0., 0., 0., 0., 0., 205., 205., 205.,
          205., 255., 255., 255., 0., 0., 0., 0., 0., 0., 0., 0., 0.,
          205., 205., 205., 205., 255., 255., 255., 0., 0., 0., 0., 0.,
          0., 0., 0., 0., 205., 205., 205., 205., 255., 255., 255., 255.,
          0., 0., 0., 255., 255., 255., 0., 0., 205., 205., 205., 205.,
          255., 255., 255., 255., 255., 255., 255., 255., 255., 255.,
          255., 0., 205., 205., 205., 205., 255., 255., 255., 255., 255.,
          255., 255., 255., 255., 255., 255., 0., 205., 205., 205., 205.,
          255., 255., 255., 255., 255., 255., 255., 255., 255., 255., 0.,
          0., 205., 205., 205., 205., 0., 0., 255., 255., 0., 0., 0., 0.,
          0., 0., 0. ]
      - [ 205., 255., 255., 255., 255., 255., 255., 255., 255., 255.,
          255., 255., 0., 0., 205., 205., 205., 255., 255., 255., 255.,
          255., 255., 255., 255., 255., 255., 255., 0., 0., 205., 205.,
          205., 255., 255., 255., 255., 255., 0., 255., 255., 255., 255.,
          255., 0., 0., 205., 205., 205., 255., 255., 255., 255., 0., 0.,
          0., 0., 255., 255., 255., 0., 0., 205., 205., 205., 255., 255.,
          255., 0., 0., 0., 0., 0., 0., 0., 0., 0., 0., 205., 205., 205.,
          255., 255., 255., 0., 0., 0., 0., 0., 0., 0., 0., 0., 0., 205.,
          205., 205., 255., 255., 255., 0., 0., 0., 0., 0., 0., 0., 0.,
          0., 0., 205., 205., 205., 255., 255., 255., 0., 0., 0., 0., 0.,
          0., 0., 0., 0., 0., 205., 205., 205., 255., 255., 255., 0., 0.,
          0., 0., 0., 0., 0., 0., 0., 0., 205., 205., 205., 255., 255.,
          255., 0., 0., 0., 0., 0., 0., 0., 0., 0., 0., 205., 205., 205.,
          255., 255., 255., 0., 0., 0., 0., 0., 0., 0., 0., 0., 0., 205.,
          205., 205., 255., 255., 255., 0., 0., 0., 0., 0., 0., 0., 0.,
          0., 0., 205., 205., 205., 255., 255., 255., 0., 0., 0., 0., 0.,
          0., 0., 0., 0., 0., 205., 205., 205., 255., 255., 255., 0., 0.,
          0., 0., 0., 0., 0., 0., 0., 0., 205., 205., 205., 255., 255.,
          255., 255., 0., 0., 0., 255., 255., 255., 0., 0., 0., 205.,
          205., 205., 255., 255., 255., 255., 255., 255., 255., 255.,
          255., 255., 255., 0., 0., 205., 205., 205., 255., 255., 255.,
          255., 255., 255., 255., 255., 255., 255., 255., 0., 0., 205.,
          205., 205., 255., 255., 255., 255., 255., 255., 255., 255.,
          255., 255., 0., 0., 0., 205., 205., 205., 0., 0., 255., 255.,
          0., 0., 0., 0., 0., 0., 0. ]
      - [ 0., 0., 1., 6., 6., 6., 6., 6., 6., 6., 193., 51., 1., 0.,
          205., 205., 1., 19., 61., 255., 255., 255., 255., 255., 255.,
          255., 255., 255., 27., 0., 205., 205., 40., 255., 255., 255.,
          255., 255., 255., 255., 255., 255., 255., 255., 27., 0., 205.,
          205., 255., 255., 255., 255., 255., 255., 234., 234., 228.,
          241., 255., 218., 23., 0., 205., 205., 255., 255., 255., 241.,
          198., 198., 106., 106., 78., 134., 198., 35., 0., 0., 205.,
          205., 187., 255., 255., 191., 0., 0., 0., 0., 0., 0., 0., 0.,
          0., 0., 205., 205., 89., 255., 255., 191., 0., 0., 0., 0., 0.,
          0., 0., 0., 0., 0., 205., 205., 255., 255., 255., 191., 0., 0.,
          0., 0., 0., 0., 0., 0., 0., 0., 205., 205., 255., 255., 255.,
          191., 0., 0., 0., 0., 0., 0., 0., 0., 0., 0., 205., 205., 138.,
          255., 255., 191., 0., 0., 0., 0., 0., 0., 0., 0., 0., 0., 205.,
          205., 9., 255., 255., 191., 0., 0., 0., 0., 0., 0., 0., 0., 0.,
          0., 205., 205., 9., 255., 255., 191., 0., 0., 0., 0., 0., 0.,
          0., 0., 0., 0., 205., 205., 9., 255., 255., 231., 108., 0., 0.,
          0., 0., 0., 0., 0., 0., 0., 205., 205., 9., 255., 255., 255.,
          173., 0., 0., 0., 0., 0., 0., 0., 0., 0., 205., 205., 9., 255.,
          255., 255., 173., 0., 0., 0., 0., 0., 0., 0., 0., 0., 205.,
          205., 9., 255., 255., 255., 236., 120., 0., 0., 0., 0., 0., 0.,
