%YAML:1.0
my_svm: !!opencv-ml-svm
   svm_type: C_SVC
   kernel: { type:LINEAR }
   C: 1.
   term_criteria: { epsilon:1.1920928955078125e-007, iterations:1000 }
   var_all: 450
   var_count: 450
   class_count: 26
   class_labels: !!opencv-matrix
      rows: 1
      cols: 26
      dt: i
      data: [ 0, 1, 2, 3, 4, 5, 6, 7, 8, 9, 10, 11, 12, 13, 14, 15, 16,
          17, 18, 19, 20, 21, 22, 23, 24, 25 ]
   sv_total: 78
   support_vectors:
      - [ 0., 0., 0., 0., 0., 0., 0., 0., 0., 0., 0., 0., 0., 0., 0., 0.,
          0., 0., 0., 0., 0., 0., 0., 0., 0., 0., 0., 0., 0., 0., 0., 0.,
          0., 0., 0., 0., 0., 0., 0., 0., 0., 0., 0., 0., 0., 0., 0., 0.,
          0., 5., 42., 47., 23., 0., 0., 0., 0., 0., 0., 0., 0., 0., 0.,
          0., 24., 218., 242., 121., 0., 0., 0., 0., 0., 0., 0., 0., 0.,
          0., 0., 25., 229., 255., 127., 0., 0., 0., 0., 0., 0., 0., 0.,
          0., 0., 37., 136., 242., 255., 189., 123., 111., 12., 0., 0.,
          0., 0., 0., 0., 0., 76., 255., 255., 255., 255., 255., 229.,
          25., 0., 0., 0., 0., 0., 0., 0., 76., 255., 255., 255., 255.,
          255., 229., 25., 0., 0., 0., 0., 0., 0., 0., 76., 255., 255.,
          255., 255., 255., 229., 25., 0., 0., 0., 0., 0., 0., 0., 76.,
          255., 255., 255., 255., 255., 229., 25., 0., 0., 0., 0., 0.,
          0., 0., 52., 182., 247., 255., 255., 255., 229., 25., 0., 0.,
          0., 0., 0., 0., 0., 0., 25., 229., 255., 255., 255., 229., 25.,
          0., 0., 0., 0., 0., 0., 0., 0., 25., 229., 255., 255., 255.,
          229., 25., 0., 0., 0., 0., 0., 0., 0., 0., 10., 88., 208.,
          255., 255., 229., 25., 0., 0., 0., 0., 0., 0., 49., 98., 98.,
          98., 208., 255., 255., 239., 113., 29., 0., 0., 0., 0., 0.,
          127., 255., 255., 255., 228., 236., 255., 255., 255., 76., 0.,
          0., 0., 0., 0., 127., 255., 255., 255., 91., 138., 255., 255.,
          255., 76., 0., 0., 0., 0., 0., 127., 255., 255., 255., 198.,
          214., 255., 255., 255., 76., 0., 0., 0., 0., 80., 185., 255.,
          255., 255., 255., 255., 255., 255., 255., 157., 57., 0., 0.,
          0., 178., 255., 255., 255., 255., 255., 255., 255., 255., 255.,
          255., 128., 0., 0., 0., 178., 255., 255., 255., 255., 255.,
          255., 255., 255., 255., 255., 128., 0., 0., 0., 178., 255.,
          255., 255., 255., 255., 255., 255., 255., 255., 255., 128., 0.,
          0., 0., 178., 255., 255., 255., 255., 255., 255., 255., 255.,
          255., 255., 128., 0., 0., 0., 178., 255., 255., 255., 255.,
          255., 255., 255., 255., 255., 255., 164., 51., 0., 0., 178.,
          255., 255., 254., 244., 242., 242., 246., 255., 255., 255.,
          255., 179., 0., 0., 178., 255., 255., 234., 67., 47., 47.,
          109., 255., 255., 255., 255., 179., 0., 0., 178., 255., 210.,
          96., 11., 0., 0., 32., 106., 106., 106., 106., 74., 0., 0.,
          116., 166., 116., 0., 0., 0., 0., 0., 0., 0., 0., 0., 0., 0.,
          0., 0., 0., 0., 0., 0., 0., 0., 0., 0., 0., 0., 0., 0., 0. ]
      - [ 0., 0., 0., 0., 0., 0., 0., 0., 0., 0., 0., 0., 0., 0., 0., 0.,
          0., 0., 0., 0., 0., 0., 0., 0., 0., 0., 0., 0., 0., 0., 0., 0.,
          0., 0., 0., 0., 0., 0., 0., 0., 0., 0., 0., 0., 0., 0., 0., 0.,
          0., 0., 0., 0., 0., 0., 0., 0., 0., 0., 0., 0., 0., 0., 0., 0.,
          0., 0., 0., 0., 0., 0., 0., 0., 0., 0., 0., 0., 0., 0., 0., 0.,
          0., 0., 0., 0., 0., 0., 0., 0., 0., 0., 0., 0., 0., 0., 3.,
          31., 34., 17., 0., 0., 0., 0., 0., 0., 0., 0., 0., 0., 0., 26.,
          229., 255., 128., 0., 0., 0., 0., 0., 0., 0., 0., 0., 0., 66.,
          224., 252., 255., 238., 155., 0., 0., 0., 0., 0., 0., 0., 0.,
          0., 76., 255., 255., 255., 255., 178., 0., 0., 0., 0., 0., 0.,
          0., 0., 0., 76., 255., 255., 255., 255., 178., 0., 0., 0., 0.,
          0., 0., 0., 0., 0., 76., 255., 255., 255., 255., 178., 0., 0.,
          0., 0., 0., 0., 0., 0., 0., 76., 255., 255., 255., 255., 179.,
          0., 0., 0., 0., 0., 0., 0., 0., 0., 76., 255., 255., 255.,
          255., 178., 0., 0., 0., 0., 0., 0., 0., 0., 9., 88., 255.,
          255., 255., 255., 184., 15., 2., 0., 0., 0., 0., 0., 0., 119.,
          243., 255., 255., 255., 255., 250., 214., 24., 0., 0., 0., 0.,
          0., 0., 127., 255., 255., 255., 255., 255., 255., 229., 25.,
          0., 0., 0., 0., 0., 0., 127., 255., 255., 255., 255., 255.,
          255., 229., 26., 0., 0., 0., 0., 0., 0., 127., 255., 255.,
          255., 255., 255., 255., 229., 25., 0., 0., 0., 0., 0., 0.,
          127., 255., 255., 255., 255., 255., 255., 239., 117., 31., 0.,
          0., 0., 0., 0., 127., 255., 255., 255., 255., 255., 255., 255.,
          255., 76., 0., 0., 0., 0., 0., 127., 255., 255., 255., 255.,
          255., 255., 255., 255., 76., 0., 0., 0., 0., 0., 128., 255.,
          255., 255., 255., 255., 255., 255., 255., 76., 0., 0., 0., 0.,
          155., 238., 255., 255., 255., 255., 255., 255., 255., 255.,
          231., 111., 0., 0., 0., 178., 255., 255., 236., 86., 68., 68.,
          124., 255., 255., 255., 128., 0., 0., 0., 178., 255., 255.,
          229., 25., 0., 0., 76., 255., 255., 255., 128., 0., 0., 0.,
          178., 255., 255., 229., 25., 0., 0., 41., 148., 243., 171.,
          68., 0., 0., 0., 119., 170., 170., 153., 17., 0., 0., 0., 17.,
          153., 51., 0., 0., 0., 0., 0., 0., 0., 0., 0., 0., 0., 0., 0.,
          0., 0., 0., 0., 0., 0., 0., 0., 0., 0., 0., 0., 0., 0., 0., 0.,
          0., 0., 0., 0. ]
      - [ 0., 0., 0., 0., 25., 255., 246., 2., 0., 0., 0., 0., 0., 0.,
          0., 0., 0., 0., 0., 37., 255., 255., 127., 0., 0., 0., 5., 13.,
          13., 13., 0., 0., 0., 0., 255., 255., 255., 138., 1., 0., 0.,
          86., 234., 240., 255., 30., 9., 0., 19., 255., 255., 255.,
          255., 37., 17., 0., 0., 0., 68., 225., 217., 65., 0., 161.,
          255., 255., 255., 255., 255., 144., 0., 0., 0., 0., 0., 0., 0.,
          0., 161., 255., 255., 255., 255., 255., 144., 42., 30., 0.,
          47., 47., 0., 0., 0., 161., 255., 255., 255., 255., 255., 168.,
          185., 126., 0., 216., 255., 0., 0., 0., 161., 255., 255., 255.,
          255., 255., 255., 25., 0., 0., 57., 191., 0., 0., 0., 161.,
          255., 255., 255., 255., 255., 255., 25., 0., 0., 51., 0., 0.,
          0., 0., 161., 255., 255., 255., 255., 255., 255., 25., 0., 0.,
          179., 0., 0., 0., 0., 161., 255., 255., 255., 255., 255., 255.,
          106., 0., 0., 205., 89., 0., 0., 0., 161., 255., 255., 255.,
          255., 255., 255., 255., 62., 0., 255., 180., 0., 0., 0., 161.,
          255., 255., 255., 255., 255., 255., 255., 161., 0., 149., 35.,
          0., 0., 19., 204., 255., 255., 255., 255., 255., 255., 255.,
          204., 19., 0., 0., 0., 0., 42., 255., 255., 255., 255., 255.,
          255., 255., 255., 255., 145., 0., 0., 0., 0., 42., 255., 255.,
          255., 255., 255., 255., 255., 255., 255., 255., 0., 0., 0., 0.,
          42., 255., 255., 255., 255., 255., 255., 255., 255., 255.,
          255., 0., 0., 0., 0., 42., 255., 255., 255., 255., 255., 255.,
          255., 255., 255., 255., 0., 0., 0., 0., 174., 255., 255., 255.,
          255., 255., 255., 255., 255., 255., 255., 110., 0., 0., 0.,
          255., 255., 255., 255., 255., 255., 255., 255., 255., 255.,
          255., 179., 0., 0., 0., 255., 255., 255., 255., 255., 255.,
          255., 255., 255., 255., 255., 231., 41., 0., 128., 255., 255.,
          255., 255., 255., 255., 255., 255., 255., 255., 255., 255.,
          60., 0., 178., 255., 255., 255., 147., 64., 64., 64., 64., 64.,
          255., 255., 255., 60., 0., 178., 255., 255., 255., 110., 0.,
          0., 0., 0., 0., 128., 255., 255., 60., 208., 241., 255., 255.,
          234., 20., 0., 0., 0., 0., 0., 93., 255., 193., 11., 38., 190.,
          255., 255., 229., 0., 0., 0., 0., 0., 0., 93., 255., 179., 0.,
          0., 178., 255., 255., 27., 0., 0., 0., 0., 98., 23., 93., 255.,
          21., 0., 0., 178., 255., 255., 0., 0., 0., 0., 0., 243., 236.,
          8., 216., 0., 0., 0., 9., 13., 13., 0., 0., 0., 0., 0., 255.,
          255., 0., 213., 0., 0., 192., 0., 0., 0., 0., 0., 0., 0., 0.,
          113., 29., 0., 4., 0., 0. ]
      - [ 0., 0., 0., 0., 0., 0., 0., 127., 255., 255., 255., 76., 0.,
          0., 0., 0., 0., 0., 0., 0., 0., 0., 45., 89., 89., 89., 27.,
          0., 0., 0., 0., 0., 0., 0., 0., 0., 0., 0., 0., 0., 0., 0., 0.,
          0., 0., 0., 0., 0., 0., 0., 0., 0., 0., 0., 0., 0., 0., 0., 0.,
          0., 0., 0., 0., 0., 0., 0., 0., 0., 0., 0., 0., 0., 0., 0., 0.,
          0., 128., 183., 183., 183., 183., 183., 183., 183., 183., 183.,
          183., 91., 0., 0., 0., 178., 255., 255., 255., 255., 255.,
          255., 255., 255., 255., 255., 128., 0., 0., 0., 178., 255.,
          255., 255., 255., 255., 255., 255., 255., 255., 255., 128., 0.,
          0., 0., 178., 255., 255., 255., 255., 255., 255., 255., 255.,
          255., 255., 130., 3., 0., 0., 178., 255., 255., 255., 255.,
          255., 255., 255., 255., 255., 255., 227., 140., 0., 0., 178.,
          255., 255., 255., 255., 255., 255., 255., 255., 255., 255.,
          255., 221., 140., 0., 178., 255., 255., 255., 255., 198., 174.,
          198., 255., 255., 255., 255., 255., 255., 0., 178., 255., 255.,
          255., 255., 91., 21., 91., 255., 255., 255., 255., 255., 255.,
          0., 179., 255., 255., 255., 255., 228., 217., 228., 255., 255.,
          255., 255., 255., 255., 0., 178., 255., 255., 255., 255., 255.,
          255., 255., 255., 255., 255., 255., 208., 98., 0., 110., 206.,
          255., 255., 255., 255., 255., 255., 255., 255., 255., 255.,
          179., 0., 0., 0., 127., 255., 255., 255., 255., 255., 255.,
          255., 255., 255., 255., 179., 0., 0., 0., 127., 255., 255.,
          255., 255., 255., 255., 255., 255., 255., 255., 179., 0., 0.,
          0., 127., 255., 255., 255., 255., 255., 255., 255., 255., 255.,
          255., 179., 0., 0., 0., 127., 255., 255., 255., 174., 140.,
          140., 151., 243., 255., 255., 213., 115., 0., 0., 127., 255.,
          255., 255., 115., 55., 55., 75., 235., 255., 255., 255., 255.,
          0., 0., 127., 255., 255., 255., 252., 251., 251., 251., 255.,
          255., 255., 255., 255., 0., 0., 127., 255., 255., 255., 255.,
          255., 255., 255., 255., 255., 255., 255., 255., 0., 92., 193.,
          255., 255., 255., 255., 255., 255., 255., 255., 255., 255.,
          255., 255., 0., 128., 219., 255., 255., 255., 255., 255., 255.,
          255., 255., 255., 255., 233., 183., 0., 0., 127., 255., 255.,
          255., 255., 249., 242., 242., 242., 242., 242., 170., 0., 0.,
          0., 127., 255., 255., 255., 255., 151., 47., 47., 47., 47.,
          47., 33., 0., 149., 149., 127., 106., 106., 106., 106., 53.,
          0., 0., 0., 0., 0., 0., 0., 166., 166., 83., 0., 0., 0., 0.,
          0., 0., 0., 0., 0., 0., 0., 0., 0., 0., 0., 0., 0., 0., 0., 0.,
          0., 0., 0., 0., 0., 0., 0. ]
      - [ 0., 0., 0., 0., 0., 0., 0., 0., 0., 0., 0., 0., 0., 0., 0., 0.,
          0., 0., 0., 0., 0., 0., 0., 0., 0., 0., 0., 0., 0., 0., 0., 0.,
          0., 0., 0., 0., 0., 0., 0., 0., 0., 0., 0., 0., 0., 0., 0., 0.,
          0., 0., 0., 0., 0., 0., 0., 0., 0., 0., 0., 0., 0., 0., 0., 0.,
          0., 0., 0., 0., 0., 0., 0., 0., 0., 0., 0., 0., 0., 0., 0., 0.,
          0., 0., 0., 0., 0., 0., 0., 0., 0., 0., 0., 0., 0., 0., 0., 0.,
          0., 0., 0., 0., 0., 0., 0., 0., 0., 0., 0., 53., 64., 64., 64.,
          64., 64., 64., 64., 45., 0., 0., 0., 0., 38., 38., 219., 255.,
          255., 255., 255., 255., 255., 255., 190., 29., 0., 0., 0.,
          255., 255., 255., 255., 255., 255., 255., 255., 255., 255.,
          255., 195., 0., 0., 0., 255., 255., 255., 255., 255., 255.,
          255., 255., 255., 255., 255., 195., 0., 0., 0., 255., 255.,
          255., 255., 255., 117., 38., 38., 132., 255., 255., 246., 181.,
          0., 0., 255., 255., 255., 255., 121., 23., 0., 0., 110., 255.,
          255., 255., 213., 0., 0., 255., 255., 255., 255., 76., 0., 0.,
          0., 39., 150., 255., 255., 213., 0., 0., 255., 255., 255.,
          255., 76., 89., 140., 140., 140., 182., 255., 255., 213., 0.,
          0., 255., 255., 255., 255., 157., 204., 255., 255., 255., 255.,
          255., 255., 213., 0., 0., 255., 255., 255., 255., 255., 255.,
          255., 255., 255., 255., 255., 255., 227., 80., 0., 255., 255.,
          255., 255., 255., 255., 255., 255., 255., 255., 255., 255.,
          255., 229., 0., 255., 255., 255., 255., 255., 255., 255., 255.,
          255., 255., 255., 255., 255., 229., 0., 255., 255., 255., 255.,
          246., 242., 242., 242., 242., 242., 246., 255., 255., 229., 0.,
          255., 255., 255., 255., 85., 13., 13., 13., 13., 13., 85.,
          255., 255., 229., 0., 255., 255., 255., 255., 76., 0., 0., 0.,
          0., 79., 228., 255., 255., 229., 0., 255., 255., 255., 255.,
          76., 0., 0., 0., 0., 93., 255., 255., 255., 229., 0., 255.,
          255., 255., 255., 76., 0., 0., 0., 0., 93., 255., 255., 255.,
          229., 0., 255., 255., 255., 255., 174., 51., 0., 0., 61., 182.,
          255., 255., 255., 229., 0., 255., 255., 255., 255., 255., 166.,
          115., 115., 175., 255., 255., 255., 255., 229., 0., 255., 255.,
          255., 255., 255., 255., 255., 255., 255., 255., 255., 255.,
          240., 149., 0., 255., 255., 255., 255., 255., 255., 255., 255.,
          255., 255., 255., 255., 213., 0., 0., 217., 217., 249., 255.,
          255., 231., 238., 255., 255., 241., 217., 217., 181., 0., 0.,
          0., 0., 212., 255., 255., 93., 144., 255., 255., 161., 0., 0.,
          0., 0., 0. ]
      - [ 0., 0., 0., 0., 0., 0., 0., 0., 0., 0., 0., 0., 0., 0., 0., 0.,
          0., 0., 88., 166., 166., 166., 166., 166., 166., 66., 0., 0.,
          0., 0., 0., 85., 106., 185., 255., 255., 255., 255., 255.,
          255., 165., 106., 71., 0., 0., 0., 167., 239., 255., 255.,
          255., 255., 255., 255., 255., 255., 255., 170., 0., 0., 0.,
          10., 174., 255., 255., 255., 255., 255., 255., 255., 255.,
          255., 170., 0., 0., 0., 0., 170., 255., 255., 255., 230., 72.,
          72., 206., 255., 255., 231., 146., 0., 0., 0., 170., 255.,
          255., 255., 221., 0., 0., 97., 205., 255., 255., 204., 0., 0.,
          0., 170., 255., 255., 255., 221., 0., 0., 0., 153., 255., 255.,
          204., 0., 0., 0., 170., 255., 255., 255., 221., 4., 4., 4.,
          154., 255., 255., 204., 0., 0., 0., 170., 255., 255., 255.,
          247., 200., 200., 200., 233., 255., 255., 204., 0., 0., 0.,
          170., 255., 255., 255., 255., 255., 255., 255., 255., 255.,
          208., 92., 0., 0., 0., 170., 255., 255., 255., 255., 255.,
          255., 255., 255., 255., 170., 0., 0., 0., 0., 170., 255., 255.,
          255., 255., 255., 255., 255., 255., 255., 170., 0., 0., 0., 0.,
          170., 255., 255., 255., 255., 255., 255., 255., 255., 255.,
          170., 0., 0., 0., 0., 170., 255., 255., 255., 255., 255., 255.,
          255., 255., 255., 170., 0., 0., 0., 0., 170., 255., 216., 157.,
          157., 157., 157., 157., 216., 255., 203., 78., 0., 0., 0.,
          170., 255., 153., 0., 0., 0., 0., 0., 153., 255., 255., 204.,
          0., 0., 0., 170., 255., 153., 0., 0., 0., 0., 0., 153., 255.,
          255., 204., 0., 0., 0., 170., 255., 222., 174., 151., 0., 0.,
          0., 153., 255., 255., 204., 0., 0., 0., 170., 255., 255., 255.,
          236., 115., 115., 115., 199., 255., 255., 204., 0., 0., 0.,
          170., 255., 255., 255., 255., 255., 255., 255., 255., 255.,
          255., 204., 0., 0., 0., 170., 255., 255., 255., 255., 255.,
          255., 255., 255., 255., 255., 204., 0., 0., 0., 170., 255.,
          255., 255., 255., 255., 255., 255., 255., 255., 191., 51., 0.,
          0., 0., 170., 255., 255., 255., 255., 255., 255., 255., 255.,
          193., 82., 0., 0., 0., 58., 194., 216., 183., 183., 183., 183.,
          183., 183., 183., 97., 0., 0., 0., 13., 206., 246., 113., 0.,
          0., 0., 0., 0., 0., 0., 0., 0., 0., 0., 208., 246., 116., 22.,
          0., 0., 0., 0., 0., 0., 0., 0., 0., 0., 0., 106., 106., 35.,
          0., 0., 0., 0., 0., 0., 0., 0., 0., 0., 0., 0., 0., 0., 0., 0.,
          0., 0., 0., 0., 0., 0., 0., 0., 0., 0., 0., 0., 0., 0., 0., 0.,
          0., 0., 0., 0., 0., 0., 0., 0., 0., 0. ]
      - [ 0., 0., 0., 0., 0., 0., 0., 0., 0., 0., 0., 0., 0., 0., 0., 0.,
          0., 0., 0., 0., 0., 0., 0., 0., 0., 0., 0., 0., 0., 0., 0., 0.,
          0., 0., 0., 0., 0., 0., 0., 0., 0., 0., 0., 0., 0., 0., 0., 0.,
          0., 0., 0., 0., 0., 0., 0., 0., 0., 0., 0., 0., 0., 0., 0., 0.,
          0., 0., 0., 0., 0., 0., 0., 0., 0., 0., 0., 0., 0., 0., 0., 0.,
          0., 0., 0., 0., 0., 0., 0., 0., 0., 0., 0., 0., 0., 0., 0., 0.,
          0., 0., 0., 0., 0., 0., 0., 0., 0., 0., 0., 0., 0., 0., 0., 0.,
          0., 0., 0., 0., 0., 0., 0., 0., 0., 0., 117., 140., 140., 140.,
          23., 140., 23., 23., 140., 23., 0., 0., 0., 0., 108., 249.,
          255., 255., 255., 223., 255., 223., 223., 255., 223., 0., 0.,
          0., 6., 146., 255., 255., 255., 255., 255., 255., 255., 255.,
          255., 255., 255., 128., 0., 42., 255., 255., 255., 255., 255.,
          255., 255., 255., 255., 255., 255., 255., 128., 0., 42., 255.,
          255., 255., 255., 255., 255., 255., 255., 255., 255., 255.,
          64., 32., 0., 42., 255., 255., 255., 249., 242., 0., 0., 0.,
          0., 0., 0., 0., 0., 0., 42., 255., 255., 255., 127., 0., 0.,
          0., 0., 0., 0., 0., 0., 0., 0., 15., 172., 255., 255., 127.,
          0., 0., 0., 0., 0., 0., 0., 0., 0., 0., 0., 127., 255., 255.,
          127., 0., 0., 0., 0., 0., 0., 0., 202., 0., 0., 42., 255.,
          255., 255., 255., 42., 0., 0., 0., 0., 0., 0., 213., 0., 0.,
          42., 255., 255., 255., 255., 159., 0., 0., 0., 0., 0., 0., 96.,
          0., 0., 42., 255., 255., 255., 255., 255., 0., 0., 0., 0., 0.,
          0., 0., 0., 0., 0., 127., 255., 255., 255., 255., 0., 0., 0.,
          0., 0., 0., 0., 0., 0., 0., 127., 255., 255., 255., 255., 0.,
          0., 0., 0., 0., 0., 0., 0., 0., 0., 127., 255., 255., 255.,
          255., 0., 0., 0., 0., 0., 0., 0., 0., 0., 0., 0., 212., 255.,
          255., 255., 0., 0., 0., 0., 0., 0., 0., 0., 0., 0., 0., 212.,
          255., 255., 255., 0., 0., 0., 0., 0., 0., 0., 0., 0., 0., 0.,
          212., 255., 255., 255., 166., 83., 0., 0., 83., 166., 166.,
          166., 28., 0., 0., 212., 255., 255., 255., 255., 249., 242.,
          242., 249., 255., 255., 255., 244., 0., 0., 212., 255., 255.,
          255., 255., 255., 255., 255., 255., 255., 255., 255., 255., 0.,
          0., 96., 255., 255., 255., 255., 255., 255., 255., 255., 255.,
          255., 255., 138., 0., 0., 0., 255., 255., 255., 255., 255.,
          255., 255., 255., 255., 38., 38., 6. ]
      - [ 0., 0., 212., 255., 255., 255., 255., 255., 255., 255., 255.,
          255., 255., 229., 0., 0., 0., 212., 255., 255., 255., 255.,
          255., 255., 255., 255., 255., 255., 229., 0., 0., 0., 212.,
          255., 255., 255., 255., 223., 219., 255., 255., 255., 255.,
          229., 0., 0., 0., 212., 255., 255., 255., 255., 134., 117.,
          255., 255., 255., 255., 229., 0., 0., 0., 212., 255., 255.,
          255., 161., 45., 39., 89., 139., 255., 255., 229., 0., 0., 0.,
          212., 255., 255., 198., 72., 0., 0., 0., 50., 166., 166., 149.,
          0., 0., 0., 212., 255., 255., 93., 0., 0., 0., 0., 0., 0., 0.,
          0., 0., 0., 0., 212., 255., 255., 93., 0., 0., 0., 0., 0., 0.,
          0., 0., 0., 0., 0., 212., 255., 255., 93., 0., 0., 0., 0., 0.,
          0., 0., 0., 0., 0., 0., 212., 255., 255., 93., 0., 0., 0., 0.,
          0., 0., 0., 0., 0., 0., 0., 212., 255., 255., 93., 0., 0., 0.,
          0., 0., 0., 0., 0., 0., 0., 0., 212., 255., 255., 93., 0., 0.,
          0., 0., 0., 0., 0., 0., 0., 0., 0., 212., 255., 255., 93., 0.,
          0., 0., 0., 0., 0., 0., 0., 0., 0., 0., 212., 255., 255., 93.,
          0., 0., 0., 0., 0., 0., 0., 0., 0., 0., 0., 212., 255., 255.,
          93., 0., 0., 0., 0., 0., 0., 0., 0., 0., 0., 0., 212., 255.,
          255., 93., 0., 0., 0., 0., 0., 0., 0., 0., 0., 0., 0., 212.,
          255., 255., 93., 0., 0., 0., 0., 0., 0., 0., 0., 0., 0., 0.,
          212., 255., 255., 93., 0., 0., 0., 0., 0., 0., 0., 0., 0., 0.,
          0., 212., 255., 255., 93., 0., 0., 0., 0., 0., 0., 0., 0., 0.,
          0., 0., 212., 255., 255., 117., 17., 0., 0., 14., 38., 38.,
          32., 0., 0., 0., 0., 212., 255., 255., 231., 94., 0., 0., 79.,
          217., 217., 181., 0., 0., 0., 0., 212., 255., 255., 255., 190.,
          140., 140., 182., 255., 255., 236., 126., 0., 0., 0., 212.,
          255., 255., 255., 255., 255., 255., 255., 255., 255., 255.,
          229., 0., 0., 0., 212., 255., 255., 255., 255., 255., 255.,
          255., 255., 255., 255., 229., 0., 0., 0., 212., 255., 255.,
          255., 255., 255., 255., 255., 255., 255., 227., 80., 0., 0.,
          0., 138., 166., 228., 255., 204., 166., 166., 166., 166., 166.,
          138., 0., 0., 0., 0., 0., 0., 170., 242., 105., 0., 0., 0., 0.,
          0., 0., 1., 13., 0., 0., 0., 0., 45., 64., 28., 0., 0., 0., 0.,
          0., 0., 19., 191., 0., 0., 0., 0., 0., 0., 0., 0., 0., 0., 0.,
          0., 0., 14., 140., 0., 0., 0., 0., 0., 0., 0., 0., 0., 0., 0.,
          0., 0., 0., 0. ]
      - [ 0., 0., 213., 255., 255., 255., 255., 255., 255., 255., 255.,
          255., 255., 128., 0., 0., 121., 253., 255., 255., 255., 255.,
          255., 255., 255., 255., 255., 255., 128., 0., 0., 127., 255.,
          255., 255., 255., 255., 255., 255., 255., 255., 255., 255.,
          244., 39., 37., 240., 255., 255., 255., 255., 255., 255., 255.,
          255., 255., 255., 255., 255., 42., 42., 255., 255., 255., 255.,
          74., 38., 38., 38., 38., 146., 255., 255., 255., 42., 42.,
          255., 255., 255., 151., 8., 0., 0., 0., 0., 23., 220., 255.,
          151., 8., 42., 255., 255., 222., 28., 0., 0., 0., 0., 0., 0.,
          46., 55., 28., 0., 42., 255., 255., 212., 0., 0., 0., 0., 0.,
          0., 0., 0., 0., 0., 0., 42., 255., 255., 243., 91., 0., 0., 0.,
          0., 0., 0., 0., 0., 0., 0., 42., 255., 255., 255., 127., 0.,
          0., 0., 0., 0., 0., 0., 0., 0., 0., 42., 255., 255., 227., 45.,
          0., 0., 0., 0., 0., 0., 0., 0., 0., 0., 42., 255., 255., 212.,
          0., 0., 0., 0., 0., 0., 0., 0., 0., 0., 0., 42., 255., 255.,
          213., 0., 0., 0., 0., 0., 0., 0., 0., 0., 0., 0., 42., 255.,
          255., 212., 0., 0., 0., 0., 0., 0., 0., 0., 0., 0., 0., 42.,
          255., 255., 212., 0., 0., 0., 0., 0., 0., 0., 0., 0., 0., 0.,
          42., 255., 255., 212., 0., 0., 0., 0., 0., 0., 0., 0., 0., 0.,
          0., 42., 255., 255., 212., 0., 0., 0., 0., 0., 0., 0., 0., 0.,
          0., 0., 42., 255., 255., 213., 0., 0., 0., 0., 0., 0., 0., 0.,
          0., 0., 0., 42., 255., 255., 212., 0., 0., 0., 0., 0., 0., 0.,
          0., 0., 0., 0., 42., 255., 255., 212., 0., 0., 0., 0., 0., 0.,
          0., 0., 0., 0., 0., 42., 255., 255., 212., 0., 0., 0., 0., 0.,
          0., 0., 0., 0., 0., 0., 102., 255., 255., 212., 0., 0., 0., 0.,
          0., 0., 0., 0., 0., 0., 0., 255., 255., 255., 223., 32., 0.,
          0., 0., 0., 11., 64., 64., 64., 32., 0., 255., 255., 255.,
          255., 127., 0., 0., 0., 0., 42., 255., 255., 255., 128., 0.,
          255., 255., 255., 255., 151., 47., 47., 47., 47., 81., 255.,
          255., 255., 128., 0., 255., 255., 255., 255., 255., 255., 255.,
          255., 255., 255., 255., 255., 249., 108., 0., 255., 255., 255.,
          255., 255., 255., 255., 255., 255., 255., 255., 255., 188., 0.,
          0., 234., 244., 255., 255., 255., 255., 255., 244., 251., 234.,
          234., 234., 0., 0., 0., 0., 121., 242., 242., 242., 253., 253.,
          121., 202., 0., 0., 0., 0., 0., 0., 0., 0., 0., 0., 0., 213.,
          213., 0., 0., 0., 0., 0., 0., 0., 0. ]
      - [ 0., 0., 0., 20., 21., 21., 21., 255., 255., 255., 255., 255.,
          255., 255., 255., 0., 25., 21., 178., 191., 191., 191., 255.,
          191., 191., 191., 191., 191., 230., 255., 14., 165., 156., 7.,
          0., 0., 0., 255., 78., 0., 0., 0., 0., 153., 255., 14., 106.,
          106., 7., 0., 0., 0., 106., 78., 0., 0., 0., 0., 64., 106., 0.,
          0., 0., 0., 0., 0., 0., 0., 0., 0., 0., 0., 0., 0., 0., 0., 0.,
          0., 0., 0., 0., 171., 234., 234., 109., 0., 0., 0., 0., 0.,
          203., 9., 177., 255., 255., 255., 255., 255., 255., 255., 255.,
          255., 170., 0., 0., 0., 102., 255., 255., 255., 255., 255.,
          255., 255., 255., 255., 255., 170., 0., 0., 0., 102., 255.,
          255., 255., 255., 255., 255., 255., 255., 255., 255., 205.,
          42., 0., 0., 102., 255., 255., 255., 255., 255., 106., 215.,
          185., 255., 255., 255., 102., 0., 0., 102., 255., 255., 255.,
          255., 115., 0., 47., 136., 255., 255., 255., 102., 0., 0., 9.,
          177., 255., 255., 146., 6., 0., 0., 11., 208., 255., 255.,
          102., 0., 0., 0., 170., 255., 204., 0., 0., 0., 0., 0., 204.,
          255., 255., 102., 0., 0., 0., 170., 255., 217., 34., 0., 0.,
          0., 0., 204., 255., 255., 102., 0., 0., 0., 170., 255., 255.,
          136., 0., 0., 0., 0., 204., 255., 255., 102., 0., 0., 0., 170.,
          255., 255., 136., 0., 0., 0., 0., 204., 255., 205., 42., 0.,
          0., 0., 170., 255., 217., 34., 0., 0., 0., 102., 242., 255.,
          170., 0., 0., 0., 0., 170., 255., 204., 0., 0., 0., 0., 136.,
          255., 255., 170., 0., 0., 0., 0., 170., 255., 204., 0., 0., 0.,
          0., 136., 255., 255., 170., 0., 0., 0., 25., 191., 255., 204.,
          0., 0., 0., 0., 136., 255., 255., 170., 0., 0., 0., 102., 255.,
          255., 204., 0., 0., 0., 0., 136., 255., 255., 170., 0., 0., 0.,
          102., 255., 255., 204., 0., 0., 0., 0., 57., 225., 255., 170.,
          0., 0., 0., 102., 255., 255., 242., 102., 0., 0., 51., 191.,
          242., 255., 170., 0., 0., 0., 102., 255., 255., 255., 245.,
          234., 234., 239., 255., 255., 255., 170., 0., 0., 0., 102.,
          255., 255., 255., 255., 255., 255., 255., 255., 255., 253.,
          156., 0., 0., 0., 102., 255., 255., 255., 255., 255., 255.,
          255., 255., 255., 178., 0., 0., 0., 0., 102., 255., 255., 255.,
          255., 177., 149., 149., 149., 149., 0., 0., 0., 0., 0., 42.,
          106., 106., 106., 106., 28., 0., 0., 0., 0., 0., 0., 0., 0.,
          0., 0., 0., 0., 0., 0., 0., 0., 0., 0., 0., 0., 0., 0., 0., 0.,
          0., 0., 0., 0., 0., 0., 0., 0., 0., 0., 0., 0., 0., 0. ]
      - [ 0., 0., 0., 0., 0., 0., 0., 0., 0., 0., 0., 0., 0., 0., 0., 0.,
          0., 0., 0., 0., 0., 0., 0., 0., 0., 0., 0., 0., 0., 0., 0., 0.,
          0., 0., 0., 0., 0., 0., 0., 0., 0., 0., 0., 0., 0., 0., 0., 0.,
          0., 0., 0., 0., 0., 0., 0., 0., 0., 0., 0., 0., 0., 0., 0., 0.,
          0., 0., 0., 0., 0., 0., 0., 0., 0., 122., 153., 0., 0., 0., 0.,
          0., 0., 0., 0., 0., 0., 0., 0., 0., 54., 68., 0., 0., 0., 0.,
          0., 0., 0., 0., 0., 0., 0., 0., 0., 0., 0., 0., 0., 0., 0., 0.,
          0., 221., 255., 255., 255., 255., 255., 85., 0., 0., 0., 0.,
          85., 255., 255., 255., 255., 255., 255., 255., 255., 255.,
          108., 7., 0., 0., 14., 130., 255., 255., 255., 255., 255.,
          255., 255., 255., 255., 255., 105., 5., 0., 51., 255., 255.,
          255., 255., 255., 255., 255., 255., 255., 255., 255., 255.,
          17., 0., 24., 164., 255., 255., 255., 255., 119., 119., 155.,
          255., 255., 255., 255., 17., 0., 0., 85., 255., 255., 255.,
          108., 0., 0., 23., 153., 255., 255., 119., 6., 0., 0., 85.,
          255., 255., 255., 34., 0., 0., 0., 102., 255., 255., 51., 0.,
          0., 0., 85., 255., 255., 255., 34., 0., 0., 63., 245., 255.,
          255., 51., 0., 0., 0., 85., 255., 255., 255., 34., 0., 0., 63.,
          245., 255., 255., 51., 0., 0., 0., 85., 255., 255., 255., 34.,
          0., 0., 14., 133., 255., 255., 51., 0., 0., 0., 85., 255.,
          255., 255., 34., 0., 0., 68., 255., 255., 255., 51., 0., 0.,
          0., 85., 255., 255., 255., 34., 0., 0., 68., 255., 255., 255.,
          51., 0., 0., 0., 85., 255., 255., 255., 34., 0., 0., 68., 255.,
          255., 255., 51., 0., 0., 0., 85., 255., 255., 255., 34., 0.,
          0., 68., 255., 255., 255., 51., 0., 0., 0., 85., 255., 255.,
          255., 34., 0., 0., 68., 255., 255., 255., 51., 0., 0., 0., 85.,
          255., 255., 255., 34., 0., 0., 68., 255., 255., 255., 51., 0.,
          0., 51., 255., 255., 255., 255., 255., 255., 255., 255., 255.,
          255., 232., 44., 0., 0., 51., 255., 255., 255., 255., 255.,
          255., 255., 255., 255., 255., 85., 0., 0., 0., 51., 255., 255.,
          255., 255., 255., 255., 255., 255., 255., 255., 85., 0., 0.,
          0., 51., 255., 255., 255., 255., 255., 255., 237., 119., 119.,
          119., 40., 0., 127., 0., 51., 255., 176., 85., 85., 85., 85.,
          74., 0., 0., 91., 170., 34., 238., 0., 10., 51., 27., 0., 0.,
          0., 0., 0., 0., 0., 27., 51., 10., 48., 0., 0., 0., 0., 0., 0.,
          0., 0., 0., 0., 0., 0., 0., 0., 0. ]
      - [ 0., 0., 170., 255., 255., 255., 255., 255., 255., 255., 255.,
          136., 0., 0., 0., 0., 0., 170., 255., 255., 255., 243., 166.,
          243., 255., 255., 178., 60., 0., 0., 0., 0., 170., 255., 255.,
          255., 224., 21., 224., 255., 255., 245., 156., 0., 0., 0., 0.,
          170., 255., 255., 222., 114., 0., 114., 222., 255., 255., 170.,
          0., 0., 0., 0., 170., 255., 250., 178., 0., 0., 0., 187., 255.,
          255., 170., 0., 0., 0., 0., 170., 255., 192., 72., 0., 0., 0.,
          187., 255., 255., 170., 0., 0., 0., 0., 170., 255., 153., 0.,
          0., 0., 0., 187., 255., 255., 170., 0., 0., 0., 0., 170., 255.,
          153., 0., 0., 0., 0., 187., 255., 255., 170., 0., 0., 0., 0.,
          170., 255., 185., 59., 0., 0., 0., 187., 255., 255., 170., 0.,
          0., 0., 0., 170., 255., 243., 165., 0., 0., 0., 187., 255.,
          255., 170., 0., 0., 0., 0., 170., 255., 209., 103., 0., 0., 0.,
          187., 255., 255., 170., 0., 0., 0., 0., 170., 255., 153., 0.,
          0., 0., 0., 187., 255., 255., 170., 0., 0., 0., 0., 170., 255.,
          153., 0., 0., 0., 0., 187., 255., 255., 170., 0., 0., 0., 0.,
          170., 255., 153., 0., 0., 0., 0., 187., 255., 255., 170., 0.,
          0., 0., 0., 170., 255., 153., 0., 0., 0., 0., 187., 255., 255.,
          170., 0., 0., 0., 0., 170., 255., 153., 0., 0., 0., 0., 187.,
          255., 255., 170., 0., 0., 0., 0., 170., 255., 153., 0., 0., 0.,
          0., 187., 255., 255., 170., 0., 0., 0., 0., 170., 255., 153.,
          0., 0., 0., 0., 187., 255., 255., 170., 0., 0., 0., 0., 170.,
          255., 153., 0., 0., 0., 0., 187., 255., 255., 170., 0., 0., 0.,
          0., 170., 255., 153., 0., 0., 0., 0., 187., 255., 255., 170.,
          0., 0., 0., 24., 180., 255., 165., 22., 0., 0., 0., 187., 255.,
          255., 170., 0., 0., 0., 139., 228., 255., 222., 128., 0., 0.,
          0., 187., 255., 255., 170., 0., 0., 0., 204., 255., 255., 255.,
          204., 64., 64., 64., 204., 255., 225., 127., 0., 0., 0., 204.,
          255., 255., 255., 242., 208., 208., 208., 242., 255., 158.,
          31., 0., 0., 0., 204., 255., 203., 157., 183., 255., 255.,
          255., 255., 196., 84., 0., 0., 0., 0., 204., 255., 126., 13.,
          77., 255., 255., 255., 255., 109., 7., 0., 0., 0., 0., 99.,
          123., 58., 0., 33., 123., 123., 123., 123., 49., 0., 44., 132.,
          132., 0., 0., 0., 0., 0., 0., 0., 0., 0., 0., 0., 0., 78.,
          234., 234., 0., 0., 0., 0., 0., 0., 0., 0., 0., 0., 0., 0.,
          30., 89., 89., 0., 0., 0., 0., 0., 0., 0., 0., 0., 0., 0., 0.,
          0., 0., 0. ]
      - [ 0., 0., 0., 0., 8., 5., 0., 0., 0., 5., 2., 0., 0., 0., 0., 0.,
          10., 26., 26., 255., 136., 0., 26., 19., 136., 71., 26., 26.,
          10., 0., 0., 102., 255., 255., 255., 156., 42., 255., 198.,
          156., 255., 255., 255., 102., 0., 0., 102., 255., 255., 255.,
          255., 255., 255., 255., 255., 255., 255., 255., 138., 8., 0.,
          102., 255., 255., 255., 255., 255., 255., 255., 255., 255.,
          255., 255., 209., 24., 12., 158., 255., 255., 255., 255., 255.,
          255., 255., 255., 255., 255., 224., 65., 0., 34., 255., 255.,
          255., 255., 255., 174., 145., 174., 255., 255., 145., 96., 0.,
          0., 34., 255., 255., 255., 229., 128., 34., 0., 34., 128.,
          128., 0., 0., 0., 0., 34., 255., 255., 255., 88., 0., 0., 0.,
          0., 0., 0., 0., 0., 0., 0., 34., 255., 255., 255., 0., 0., 0.,
          0., 0., 0., 0., 0., 0., 0., 0., 34., 255., 255., 255., 0., 0.,
          0., 0., 0., 0., 0., 0., 0., 0., 0., 34., 255., 255., 255.,
          156., 0., 0., 0., 52., 195., 39., 0., 0., 0., 0., 34., 255.,
          255., 255., 246., 213., 213., 213., 224., 255., 51., 0., 0.,
          0., 0., 34., 255., 255., 255., 255., 255., 255., 255., 255.,
          255., 51., 0., 0., 0., 0., 34., 255., 255., 255., 255., 255.,
          255., 255., 255., 255., 51., 0., 0., 0., 0., 0., 102., 255.,
          255., 253., 250., 255., 247., 255., 255., 51., 0., 0., 0., 0.,
          26., 117., 255., 255., 204., 107., 229., 0., 229., 243., 51.,
          0., 0., 0., 0., 255., 255., 255., 255., 170., 0., 0., 0., 0.,
          113., 43., 0., 0., 0., 0., 203., 255., 255., 255., 0., 0., 0.,
          0., 0., 0., 0., 0., 0., 0., 0., 34., 255., 255., 255., 0., 0.,
          0., 0., 0., 0., 0., 0., 0., 0., 0., 34., 255., 255., 255., 75.,
          0., 0., 0., 0., 0., 0., 0., 0., 0., 0., 34., 255., 255., 255.,
          226., 110., 110., 110., 81., 0., 0., 0., 0., 0., 0., 34., 255.,
          255., 255., 255., 255., 255., 255., 221., 128., 128., 128.,
          85., 0., 0., 34., 255., 255., 255., 255., 255., 255., 255.,
          255., 255., 255., 255., 218., 58., 0., 34., 255., 255., 255.,
          255., 255., 255., 255., 255., 255., 255., 255., 255., 102., 0.,
          10., 148., 255., 255., 255., 255., 255., 255., 255., 255.,
          255., 255., 255., 102., 0., 0., 24., 190., 255., 216., 60.,
          60., 60., 255., 151., 216., 255., 255., 102., 0., 0., 0., 28.,
          42., 34., 0., 0., 0., 42., 20., 34., 241., 42., 17., 0., 0.,
          0., 0., 0., 0., 0., 0., 0., 0., 0., 0., 24., 0., 0., 0., 0.,
          0., 0., 0., 0., 0., 0., 0., 0., 0., 0., 0., 0., 0., 0. ]
      - [ 0., 0., 255., 255., 255., 255., 255., 255., 0., 0., 0., 255.,
          255., 255., 255., 0., 0., 255., 255., 255., 255., 255., 26.,
          0., 0., 0., 26., 26., 26., 26., 0., 0., 42., 42., 42., 42.,
          42., 0., 0., 0., 0., 0., 0., 0., 0., 0., 0., 0., 0., 0., 0.,
          0., 0., 0., 0., 0., 0., 0., 0., 0., 0., 0., 0., 0., 0., 0., 0.,
          0., 0., 0., 0., 0., 0., 0., 0., 0., 0., 0., 0., 0., 161., 161.,
          161., 161., 161., 161., 161., 161., 0., 0., 0., 145., 145.,
          145., 145., 255., 255., 255., 255., 255., 255., 255., 255., 0.,
          0., 0., 255., 255., 255., 255., 255., 255., 255., 255., 255.,
          255., 255., 255., 0., 0., 0., 255., 255., 255., 255., 255.,
          255., 255., 255., 255., 255., 255., 255., 0., 0., 0., 255.,
          255., 255., 255., 255., 161., 161., 255., 255., 255., 255.,
          161., 0., 0., 0., 255., 255., 255., 255., 255., 0., 0., 179.,
          179., 179., 179., 0., 0., 0., 0., 255., 255., 255., 255., 195.,
          0., 0., 0., 0., 0., 0., 0., 0., 0., 0., 255., 255., 255., 255.,
          0., 0., 0., 0., 0., 0., 0., 0., 0., 0., 0., 229., 255., 255.,
          255., 26., 26., 26., 26., 26., 0., 0., 0., 0., 0., 0., 0.,
          255., 255., 255., 255., 255., 255., 255., 255., 8., 0., 0., 0.,
          0., 0., 0., 255., 255., 255., 255., 255., 255., 255., 255.,
          247., 0., 0., 0., 0., 0., 0., 255., 255., 255., 255., 255.,
          255., 255., 255., 255., 0., 0., 0., 0., 0., 0., 255., 255.,
          255., 255., 255., 255., 255., 255., 255., 0., 0., 0., 0., 0.,
          0., 255., 255., 255., 255., 255., 255., 255., 60., 60., 0., 0.,
          0., 0., 0., 0., 255., 255., 255., 255., 76., 76., 76., 0., 0.,
          0., 0., 0., 0., 0., 0., 255., 255., 255., 255., 0., 0., 0., 0.,
          0., 0., 0., 0., 0., 0., 0., 255., 255., 255., 255., 0., 0., 0.,
          0., 0., 0., 0., 0., 0., 0., 0., 255., 255., 255., 255., 128.,
          128., 128., 128., 128., 128., 128., 0., 0., 0., 0., 255., 255.,
          255., 255., 255., 255., 255., 255., 255., 255., 255., 110., 0.,
          0., 0., 255., 255., 255., 255., 255., 255., 255., 255., 255.,
          255., 255., 255., 0., 0., 0., 179., 255., 255., 255., 255.,
          255., 255., 255., 255., 255., 255., 255., 76., 0., 0., 0.,
          255., 255., 195., 195., 195., 255., 255., 255., 255., 255.,
          255., 195., 42., 42., 42., 213., 213., 0., 0., 0., 213., 213.,
          213., 213., 213., 213., 0., 229., 229., 229., 0., 0., 0., 0.,
          0., 0., 0., 0., 0., 0., 0., 0., 0., 0., 0., 0., 0., 0., 0., 0.,
          0., 0., 0., 0., 0., 0., 0. ]
      - [ 0., 0., 0., 0., 0., 0., 0., 0., 0., 0., 0., 0., 0., 0., 0., 0.,
          0., 0., 0., 0., 0., 0., 0., 0., 0., 0., 0., 0., 0., 0., 0., 0.,
          0., 0., 0., 0., 0., 0., 0., 0., 0., 0., 0., 0., 0., 0., 0., 0.,
          167., 179., 179., 48., 0., 48., 179., 179., 179., 179., 179.,
          24., 31., 229., 229., 253., 255., 255., 236., 229., 236., 255.,
          255., 255., 255., 255., 233., 34., 255., 255., 255., 255.,
          255., 255., 255., 255., 255., 255., 255., 255., 255., 255.,
          34., 255., 255., 255., 255., 255., 255., 255., 255., 255.,
          255., 255., 255., 255., 189., 34., 255., 255., 255., 255.,
          255., 161., 128., 161., 255., 153., 128., 128., 128., 17., 10.,
          148., 255., 255., 255., 171., 20., 0., 20., 76., 15., 0., 0.,
          0., 0., 0., 102., 255., 255., 255., 136., 0., 0., 0., 0., 0.,
          0., 0., 0., 0., 0., 102., 255., 255., 255., 136., 0., 0., 0.,
          0., 0., 0., 0., 0., 0., 0., 102., 255., 255., 255., 171., 20.,
          0., 0., 0., 0., 0., 0., 0., 0., 0., 102., 255., 255., 255.,
          255., 161., 128., 128., 128., 26., 0., 0., 0., 0., 24., 209.,
          255., 255., 255., 255., 255., 255., 255., 255., 194., 0., 0.,
          0., 0., 34., 255., 255., 255., 255., 255., 255., 255., 255.,
          255., 255., 0., 0., 0., 0., 31., 239., 255., 255., 255., 255.,
          255., 255., 255., 255., 234., 0., 0., 0., 0., 0., 71., 229.,
          255., 255., 255., 255., 255., 179., 179., 36., 0., 0., 0., 0.,
          0., 51., 212., 255., 255., 195., 128., 128., 0., 0., 0., 0.,
          0., 0., 0., 0., 102., 255., 255., 255., 136., 0., 0., 0., 0.,
          0., 0., 0., 0., 0., 0., 102., 255., 255., 255., 136., 0., 0.,
          0., 0., 0., 0., 0., 0., 0., 0., 102., 255., 255., 255., 136.,
          0., 0., 0., 14., 26., 26., 26., 10., 0., 10., 148., 255., 255.,
          255., 171., 76., 76., 76., 171., 255., 255., 255., 148., 10.,
          144., 255., 255., 255., 255., 255., 255., 255., 255., 255.,
          255., 255., 255., 255., 144., 255., 255., 255., 255., 255.,
          255., 255., 255., 255., 255., 255., 255., 255., 255., 255.,
          26., 117., 255., 255., 255., 255., 255., 255., 255., 255.,
          255., 255., 255., 255., 56., 0., 92., 246., 255., 255., 255.,
          255., 229., 229., 229., 229., 229., 229., 92., 0., 76., 76.,
          195., 255., 240., 179., 179., 0., 0., 0., 0., 0., 0., 0., 0.,
          255., 255., 255., 255., 102., 0., 0., 0., 0., 0., 0., 0., 0.,
          0., 0., 231., 76., 76., 76., 0., 0., 0., 0., 0., 0., 0., 0.,
          0., 0., 0., 22., 0., 0., 0., 0., 0., 0., 0., 0., 0., 0., 0.,
          0., 0., 0. ]
      - [ 0., 0., 0., 0., 0., 0., 0., 0., 0., 0., 0., 0., 0., 0., 0., 0.,
          0., 0., 0., 0., 0., 0., 0., 0., 0., 0., 0., 0., 0., 0., 0., 0.,
          0., 0., 0., 0., 42., 0., 0., 0., 0., 0., 0., 42., 42., 0., 0.,
          0., 0., 0., 0., 195., 0., 0., 0., 0., 0., 0., 195., 255., 0.,
          0., 0., 0., 0., 0., 0., 0., 0., 0., 0., 0., 0., 0., 179., 0.,
          0., 0., 0., 0., 0., 0., 0., 0., 0., 0., 0., 0., 0., 0., 0., 0.,
          0., 0., 0., 0., 0., 0., 0., 0., 0., 0., 0., 0., 0., 0., 0., 0.,
          0., 0., 128., 128., 128., 128., 128., 128., 128., 128., 0., 0.,
          0., 0., 145., 145., 145., 255., 255., 255., 255., 255., 255.,
          255., 255., 145., 0., 161., 161., 255., 255., 255., 255., 255.,
          255., 255., 255., 255., 255., 255., 94., 0., 76., 255., 255.,
          255., 255., 255., 255., 255., 255., 255., 255., 255., 255., 0.,
          0., 0., 255., 255., 255., 255., 255., 255., 255., 255., 255.,
          255., 255., 60., 0., 0., 0., 42., 255., 255., 255., 42., 42.,
          42., 42., 42., 42., 42., 0., 0., 0., 0., 0., 255., 255., 255.,
          0., 0., 0., 0., 0., 0., 0., 0., 0., 0., 0., 0., 255., 255.,
          255., 247., 0., 0., 0., 247., 0., 0., 0., 0., 0., 0., 0., 255.,
          255., 255., 255., 255., 255., 255., 255., 255., 0., 0., 0., 0.,
          0., 0., 255., 255., 255., 255., 255., 255., 255., 255., 255.,
          0., 0., 0., 0., 0., 0., 255., 255., 255., 255., 255., 255.,
          255., 255., 213., 0., 0., 0., 0., 0., 0., 255., 255., 255.,
          255., 255., 255., 255., 195., 0., 0., 0., 0., 0., 0., 0., 179.,
          255., 255., 255., 255., 179., 179., 0., 0., 0., 0., 0., 0., 0.,
          0., 0., 255., 255., 255., 161., 0., 0., 0., 0., 0., 0., 0., 0.,
          0., 0., 110., 255., 255., 255., 0., 0., 0., 0., 0., 0., 0., 0.,
          0., 0., 0., 255., 255., 255., 255., 128., 0., 0., 0., 0., 0.,
          0., 0., 0., 0., 0., 110., 255., 255., 255., 255., 0., 0., 0.,
          0., 0., 0., 0., 0., 0., 0., 0., 255., 255., 255., 94., 0., 0.,
          0., 0., 0., 0., 0., 0., 0., 0., 179., 255., 255., 255., 0., 0.,
          179., 179., 0., 0., 0., 179., 179., 0., 0., 255., 255., 255.,
          255., 0., 0., 60., 60., 0., 0., 195., 255., 255., 0., 0., 42.,
          42., 255., 255., 0., 0., 0., 0., 0., 0., 255., 255., 255., 0.,
          0., 0., 0., 26., 26., 0., 0., 0., 0., 0., 0., 26., 26., 26.,
          0., 0., 0., 0., 0., 0., 0., 0., 0., 0., 0., 0., 0., 0., 0. ]
      - [ 255., 255., 241., 234., 0., 0., 0., 0., 234., 234., 234., 0.,
          0., 0., 0., 247., 191., 64., 0., 0., 0., 0., 0., 0., 0., 0.,
          0., 0., 0., 0., 129., 0., 0., 0., 0., 0., 0., 0., 0., 0., 0.,
          0., 0., 0., 0., 0., 0., 0., 139., 149., 149., 149., 149., 149.,
          149., 149., 149., 149., 60., 0., 25., 115., 127., 251., 255.,
          255., 255., 255., 255., 255., 255., 255., 255., 217., 191.,
          34., 246., 248., 255., 255., 255., 255., 255., 255., 255.,
          255., 255., 255., 115., 21., 31., 242., 255., 255., 251., 234.,
          249., 255., 255., 255., 255., 255., 170., 0., 0., 0., 102.,
          255., 255., 204., 0., 140., 255., 255., 255., 204., 196., 170.,
          0., 0., 0., 102., 255., 255., 119., 0., 0., 149., 255., 198.,
          30., 10., 99., 0., 0., 20., 191., 255., 255., 0., 0., 0., 0.,
          106., 50., 0., 0., 0., 0., 0., 34., 255., 255., 255., 0., 0.,
          0., 0., 0., 0., 0., 0., 0., 0., 0., 34., 255., 255., 255., 0.,
          0., 0., 0., 0., 0., 0., 0., 0., 0., 0., 34., 255., 255., 255.,
          21., 11., 0., 0., 0., 0., 0., 0., 0., 0., 18., 34., 255., 255.,
          255., 255., 166., 64., 64., 47., 0., 0., 0., 0., 0., 221., 34.,
          255., 255., 255., 255., 255., 255., 255., 215., 106., 21., 0.,
          0., 0., 221., 34., 255., 255., 255., 255., 255., 255., 255.,
          255., 255., 51., 10., 99., 0., 221., 34., 255., 255., 255.,
          255., 255., 255., 255., 255., 255., 51., 17., 170., 0., 221.,
          34., 255., 255., 255., 255., 255., 255., 255., 255., 130., 4.,
          1., 14., 0., 221., 31., 242., 255., 255., 255., 136., 16.,
          255., 187., 0., 0., 0., 0., 0., 221., 8., 140., 255., 255.,
          242., 102., 140., 191., 140., 0., 0., 0., 21., 64., 230., 34.,
          255., 255., 255., 204., 0., 0., 0., 0., 0., 0., 0., 85., 255.,
          255., 34., 255., 255., 255., 204., 0., 0., 0., 0., 0., 0., 0.,
          85., 255., 255., 34., 255., 255., 255., 204., 0., 0., 0., 0.,
          0., 0., 0., 85., 255., 255., 34., 255., 255., 255., 204., 0.,
          0., 0., 0., 0., 0., 0., 85., 255., 255., 34., 255., 255., 255.,
          204., 0., 0., 0., 0., 0., 0., 0., 85., 255., 255., 34., 255.,
          255., 255., 204., 0., 0., 0., 0., 0., 0., 0., 85., 255., 200.,
          126., 255., 255., 255., 204., 0., 0., 0., 0., 0., 0., 0., 50.,
          149., 20., 255., 255., 255., 255., 85., 0., 0., 0., 0., 0., 0.,
          149., 149., 149., 149., 255., 255., 255., 77., 0., 0., 0., 0.,
          0., 0., 0., 255., 255., 255., 255., 21., 21., 21., 1., 0., 0.,
          0., 0., 0., 0., 0., 21., 99., 255., 255. ]
      - [ 17., 255., 255., 255., 255., 255., 255., 255., 255., 255.,
          255., 255., 255., 255., 255., 65., 255., 255., 255., 255.,
          255., 255., 255., 248., 204., 204., 204., 204., 204., 252.,
          170., 170., 170., 170., 170., 170., 170., 170., 147., 0., 0.,
          0., 0., 0., 159., 0., 0., 0., 0., 0., 0., 0., 0., 0., 0., 0.,
          0., 0., 0., 0., 0., 0., 0., 0., 0., 0., 0., 153., 153., 153.,
          153., 153., 153., 31., 0., 0., 0., 62., 187., 187., 187., 187.,
          255., 255., 255., 255., 255., 255., 201., 13., 15., 221., 232.,
          255., 255., 255., 255., 255., 255., 255., 255., 255., 255.,
          255., 17., 255., 255., 255., 255., 255., 255., 255., 255.,
          255., 255., 255., 255., 255., 255., 17., 17., 255., 255., 255.,
          255., 255., 255., 255., 255., 255., 255., 255., 255., 228.,
          15., 17., 255., 255., 255., 255., 205., 187., 187., 187., 187.,
          214., 255., 255., 51., 0., 17., 255., 255., 255., 255., 68.,
          0., 0., 0., 0., 61., 153., 153., 31., 0., 17., 255., 255.,
          255., 173., 32., 0., 0., 0., 0., 0., 0., 0., 0., 0., 17., 255.,
          255., 255., 204., 45., 0., 0., 0., 0., 0., 0., 0., 0., 0., 17.,
          255., 255., 255., 255., 217., 204., 204., 177., 0., 0., 0., 0.,
          0., 0., 17., 255., 255., 255., 255., 255., 255., 255., 253.,
          238., 143., 0., 0., 0., 0., 17., 255., 255., 255., 255., 255.,
          255., 255., 255., 255., 153., 0., 0., 0., 0., 17., 255., 255.,
          255., 255., 255., 255., 255., 255., 255., 153., 0., 0., 0., 0.,
          17., 255., 255., 255., 255., 255., 255., 255., 255., 232.,
          102., 0., 0., 0., 0., 17., 255., 255., 255., 255., 167., 136.,
          136., 136., 100., 0., 0., 0., 0., 0., 17., 255., 255., 255.,
          255., 68., 0., 0., 0., 0., 0., 0., 0., 0., 0., 17., 255., 255.,
          255., 143., 18., 0., 0., 0., 0., 0., 0., 0., 0., 0., 17., 255.,
          255., 255., 102., 0., 0., 0., 0., 0., 0., 0., 0., 0., 0., 17.,
          255., 255., 255., 102., 0., 0., 0., 0., 0., 0., 0., 0., 0., 0.,
          17., 255., 255., 255., 102., 0., 0., 0., 0., 0., 0., 0., 0.,
          0., 0., 80., 255., 255., 255., 102., 0., 0., 0., 0., 0., 0.,
          0., 0., 0., 0., 255., 255., 255., 255., 102., 0., 0., 0., 0.,
          0., 0., 0., 0., 0., 0., 255., 255., 255., 191., 48., 0., 0.,
          0., 0., 0., 0., 0., 0., 0., 0., 255., 255., 198., 45., 0., 0.,
          0., 0., 0., 0., 0., 0., 0., 0., 0., 255., 214., 34., 0., 0.,
          0., 0., 0., 0., 0., 0., 0., 0., 0., 0., 17., 14., 0., 0., 0.,
          0., 0., 0., 0., 0., 0., 0., 0., 0., 0. ]
      - [ 17., 255., 255., 255., 255., 255., 255., 255., 255., 255.,
          255., 123., 3., 0., 0., 41., 255., 255., 255., 255., 255.,
          255., 255., 255., 255., 255., 255., 102., 26., 2., 255., 255.,
          255., 255., 255., 255., 255., 255., 255., 255., 255., 255.,
          255., 255., 17., 255., 255., 255., 255., 255., 255., 255.,
          255., 255., 255., 255., 255., 255., 255., 17., 255., 255.,
          255., 255., 255., 255., 189., 179., 189., 255., 255., 255.,
          255., 194., 12., 255., 255., 255., 255., 255., 186., 22., 0.,
          22., 186., 255., 255., 193., 32., 0., 255., 255., 255., 255.,
          189., 39., 0., 0., 0., 39., 145., 145., 48., 0., 0., 255.,
          255., 255., 255., 102., 0., 0., 0., 0., 0., 0., 0., 0., 0., 0.,
          255., 255., 255., 255., 102., 0., 0., 0., 0., 0., 0., 0., 0.,
          0., 0., 255., 255., 255., 255., 102., 0., 0., 0., 0., 0., 0.,
          0., 0., 0., 0., 255., 255., 255., 255., 102., 0., 0., 0., 0.,
          0., 0., 0., 0., 0., 0., 255., 255., 255., 255., 102., 0., 0.,
          0., 195., 195., 195., 195., 195., 195., 13., 255., 255., 255.,
          255., 102., 0., 0., 0., 255., 255., 255., 255., 255., 255.,
          17., 255., 255., 255., 255., 102., 0., 0., 0., 255., 255.,
          255., 255., 255., 255., 17., 255., 255., 255., 255., 102., 0.,
          0., 0., 255., 255., 255., 255., 255., 255., 17., 255., 255.,
          255., 255., 102., 0., 0., 0., 247., 249., 255., 255., 255.,
          255., 25., 255., 255., 255., 255., 102., 0., 0., 0., 0., 68.,
          255., 255., 255., 255., 255., 255., 255., 255., 255., 127.,
          11., 0., 0., 0., 57., 229., 255., 255., 255., 255., 255., 255.,
          255., 255., 255., 112., 60., 60., 52., 16., 138., 255., 255.,
          255., 199., 255., 255., 255., 255., 255., 255., 255., 255.,
          231., 124., 255., 255., 255., 255., 17., 255., 255., 255.,
          255., 255., 255., 255., 255., 255., 255., 255., 255., 255.,
          255., 17., 255., 255., 255., 255., 255., 255., 255., 255.,
          255., 255., 255., 255., 255., 255., 17., 128., 153., 255.,
          255., 255., 255., 255., 255., 255., 255., 255., 255., 255.,
          153., 9., 135., 22., 110., 110., 110., 216., 255., 255., 255.,
          255., 255., 255., 159., 22., 0., 249., 129., 0., 0., 0., 69.,
          94., 94., 94., 94., 94., 94., 31., 0., 0., 255., 204., 0., 0.,
          0., 0., 0., 0., 0., 0., 0., 0., 0., 0., 0., 255., 204., 0., 0.,
          0., 0., 0., 0., 0., 0., 0., 0., 0., 0., 0., 255., 204., 0., 0.,
          0., 0., 0., 0., 0., 0., 0., 0., 0., 0., 0., 255., 204., 0., 0.,
          0., 0., 0., 0., 0., 0., 0., 0., 0., 0., 0., 255., 253., 164.,
          0., 0., 0., 0., 0., 0., 0., 0., 0., 0., 0., 0. ]
      - [ 0., 0., 0., 0., 0., 0., 0., 0., 0., 0., 0., 0., 0., 0., 0., 0.,
          11., 38., 38., 38., 38., 38., 38., 38., 38., 0., 0., 0., 0.,
          0., 6., 121., 255., 255., 255., 255., 255., 255., 255., 255.,
          57., 0., 0., 0., 0., 106., 255., 255., 255., 255., 255., 255.,
          255., 255., 255., 238., 63., 0., 0., 0., 255., 255., 255.,
          255., 255., 255., 255., 255., 255., 255., 255., 213., 57., 0.,
          0., 255., 255., 255., 255., 255., 255., 255., 255., 255., 255.,
          255., 255., 128., 0., 0., 255., 255., 255., 255., 255., 255.,
          255., 255., 255., 255., 255., 255., 128., 0., 0., 255., 255.,
          255., 255., 255., 236., 64., 159., 121., 236., 255., 255.,
          128., 0., 0., 255., 255., 255., 255., 255., 34., 0., 19., 11.,
          34., 38., 38., 19., 0., 0., 255., 255., 255., 255., 255., 0.,
          0., 0., 0., 0., 0., 0., 0., 0., 0., 255., 255., 255., 255.,
          244., 0., 0., 0., 0., 0., 0., 0., 0., 0., 0., 255., 255., 255.,
          255., 25., 0., 0., 0., 0., 0., 0., 0., 0., 0., 0., 255., 255.,
          255., 255., 25., 0., 19., 64., 19., 0., 0., 0., 0., 0., 0.,
          255., 255., 255., 255., 25., 0., 76., 255., 139., 89., 89.,
          63., 0., 0., 0., 255., 255., 255., 255., 25., 11., 157., 255.,
          255., 255., 255., 213., 115., 34., 0., 255., 255., 255., 255.,
          25., 25., 255., 255., 255., 255., 255., 255., 255., 76., 0.,
          255., 255., 255., 255., 25., 25., 255., 255., 255., 255., 255.,
          255., 255., 76., 0., 255., 255., 255., 255., 25., 6., 64.,
          159., 255., 255., 255., 255., 255., 76., 0., 60., 255., 255.,
          255., 25., 0., 0., 19., 190., 255., 255., 255., 255., 76., 0.,
          26., 255., 255., 255., 244., 0., 0., 0., 178., 255., 255.,
          255., 255., 76., 0., 26., 255., 255., 255., 255., 13., 13.,
          13., 13., 231., 255., 255., 255., 76., 0., 25., 255., 255.,
          255., 255., 255., 255., 255., 255., 255., 255., 255., 255.,
          76., 0., 19., 210., 255., 255., 255., 255., 255., 255., 255.,
          255., 255., 255., 255., 76., 0., 0., 50., 210., 255., 255.,
          255., 255., 255., 255., 255., 255., 255., 210., 50., 0., 0.,
          0., 70., 220., 255., 255., 255., 255., 255., 255., 243., 140.,
          70., 0., 0., 0., 0., 0., 80., 115., 129., 213., 115., 213.,
          255., 103., 0., 0., 0., 0., 0., 0., 0., 0., 0., 9., 63., 0.,
          63., 89., 0., 0., 0., 0., 0., 0., 0., 0., 0., 0., 0., 0., 0.,
          0., 0., 0., 0., 0., 0., 0., 0., 0., 0., 0., 0., 0., 0., 0., 0.,
          0., 0., 0., 0., 0., 0., 0., 0., 0., 0., 0., 0., 0., 0., 0., 0.,
          0., 0., 0., 0., 0. ]
      - [ 0., 0., 0., 0., 0., 0., 0., 0., 2., 8., 2., 0., 0., 0., 0., 0.,
          0., 0., 0., 26., 26., 26., 26., 87., 255., 71., 0., 0., 0., 0.,
          0., 0., 28., 42., 255., 255., 255., 255., 255., 255., 255.,
          40., 0., 0., 0., 0., 0., 170., 255., 255., 255., 255., 255.,
          255., 255., 255., 238., 0., 0., 0., 0., 31., 195., 255., 255.,
          255., 255., 255., 255., 255., 255., 243., 51., 0., 0., 0.,
          102., 255., 255., 255., 255., 255., 255., 255., 255., 255.,
          255., 170., 0., 0., 15., 168., 255., 255., 255., 203., 145.,
          145., 174., 255., 255., 255., 170., 0., 0., 34., 255., 255.,
          255., 229., 68., 0., 0., 34., 195., 255., 255., 170., 0., 0.,
          34., 255., 255., 255., 88., 0., 0., 0., 0., 59., 110., 110.,
          74., 0., 0., 34., 255., 255., 255., 0., 0., 0., 0., 0., 0., 0.,
          0., 0., 0., 0., 34., 255., 255., 255., 0., 0., 0., 0., 0., 0.,
          0., 0., 0., 0., 0., 8., 138., 255., 255., 0., 0., 0., 0., 0.,
          0., 0., 0., 0., 0., 0., 0., 102., 255., 255., 0., 0., 0., 0.,
          0., 0., 0., 0., 0., 0., 0., 0., 102., 255., 255., 184., 0., 0.,
          0., 0., 0., 184., 214., 0., 0., 0., 0., 102., 255., 255., 204.,
          0., 0., 0., 66., 247., 253., 254., 164., 0., 0., 34., 255.,
          255., 255., 204., 0., 0., 8., 255., 255., 255., 255., 255.,
          102., 0., 31., 239., 255., 255., 204., 0., 0., 229., 255.,
          255., 255., 255., 255., 102., 0., 6., 127., 255., 255., 204.,
          0., 0., 0., 255., 255., 255., 255., 255., 102., 0., 34., 255.,
          255., 255., 204., 0., 0., 0., 195., 227., 255., 255., 255.,
          102., 0., 34., 255., 255., 255., 204., 0., 0., 0., 0., 136.,
          255., 255., 255., 102., 0., 22., 199., 255., 255., 204., 0.,
          0., 0., 0., 136., 255., 255., 255., 102., 0., 15., 168., 255.,
          255., 226., 59., 0., 0., 29., 187., 255., 255., 255., 102., 0.,
          34., 255., 255., 255., 255., 195., 128., 128., 161., 255.,
          255., 255., 255., 102., 0., 34., 255., 255., 255., 255., 255.,
          255., 255., 255., 255., 255., 255., 255., 102., 0., 34., 255.,
          255., 255., 255., 255., 255., 255., 255., 255., 255., 255.,
          255., 102., 0., 10., 148., 255., 255., 255., 255., 255., 255.,
          255., 255., 255., 255., 195., 31., 0., 0., 24., 60., 60., 255.,
          255., 255., 255., 255., 255., 99., 60., 40., 0., 0., 0., 0.,
          0., 0., 85., 255., 99., 42., 42., 42., 8., 0., 0., 128., 213.,
          0., 0., 0., 0., 5., 26., 7., 0., 0., 0., 0., 214., 77., 245.,
          255., 0., 0., 0., 0., 0., 0., 0., 0., 0., 0., 0., 24., 249.,
          255., 255. ]
      - [ 0., 0., 85., 255., 102., 0., 0., 0., 0., 0., 0., 136., 255.,
          51., 0., 15., 229., 238., 255., 102., 0., 0., 0., 31., 168.,
          92., 243., 255., 235., 15., 17., 255., 255., 255., 102., 0.,
          0., 0., 6., 31., 102., 255., 255., 255., 17., 199., 255., 255.,
          255., 219., 52., 0., 0., 0., 0., 102., 255., 255., 255., 17.,
          88., 255., 255., 255., 255., 68., 0., 0., 0., 0., 102., 255.,
          255., 255., 17., 17., 255., 255., 255., 255., 68., 0., 0., 0.,
          0., 102., 255., 255., 255., 17., 17., 255., 255., 255., 255.,
          68., 0., 0., 0., 0., 102., 255., 255., 255., 17., 17., 255.,
          255., 255., 255., 68., 0., 0., 0., 0., 102., 255., 255., 255.,
          136., 17., 255., 255., 255., 255., 68., 0., 0., 0., 0., 102.,
          255., 255., 255., 255., 17., 255., 255., 255., 255., 68., 0.,
          0., 0., 0., 102., 255., 255., 255., 255., 17., 255., 255.,
          255., 255., 124., 76., 0., 0., 20., 148., 255., 255., 255.,
          255., 73., 255., 255., 255., 255., 255., 255., 60., 60., 112.,
          255., 255., 255., 255., 255., 255., 255., 255., 255., 255.,
          255., 255., 255., 255., 255., 255., 255., 255., 255., 255.,
          255., 255., 255., 255., 255., 255., 255., 255., 255., 255.,
          255., 255., 255., 255., 255., 255., 255., 255., 255., 255.,
          255., 255., 255., 255., 255., 255., 255., 255., 255., 255.,
          255., 255., 255., 255., 255., 255., 255., 255., 255., 255.,
          255., 255., 255., 255., 255., 41., 255., 255., 255., 255.,
          255., 255., 255., 255., 255., 255., 255., 255., 255., 255.,
          17., 255., 255., 255., 255., 255., 71., 42., 226., 42., 127.,
          255., 255., 255., 255., 17., 255., 255., 255., 255., 255., 34.,
          0., 52., 0., 102., 255., 255., 255., 73., 17., 255., 255.,
          255., 255., 255., 34., 0., 0., 0., 102., 255., 255., 255., 17.,
          17., 255., 255., 255., 255., 255., 34., 0., 0., 0., 102., 255.,
          255., 255., 17., 17., 255., 255., 255., 255., 255., 34., 0.,
          0., 0., 102., 255., 255., 255., 17., 17., 255., 255., 255.,
          255., 161., 17., 0., 0., 0., 102., 255., 255., 255., 136.,
          120., 255., 255., 255., 255., 68., 0., 0., 0., 0., 102., 255.,
          255., 255., 255., 168., 255., 255., 255., 255., 68., 0., 0.,
          0., 0., 102., 255., 255., 255., 168., 12., 194., 255., 255.,
          255., 68., 0., 0., 0., 0., 102., 255., 255., 255., 17., 0.,
          51., 255., 255., 219., 52., 0., 0., 0., 0., 78., 227., 255.,
          207., 13., 0., 43., 213., 213., 85., 0., 0., 0., 0., 0., 0.,
          113., 213., 43., 0., 0., 0., 0., 0., 0., 0., 0., 0., 0., 0.,
          0., 0., 0., 0., 0., 0., 0., 0., 0., 0., 0., 0., 0., 0., 0., 0.,
          0., 0., 0., 0. ]
      - [ 0., 51., 255., 136., 0., 0., 0., 0., 0., 0., 0., 0., 170., 51.,
          0., 15., 234., 255., 243., 92., 0., 0., 0., 0., 0., 92., 229.,
          246., 51., 0., 17., 255., 255., 255., 102., 0., 0., 0., 0., 0.,
          102., 255., 255., 221., 14., 17., 255., 255., 255., 102., 0.,
          0., 0., 0., 0., 102., 255., 255., 255., 17., 17., 255., 255.,
          255., 102., 0., 0., 0., 0., 0., 102., 255., 255., 255., 17.,
          17., 255., 255., 255., 102., 0., 0., 0., 0., 0., 102., 255.,
          255., 255., 168., 17., 255., 255., 255., 102., 0., 0., 0., 0.,
          0., 102., 255., 255., 255., 255., 17., 255., 255., 255., 102.,
          0., 0., 0., 0., 0., 102., 255., 255., 255., 255., 17., 255.,
          255., 255., 168., 29., 0., 0., 0., 0., 102., 255., 255., 255.,
          152., 17., 255., 255., 255., 255., 68., 0., 0., 0., 25., 158.,
          255., 255., 255., 17., 17., 255., 255., 255., 255., 124., 76.,
          76., 76., 124., 255., 255., 255., 255., 88., 17., 255., 255.,
          255., 255., 255., 255., 255., 255., 255., 255., 255., 255.,
          255., 255., 17., 255., 255., 255., 255., 255., 255., 255.,
          255., 255., 255., 255., 255., 255., 255., 17., 255., 255.,
          255., 255., 255., 255., 255., 255., 255., 255., 255., 255.,
          255., 255., 17., 255., 255., 255., 255., 255., 255., 255.,
          255., 255., 255., 255., 255., 255., 247., 17., 255., 255.,
          255., 255., 255., 255., 255., 255., 255., 255., 255., 255.,
          255., 25., 17., 255., 255., 255., 255., 255., 255., 255., 255.,
          255., 255., 255., 255., 255., 17., 17., 255., 255., 255., 255.,
          255., 255., 255., 42., 42., 127., 255., 255., 255., 17., 17.,
          255., 255., 255., 255., 112., 60., 60., 0., 0., 102., 255.,
          255., 255., 17., 17., 255., 255., 255., 148., 20., 0., 0., 0.,
          0., 102., 255., 255., 255., 17., 17., 255., 255., 255., 102.,
          0., 0., 0., 0., 0., 102., 255., 255., 255., 17., 17., 255.,
          255., 255., 102., 0., 0., 0., 0., 0., 102., 255., 255., 255.,
          17., 17., 255., 255., 255., 102., 0., 0., 0., 0., 0., 102.,
          255., 255., 255., 17., 17., 255., 255., 255., 102., 0., 0., 0.,
          0., 0., 102., 255., 255., 255., 120., 17., 255., 255., 255.,
          102., 0., 0., 0., 0., 0., 102., 255., 255., 255., 255., 17.,
          255., 255., 255., 102., 0., 0., 0., 0., 0., 102., 255., 255.,
          255., 184., 17., 255., 255., 255., 102., 0., 0., 0., 0., 0.,
          78., 227., 255., 207., 13., 14., 213., 213., 213., 85., 0., 0.,
          0., 0., 0., 0., 113., 213., 43., 0., 0., 0., 0., 0., 0., 0.,
          0., 0., 0., 0., 0., 0., 0., 0., 0., 0., 0., 0., 0., 0., 0., 0.,
          0., 0., 0., 0., 0., 0., 0., 0. ]
      - [ 0., 0., 0., 0., 0., 0., 0., 0., 0., 0., 0., 0., 0., 0., 0., 0.,
          0., 0., 0., 0., 0., 0., 0., 0., 0., 0., 0., 0., 0., 0., 0., 0.,
          0., 0., 0., 0., 0., 0., 0., 0., 0., 0., 0., 0., 0., 0., 0., 0.,
          0., 0., 0., 0., 0., 0., 0., 0., 0., 0., 0., 0., 0., 0., 0., 0.,
          0., 0., 0., 0., 0., 0., 0., 0., 0., 0., 0., 0., 0., 0., 4.,
          13., 0., 0., 0., 0., 0., 0., 0., 26., 13., 0., 0., 0., 64.,
          106., 166., 13., 0., 0., 0., 0., 38., 76., 255., 128., 0., 0.,
          0., 213., 255., 255., 42., 0., 0., 0., 0., 128., 255., 255.,
          191., 21., 0., 89., 242., 255., 255., 42., 0., 0., 0., 0.,
          127., 255., 255., 166., 13., 0., 127., 255., 255., 255., 233.,
          0., 0., 0., 0., 127., 255., 255., 128., 0., 0., 127., 255.,
          255., 255., 42., 0., 0., 0., 0., 127., 255., 255., 128., 0.,
          0., 127., 255., 255., 255., 42., 0., 0., 0., 0., 127., 255.,
          255., 128., 0., 0., 128., 255., 255., 255., 42., 0., 0., 0.,
          21., 191., 255., 255., 128., 0., 0., 127., 255., 255., 255.,
          42., 0., 0., 0., 42., 255., 255., 255., 128., 0., 0., 127.,
          255., 255., 255., 42., 0., 0., 0., 42., 255., 255., 255., 128.,
          0., 4., 140., 255., 255., 255., 255., 26., 26., 217., 255.,
          255., 255., 255., 128., 0., 42., 255., 255., 255., 255., 255.,
          255., 255., 255., 255., 255., 255., 255., 128., 0., 21., 191.,
          255., 255., 255., 255., 255., 255., 255., 255., 255., 255.,
          255., 128., 0., 0., 127., 255., 255., 255., 255., 255., 255.,
          255., 255., 255., 255., 255., 128., 0., 0., 127., 255., 255.,
          255., 255., 255., 255., 255., 255., 255., 255., 255., 128., 0.,
          0., 127., 255., 255., 255., 255., 229., 115., 0., 42., 255.,
          255., 255., 128., 0., 0., 127., 255., 255., 255., 255., 0., 0.,
          0., 42., 255., 255., 255., 128., 0., 0., 128., 255., 255.,
          255., 255., 0., 0., 0., 42., 255., 255., 255., 128., 0., 0.,
          127., 255., 255., 255., 255., 0., 0., 0., 42., 255., 255.,
          255., 128., 0., 0., 127., 255., 255., 255., 255., 0., 0., 0.,
          42., 255., 255., 255., 128., 0., 4., 140., 255., 255., 255.,
          42., 0., 0., 0., 42., 255., 255., 255., 128., 0., 106., 255.,
          255., 255., 255., 42., 0., 0., 0., 42., 255., 255., 255., 128.,
          0., 255., 255., 255., 255., 255., 42., 0., 0., 0., 42., 255.,
          255., 255., 191., 21., 255., 255., 255., 255., 255., 42., 0.,
          0., 0., 42., 255., 255., 255., 166., 13., 255., 255., 255.,
          255., 140., 4., 0., 0., 0., 42., 255., 255., 217., 13., 0. ]
      - [ 0., 0., 0., 0., 0., 0., 0., 0., 0., 0., 0., 0., 0., 0., 0., 0.,
          0., 0., 0., 0., 18., 10., 0., 0., 0., 0., 0., 0., 0., 0., 0.,
          0., 0., 0., 13., 153., 115., 0., 0., 0., 0., 0., 0., 0., 0.,
          0., 0., 0., 0., 51., 255., 255., 89., 0., 0., 0., 0., 0., 0.,
          0., 0., 0., 0., 0., 51., 255., 255., 255., 0., 0., 0., 0., 0.,
          0., 0., 0., 0., 0., 0., 51., 255., 255., 255., 0., 0., 0., 0.,
          0., 0., 0., 0., 0., 0., 0., 51., 255., 255., 255., 0., 0., 0.,
          0., 0., 0., 0., 0., 0., 0., 0., 51., 255., 255., 255., 140.,
          0., 0., 0., 0., 0., 0., 0., 0., 0., 0., 51., 255., 255., 255.,
          187., 0., 0., 0., 0., 0., 0., 0., 0., 0., 0., 51., 255., 255.,
          255., 187., 0., 0., 0., 0., 0., 0., 0., 0., 0., 0., 61., 255.,
          255., 255., 187., 0., 0., 0., 0., 0., 0., 0., 0., 0., 0., 224.,
          255., 255., 255., 187., 0., 0., 0., 0., 0., 0., 0., 0., 0., 0.,
          51., 255., 255., 255., 187., 0., 0., 0., 0., 0., 0., 0., 0.,
          0., 0., 51., 255., 255., 255., 187., 0., 0., 0., 0., 0., 0.,
          0., 0., 0., 0., 28., 194., 255., 255., 187., 0., 0., 0., 0.,
          0., 0., 0., 0., 0., 0., 28., 194., 255., 255., 187., 0., 0.,
          0., 0., 0., 0., 0., 0., 0., 0., 18., 167., 255., 255., 187.,
          0., 0., 0., 0., 0., 0., 0., 0., 0., 0., 0., 119., 255., 255.,
          187., 0., 0., 0., 0., 0., 0., 0., 0., 0., 0., 0., 119., 255.,
          255., 245., 101., 0., 0., 0., 0., 0., 0., 0., 0., 0., 0., 119.,
          255., 255., 255., 119., 0., 0., 0., 0., 0., 0., 0., 0., 0., 0.,
          119., 255., 255., 255., 119., 0., 0., 0., 0., 0., 0., 0., 0.,
          0., 0., 119., 255., 255., 255., 119., 0., 0., 0., 0., 0., 0.,
          0., 0., 0., 0., 119., 255., 255., 255., 119., 0., 0., 0., 0.,
          0., 0., 0., 0., 0., 0., 77., 231., 255., 255., 119., 0., 0.,
          0., 0., 0., 0., 0., 0., 0., 0., 0., 187., 255., 255., 119., 0.,
          0., 0., 0., 0., 0., 0., 0., 0., 0., 0., 187., 255., 218., 54.,
          0., 0., 0., 0., 0., 0., 0., 0., 0., 0., 0., 65., 89., 65., 0.,
          0., 0., 0., 0., 0., 0., 0., 0., 0., 0., 0., 0., 0., 0., 0., 0.,
          0., 0., 0., 0., 0., 0., 0., 0., 0., 0., 0., 0., 0., 0., 0., 0.,
          0., 0., 0., 0., 0., 0., 0., 0., 0., 0., 0., 0., 0., 0., 0., 0.,
          0., 0. ]
      - [ 0., 0., 0., 0., 0., 0., 0., 0., 0., 0., 178., 255., 42., 0.,
          0., 0., 0., 0., 0., 0., 0., 0., 0., 0., 0., 170., 242., 40.,
          0., 0., 0., 0., 0., 0., 0., 0., 0., 0., 0., 0., 0., 0., 0., 0.,
          0., 0., 0., 0., 0., 0., 11., 30., 15., 0., 0., 0., 0., 0., 0.,
          0., 0., 0., 0., 0., 11., 117., 255., 146., 17., 0., 0., 0., 0.,
          0., 0., 0., 0., 0., 0., 76., 255., 255., 255., 110., 0., 0.,
          0., 0., 0., 0., 0., 0., 0., 0., 76., 255., 255., 255., 110.,
          0., 0., 0., 0., 50., 55., 0., 0., 0., 0., 76., 255., 255.,
          255., 110., 0., 0., 0., 0., 172., 191., 0., 0., 0., 0., 76.,
          255., 255., 255., 110., 0., 0., 0., 0., 0., 0., 0., 0., 0., 0.,
          76., 255., 255., 255., 110., 0., 0., 0., 0., 0., 0., 0., 0.,
          0., 0., 76., 255., 255., 255., 110., 0., 0., 0., 0., 0., 0.,
          0., 0., 0., 0., 76., 255., 255., 255., 110., 0., 0., 0., 0.,
          0., 0., 0., 0., 0., 0., 76., 255., 255., 255., 110., 0., 0.,
          0., 0., 0., 0., 0., 0., 0., 0., 76., 255., 255., 255., 110.,
          0., 0., 0., 0., 0., 0., 0., 0., 0., 0., 76., 255., 255., 255.,
          110., 0., 0., 0., 0., 0., 0., 0., 0., 0., 0., 76., 255., 255.,
          255., 185., 48., 0., 0., 0., 0., 0., 0., 0., 0., 0., 76., 255.,
          255., 255., 255., 93., 0., 0., 0., 0., 0., 0., 0., 0., 0., 76.,
          255., 255., 255., 255., 93., 0., 0., 0., 0., 0., 0., 0., 0.,
          0., 76., 255., 255., 255., 166., 36., 0., 0., 0., 0., 0., 0.,
          0., 0., 0., 76., 255., 255., 255., 110., 0., 0., 0., 0., 0.,
          0., 0., 0., 0., 0., 24., 145., 255., 255., 110., 0., 0., 0.,
          0., 0., 0., 0., 0., 0., 0., 55., 209., 255., 255., 214., 67.,
          0., 0., 0., 0., 0., 0., 0., 0., 0., 76., 255., 255., 255.,
          255., 93., 0., 0., 0., 0., 0., 0., 0., 0., 0., 76., 255., 255.,
          255., 255., 93., 0., 0., 0., 0., 0., 0., 0., 0., 0., 76., 255.,
          255., 255., 255., 93., 0., 0., 0., 0., 0., 0., 0., 0., 0., 76.,
          255., 255., 255., 255., 231., 65., 166., 36., 0., 0., 0., 0.,
          0., 0., 76., 255., 255., 255., 255., 255., 234., 248., 230.,
          225., 225., 234., 234., 234., 234., 170., 107., 255., 138.,
          154., 255., 255., 255., 255., 255., 255., 255., 255., 255.,
          198., 9., 5., 13., 6., 7., 13., 13., 13., 13., 13., 13., 255.,
          230., 4., 3., 0., 0., 0., 0., 0., 0., 0., 0., 0., 0., 0. ]
      - [ 0., 0., 0., 0., 0., 0., 0., 0., 0., 0., 0., 0., 0., 0., 0., 0.,
          0., 0., 0., 0., 0., 0., 0., 0., 0., 0., 0., 0., 0., 0., 0., 0.,
          0., 0., 0., 0., 0., 0., 0., 0., 0., 0., 0., 0., 0., 0., 0., 0.,
          0., 0., 0., 0., 0., 0., 0., 0., 0., 0., 0., 0., 0., 0., 0., 0.,
          0., 0., 0., 0., 0., 0., 0., 0., 0., 0., 0., 0., 0., 0., 0., 7.,
          61., 68., 68., 48., 0., 0., 0., 0., 0., 0., 0., 0., 0., 0.,
          25., 229., 255., 255., 188., 31., 3., 0., 0., 0., 0., 0., 0.,
          0., 0., 26., 229., 255., 255., 255., 229., 26., 0., 0., 0., 0.,
          0., 0., 0., 0., 25., 229., 255., 255., 255., 229., 25., 0., 0.,
          0., 0., 0., 0., 0., 0., 25., 229., 255., 255., 255., 229., 25.,
          0., 0., 0., 0., 0., 0., 0., 0., 25., 229., 255., 255., 209.,
          92., 10., 0., 0., 0., 0., 0., 0., 0., 0., 25., 229., 255.,
          255., 178., 0., 0., 0., 0., 0., 0., 0., 0., 0., 0., 26., 229.,
          255., 255., 179., 0., 0., 0., 0., 0., 0., 0., 0., 0., 0., 25.,
          229., 255., 255., 178., 0., 0., 0., 0., 0., 0., 0., 0., 0., 0.,
          25., 229., 255., 255., 184., 15., 2., 0., 0., 0., 0., 0., 0.,
          0., 0., 25., 229., 255., 255., 250., 214., 24., 0., 0., 0., 0.,
          0., 0., 0., 0., 25., 229., 255., 255., 255., 229., 25., 0., 0.,
          0., 0., 0., 0., 0., 0., 26., 229., 255., 255., 255., 229., 26.,
          0., 0., 0., 0., 0., 0., 0., 0., 25., 229., 255., 255., 255.,
          229., 25., 0., 0., 0., 0., 0., 0., 0., 0., 25., 229., 255.,
          255., 255., 229., 25., 0., 0., 0., 0., 0., 0., 0., 0., 25.,
          229., 255., 255., 255., 229., 25., 0., 0., 0., 0., 0., 0., 0.,
          0., 25., 229., 255., 255., 255., 229., 25., 0., 0., 0., 0., 0.,
          0., 0., 0., 26., 229., 255., 255., 255., 229., 26., 0., 0., 0.,
          0., 0., 0., 0., 0., 25., 229., 255., 255., 255., 229., 25., 0.,
          111., 221., 221., 0., 0., 0., 0., 7., 61., 199., 255., 255.,
          229., 25., 0., 128., 255., 255., 0., 0., 0., 0., 0., 0., 71.,
          102., 102., 92., 10., 0., 51., 102., 102., 0., 0., 0., 0., 0.,
          0., 0., 0., 0., 0., 0., 0., 0., 0., 0., 0., 0., 0., 0., 0., 0.,
          0., 0., 0., 0., 0., 0., 0., 0., 0., 0., 0., 0., 0., 0., 0., 0.,
          0., 0., 0., 0., 0., 0., 0., 0., 0., 0., 0., 0., 0., 0., 0., 0.,
          0., 0., 0., 0., 0., 0., 0. ]
      - [ 0., 0., 0., 0., 0., 0., 0., 0., 0., 68., 255., 119., 0., 0.,
          0., 0., 0., 0., 0., 0., 0., 0., 0., 31., 236., 255., 119., 0.,
          0., 0., 0., 0., 0., 0., 0., 0., 0., 0., 218., 255., 255., 232.,
          71., 0., 0., 0., 0., 0., 0., 0., 0., 0., 0., 255., 255., 255.,
          255., 85., 0., 0., 0., 0., 0., 0., 0., 0., 0., 0., 255., 255.,
          255., 255., 204., 36., 0., 0., 0., 0., 0., 0., 0., 0., 0.,
          115., 255., 255., 255., 147., 19., 0., 0., 0., 0., 0., 0., 0.,
          0., 0., 34., 255., 255., 255., 85., 0., 0., 0., 0., 0., 0., 0.,
          0., 0., 0., 34., 255., 255., 255., 85., 0., 0., 0., 0., 0., 0.,
          0., 0., 0., 0., 34., 255., 255., 255., 85., 0., 0., 0., 0., 0.,
          0., 0., 0., 0., 0., 34., 255., 255., 255., 85., 0., 0., 0., 0.,
          0., 0., 0., 0., 0., 0., 100., 255., 255., 255., 85., 0., 0.,
          0., 0., 0., 0., 0., 0., 0., 0., 255., 255., 255., 255., 85.,
          0., 0., 0., 0., 0., 0., 0., 0., 0., 0., 255., 255., 255., 255.,
          85., 0., 0., 0., 0., 0., 0., 0., 0., 0., 0., 255., 255., 255.,
          255., 85., 0., 0., 0., 0., 0., 0., 0., 0., 0., 0., 255., 255.,
          255., 255., 85., 0., 0., 0., 0., 0., 0., 0., 0., 0., 0., 255.,
          255., 255., 255., 85., 0., 0., 0., 0., 0., 0., 0., 0., 0., 0.,
          255., 255., 255., 255., 85., 0., 0., 0., 0., 0., 0., 0., 0.,
          0., 0., 255., 255., 255., 255., 85., 0., 0., 0., 0., 0., 0.,
          0., 0., 0., 0., 255., 255., 255., 255., 85., 0., 0., 0., 0.,
          0., 0., 0., 0., 0., 0., 255., 255., 255., 255., 85., 0., 0.,
          11., 161., 161., 86., 0., 0., 0., 0., 255., 255., 255., 255.,
          85., 0., 0., 152., 255., 255., 136., 0., 0., 0., 145., 255.,
          255., 255., 255., 85., 0., 0., 255., 255., 255., 195., 128.,
          128., 128., 255., 255., 255., 255., 187., 43., 0., 0., 255.,
          255., 255., 255., 255., 255., 255., 255., 255., 255., 255.,
          119., 0., 0., 0., 255., 255., 255., 255., 255., 255., 255.,
          255., 255., 255., 255., 119., 0., 0., 0., 255., 255., 255.,
          255., 255., 255., 255., 255., 255., 255., 255., 119., 0., 0.,
          0., 199., 255., 255., 255., 255., 255., 255., 255., 255., 239.,
          195., 91., 0., 0., 0., 14., 213., 213., 213., 213., 213., 213.,
          213., 213., 156., 0., 0., 0., 0., 0., 0., 0., 0., 0., 0., 0.,
          0., 0., 0., 0., 0., 0., 0., 0., 0., 0., 0., 0., 0., 0., 0., 0.,
          0., 0., 0., 0., 0., 0., 0., 0. ]
      - [ 0., 0., 0., 0., 0., 0., 0., 0., 0., 0., 0., 0., 0., 0., 0., 0.,
          0., 0., 0., 0., 0., 0., 0., 0., 0., 0., 0., 0., 0., 0., 0., 0.,
          0., 0., 0., 0., 0., 0., 0., 0., 0., 0., 0., 0., 0., 0., 0., 0.,
          0., 0., 0., 0., 0., 0., 0., 0., 0., 0., 0., 0., 0., 0., 0., 0.,
          0., 0., 0., 0., 0., 0., 0., 0., 0., 0., 0., 0., 0., 0., 0., 0.,
          0., 0., 0., 0., 0., 13., 26., 26., 13., 0., 0., 0., 0., 0., 0.,
          0., 0., 0., 0., 0., 127., 255., 255., 128., 0., 0., 0., 0., 0.,
          0., 0., 0., 0., 0., 0., 128., 255., 255., 128., 0., 0., 0., 0.,
          0., 0., 0., 0., 0., 0., 30., 217., 255., 255., 128., 0., 0.,
          0., 0., 0., 0., 0., 0., 0., 0., 4., 140., 255., 255., 128., 0.,
          0., 0., 0., 0., 0., 0., 0., 0., 0., 42., 255., 255., 255.,
          128., 0., 0., 0., 0., 0., 0., 0., 0., 0., 0., 42., 255., 255.,
          255., 128., 0., 0., 0., 0., 0., 0., 0., 0., 0., 0., 42., 255.,
          255., 255., 128., 0., 0., 0., 0., 0., 0., 0., 0., 0., 0., 42.,
          255., 255., 255., 128., 0., 0., 0., 0., 0., 0., 0., 0., 0., 0.,
          42., 255., 255., 255., 128., 0., 0., 0., 0., 0., 0., 0., 0.,
          0., 0., 42., 255., 255., 255., 128., 0., 0., 0., 0., 0., 0.,
          0., 0., 0., 0., 42., 255., 255., 255., 128., 0., 0., 0., 0.,
          0., 0., 0., 0., 0., 0., 42., 255., 255., 255., 191., 21., 0.,
          0., 0., 0., 0., 0., 0., 0., 0., 191., 255., 255., 255., 255.,
          42., 0., 0., 0., 0., 0., 0., 0., 0., 0., 64., 255., 255., 255.,
          255., 42., 0., 0., 0., 0., 0., 0., 0., 0., 0., 42., 255., 255.,
          255., 255., 42., 0., 0., 0., 0., 0., 0., 0., 0., 0., 42., 255.,
          255., 255., 217., 30., 0., 0., 0., 0., 0., 0., 0., 0., 0.,
          149., 255., 255., 255., 128., 0., 0., 0., 149., 179., 179.,
          30., 0., 0., 149., 255., 255., 255., 255., 128., 0., 0., 115.,
          251., 255., 255., 233., 229., 229., 251., 255., 255., 255.,
          255., 128., 0., 0., 127., 255., 255., 255., 255., 255., 255.,
          255., 255., 255., 255., 217., 26., 26., 0., 127., 255., 255.,
          255., 255., 255., 255., 255., 255., 255., 255., 242., 179.,
          242., 0., 128., 255., 255., 255., 255., 255., 255., 255., 255.,
          255., 255., 213., 0., 106., 0., 127., 255., 255., 255., 255.,
          255., 255., 255., 255., 255., 255., 242., 89., 0., 0., 13.,
          26., 26., 140., 255., 26., 26., 26., 26., 26., 26., 255., 128.,
          0. ]
      - [ 3., 26., 26., 26., 26., 26., 7., 0., 0., 0., 0., 0., 0., 0.,
          0., 24., 179., 179., 179., 179., 179., 48., 0., 0., 0., 0., 0.,
          0., 0., 0., 0., 0., 0., 0., 0., 0., 0., 0., 0., 0., 0., 0., 0.,
          0., 0., 0., 0., 0., 0., 0., 0., 0., 0., 0., 0., 0., 0., 0., 0.,
          0., 0., 0., 0., 0., 0., 0., 0., 0., 0., 122., 229., 229., 229.,
          229., 31., 0., 0., 0., 0., 0., 0., 0., 0., 7., 148., 255.,
          255., 255., 240., 31., 0., 0., 0., 0., 0., 0., 0., 0., 68.,
          255., 255., 255., 255., 102., 0., 0., 0., 0., 0., 0., 0., 0.,
          0., 34., 195., 255., 255., 255., 102., 0., 0., 0., 0., 0., 0.,
          0., 0., 0., 0., 136., 255., 255., 195., 31., 0., 199., 0., 0.,
          0., 0., 0., 0., 0., 0., 136., 255., 255., 170., 0., 0., 199.,
          0., 0., 0., 0., 0., 0., 0., 0., 136., 255., 255., 255., 102.,
          0., 0., 0., 0., 0., 0., 0., 0., 0., 0., 136., 255., 255., 255.,
          102., 0., 0., 0., 0., 0., 0., 0., 0., 0., 0., 136., 255., 255.,
          255., 102., 0., 0., 0., 0., 0., 0., 0., 0., 0., 0., 136., 255.,
          255., 255., 102., 0., 0., 0., 0., 0., 0., 0., 0., 0., 0., 136.,
          255., 255., 255., 102., 0., 0., 0., 0., 0., 0., 0., 0., 0., 0.,
          136., 255., 255., 255., 102., 0., 0., 0., 0., 0., 0., 0., 0.,
          0., 0., 136., 255., 255., 255., 102., 0., 0., 0., 0., 0., 0.,
          0., 0., 0., 0., 136., 255., 255., 255., 102., 0., 0., 0., 0.,
          0., 0., 0., 0., 0., 0., 136., 255., 255., 255., 102., 0., 0.,
          0., 0., 0., 0., 0., 0., 0., 0., 136., 255., 255., 255., 102.,
          0., 0., 0., 0., 0., 0., 0., 0., 0., 68., 255., 255., 255.,
          255., 102., 0., 0., 31., 76., 76., 61., 0., 0., 0., 68., 255.,
          255., 255., 255., 102., 0., 17., 178., 255., 255., 229., 68.,
          0., 0., 68., 255., 255., 255., 255., 102., 0., 34., 255., 255.,
          255., 255., 219., 179., 0., 68., 255., 255., 255., 255., 102.,
          0., 34., 255., 255., 255., 255., 255., 255., 229., 236., 255.,
          255., 255., 255., 102., 0., 31., 239., 255., 255., 255., 255.,
          255., 255., 255., 255., 255., 253., 153., 0., 0., 76., 148.,
          255., 255., 255., 255., 255., 179., 199., 255., 255., 243.,
          76., 76., 76., 255., 255., 255., 136., 128., 128., 128., 0.,
          34., 195., 255., 255., 255., 255., 255., 76., 76., 76., 5., 0.,
          0., 0., 0., 0., 136., 255., 255., 255., 255., 255., 0., 0., 0.,
          0., 0., 0., 0., 0., 0., 14., 26., 26., 26., 26., 26. ]
      - [ 0., 229., 42., 0., 0., 0., 0., 0., 0., 0., 0., 0., 0., 0., 0.,
          0., 57., 11., 0., 0., 0., 0., 0., 0., 0., 0., 0., 0., 0., 0.,
          0., 0., 0., 0., 0., 0., 0., 0., 0., 0., 0., 0., 0., 0., 0., 0.,
          0., 0., 81., 32., 0., 0., 0., 0., 0., 0., 0., 0., 0., 0., 0.,
          0., 53., 210., 76., 0., 0., 0., 0., 23., 64., 64., 64., 57.,
          0., 0., 0., 212., 255., 76., 0., 0., 0., 9., 107., 255., 255.,
          255., 232., 21., 0., 0., 212., 255., 76., 0., 0., 0., 101.,
          241., 255., 255., 255., 253., 234., 0., 0., 212., 255., 210.,
          70., 0., 0., 110., 255., 255., 255., 223., 64., 64., 0., 0.,
          213., 255., 255., 93., 0., 74., 195., 255., 255., 255., 213.,
          0., 0., 0., 0., 213., 255., 255., 93., 0., 127., 255., 255.,
          255., 255., 213., 0., 0., 0., 0., 212., 255., 255., 93., 36.,
          159., 255., 255., 255., 240., 159., 0., 0., 0., 0., 212., 255.,
          255., 107., 154., 255., 255., 255., 248., 179., 0., 0., 0., 0.,
          0., 212., 255., 255., 241., 246., 255., 255., 255., 185., 16.,
          0., 0., 0., 0., 0., 212., 255., 255., 255., 255., 255., 255.,
          255., 178., 0., 0., 0., 0., 0., 0., 213., 255., 255., 255.,
          255., 255., 255., 200., 74., 0., 0., 0., 0., 0., 0., 213.,
          255., 255., 255., 255., 255., 255., 161., 0., 0., 0., 0., 0.,
          0., 0., 212., 255., 255., 255., 255., 255., 255., 161., 0., 0.,
          0., 0., 0., 0., 0., 212., 255., 255., 255., 255., 255., 255.,
          161., 0., 0., 0., 0., 0., 0., 0., 212., 255., 255., 255., 255.,
          255., 255., 161., 0., 0., 0., 0., 0., 0., 0., 212., 255., 255.,
          255., 255., 255., 255., 232., 134., 0., 0., 0., 0., 0., 0.,
          213., 255., 255., 255., 255., 255., 255., 255., 223., 114., 0.,
          0., 0., 0., 0., 213., 255., 255., 188., 149., 149., 195., 255.,
          255., 195., 0., 0., 0., 0., 0., 212., 255., 255., 93., 0., 0.,
          110., 255., 255., 210., 53., 0., 0., 0., 19., 216., 255., 240.,
          86., 0., 0., 110., 255., 255., 255., 213., 2., 21., 0., 210.,
          251., 255., 91., 8., 0., 0., 110., 255., 255., 255., 213., 23.,
          234., 0., 229., 255., 255., 76., 0., 0., 0., 110., 255., 255.,
          255., 244., 198., 255., 0., 229., 255., 255., 76., 0., 0., 0.,
          46., 161., 255., 255., 255., 255., 255., 0., 134., 149., 230.,
          76., 0., 0., 0., 0., 55., 181., 255., 255., 255., 255., 0., 0.,
          0., 147., 57., 0., 0., 0., 0., 0., 57., 191., 202., 249., 191.,
          0., 0., 0., 0., 0., 0., 0., 0., 0., 0., 0., 0., 42., 229., 0. ]
      - [ 0., 0., 0., 0., 0., 0., 0., 0., 0., 0., 76., 195., 0., 0., 0.,
          0., 0., 0., 0., 0., 0., 0., 0., 0., 0., 76., 195., 0., 0., 0.,
          0., 0., 0., 0., 0., 0., 0., 0., 0., 0., 19., 49., 0., 0., 0.,
          0., 0., 0., 0., 0., 0., 0., 0., 0., 0., 0., 0., 0., 0., 0., 0.,
          126., 23., 0., 0., 0., 0., 0., 0., 0., 0., 0., 0., 0., 0.,
          115., 241., 42., 0., 0., 0., 0., 0., 0., 0., 0., 27., 115.,
          103., 0., 166., 246., 117., 89., 27., 0., 0., 0., 0., 0., 27.,
          128., 255., 238., 89., 0., 229., 255., 255., 121., 23., 0., 0.,
          0., 23., 121., 255., 255., 255., 255., 0., 229., 255., 255.,
          255., 93., 0., 0., 0., 93., 255., 255., 255., 251., 217., 0.,
          229., 255., 255., 246., 89., 0., 0., 6., 101., 255., 255.,
          255., 229., 0., 0., 229., 255., 255., 85., 5., 0., 0., 105.,
          247., 255., 255., 255., 229., 0., 0., 229., 255., 255., 76.,
          0., 0., 108., 233., 255., 255., 255., 219., 34., 0., 0., 229.,
          255., 255., 76., 0., 108., 223., 255., 255., 255., 210., 53.,
          0., 0., 0., 229., 255., 255., 76., 0., 144., 255., 255., 255.,
          255., 195., 0., 0., 0., 0., 229., 255., 255., 174., 140., 205.,
          255., 255., 255., 213., 88., 0., 0., 0., 0., 229., 255., 255.,
          255., 255., 255., 255., 255., 255., 178., 0., 0., 0., 0., 0.,
          229., 255., 255., 255., 255., 255., 255., 255., 255., 205.,
          68., 0., 0., 0., 0., 229., 255., 255., 255., 255., 255., 255.,
          255., 255., 255., 210., 53., 0., 0., 0., 229., 255., 255.,
          255., 255., 255., 255., 255., 255., 255., 255., 213., 0., 0.,
          0., 229., 255., 255., 255., 255., 248., 242., 248., 255., 255.,
          255., 215., 11., 0., 0., 229., 255., 255., 255., 255., 117.,
          13., 117., 255., 255., 255., 253., 218., 0., 0., 229., 255.,
          255., 255., 117., 17., 0., 17., 117., 255., 255., 255., 229.,
          0., 0., 229., 255., 255., 255., 93., 0., 0., 0., 93., 255.,
          255., 255., 249., 191., 0., 229., 255., 255., 255., 198., 72.,
          0., 0., 33., 139., 255., 255., 255., 255., 0., 229., 255.,
          255., 255., 255., 110., 0., 0., 0., 76., 255., 255., 255.,
          255., 0., 229., 255., 255., 255., 255., 110., 0., 0., 0., 42.,
          167., 255., 255., 255., 89., 238., 255., 255., 255., 255.,
          110., 0., 0., 0., 0., 39., 181., 255., 255., 255., 255., 202.,
          240., 255., 255., 110., 0., 28., 64., 45., 0., 42., 255., 255.,
          255., 255., 42., 166., 217., 217., 94., 19., 132., 255., 190.,
          38., 68., 217., 217., 255., 255., 42., 0., 0., 0., 0., 127.,
          255., 255., 255., 255., 213., 0., 0. ]
      - [ 0., 0., 0., 0., 0., 0., 3., 8., 3., 0., 0., 0., 0., 173., 254.,
          0., 0., 0., 0., 0., 0., 69., 229., 69., 0., 0., 0., 0., 0.,
          207., 0., 0., 0., 0., 0., 0., 0., 0., 0., 0., 0., 0., 0., 0.,
          0., 0., 0., 0., 0., 0., 0., 0., 0., 0., 0., 6., 60., 30., 0.,
          0., 0., 23., 76., 76., 76., 0., 0., 0., 0., 0., 94., 255.,
          166., 23., 0., 0., 76., 255., 255., 255., 84., 0., 0., 0., 0.,
          255., 255., 255., 76., 0., 11., 154., 255., 255., 255., 229.,
          0., 0., 0., 99., 255., 255., 255., 76., 0., 26., 255., 255.,
          255., 255., 115., 0., 0., 0., 229., 255., 255., 255., 76., 0.,
          11., 154., 255., 255., 255., 0., 0., 0., 101., 244., 255.,
          255., 255., 76., 0., 0., 76., 255., 255., 255., 0., 0., 81.,
          227., 255., 255., 255., 174., 28., 0., 0., 76., 255., 255.,
          255., 0., 0., 127., 255., 255., 255., 201., 38., 0., 0., 0.,
          76., 255., 255., 255., 0., 59., 225., 255., 255., 235., 42.,
          0., 0., 0., 0., 76., 255., 255., 255., 21., 225., 255., 255.,
          255., 229., 0., 0., 0., 0., 0., 76., 255., 255., 255., 232.,
          255., 255., 255., 255., 23., 0., 0., 0., 0., 0., 76., 255.,
          255., 255., 255., 255., 255., 255., 33., 0., 0., 0., 0., 0.,
          0., 76., 255., 255., 255., 255., 255., 255., 255., 25., 0., 0.,
          0., 0., 0., 0., 76., 255., 255., 255., 255., 255., 255., 255.,
          25., 0., 0., 0., 0., 0., 0., 76., 255., 255., 255., 255., 255.,
          255., 255., 25., 0., 0., 0., 0., 0., 0., 76., 255., 255., 255.,
          255., 255., 255., 255., 79., 0., 0., 0., 0., 0., 8., 130.,
          255., 255., 255., 179., 201., 255., 255., 255., 0., 0., 0., 0.,
          0., 25., 255., 255., 255., 255., 0., 76., 255., 255., 255.,
          84., 0., 0., 0., 0., 25., 255., 255., 255., 156., 0., 43.,
          200., 255., 255., 240., 77., 0., 0., 0., 26., 255., 255., 255.,
          26., 0., 0., 64., 217., 255., 255., 179., 0., 0., 0., 25.,
          255., 255., 255., 25., 0., 0., 0., 178., 255., 255., 222., 72.,
          0., 0., 25., 255., 255., 255., 25., 0., 0., 0., 178., 255.,
          255., 255., 128., 0., 0., 25., 255., 255., 255., 25., 0., 0.,
          0., 54., 237., 255., 255., 128., 0., 0., 25., 255., 255., 255.,
          25., 0., 0., 0., 137., 249., 255., 255., 225., 59., 0., 217.,
          255., 255., 255., 25., 0., 0., 0., 30., 234., 255., 255., 255.,
          225., 21., 255., 186., 26., 26., 3., 0., 0., 0., 0., 229.,
          255., 255., 255., 255., 232., 8., 6., 0., 0., 0., 0., 0., 0.,
          0., 8., 255., 255., 255., 255., 255. ]
      - [ 0., 0., 0., 0., 0., 0., 0., 0., 0., 0., 0., 0., 0., 0., 0., 0.,
          0., 6., 13., 1., 0., 0., 0., 0., 0., 0., 0., 0., 0., 0., 0.,
          6., 138., 255., 25., 0., 0., 0., 0., 0., 0., 0., 0., 0., 0.,
          3., 97., 255., 255., 52., 0., 0., 0., 0., 0., 0., 0., 0., 0.,
          0., 25., 255., 255., 255., 255., 0., 0., 0., 0., 0., 0., 0.,
          0., 0., 0., 25., 255., 255., 255., 255., 0., 0., 0., 0., 0.,
          0., 0., 0., 0., 0., 25., 255., 255., 255., 255., 0., 0., 0.,
          0., 0., 0., 0., 0., 0., 0., 25., 255., 255., 255., 198., 0.,
          0., 0., 0., 0., 0., 0., 0., 0., 0., 25., 255., 255., 255., 90.,
          0., 0., 0., 0., 0., 0., 0., 0., 0., 0., 25., 255., 255., 255.,
          255., 0., 0., 0., 0., 0., 0., 0., 0., 0., 0., 25., 255., 255.,
          255., 255., 0., 0., 0., 0., 0., 0., 0., 0., 0., 0., 25., 255.,
          255., 255., 255., 0., 0., 0., 0., 0., 0., 0., 0., 0., 0., 25.,
          255., 255., 255., 255., 0., 0., 0., 0., 0., 0., 0., 0., 0., 0.,
          25., 255., 255., 255., 255., 0., 0., 0., 0., 0., 0., 0., 0.,
          0., 0., 13., 168., 255., 255., 255., 0., 0., 0., 0., 0., 0.,
          0., 0., 0., 0., 0., 76., 255., 255., 255., 0., 0., 0., 0., 0.,
          0., 0., 0., 0., 0., 0., 76., 255., 255., 255., 0., 0., 0., 0.,
          0., 0., 0., 0., 0., 0., 0., 76., 255., 255., 255., 0., 0., 0.,
          0., 0., 0., 0., 0., 0., 0., 0., 76., 255., 255., 255., 0., 0.,
          0., 0., 0., 0., 0., 0., 0., 0., 0., 76., 255., 255., 255., 0.,
          0., 0., 0., 0., 0., 0., 0., 0., 0., 0., 76., 255., 255., 255.,
          0., 0., 0., 0., 0., 0., 0., 0., 0., 0., 0., 76., 255., 255.,
          255., 164., 0., 0., 0., 0., 0., 0., 0., 0., 0., 0., 76., 255.,
          255., 255., 249., 134., 0., 134., 191., 191., 191., 96., 0.,
          0., 0., 76., 255., 255., 255., 255., 238., 200., 238., 255.,
          255., 255., 227., 200., 20., 0., 76., 255., 255., 255., 255.,
          255., 255., 255., 255., 255., 255., 255., 255., 26., 0., 76.,
          255., 255., 255., 255., 255., 255., 255., 255., 255., 255.,
          255., 255., 26., 0., 76., 255., 255., 255., 255., 255., 255.,
          255., 255., 255., 255., 255., 255., 26., 0., 6., 21., 21., 21.,
          255., 255., 255., 255., 255., 255., 255., 255., 255., 236., 0.,
          0., 0., 0., 0., 13., 13., 13., 13., 13., 13., 13., 134., 255.,
          255., 0., 0., 0., 0., 0., 0., 0., 0., 0., 0., 0., 0., 128.,
          255., 255. ]
      - [ 0., 0., 0., 0., 0., 0., 0., 0., 0., 0., 0., 0., 0., 0., 0., 0.,
          0., 0., 0., 0., 0., 0., 0., 0., 0., 0., 0., 0., 0., 0., 0., 0.,
          0., 0., 0., 0., 0., 0., 0., 0., 0., 0., 0., 0., 0., 0., 0., 0.,
          0., 0., 0., 0., 0., 0., 0., 0., 0., 0., 0., 0., 0., 0., 128.,
          255., 26., 0., 0., 0., 0., 0., 0., 0., 0., 0., 0., 0., 76.,
          255., 255., 255., 0., 0., 0., 0., 0., 0., 0., 0., 0., 0., 0.,
          76., 255., 255., 255., 0., 0., 0., 0., 0., 0., 0., 0., 0., 0.,
          0., 76., 255., 255., 255., 0., 0., 0., 0., 0., 0., 0., 0., 0.,
          0., 0., 76., 255., 255., 255., 0., 0., 0., 0., 0., 0., 0., 0.,
          0., 0., 0., 76., 255., 255., 255., 0., 0., 0., 0., 0., 0., 0.,
          0., 0., 0., 0., 76., 255., 255., 255., 0., 0., 0., 0., 0., 0.,
          0., 0., 0., 0., 0., 76., 255., 255., 255., 0., 0., 0., 0., 0.,
          0., 0., 0., 0., 0., 0., 76., 255., 255., 255., 0., 0., 0., 0.,
          0., 0., 0., 0., 0., 0., 0., 76., 255., 255., 255., 0., 0., 0.,
          0., 0., 0., 0., 0., 0., 0., 0., 76., 255., 255., 255., 0., 0.,
          0., 0., 0., 0., 0., 0., 0., 0., 0., 76., 255., 255., 255., 0.,
          0., 0., 0., 0., 0., 0., 0., 0., 0., 0., 76., 255., 255., 255.,
          0., 0., 0., 0., 0., 0., 0., 0., 0., 0., 0., 76., 255., 255.,
          255., 0., 0., 0., 0., 0., 0., 0., 0., 0., 0., 0., 76., 255.,
          255., 255., 0., 0., 0., 0., 0., 0., 0., 0., 0., 0., 0., 76.,
          255., 255., 255., 0., 0., 0., 0., 0., 0., 0., 0., 0., 0., 0.,
          76., 255., 255., 255., 0., 0., 0., 0., 0., 0., 0., 0., 0., 0.,
          0., 76., 255., 255., 255., 0., 0., 0., 0., 0., 0., 0., 0., 0.,
          0., 0., 76., 255., 255., 255., 26., 255., 128., 0., 0., 0., 0.,
          0., 0., 0., 0., 76., 255., 255., 255., 26., 255., 255., 255.,
          255., 255., 255., 128., 0., 0., 0., 76., 255., 255., 255.,
          255., 255., 255., 255., 255., 255., 255., 128., 0., 0., 0., 0.,
          128., 255., 255., 255., 255., 255., 255., 255., 255., 255.,
          255., 76., 0., 0., 76., 255., 255., 255., 255., 255., 255.,
          255., 255., 255., 255., 255., 255., 255., 255., 255., 128., 0.,
          229., 229., 0., 0., 0., 0., 26., 255., 255., 255., 255., 255.,
          255., 128., 0., 229., 229., 0., 0., 0., 0., 255., 255., 255.,
          255., 255., 229., 76., 128., 0., 0., 0., 0., 0., 0., 0., 26.,
          255., 255., 255., 255. ]
      - [ 255., 255., 255., 140., 156., 255., 255., 255., 41., 255.,
          255., 255., 255., 255., 255., 255., 255., 255., 255., 255.,
          236., 251., 255., 255., 255., 255., 255., 255., 255., 255.,
          255., 246., 213., 213., 213., 57., 184., 213., 213., 224.,
          238., 213., 213., 213., 213., 195., 156., 0., 0., 0., 0., 0.,
          0., 0., 52., 117., 0., 0., 0., 0., 0., 0., 0., 0., 0., 0., 0.,
          0., 0., 0., 0., 0., 0., 0., 0., 0., 0., 0., 0., 0., 0., 0., 0.,
          0., 0., 0., 0., 0., 0., 0., 0., 22., 110., 110., 110., 29., 0.,
          0., 0., 0., 0., 0., 0., 0., 0., 0., 51., 255., 255., 255., 68.,
          0., 0., 0., 0., 0., 0., 0., 0., 0., 0., 51., 255., 255., 255.,
          68., 0., 0., 0., 0., 0., 0., 0., 0., 0., 0., 51., 255., 255.,
          255., 68., 0., 0., 0., 0., 0., 0., 0., 0., 0., 0., 51., 255.,
          255., 255., 68., 0., 0., 0., 0., 0., 0., 0., 0., 0., 0., 51.,
          255., 255., 255., 68., 0., 0., 0., 0., 0., 0., 0., 0., 0., 0.,
          51., 255., 255., 255., 68., 0., 0., 0., 0., 0., 0., 0., 0., 0.,
          0., 51., 255., 255., 255., 68., 0., 0., 0., 0., 0., 0., 0., 0.,
          0., 0., 51., 255., 255., 255., 68., 0., 0., 0., 0., 0., 0., 0.,
          0., 0., 0., 51., 255., 255., 255., 68., 0., 0., 0., 0., 0., 0.,
          0., 0., 0., 0., 51., 255., 255., 255., 68., 0., 0., 0., 0., 0.,
          0., 0., 0., 0., 0., 51., 255., 255., 255., 68., 0., 0., 0., 0.,
          0., 0., 0., 0., 0., 0., 51., 255., 255., 255., 68., 0., 0., 0.,
          0., 0., 0., 0., 0., 0., 0., 51., 255., 255., 255., 68., 0., 0.,
          0., 0., 0., 0., 0., 0., 0., 0., 51., 255., 255., 255., 68., 0.,
          0., 0., 0., 0., 0., 0., 0., 0., 0., 51., 255., 255., 255., 68.,
          0., 0., 0., 0., 0., 0., 0., 0., 0., 0., 51., 255., 255., 255.,
          161., 17., 0., 0., 34., 128., 128., 43., 0., 0., 0., 51., 255.,
          255., 255., 255., 159., 145., 145., 174., 255., 255., 181.,
          145., 10., 0., 51., 255., 255., 255., 255., 255., 255., 255.,
          255., 255., 255., 255., 255., 17., 0., 51., 255., 255., 255.,
          255., 255., 255., 255., 255., 255., 255., 255., 112., 5., 0.,
          51., 255., 255., 255., 255., 255., 255., 255., 255., 255.,
          255., 255., 51., 0., 14., 221., 255., 255., 255., 255., 255.,
          255., 255., 255., 255., 255., 255., 51., 0., 231., 255., 255.,
          255., 255., 255., 255., 255., 255., 255., 255., 255., 102., 5.,
          0., 8., 8., 8., 8., 8., 8., 8., 8., 8., 8., 8., 8., 3., 0., 0. ]
      - [ 0., 0., 0., 0., 0., 0., 0., 0., 0., 0., 0., 0., 0., 0., 0., 0.,
          0., 0., 0., 0., 0., 0., 0., 0., 0., 0., 0., 0., 0., 0., 0., 0.,
          0., 0., 0., 0., 0., 0., 0., 0., 0., 0., 0., 0., 0., 0., 0., 0.,
          0., 0., 0., 0., 0., 0., 0., 0., 0., 0., 0., 0., 0., 0., 0., 0.,
          0., 0., 0., 0., 0., 0., 0., 0., 0., 0., 0., 0., 0., 0., 0., 0.,
          0., 0., 0., 0., 0., 0., 0., 0., 0., 0., 0., 145., 145., 145.,
          0., 0., 0., 0., 0., 0., 0., 145., 145., 0., 0., 0., 255., 255.,
          255., 128., 0., 0., 0., 128., 128., 128., 255., 255., 0., 0.,
          0., 255., 255., 255., 255., 110., 0., 0., 255., 255., 255.,
          255., 255., 0., 0., 0., 255., 255., 255., 255., 255., 0., 0.,
          255., 255., 255., 255., 255., 0., 0., 0., 179., 255., 255.,
          255., 255., 0., 0., 255., 255., 255., 255., 255., 0., 0., 0.,
          0., 255., 255., 255., 255., 0., 0., 255., 255., 255., 255.,
          255., 0., 0., 0., 0., 255., 255., 255., 255., 42., 42., 255.,
          255., 255., 255., 255., 0., 0., 0., 0., 255., 255., 255., 255.,
          255., 255., 255., 255., 255., 255., 255., 0., 0., 0., 0., 255.,
          255., 255., 255., 255., 255., 255., 255., 255., 255., 255., 0.,
          0., 0., 0., 255., 255., 255., 255., 255., 255., 255., 255.,
          255., 255., 255., 0., 0., 0., 0., 255., 255., 255., 255., 255.,
          255., 255., 255., 255., 255., 255., 0., 0., 0., 0., 255., 255.,
          255., 255., 255., 255., 255., 255., 255., 255., 255., 0., 0.,
          0., 0., 255., 255., 255., 255., 255., 255., 255., 255., 255.,
          255., 255., 0., 0., 0., 0., 255., 255., 255., 255., 255., 255.,
          255., 255., 255., 255., 255., 179., 0., 0., 0., 255., 255.,
          255., 255., 255., 255., 255., 255., 255., 255., 255., 255., 0.,
          0., 0., 255., 255., 255., 255., 255., 255., 255., 255., 255.,
          255., 255., 255., 0., 0., 0., 255., 255., 255., 255., 255.,
          255., 255., 128., 255., 255., 255., 255., 0., 0., 0., 255.,
          255., 255., 145., 145., 145., 145., 0., 255., 255., 255., 255.,
          0., 0., 0., 255., 255., 255., 0., 94., 94., 0., 0., 255., 255.,
          255., 255., 0., 0., 0., 255., 255., 255., 0., 179., 179., 0.,
          0., 255., 255., 255., 255., 0., 0., 0., 255., 255., 255., 0.,
          0., 0., 0., 0., 195., 255., 255., 255., 0., 0., 0., 255., 255.,
          255., 0., 0., 0., 0., 0., 0., 213., 255., 255., 42., 0., 0.,
          229., 229., 229., 0., 0., 0., 0., 0., 0., 0., 229., 229., 229.,
          0., 0., 0., 0., 0., 0., 0., 0., 0., 0., 0., 0., 0., 0., 0. ]
      - [ 0., 0., 0., 0., 0., 0., 0., 0., 0., 0., 0., 0., 0., 0., 0., 0.,
          0., 0., 0., 0., 0., 0., 0., 0., 0., 0., 0., 0., 0., 0., 0., 0.,
          0., 0., 0., 0., 0., 0., 0., 0., 0., 0., 0., 0., 0., 0., 0., 0.,
          0., 0., 0., 0., 0., 0., 0., 0., 0., 0., 0., 0., 0., 0., 0., 0.,
          0., 0., 0., 0., 0., 0., 0., 0., 0., 0., 0., 0., 5., 39., 0.,
          0., 0., 0., 0., 0., 30., 47., 47., 8., 0., 0., 0., 25., 222.,
          42., 0., 0., 0., 0., 0., 161., 255., 255., 89., 6., 0., 2.,
          83., 255., 210., 64., 40., 0., 0., 36., 185., 255., 255., 255.,
          26., 0., 8., 255., 255., 255., 255., 188., 41., 0., 144., 255.,
          255., 255., 255., 26., 0., 8., 255., 255., 255., 255., 225.,
          99., 0., 144., 255., 255., 255., 255., 26., 0., 8., 255., 255.,
          255., 255., 161., 0., 0., 144., 255., 255., 255., 255., 26.,
          0., 8., 255., 255., 255., 255., 197., 55., 49., 187., 255.,
          255., 255., 255., 26., 0., 8., 255., 255., 255., 255., 255.,
          190., 180., 255., 255., 255., 255., 255., 26., 0., 8., 255.,
          255., 255., 255., 255., 255., 255., 255., 255., 255., 255.,
          255., 26., 0., 8., 255., 255., 255., 255., 255., 255., 255.,
          255., 255., 255., 255., 255., 26., 0., 8., 255., 255., 255.,
          255., 255., 255., 255., 255., 255., 255., 255., 255., 26., 0.,
          8., 255., 255., 255., 255., 255., 255., 255., 255., 255., 255.,
          255., 255., 26., 0., 8., 255., 255., 255., 255., 255., 255.,
          255., 255., 255., 255., 255., 255., 26., 0., 8., 255., 255.,
          255., 255., 255., 255., 255., 255., 255., 255., 255., 255.,
          26., 0., 8., 255., 255., 255., 255., 255., 255., 255., 255.,
          255., 255., 255., 255., 26., 0., 8., 255., 255., 255., 255.,
          255., 255., 255., 255., 255., 255., 255., 255., 26., 0., 8.,
          255., 255., 255., 200., 139., 255., 255., 151., 72., 200.,
          255., 255., 190., 6., 8., 255., 255., 255., 178., 23., 147.,
          255., 110., 0., 178., 255., 255., 255., 8., 8., 255., 255.,
          255., 238., 126., 24., 55., 24., 126., 238., 255., 255., 255.,
          8., 2., 67., 255., 255., 255., 161., 0., 0., 0., 161., 255.,
          255., 255., 255., 8., 7., 221., 255., 255., 255., 161., 0., 0.,
          0., 24., 190., 255., 255., 255., 8., 1., 52., 255., 255., 255.,
          161., 0., 0., 0., 0., 178., 255., 255., 255., 8., 8., 236.,
          255., 255., 255., 161., 0., 0., 0., 0., 178., 255., 255., 255.,
          8., 0., 37., 255., 255., 182., 8., 0., 0., 0., 0., 9., 198.,
          255., 37., 0., 0., 25., 255., 255., 178., 0., 0., 0., 0., 0.,
          0., 3., 4., 0., 0. ]
      - [ 255., 25., 0., 0., 0., 0., 0., 0., 0., 0., 0., 0., 0., 0., 0.,
          51., 189., 34., 0., 0., 0., 0., 0., 0., 75., 204., 204., 170.,
          0., 0., 0., 77., 14., 0., 119., 62., 0., 0., 74., 139., 85.,
          85., 71., 0., 0., 0., 0., 0., 0., 83., 44., 0., 0., 52., 75.,
          0., 0., 0., 0., 0., 0., 0., 0., 0., 0., 0., 0., 0., 0., 0., 0.,
          0., 0., 0., 0., 0., 0., 0., 0., 0., 0., 0., 0., 0., 25., 68.,
          52., 0., 0., 0., 0., 0., 28., 34., 10., 0., 0., 0., 15., 115.,
          255., 203., 28., 0., 0., 0., 0., 213., 255., 76., 0., 0., 0.,
          110., 255., 255., 255., 213., 0., 0., 0., 199., 249., 255.,
