%YAML:1.0
my_svm: !!opencv-ml-svm
   svm_type: C_SVC
   kernel: { type:LINEAR }
   C: 1.
   term_criteria: { epsilon:1.1920928955078125e-007, iterations:1000 }
   var_all: 300
   var_count: 300
   class_count: 10
   class_labels: !!opencv-matrix
      rows: 1
      cols: 10
      dt: i
      data: [ 0, 1, 2, 3, 4, 5, 6, 7, 8, 9 ]
   sv_total: 173
   support_vectors:
      - [ 205., 6., 38., 219., 255., 255., 255., 255., 255., 255., 32.,
          0., 0., 205., 205., 205., 205., 42., 255., 255., 255., 255.,
          255., 255., 255., 255., 232., 57., 0., 205., 205., 205., 205.,
          202., 255., 255., 255., 255., 255., 255., 255., 255., 255.,
          128., 0., 205., 205., 205., 205., 255., 255., 255., 255., 255.,
          255., 255., 255., 255., 255., 255., 53., 205., 205., 205.,
          205., 255., 255., 255., 240., 166., 166., 180., 255., 255.,
          255., 255., 255., 205., 205., 205., 205., 255., 255., 255.,
          212., 0., 0., 42., 255., 255., 255., 255., 255., 205., 205.,
          205., 205., 255., 255., 255., 212., 0., 0., 42., 255., 255.,
          255., 255., 53., 205., 205., 205., 205., 255., 255., 255.,
          255., 127., 0., 0., 127., 255., 255., 255., 96., 205., 205.,
          205., 205., 255., 255., 255., 232., 57., 0., 0., 127., 255.,
          255., 255., 255., 205., 205., 205., 205., 255., 255., 255.,
          212., 0., 0., 0., 19., 219., 255., 255., 74., 205., 205., 205.,
          205., 255., 255., 255., 212., 0., 0., 0., 19., 219., 255.,
          255., 255., 205., 205., 205., 205., 255., 255., 255., 212., 0.,
          0., 0., 127., 255., 255., 255., 255., 205., 205., 205., 205.,
          255., 255., 255., 212., 0., 0., 0., 32., 223., 255., 255.,
          255., 205., 205., 205., 205., 255., 255., 255., 214., 6., 0.,
          13., 134., 255., 255., 255., 255., 205., 205., 205., 205.,
          255., 255., 255., 255., 172., 15., 255., 255., 255., 255.,
          255., 255., 205., 205., 205., 205., 255., 255., 255., 255.,
          255., 180., 255., 255., 255., 255., 255., 255., 205., 205.,
          205., 205., 53., 255., 255., 255., 255., 255., 255., 255.,
          255., 255., 255., 255., 205., 205., 205., 205., 42., 255.,
          255., 255., 255., 255., 255., 255., 255., 255., 255., 202.,
          205., 205., 205., 205., 19., 185., 255., 255., 255., 255.,
          255., 255., 255., 255., 255. ]
      - [ 205., 205., 0., 0., 0., 10., 38., 38., 38., 10., 0., 0., 0.,
          205., 205., 205., 205., 205., 21., 52., 104., 153., 255., 255.,
          255., 153., 115., 63., 0., 205., 205., 205., 205., 205., 46.,
          220., 249., 255., 255., 255., 255., 255., 255., 226., 35.,
          205., 205., 205., 205., 205., 57., 255., 255., 255., 255.,
          255., 255., 255., 255., 255., 255., 205., 205., 205., 205.,
          205., 255., 255., 255., 255., 255., 255., 166., 230., 255.,
          255., 255., 205., 205., 205., 205., 205., 255., 255., 255.,
          255., 150., 89., 0., 185., 255., 255., 255., 205., 205., 205.,
          205., 205., 255., 255., 255., 189., 5., 0., 0., 185., 255.,
          255., 255., 205., 205., 205., 205., 205., 255., 255., 255., 0.,
          0., 0., 0., 185., 255., 255., 255., 205., 205., 205., 205.,
          205., 255., 255., 255., 0., 0., 0., 0., 185., 255., 255., 255.,
          205., 205., 205., 205., 205., 255., 255., 255., 158., 0., 0.,
          0., 185., 255., 255., 255., 205., 205., 205., 205., 205., 255.,
          255., 255., 185., 0., 0., 0., 158., 255., 255., 255., 205.,
          205., 205., 205., 205., 255., 255., 255., 102., 0., 0., 0., 0.,
          255., 255., 255., 205., 205., 205., 205., 205., 255., 255.,
          255., 0., 0., 0., 0., 0., 255., 255., 255., 205., 205., 205.,
          205., 205., 255., 255., 255., 9., 0., 0., 0., 185., 255., 255.,
          255., 205., 205., 205., 205., 205., 255., 255., 255., 185., 0.,
          0., 0., 185., 255., 255., 255., 205., 205., 205., 205., 205.,
          255., 255., 255., 185., 0., 0., 60., 230., 255., 255., 255.,
          205., 205., 205., 205., 205., 255., 255., 255., 251., 242.,
          242., 247., 255., 255., 255., 255., 205., 205., 205., 205.,
          205., 203., 255., 255., 255., 255., 255., 255., 255., 255.,
          255., 203., 205., 205., 205., 205., 205., 21., 191., 255.,
          255., 255., 255., 255., 255., 255., 191. ]
      - [ 205., 205., 0., 57., 159., 255., 255., 255., 255., 255., 236.,
          19., 205., 205., 205., 205., 205., 205., 0., 229., 255., 255.,
          255., 255., 255., 255., 255., 210., 205., 205., 205., 205.,
          205., 205., 255., 255., 255., 255., 255., 255., 255., 255.,
          255., 255., 205., 205., 205., 205., 205., 205., 255., 255.,
          255., 255., 121., 64., 236., 255., 255., 255., 205., 205.,
          205., 205., 205., 205., 255., 255., 255., 191., 57., 0., 0.,
          255., 255., 255., 205., 205., 205., 205., 205., 205., 255.,
          255., 255., 0., 0., 0., 0., 255., 255., 255., 205., 205., 205.,
          205., 205., 205., 255., 255., 255., 0., 0., 0., 0., 255., 255.,
          255., 205., 205., 205., 205., 205., 205., 255., 255., 159., 0.,
          0., 0., 0., 255., 255., 255., 205., 205., 205., 205., 205.,
          205., 255., 255., 159., 0., 0., 0., 0., 255., 255., 255., 205.,
          205., 205., 205., 205., 205., 255., 255., 255., 0., 0., 0., 0.,
          255., 255., 255., 205., 205., 205., 205., 205., 205., 255.,
          255., 255., 0., 0., 0., 0., 229., 255., 255., 205., 205., 205.,
          205., 205., 205., 255., 255., 255., 0., 0., 0., 0., 87., 255.,
          255., 205., 205., 205., 205., 205., 205., 255., 255., 159., 0.,
          0., 0., 0., 255., 255., 255., 205., 205., 205., 205., 205.,
          205., 255., 255., 159., 0., 0., 0., 0., 255., 255., 255., 205.,
          205., 205., 205., 205., 205., 255., 255., 159., 0., 45., 64.,
          64., 255., 255., 255., 205., 205., 205., 205., 205., 205.,
          255., 255., 255., 191., 236., 255., 255., 255., 255., 255.,
          205., 205., 205., 205., 205., 205., 255., 255., 255., 255.,
          255., 255., 255., 255., 255., 76., 205., 205., 205., 205.,
          205., 205., 255., 255., 255., 255., 255., 255., 255., 255.,
          255., 76., 205., 205., 205., 205., 205., 205., 255., 255.,
          255., 255., 255., 255., 255., 223., 0., 0. ]
      - [ 205., 205., 0., 0., 41., 255., 255., 255., 255., 255., 45.,
          24., 0., 205., 205., 205., 205., 205., 24., 134., 244., 255.,
          255., 255., 255., 255., 255., 200., 134., 205., 205., 205.,
          205., 205., 46., 255., 255., 255., 255., 255., 255., 255.,
          255., 255., 255., 205., 205., 205., 205., 205., 93., 255.,
          255., 255., 255., 255., 218., 255., 255., 255., 255., 205.,
          205., 205., 205., 205., 255., 255., 255., 255., 162., 108.,
          39., 108., 255., 255., 255., 205., 205., 205., 205., 205.,
          255., 255., 255., 190., 7., 0., 0., 0., 255., 255., 255., 205.,
          205., 205., 205., 205., 255., 255., 255., 185., 0., 0., 0.,
          185., 255., 255., 255., 205., 205., 205., 205., 205., 255.,
          255., 255., 185., 0., 0., 0., 185., 255., 255., 255., 205.,
          205., 205., 205., 205., 255., 255., 255., 185., 0., 0., 0.,
          185., 255., 255., 255., 205., 205., 205., 205., 205., 255.,
          255., 255., 185., 0., 0., 0., 185., 255., 255., 255., 205.,
          205., 205., 205., 205., 255., 255., 255., 185., 0., 0., 0.,
          185., 255., 255., 255., 205., 205., 205., 205., 205., 255.,
          255., 255., 185., 0., 0., 0., 181., 255., 255., 255., 205.,
          205., 205., 205., 205., 255., 255., 255., 185., 0., 0., 0., 0.,
          255., 255., 255., 205., 205., 205., 205., 205., 255., 255.,
          255., 51., 0., 0., 0., 0., 255., 255., 255., 205., 205., 205.,
          205., 205., 255., 255., 255., 14., 0., 0., 0., 14., 255., 255.,
          255., 205., 205., 205., 205., 205., 255., 255., 255., 215.,
          108., 0., 39., 215., 255., 255., 255., 205., 205., 205., 205.,
          205., 93., 255., 255., 255., 255., 198., 218., 255., 255.,
          255., 255., 205., 205., 205., 205., 205., 46., 255., 255.,
          255., 255., 255., 255., 255., 255., 255., 255., 205., 205.,
          205., 205., 205., 46., 255., 255., 255., 255., 255., 255.,
          255., 255., 255. ]
      - [ 205., 0., 19., 38., 255., 255., 255., 255., 255., 255., 255.,
          147., 6., 205., 205., 205., 205., 19., 185., 255., 255., 255.,
          255., 255., 255., 255., 255., 255., 138., 205., 205., 205.,
          205., 42., 255., 255., 255., 255., 255., 255., 255., 255.,
          255., 255., 255., 205., 205., 205., 205., 42., 255., 255.,
          255., 255., 244., 242., 242., 253., 255., 255., 255., 205.,
          205., 205., 205., 42., 255., 255., 255., 210., 28., 0., 0.,
          213., 255., 255., 255., 205., 205., 205., 205., 42., 255.,
          255., 227., 45., 0., 0., 0., 213., 255., 255., 255., 205.,
          205., 205., 205., 42., 255., 255., 212., 0., 0., 0., 0., 213.,
          255., 255., 255., 205., 205., 205., 205., 42., 255., 255.,
          212., 0., 0., 0., 0., 213., 255., 255., 255., 205., 205., 205.,
          205., 159., 255., 255., 212., 0., 0., 0., 0., 213., 255., 255.,
          255., 205., 205., 205., 205., 255., 255., 255., 212., 0., 0.,
          0., 0., 213., 255., 255., 255., 205., 205., 205., 205., 255.,
          255., 255., 212., 0., 0., 0., 0., 213., 255., 255., 255., 205.,
          205., 205., 205., 255., 255., 255., 117., 0., 0., 0., 0., 213.,
          255., 255., 159., 205., 205., 205., 205., 255., 255., 255., 0.,
          0., 0., 0., 0., 213., 255., 255., 42., 205., 205., 205., 205.,
          255., 255., 255., 0., 0., 0., 0., 0., 213., 255., 255., 42.,
          205., 205., 205., 205., 255., 255., 255., 74., 0., 0., 0., 0.,
          213., 255., 255., 42., 205., 205., 205., 205., 255., 255.,
          255., 240., 83., 0., 28., 166., 240., 255., 255., 42., 205.,
          205., 205., 205., 255., 255., 255., 255., 249., 242., 244.,
          255., 255., 255., 255., 42., 205., 205., 205., 205., 255.,
          255., 255., 255., 255., 255., 255., 255., 255., 255., 223.,
          32., 205., 205., 205., 205., 255., 255., 255., 255., 255.,
          255., 255., 255., 255., 255., 128. ]
      - [ 205., 0., 0., 9., 179., 255., 255., 255., 255., 255., 35., 0.,
          0., 0., 205., 205., 205., 0., 119., 185., 255., 255., 255.,
          255., 255., 255., 223., 26., 0., 0., 205., 205., 205., 83.,
          255., 255., 255., 255., 255., 255., 255., 255., 255., 255.,
          186., 7., 205., 205., 205., 255., 255., 255., 255., 255., 255.,
          255., 255., 255., 255., 255., 255., 59., 205., 205., 205.,
          255., 255., 255., 251., 249., 115., 0., 115., 249., 255., 255.,
          253., 57., 205., 205., 205., 255., 255., 255., 98., 0., 0., 0.,
          0., 112., 255., 255., 176., 0., 205., 205., 205., 73., 255.,
          255., 243., 0., 0., 0., 0., 18., 255., 255., 249., 54., 205.,
          205., 205., 59., 255., 255., 255., 0., 0., 0., 0., 0., 255.,
          255., 255., 59., 205., 205., 205., 59., 255., 255., 255., 0.,
          0., 0., 0., 0., 255., 255., 255., 59., 205., 205., 205., 43.,
          233., 255., 255., 0., 0., 0., 0., 0., 212., 255., 255., 59.,
          205., 205., 205., 0., 177., 255., 255., 0., 0., 0., 0., 0.,
          98., 255., 255., 59., 205., 205., 205., 0., 176., 255., 255.,
          41., 0., 0., 0., 0., 98., 255., 255., 93., 205., 205., 205.,
          0., 176., 255., 255., 235., 0., 0., 0., 0., 98., 255., 255.,
          255., 205., 205., 205., 0., 177., 255., 255., 237., 9., 0., 0.,
          0., 98., 255., 255., 255., 205., 205., 205., 0., 176., 255.,
          255., 255., 118., 0., 0., 0., 180., 255., 255., 255., 205.,
          205., 205., 0., 176., 255., 255., 255., 117., 0., 0., 0., 255.,
          255., 255., 255., 205., 205., 205., 0., 177., 255., 255., 255.,
          255., 255., 255., 255., 255., 255., 255., 255., 205., 205.,
          205., 0., 22., 255., 255., 255., 255., 255., 255., 255., 255.,
          255., 255., 255., 205., 205., 205., 0., 0., 26., 223., 255.,
          255., 255., 255., 255., 255., 255. ]
      - [ 205., 0., 0., 0., 0., 64., 255., 255., 107., 57., 57., 0., 0.,
          205., 205., 205., 205., 0., 129., 172., 172., 193., 255., 255.,
          255., 255., 255., 0., 0., 205., 205., 205., 205., 255., 255.,
          255., 255., 255., 255., 255., 255., 255., 255., 255., 64.,
          205., 205., 205., 205., 255., 255., 255., 255., 255., 255.,
          255., 255., 255., 255., 255., 64., 205., 205., 205., 205.,
          255., 255., 255., 255., 253., 249., 249., 253., 255., 255.,
          255., 64., 205., 205., 205., 205., 255., 255., 255., 164.,
          100., 0., 0., 100., 255., 255., 255., 64., 205., 205., 205.,
          205., 255., 255., 255., 64., 0., 0., 0., 0., 78., 255., 255.,
          241., 205., 205., 205., 205., 255., 255., 215., 24., 0., 0.,
          0., 0., 255., 255., 255., 255., 205., 205., 205., 205., 255.,
          255., 255., 64., 0., 0., 0., 0., 255., 255., 255., 255., 205.,
          205., 205., 205., 255., 255., 255., 64., 0., 0., 0., 0., 255.,
          255., 255., 255., 205., 205., 205., 205., 255., 255., 255.,
          64., 0., 0., 0., 0., 255., 255., 255., 255., 205., 205., 205.,
          205., 221., 255., 255., 64., 0., 0., 0., 0., 255., 255., 255.,
          255., 205., 205., 205., 205., 64., 255., 255., 64., 0., 0., 0.,
          0., 255., 255., 255., 255., 205., 205., 205., 205., 64., 255.,
          255., 64., 0., 0., 0., 0., 64., 255., 255., 255., 205., 205.,
          205., 205., 64., 255., 255., 164., 0., 0., 0., 0., 64., 255.,
          255., 255., 205., 205., 205., 205., 64., 255., 255., 255., 0.,
          0., 0., 0., 250., 255., 255., 255., 205., 205., 205., 205.,
          64., 255., 255., 255., 218., 108., 255., 255., 255., 255.,
          255., 255., 205., 205., 205., 205., 8., 199., 255., 255., 255.,
          255., 255., 255., 255., 255., 255., 255., 205., 205., 205.,
          205., 0., 129., 193., 255., 255., 255., 255., 255., 255., 255.,
          172. ]
      - [ 205., 205., 255., 255., 255., 255., 255., 255., 255., 255.,
          197., 0., 0., 205., 205., 205., 205., 205., 255., 255., 255.,
          255., 255., 255., 255., 255., 242., 198., 198., 205., 205.,
          205., 205., 205., 255., 255., 255., 255., 255., 255., 255.,
          255., 255., 255., 255., 205., 205., 205., 205., 205., 255.,
          255., 255., 172., 134., 134., 134., 172., 255., 255., 255.,
          205., 205., 205., 205., 205., 255., 255., 255., 81., 0., 0.,
          0., 81., 255., 255., 255., 205., 205., 205., 205., 205., 255.,
          255., 255., 81., 0., 0., 0., 81., 255., 255., 255., 205., 205.,
          205., 205., 205., 255., 255., 255., 81., 0., 0., 0., 81., 255.,
          255., 255., 205., 205., 205., 205., 205., 255., 255., 255.,
          81., 0., 0., 0., 81., 255., 255., 255., 205., 205., 205., 205.,
          205., 255., 255., 255., 81., 0., 0., 0., 81., 255., 255., 255.,
          205., 205., 205., 205., 205., 255., 255., 142., 34., 0., 0.,
          0., 81., 255., 255., 255., 205., 205., 205., 205., 205., 255.,
          255., 58., 0., 0., 0., 0., 81., 255., 255., 255., 205., 205.,
          205., 205., 205., 255., 255., 58., 0., 0., 0., 0., 81., 255.,
          255., 255., 205., 205., 205., 205., 205., 255., 255., 58., 0.,
          0., 0., 0., 81., 255., 255., 255., 205., 205., 205., 205.,
          205., 255., 255., 58., 0., 0., 0., 0., 81., 255., 255., 255.,
          205., 205., 205., 205., 205., 255., 255., 58., 0., 0., 0., 0.,
          81., 255., 255., 255., 205., 205., 205., 205., 205., 255.,
          255., 191., 55., 0., 0., 0., 81., 255., 255., 255., 205., 205.,
          205., 205., 205., 255., 255., 255., 172., 134., 134., 134.,
          172., 255., 255., 255., 205., 205., 205., 205., 205., 255.,
          255., 255., 255., 255., 255., 255., 255., 255., 242., 159.,
          205., 205., 205., 205., 205., 255., 255., 255., 255., 255.,
          255., 255., 255., 242., 171. ]
      - [ 205., 255., 255., 255., 255., 255., 229., 217., 217., 217.,
          252., 255., 255., 72., 205., 205., 205., 255., 255., 255.,
          246., 140., 43., 0., 0., 0., 235., 255., 255., 255., 205.,
          205., 205., 255., 255., 255., 235., 0., 0., 0., 0., 0., 235.,
          255., 255., 255., 205., 205., 205., 255., 255., 255., 235., 0.,
          0., 0., 0., 0., 235., 255., 255., 255., 205., 205., 205., 255.,
          255., 255., 153., 0., 0., 0., 0., 0., 235., 255., 255., 255.,
          205., 205., 205., 255., 255., 255., 0., 0., 0., 0., 0., 0.,
          235., 255., 255., 255., 205., 205., 205., 255., 255., 255., 0.,
          0., 0., 0., 0., 0., 235., 255., 255., 255., 205., 205., 205.,
          255., 255., 255., 0., 0., 0., 0., 0., 0., 235., 255., 255.,
          255., 205., 205., 205., 255., 255., 255., 0., 0., 0., 0., 0.,
          0., 235., 255., 255., 136., 205., 205., 205., 255., 255., 255.,
          0., 0., 0., 0., 0., 0., 235., 255., 255., 39., 205., 205.,
          205., 255., 255., 255., 0., 0., 0., 0., 0., 0., 235., 255.,
          255., 39., 205., 205., 205., 255., 255., 255., 0., 0., 0., 0.,
          0., 0., 235., 255., 255., 136., 205., 205., 205., 255., 255.,
          255., 0., 0., 0., 0., 0., 0., 235., 255., 255., 255., 205.,
          205., 205., 255., 255., 255., 0., 0., 0., 0., 0., 0., 235.,
          255., 255., 255., 205., 205., 205., 255., 255., 255., 0., 0.,
          0., 0., 0., 0., 235., 255., 255., 255., 205., 205., 205., 255.,
          255., 255., 153., 0., 0., 0., 0., 102., 248., 255., 255., 255.,
          205., 205., 205., 255., 255., 255., 254., 242., 242., 242.,
          242., 250., 255., 255., 255., 255., 205., 205., 205., 201.,
          255., 255., 255., 255., 255., 255., 255., 255., 255., 255.,
          221., 29., 205., 205., 205., 39., 255., 255., 255., 255., 255.,
          255., 255., 255., 255., 255. ]
      - [ 205., 6., 138., 255., 255., 255., 255., 255., 255., 255., 255.,
          255., 138., 6., 205., 205., 205., 136., 255., 255., 255., 255.,
          255., 255., 255., 255., 255., 255., 255., 136., 205., 205.,
          205., 255., 255., 255., 255., 255., 255., 255., 255., 255.,
          255., 255., 255., 255., 205., 205., 205., 255., 255., 255.,
          254., 242., 75., 0., 0., 0., 235., 255., 255., 255., 205.,
          205., 205., 255., 255., 255., 235., 0., 0., 0., 0., 0., 235.,
          255., 255., 255., 205., 205., 205., 255., 255., 255., 235., 0.,
          0., 0., 0., 0., 235., 255., 255., 255., 205., 205., 205., 255.,
          255., 255., 12., 0., 0., 0., 0., 0., 235., 255., 255., 255.,
          205., 205., 205., 255., 255., 255., 0., 0., 0., 0., 0., 0.,
          235., 255., 255., 255., 205., 205., 205., 255., 255., 255., 0.,
          0., 0., 0., 0., 0., 235., 255., 255., 255., 205., 205., 205.,
          255., 255., 255., 0., 0., 0., 0., 0., 0., 235., 255., 255.,
          255., 205., 205., 205., 255., 255., 255., 0., 0., 0., 0., 0.,
          0., 235., 255., 255., 255., 205., 205., 205., 255., 255., 255.,
          0., 0., 0., 0., 0., 0., 235., 255., 255., 255., 205., 205.,
          205., 255., 255., 255., 0., 0., 0., 0., 0., 0., 235., 255.,
          255., 255., 205., 205., 205., 255., 255., 255., 0., 0., 0., 0.,
          0., 0., 235., 255., 255., 255., 205., 205., 205., 255., 255.,
          255., 0., 0., 0., 0., 0., 0., 235., 255., 255., 255., 205.,
          205., 205., 255., 255., 255., 0., 0., 0., 0., 0., 102., 248.,
          255., 255., 255., 205., 205., 205., 255., 255., 255., 224., 0.,
          0., 0., 75., 250., 255., 255., 255., 255., 205., 205., 205.,
          255., 255., 255., 255., 255., 255., 255., 255., 255., 255.,
          255., 255., 255., 205., 205., 205., 255., 255., 255., 255.,
          255., 255., 255., 255., 255., 255., 255. ]
      - [ 205., 205., 4., 129., 255., 255., 255., 255., 255., 255., 255.,
          60., 205., 205., 205., 205., 205., 205., 103., 255., 255.,
          255., 255., 255., 255., 255., 255., 255., 205., 205., 205.,
          205., 205., 205., 255., 255., 255., 128., 172., 172., 128.,
          159., 255., 255., 205., 205., 205., 205., 205., 205., 255.,
          255., 255., 0., 27., 27., 0., 64., 255., 255., 205., 205.,
          205., 205., 205., 205., 255., 255., 255., 0., 0., 0., 0., 64.,
          255., 255., 205., 205., 205., 205., 205., 205., 255., 255.,
          255., 0., 0., 0., 0., 64., 255., 255., 205., 205., 205., 205.,
          205., 205., 255., 255., 255., 0., 0., 0., 0., 64., 255., 255.,
          205., 205., 205., 205., 205., 205., 255., 255., 255., 0., 0.,
          0., 0., 64., 255., 255., 205., 205., 205., 205., 205., 205.,
          255., 255., 255., 0., 0., 0., 0., 64., 255., 255., 205., 205.,
          205., 205., 205., 205., 255., 255., 255., 0., 0., 0., 0., 64.,
          255., 255., 205., 205., 205., 205., 205., 205., 255., 255.,
          255., 0., 0., 0., 0., 236., 255., 255., 205., 205., 205., 205.,
          205., 205., 255., 255., 255., 0., 0., 0., 0., 64., 255., 255.,
          205., 205., 205., 205., 205., 205., 255., 255., 255., 0., 0.,
          0., 0., 64., 255., 255., 205., 205., 205., 205., 205., 205.,
          103., 255., 255., 0., 0., 0., 0., 64., 255., 255., 205., 205.,
          205., 205., 205., 205., 38., 255., 255., 0., 0., 0., 0., 64.,
          255., 255., 205., 205., 205., 205., 205., 205., 38., 255.,
          255., 244., 26., 26., 26., 255., 255., 255., 205., 205., 205.,
          205., 205., 205., 38., 255., 255., 255., 255., 255., 255.,
          255., 255., 255., 205., 205., 205., 205., 205., 205., 19.,
          185., 255., 255., 255., 255., 255., 255., 255., 255., 205.,
          205., 205., 205., 205., 205., 0., 34., 210., 255., 255., 255.,
          255., 255., 255., 255. ]
      - [ 205., 0., 223., 255., 255., 255., 255., 255., 255., 255., 255.,
          223., 0., 205., 205., 205., 205., 198., 248., 255., 255., 255.,
          255., 255., 255., 255., 255., 248., 198., 205., 205., 205.,
          205., 255., 255., 255., 255., 155., 96., 96., 96., 142., 255.,
          255., 255., 205., 205., 205., 205., 134., 240., 255., 169.,
          50., 0., 0., 0., 74., 255., 255., 255., 205., 205., 205., 205.,
          83., 233., 255., 74., 0., 0., 0., 0., 74., 255., 255., 255.,
          205., 205., 205., 205., 255., 255., 255., 74., 0., 0., 0., 0.,
          74., 255., 255., 255., 205., 205., 205., 205., 255., 255.,
          255., 74., 0., 0., 0., 0., 74., 255., 255., 255., 205., 205.,
          205., 205., 255., 255., 255., 74., 0., 0., 0., 0., 74., 255.,
          255., 255., 205., 205., 205., 205., 255., 255., 255., 74., 0.,
          0., 0., 0., 74., 255., 255., 255., 205., 205., 205., 205.,
          255., 255., 255., 74., 0., 0., 0., 0., 74., 255., 255., 255.,
          205., 205., 205., 205., 255., 255., 255., 74., 0., 0., 0., 0.,
          74., 255., 241., 147., 205., 205., 205., 205., 255., 255.,
          255., 74., 0., 0., 0., 0., 74., 255., 223., 0., 205., 205.,
          205., 205., 255., 255., 230., 65., 0., 0., 0., 12., 97., 255.,
          223., 0., 205., 205., 205., 205., 255., 255., 58., 2., 0., 0.,
          0., 93., 251., 255., 223., 0., 205., 205., 205., 205., 255.,
          255., 53., 0., 0., 0., 0., 95., 255., 211., 39., 0., 205.,
          205., 205., 205., 255., 255., 189., 50., 108., 172., 172.,
          203., 255., 238., 151., 0., 205., 205., 205., 205., 255., 255.,
          255., 169., 209., 255., 255., 255., 255., 255., 223., 0., 205.,
          205., 205., 205., 255., 255., 255., 255., 255., 255., 255.,
          255., 227., 179., 235., 96., 205., 205., 205., 205., 255.,
          255., 255., 255., 255., 255., 255., 255., 197., 99., 255. ]
      - [ 0., 146., 255., 255., 255., 255., 255., 255., 255., 255., 255.,
          255., 146., 0., 205., 205., 140., 206., 255., 255., 155., 115.,
          115., 115., 195., 255., 255., 255., 206., 140., 205., 205.,
          255., 255., 255., 255., 73., 0., 0., 0., 146., 255., 255.,
          255., 255., 255., 205., 205., 255., 255., 255., 255., 73., 0.,
          0., 0., 146., 255., 255., 255., 255., 255., 205., 205., 255.,
          255., 255., 255., 73., 0., 0., 0., 51., 137., 255., 255., 255.,
          255., 205., 205., 255., 255., 255., 255., 73., 0., 0., 0., 0.,
          73., 255., 255., 255., 255., 205., 205., 255., 255., 255.,
          255., 73., 0., 0., 0., 0., 73., 255., 255., 255., 255., 205.,
          205., 255., 255., 255., 255., 73., 0., 0., 0., 0., 73., 255.,
          255., 255., 255., 205., 205., 255., 255., 255., 255., 73., 0.,
          0., 0., 0., 73., 255., 255., 255., 255., 205., 205., 255.,
          255., 255., 255., 73., 0., 0., 0., 0., 73., 255., 255., 239.,
          217., 205., 205., 255., 255., 255., 255., 73., 0., 0., 0., 0.,
          73., 255., 255., 162., 38., 205., 205., 255., 255., 215., 115.,
          33., 0., 0., 0., 0., 73., 255., 255., 146., 0., 205., 205.,
          255., 255., 182., 0., 0., 0., 0., 0., 0., 73., 255., 255.,
          146., 0., 205., 205., 255., 255., 182., 0., 0., 0., 0., 0., 0.,
          73., 255., 255., 146., 0., 205., 205., 255., 255., 182., 0.,
          0., 0., 0., 0., 95., 191., 255., 255., 146., 0., 205., 205.,
          255., 255., 182., 0., 0., 0., 13., 77., 184., 255., 255., 255.,
          146., 0., 205., 205., 255., 255., 186., 13., 13., 13., 47.,
          220., 255., 255., 255., 255., 146., 0., 205., 205., 255., 255.,
          237., 191., 191., 191., 200., 246., 255., 255., 255., 255.,
          146., 0., 205., 205., 255., 255., 255., 255., 255., 255., 255.,
          255., 255., 255., 255., 173. ]
      - [ 205., 255., 255., 255., 255., 255., 233., 0., 0., 137., 252.,
          255., 255., 255., 205., 205., 205., 255., 255., 255., 247.,
          159., 49., 0., 0., 0., 235., 255., 255., 255., 205., 205.,
          205., 255., 255., 255., 235., 0., 0., 0., 0., 0., 235., 255.,
          255., 255., 205., 205., 205., 255., 255., 255., 235., 0., 0.,
          0., 0., 0., 235., 255., 255., 255., 205., 205., 205., 228.,
          255., 255., 0., 0., 0., 0., 0., 0., 235., 255., 255., 255.,
          205., 205., 205., 120., 255., 255., 0., 0., 0., 0., 0., 0.,
          235., 255., 255., 174., 205., 205., 205., 255., 255., 255., 0.,
          0., 0., 0., 0., 0., 235., 255., 255., 39., 205., 205., 205.,
          255., 255., 255., 0., 0., 0., 0., 0., 0., 235., 255., 255.,
          39., 205., 205., 205., 255., 255., 255., 0., 0., 0., 0., 0.,
          0., 235., 255., 255., 39., 205., 205., 205., 255., 255., 255.,
          0., 0., 0., 0., 0., 0., 235., 255., 255., 39., 205., 205.,
          205., 255., 255., 255., 0., 0., 0., 0., 0., 0., 235., 255.,
          255., 39., 205., 205., 205., 255., 255., 255., 0., 0., 0., 0.,
          0., 0., 235., 255., 255., 228., 205., 205., 205., 255., 255.,
          255., 0., 0., 0., 0., 0., 0., 235., 255., 255., 255., 205.,
          205., 205., 255., 255., 255., 0., 0., 0., 0., 0., 0., 235.,
          255., 255., 255., 205., 205., 205., 255., 255., 255., 0., 0.,
          0., 0., 0., 98., 247., 255., 255., 255., 205., 205., 205.,
          255., 255., 255., 206., 0., 0., 0., 69., 243., 255., 255.,
          255., 66., 205., 205., 205., 255., 255., 255., 255., 169.,
          186., 255., 255., 255., 255., 255., 255., 39., 205., 205.,
          205., 255., 255., 255., 255., 255., 255., 255., 255., 255.,
          255., 255., 203., 25., 205., 205., 205., 120., 255., 255.,
          255., 255., 255., 255., 255., 255., 255., 218. ]
      - [ 205., 205., 205., 255., 255., 255., 255., 255., 255., 255., 0.,
          205., 205., 205., 205., 205., 205., 205., 205., 255., 255.,
          255., 255., 255., 255., 255., 0., 205., 205., 205., 205., 205.,
          205., 205., 205., 255., 255., 255., 32., 32., 32., 255., 0.,
          205., 205., 205., 205., 205., 205., 205., 205., 255., 45., 45.,
          0., 0., 0., 255., 0., 205., 205., 205., 205., 205., 205., 205.,
          205., 255., 0., 0., 0., 0., 0., 255., 0., 205., 205., 205.,
          205., 205., 205., 205., 205., 70., 0., 0., 0., 0., 0., 255.,
          185., 205., 205., 205., 205., 205., 205., 205., 205., 172., 0.,
          0., 0., 0., 0., 83., 255., 205., 205., 205., 205., 205., 205.,
          205., 205., 255., 0., 0., 0., 0., 0., 159., 255., 205., 205.,
          205., 205., 205., 205., 205., 205., 255., 0., 0., 0., 0., 0.,
          255., 255., 205., 205., 205., 205., 205., 205., 205., 205.,
          255., 0., 0., 0., 0., 0., 255., 255., 205., 205., 205., 205.,
          205., 205., 205., 205., 255., 121., 0., 0., 0., 0., 255., 255.,
          205., 205., 205., 205., 205., 205., 205., 205., 255., 255., 0.,
          0., 0., 0., 147., 255., 205., 205., 205., 205., 205., 205.,
          205., 205., 255., 255., 0., 0., 0., 0., 0., 255., 205., 205.,
          205., 205., 205., 205., 205., 205., 255., 255., 0., 0., 0., 0.,
          0., 255., 205., 205., 205., 205., 205., 205., 205., 205., 255.,
          255., 0., 0., 0., 0., 70., 255., 205., 205., 205., 205., 205.,
          205., 205., 205., 255., 255., 0., 0., 0., 0., 255., 255., 205.,
          205., 205., 205., 205., 205., 205., 205., 255., 255., 45., 45.,
          45., 45., 255., 255., 205., 205., 205., 205., 205., 205., 205.,
          205., 255., 255., 255., 255., 255., 255., 255., 223., 205.,
          205., 205., 205., 205., 205., 205., 205., 236., 236., 255.,
          255., 255., 255., 236., 0., 205. ]
      - [ 205., 205., 255., 255., 255., 255., 255., 255., 255., 255.,
          197., 0., 0., 205., 205., 205., 205., 205., 255., 255., 255.,
          255., 255., 146., 127., 255., 197., 0., 0., 205., 205., 205.,
          205., 205., 255., 255., 255., 125., 64., 32., 26., 125., 241.,
          165., 0., 205., 205., 205., 205., 205., 255., 112., 89., 28.,
          0., 0., 0., 81., 255., 220., 0., 205., 205., 205., 205., 205.,
          255., 35., 0., 0., 0., 0., 0., 81., 255., 220., 0., 205., 205.,
          205., 205., 205., 255., 35., 0., 0., 0., 0., 0., 81., 255.,
          220., 0., 205., 205., 205., 205., 205., 255., 35., 0., 0., 0.,
          0., 0., 81., 255., 220., 0., 205., 205., 205., 205., 205.,
          255., 90., 14., 0., 0., 0., 0., 81., 255., 220., 0., 205.,
          205., 205., 205., 205., 255., 255., 58., 0., 0., 0., 0., 81.,
          255., 220., 0., 205., 205., 205., 205., 205., 255., 255., 58.,
          0., 0., 0., 0., 81., 255., 220., 0., 205., 205., 205., 205.,
          205., 255., 255., 58., 0., 0., 0., 0., 81., 255., 220., 0.,
          205., 205., 205., 205., 205., 255., 255., 58., 0., 0., 0., 0.,
          81., 255., 250., 217., 205., 205., 205., 205., 205., 64., 229.,
          58., 0., 0., 0., 0., 20., 107., 255., 255., 205., 205., 205.,
          205., 205., 0., 220., 186., 53., 0., 0., 0., 0., 58., 255.,
          255., 205., 205., 205., 205., 205., 0., 220., 255., 81., 0.,
          0., 0., 0., 58., 255., 255., 205., 205., 205., 205., 205., 0.,
          220., 255., 159., 47., 57., 115., 115., 147., 255., 255., 205.,
          205., 205., 205., 205., 0., 220., 255., 255., 157., 172., 255.,
          255., 255., 255., 255., 205., 205., 205., 205., 205., 0., 165.,
          241., 255., 255., 255., 255., 255., 255., 246., 191., 205.,
          205., 205., 205., 205., 0., 0., 197., 255., 255., 255., 255.,
          255., 246., 187. ]
      - [ 205., 205., 205., 0., 0., 184., 255., 255., 156., 0., 0., 0.,
          205., 205., 205., 205., 205., 205., 205., 0., 0., 184., 255.,
          255., 233., 143., 0., 0., 205., 205., 205., 205., 205., 205.,
          205., 0., 133., 228., 255., 255., 255., 228., 133., 0., 205.,
          205., 205., 205., 205., 205., 205., 121., 233., 255., 255.,
          255., 255., 255., 212., 0., 205., 205., 205., 205., 205., 205.,
          205., 255., 255., 255., 204., 172., 204., 255., 226., 83.,
          205., 205., 205., 205., 205., 205., 205., 255., 255., 255.,
          99., 0., 99., 255., 255., 255., 205., 205., 205., 205., 205.,
          205., 205., 255., 255., 255., 99., 0., 97., 250., 255., 255.,
          205., 205., 205., 205., 205., 205., 205., 255., 255., 255.,
          99., 0., 12., 94., 255., 255., 205., 205., 205., 205., 205.,
          205., 205., 255., 255., 255., 99., 0., 0., 71., 255., 255.,
          205., 205., 205., 205., 205., 205., 205., 255., 255., 255.,
          99., 0., 0., 71., 255., 255., 205., 205., 205., 205., 205.,
          205., 205., 255., 255., 255., 99., 0., 0., 71., 255., 255.,
          205., 205., 205., 205., 205., 205., 205., 255., 255., 255.,
          99., 0., 0., 71., 255., 255., 205., 205., 205., 205., 205.,
          205., 205., 255., 255., 255., 99., 0., 0., 71., 255., 255.,
          205., 205., 205., 205., 205., 205., 205., 255., 255., 255.,
          99., 0., 0., 71., 255., 255., 205., 205., 205., 205., 205.,
          205., 205., 255., 255., 255., 99., 0., 0., 71., 255., 255.,
          205., 205., 205., 205., 205., 205., 205., 255., 255., 255.,
          99., 0., 0., 71., 255., 255., 205., 205., 205., 205., 205.,
          205., 205., 121., 233., 255., 181., 134., 134., 167., 255.,
          255., 205., 205., 205., 205., 205., 205., 205., 0., 212., 255.,
          255., 255., 255., 255., 239., 159., 205., 205., 205., 205.,
          205., 205., 205., 0., 165., 239., 255., 255., 255., 255., 212.,
          0. ]
      - [ 255., 255., 255., 255., 9., 0., 0., 0., 209., 255., 255., 255.,
          255., 50., 205., 205., 255., 255., 255., 255., 9., 14., 76.,
          76., 223., 255., 255., 255., 255., 255., 205., 205., 255.,
          255., 255., 255., 9., 23., 178., 178., 232., 255., 255., 255.,
          255., 255., 205., 205., 255., 255., 255., 255., 9., 0., 100.,
          100., 209., 255., 255., 255., 255., 255., 205., 205., 255.,
          255., 255., 83., 1., 0., 10., 10., 209., 255., 255., 255.,
          255., 255., 205., 205., 255., 255., 255., 255., 9., 21., 0.,
          0., 209., 255., 255., 255., 255., 255., 205., 205., 255., 255.,
          255., 255., 9., 147., 0., 0., 147., 255., 255., 255., 255.,
          255., 205., 205., 255., 255., 255., 255., 9., 0., 0., 0., 0.,
          255., 255., 255., 255., 141., 205., 205., 255., 255., 255.,
          255., 9., 0., 0., 0., 0., 255., 255., 255., 255., 187., 205.,
          205., 255., 255., 255., 255., 9., 0., 0., 0., 0., 255., 255.,
          255., 255., 255., 205., 205., 255., 255., 255., 255., 9., 0.,
          0., 0., 0., 255., 255., 255., 255., 255., 205., 205., 255.,
          255., 255., 255., 9., 0., 0., 0., 0., 255., 255., 255., 255.,
          255., 205., 205., 255., 255., 255., 255., 132., 0., 0., 0., 0.,
          132., 255., 255., 255., 255., 205., 205., 255., 255., 255.,
          255., 255., 0., 0., 0., 0., 181., 255., 255., 255., 255., 205.,
          205., 50., 255., 255., 255., 255., 0., 0., 0., 0., 255., 255.,
          255., 255., 255., 205., 205., 27., 255., 255., 255., 255.,
          255., 165., 26., 214., 255., 255., 255., 255., 232., 205.,
          205., 27., 255., 255., 255., 255., 255., 255., 255., 255.,
          255., 255., 255., 255., 27., 205., 205., 14., 128., 196., 255.,
          255., 255., 255., 255., 255., 255., 255., 255., 168., 14.,
          205., 205., 159., 0., 41., 210., 255., 255., 255., 255., 255.,
          255., 255., 172. ]
      - [ 205., 205., 205., 205., 205., 255., 255., 199., 8., 205., 205.,
          205., 205., 205., 205., 205., 205., 205., 205., 205., 205.,
          255., 255., 255., 64., 205., 205., 205., 205., 205., 205.,
          205., 205., 205., 205., 205., 205., 255., 255., 255., 64.,
          205., 205., 205., 205., 205., 205., 205., 205., 205., 205.,
          205., 205., 255., 255., 255., 64., 205., 205., 205., 205.,
          205., 205., 205., 205., 205., 205., 205., 205., 255., 255.,
          255., 64., 205., 205., 205., 205., 205., 205., 205., 205.,
          205., 205., 205., 205., 255., 255., 255., 64., 205., 205.,
          205., 205., 205., 205., 205., 205., 205., 205., 205., 205.,
          255., 255., 255., 64., 205., 205., 205., 205., 205., 205.,
          205., 205., 205., 205., 205., 205., 255., 255., 255., 64.,
          205., 205., 205., 205., 205., 205., 205., 205., 205., 205.,
          205., 205., 255., 255., 255., 255., 205., 205., 205., 205.,
          205., 205., 205., 205., 205., 205., 205., 205., 183., 255.,
          255., 255., 205., 205., 205., 205., 205., 205., 205., 205.,
          205., 205., 205., 205., 64., 255., 255., 255., 205., 205.,
          205., 205., 205., 205., 205., 205., 205., 205., 205., 205.,
          64., 255., 255., 255., 205., 205., 205., 205., 205., 205.,
          205., 205., 205., 205., 205., 205., 64., 255., 255., 255.,
          205., 205., 205., 205., 205., 205., 205., 205., 205., 205.,
          205., 205., 64., 255., 255., 255., 205., 205., 205., 205.,
          205., 205., 205., 205., 205., 205., 205., 205., 64., 255.,
          255., 255., 205., 205., 205., 205., 205., 205., 205., 205.,
          205., 205., 205., 205., 64., 255., 255., 255., 205., 205.,
          205., 205., 205., 205., 205., 205., 205., 205., 205., 205.,
          56., 247., 255., 255., 205., 205., 205., 205., 205., 205.,
          205., 205., 205., 205., 205., 205., 0., 191., 255., 255., 205.,
          205., 205., 205., 205., 205., 205., 205., 205., 205., 205.,
          205., 0., 191., 255., 255., 205., 205., 205. ]
      - [ 205., 205., 205., 205., 205., 0., 178., 255., 178., 0., 205.,
          205., 205., 205., 205., 205., 205., 205., 205., 205., 205.,
          179., 232., 255., 232., 179., 205., 205., 205., 205., 205.,
          205., 205., 205., 205., 205., 205., 255., 255., 255., 255.,
          255., 205., 205., 205., 205., 205., 205., 205., 205., 205.,
          205., 205., 255., 255., 255., 232., 179., 205., 205., 205.,
          205., 205., 205., 205., 205., 205., 205., 205., 255., 255.,
          255., 178., 0., 205., 205., 205., 205., 205., 205., 205., 205.,
          205., 205., 205., 255., 255., 255., 178., 0., 205., 205., 205.,
          205., 205., 205., 205., 205., 205., 205., 205., 255., 255.,
          255., 179., 0., 205., 205., 205., 205., 205., 205., 205., 205.,
          205., 205., 205., 255., 255., 255., 217., 128., 205., 205.,
          205., 205., 205., 205., 205., 205., 205., 205., 205., 255.,
          255., 255., 255., 255., 205., 205., 205., 205., 205., 205.,
          205., 205., 205., 205., 205., 255., 255., 255., 255., 255.,
          205., 205., 205., 205., 205., 205., 205., 205., 205., 205.,
          205., 255., 255., 255., 255., 255., 205., 205., 205., 205.,
          205., 205., 205., 205., 205., 205., 205., 255., 255., 255.,
          201., 76., 205., 205., 205., 205., 205., 205., 205., 205.,
          205., 205., 205., 255., 255., 255., 179., 0., 205., 205., 205.,
          205., 205., 205., 205., 205., 205., 205., 205., 255., 255.,
          255., 201., 76., 205., 205., 205., 205., 205., 205., 205.,
          205., 205., 205., 205., 255., 255., 255., 255., 255., 205.,
          205., 205., 205., 205., 205., 205., 205., 205., 205., 205.,
          255., 255., 255., 255., 255., 205., 205., 205., 205., 205.,
          205., 205., 205., 205., 205., 205., 255., 255., 255., 255.,
          255., 205., 205., 205., 205., 205., 205., 205., 205., 205.,
          205., 205., 255., 255., 255., 255., 255., 205., 205., 205.,
          205., 205., 205., 205., 205., 205., 205., 205., 179., 232.,
          255., 255., 255., 205., 205. ]
      - [ 205., 205., 205., 205., 205., 102., 255., 255., 102., 205.,
          205., 205., 205., 205., 205., 205., 205., 205., 205., 205.,
          205., 255., 255., 255., 255., 205., 205., 205., 205., 205.,
          205., 205., 205., 205., 205., 205., 205., 255., 255., 255.,
          255., 205., 205., 205., 205., 205., 205., 205., 205., 205.,
          205., 205., 205., 255., 255., 255., 255., 205., 205., 205.,
          205., 205., 205., 205., 205., 205., 205., 205., 205., 255.,
          255., 255., 102., 205., 205., 205., 205., 205., 205., 205.,
          205., 205., 205., 205., 205., 255., 255., 255., 64., 205.,
          205., 205., 205., 205., 205., 205., 205., 205., 205., 205.,
          205., 255., 255., 255., 64., 205., 205., 205., 205., 205.,
          205., 205., 205., 205., 205., 205., 205., 255., 255., 255.,
          255., 205., 205., 205., 205., 205., 205., 205., 205., 205.,
          205., 205., 205., 255., 255., 255., 255., 205., 205., 205.,
          205., 205., 205., 205., 205., 205., 205., 205., 205., 255.,
          255., 255., 102., 205., 205., 205., 205., 205., 205., 205.,
          205., 205., 205., 205., 205., 255., 255., 242., 51., 205.,
          205., 205., 205., 205., 205., 205., 205., 205., 205., 205.,
          205., 102., 102., 76., 0., 205., 205., 205., 205., 205., 205.,
          205., 205., 205., 205., 205., 205., 0., 0., 0., 0., 205., 205.,
          205., 205., 205., 205., 205., 205., 205., 205., 205., 205., 0.,
          0., 0., 0., 205., 205., 205., 205., 205., 205., 205., 205.,
          205., 205., 205., 205., 0., 0., 0., 0., 205., 205., 205., 205.,
          205., 205., 205., 205., 205., 205., 205., 205., 51., 51., 38.,
          0., 205., 205., 205., 205., 205., 205., 205., 205., 205., 205.,
          205., 205., 255., 255., 230., 38., 205., 205., 205., 205.,
          205., 205., 205., 205., 205., 205., 205., 205., 255., 255.,
          255., 255., 205., 205., 205., 205., 205., 205., 205., 205.,
          205., 205., 205., 205., 179., 255., 230., 153., 205., 205.,
          205. ]
      - [ 205., 205., 205., 205., 205., 32., 255., 255., 255., 205.,
          205., 205., 205., 205., 205., 205., 205., 205., 205., 205.,
          205., 32., 255., 255., 255., 205., 205., 205., 205., 205.,
          205., 205., 205., 205., 205., 205., 205., 171., 255., 255.,
          255., 205., 205., 205., 205., 205., 205., 205., 205., 205.,
          205., 205., 205., 255., 255., 255., 255., 205., 205., 205.,
          205., 205., 205., 205., 205., 205., 205., 205., 205., 32.,
          255., 255., 255., 205., 205., 205., 205., 205., 205., 205.,
          205., 205., 205., 205., 205., 32., 255., 255., 255., 205.,
          205., 205., 205., 205., 205., 205., 205., 205., 205., 205.,
          205., 32., 255., 255., 255., 205., 205., 205., 205., 205.,
          205., 205., 205., 205., 205., 205., 205., 32., 255., 255.,
          255., 205., 205., 205., 205., 205., 205., 205., 205., 205.,
          205., 205., 205., 32., 255., 255., 255., 205., 205., 205.,
          205., 205., 205., 205., 205., 205., 205., 205., 205., 32.,
          255., 255., 255., 205., 205., 205., 205., 205., 205., 205.,
          205., 205., 205., 205., 205., 32., 255., 255., 255., 205.,
          205., 205., 205., 205., 205., 205., 205., 205., 205., 205.,
          205., 32., 255., 255., 255., 205., 205., 205., 205., 205.,
          205., 205., 205., 205., 205., 205., 205., 32., 255., 255.,
          255., 205., 205., 205., 205., 205., 205., 205., 205., 205.,
          205., 205., 205., 32., 255., 255., 255., 205., 205., 205.,
          205., 205., 205., 205., 205., 205., 205., 205., 205., 171.,
          255., 255., 255., 205., 205., 205., 205., 205., 205., 205.,
          205., 205., 205., 205., 205., 255., 255., 255., 255., 205.,
          205., 205., 205., 205., 205., 205., 205., 205., 205., 205.,
          205., 255., 255., 255., 255., 205., 205., 205., 205., 205.,
          205., 205., 205., 205., 205., 205., 205., 255., 255., 255.,
          255., 205., 205., 205., 205., 205., 205., 205., 205., 205.,
          205., 205., 205., 255., 255., 255., 255., 205., 205., 205. ]
      - [ 205., 205., 205., 205., 205., 255., 255., 0., 0., 205., 205.,
          205., 205., 205., 205., 205., 205., 205., 205., 205., 205.,
          255., 255., 217., 217., 205., 205., 205., 205., 205., 205.,
          205., 205., 205., 205., 205., 205., 255., 255., 255., 255.,
          205., 205., 205., 205., 205., 205., 205., 205., 205., 205.,
          205., 205., 255., 255., 255., 89., 205., 205., 205., 205.,
          205., 205., 205., 205., 205., 205., 205., 205., 255., 255.,
          255., 0., 205., 205., 205., 205., 205., 205., 205., 205., 205.,
          205., 205., 205., 255., 255., 255., 0., 205., 205., 205., 205.,
          205., 205., 205., 205., 205., 205., 205., 205., 255., 255.,
          255., 0., 205., 205., 205., 205., 205., 205., 205., 205., 205.,
          205., 205., 205., 255., 255., 255., 0., 205., 205., 205., 205.,
          205., 205., 205., 205., 205., 205., 205., 205., 255., 255.,
          255., 0., 205., 205., 205., 205., 205., 205., 205., 205., 205.,
          205., 205., 205., 242., 255., 255., 13., 205., 205., 205.,
          205., 205., 205., 205., 205., 205., 205., 205., 205., 13.,
          255., 255., 242., 205., 205., 205., 205., 205., 205., 205.,
          205., 205., 205., 205., 205., 0., 255., 255., 255., 205., 205.,
          205., 205., 205., 205., 205., 205., 205., 205., 205., 205., 0.,
          255., 255., 255., 205., 205., 205., 205., 205., 205., 205.,
          205., 205., 205., 205., 205., 0., 255., 255., 255., 205., 205.,
          205., 205., 205., 205., 205., 205., 205., 205., 205., 205., 0.,
          255., 255., 255., 205., 205., 205., 205., 205., 205., 205.,
          205., 205., 205., 205., 205., 0., 255., 255., 255., 205., 205.,
          205., 205., 205., 205., 205., 205., 205., 205., 205., 205., 0.,
          255., 255., 255., 205., 205., 205., 205., 205., 205., 205.,
          205., 205., 205., 205., 205., 0., 255., 255., 191., 205., 205.,
          205., 205., 205., 205., 205., 205., 205., 205., 205., 205., 0.,
          255., 217., 0., 205., 205., 205. ]
      - [ 205., 205., 205., 205., 205., 255., 255., 255., 32., 205.,
          205., 205., 205., 205., 205., 205., 205., 205., 205., 205.,
          205., 255., 255., 255., 32., 205., 205., 205., 205., 205.,
          205., 205., 205., 205., 205., 205., 205., 255., 255., 255.,
          32., 205., 205., 205., 205., 205., 205., 205., 205., 205.,
          205., 205., 205., 255., 255., 255., 32., 205., 205., 205.,
          205., 205., 205., 205., 205., 205., 205., 205., 205., 255.,
          255., 255., 32., 205., 205., 205., 205., 205., 205., 205.,
          205., 205., 205., 205., 205., 255., 255., 255., 32., 205.,
          205., 205., 205., 205., 205., 205., 205., 205., 205., 205.,
          205., 255., 255., 255., 32., 205., 205., 205., 205., 205.,
          205., 205., 205., 205., 205., 205., 205., 255., 255., 255.,
          32., 205., 205., 205., 205., 205., 205., 205., 205., 205.,
          205., 205., 205., 255., 255., 255., 93., 205., 205., 205.,
          205., 205., 205., 205., 205., 205., 205., 205., 205., 255.,
          255., 255., 255., 205., 205., 205., 205., 205., 205., 205.,
          205., 205., 205., 205., 205., 255., 255., 255., 255., 205.,
          205., 205., 205., 205., 205., 205., 205., 205., 205., 205.,
          205., 255., 255., 255., 93., 205., 205., 205., 205., 205.,
          205., 205., 205., 205., 205., 205., 205., 255., 255., 255.,
          32., 205., 205., 205., 205., 205., 205., 205., 205., 205.,
          205., 205., 205., 255., 255., 255., 37., 205., 205., 205.,
          205., 205., 205., 205., 205., 205., 205., 205., 205., 255.,
          255., 255., 255., 205., 205., 205., 205., 205., 205., 205.,
          205., 205., 205., 205., 205., 255., 255., 255., 255., 205.,
          205., 205., 205., 205., 205., 205., 205., 205., 205., 205.,
          205., 255., 255., 255., 255., 205., 205., 205., 205., 205.,
          205., 205., 205., 205., 205., 205., 205., 255., 255., 255.,
          255., 205., 205., 205., 205., 205., 205., 205., 205., 205.,
          205., 205., 205., 255., 255., 255., 255., 205., 205., 205. ]
      - [ 205., 205., 205., 205., 205., 0., 178., 255., 178., 0., 205.,
          205., 205., 205., 205., 205., 205., 205., 205., 205., 205.,
          179., 232., 255., 232., 179., 205., 205., 205., 205., 205.,
          205., 205., 205., 205., 205., 205., 255., 255., 255., 255.,
          255., 205., 205., 205., 205., 205., 205., 205., 205., 205.,
          205., 205., 255., 255., 255., 232., 179., 205., 205., 205.,
          205., 205., 205., 205., 205., 205., 205., 205., 255., 255.,
          255., 186., 26., 205., 205., 205., 205., 205., 205., 205.,
          205., 205., 205., 205., 255., 255., 255., 247., 229., 205.,
          205., 205., 205., 205., 205., 205., 205., 205., 205., 205.,
          255., 255., 255., 255., 255., 205., 205., 205., 205., 205.,
          205., 205., 205., 205., 205., 205., 255., 255., 255., 217.,
          128., 205., 205., 205., 205., 205., 205., 205., 205., 205.,
          205., 205., 255., 255., 255., 179., 0., 205., 205., 205., 205.,
          205., 205., 205., 205., 205., 205., 205., 255., 255., 255.,
          186., 26., 205., 205., 205., 205., 205., 205., 205., 205.,
          205., 205., 205., 255., 255., 255., 247., 229., 205., 205.,
          205., 205., 205., 205., 205., 205., 205., 205., 205., 255.,
          255., 255., 255., 255., 205., 205., 205., 205., 205., 205.,
          205., 205., 205., 205., 205., 255., 255., 255., 255., 255.,
          205., 205., 205., 205., 205., 205., 205., 205., 205., 205.,
          205., 255., 255., 255., 255., 255., 205., 205., 205., 205.,
          205., 205., 205., 205., 205., 205., 205., 255., 255., 255.,
          255., 255., 205., 205., 205., 205., 205., 205., 205., 205.,
          205., 205., 205., 255., 255., 255., 255., 255., 205., 205.,
          205., 205., 205., 205., 205., 205., 205., 205., 205., 255.,
          255., 255., 255., 255., 205., 205., 205., 205., 205., 205.,
          205., 205., 205., 205., 205., 255., 255., 255., 255., 255.,
          205., 205., 205., 205., 205., 205., 205., 205., 205., 205.,
          205., 179., 232., 255., 232., 179., 205., 205. ]
      - [ 205., 205., 205., 205., 205., 255., 255., 159., 0., 205., 205.,
          205., 205., 205., 205., 205., 205., 205., 205., 205., 205.,
          255., 255., 159., 0., 205., 205., 205., 205., 205., 205., 205.,
          205., 205., 205., 205., 205., 255., 255., 159., 0., 205., 205.,
          205., 205., 205., 205., 205., 205., 205., 205., 205., 205.,
          255., 255., 171., 32., 205., 205., 205., 205., 205., 205.,
          205., 205., 205., 205., 205., 205., 255., 255., 243., 223.,
          205., 205., 205., 205., 205., 205., 205., 205., 205., 205.,
          205., 205., 255., 255., 255., 255., 205., 205., 205., 205.,
          205., 205., 205., 205., 205., 205., 205., 205., 255., 255.,
          255., 255., 205., 205., 205., 205., 205., 205., 205., 205.,
          205., 205., 205., 205., 255., 255., 255., 255., 205., 205.,
          205., 205., 205., 205., 205., 205., 205., 205., 205., 205.,
          255., 255., 255., 255., 205., 205., 205., 205., 205., 205.,
          205., 205., 205., 205., 205., 205., 255., 255., 255., 255.,
          205., 205., 205., 205., 205., 205., 205., 205., 205., 205.,
          205., 205., 255., 255., 255., 255., 205., 205., 205., 205.,
          205., 205., 205., 205., 205., 205., 205., 205., 255., 255.,
          255., 255., 205., 205., 205., 205., 205., 205., 205., 205.,
          205., 205., 205., 205., 255., 255., 255., 255., 205., 205.,
          205., 205., 205., 205., 205., 205., 205., 205., 205., 205.,
          255., 255., 255., 255., 205., 205., 205., 205., 205., 205.,
          205., 205., 205., 205., 205., 205., 255., 255., 255., 255.,
          205., 205., 205., 205., 205., 205., 205., 205., 205., 205.,
          205., 205., 255., 255., 255., 255., 205., 205., 205., 205.,
          205., 205., 205., 205., 205., 205., 205., 205., 255., 255.,
          255., 255., 205., 205., 205., 205., 205., 205., 205., 205.,
          205., 205., 205., 205., 255., 255., 255., 255., 205., 205.,
          205., 205., 205., 205., 205., 205., 205., 205., 205., 205.,
          159., 219., 255., 255., 205., 205., 205. ]
      - [ 205., 205., 205., 205., 205., 255., 255., 255., 255., 205.,
          205., 205., 205., 205., 205., 205., 205., 205., 205., 205.,
          205., 255., 255., 255., 255., 205., 205., 205., 205., 205.,
          205., 205., 205., 205., 205., 205., 205., 255., 255., 255.,
          255., 205., 205., 205., 205., 205., 205., 205., 205., 205.,
          205., 205., 205., 255., 255., 255., 255., 205., 205., 205.,
          205., 205., 205., 205., 205., 205., 205., 205., 205., 255.,
          255., 255., 255., 205., 205., 205., 205., 205., 205., 205.,
          205., 205., 205., 205., 205., 255., 255., 255., 255., 205.,
          205., 205., 205., 205., 205., 205., 205., 205., 205., 205.,
          205., 255., 255., 255., 255., 205., 205., 205., 205., 205.,
          205., 205., 205., 205., 205., 205., 205., 255., 255., 255.,
          255., 205., 205., 205., 205., 205., 205., 205., 205., 205.,
          205., 205., 205., 255., 255., 255., 255., 205., 205., 205.,
          205., 205., 205., 205., 205., 205., 205., 205., 205., 255.,
          255., 255., 255., 205., 205., 205., 205., 205., 205., 205.,
          205., 205., 205., 205., 205., 255., 255., 255., 255., 205.,
          205., 205., 205., 205., 205., 205., 205., 205., 205., 205.,
          205., 255., 255., 255., 255., 205., 205., 205., 205., 205.,
          205., 205., 205., 205., 205., 205., 205., 255., 255., 255.,
          255., 205., 205., 205., 205., 205., 205., 205., 205., 205.,
          205., 205., 205., 255., 255., 255., 255., 205., 205., 205.,
          205., 205., 205., 205., 205., 205., 205., 205., 205., 255.,
          255., 255., 255., 205., 205., 205., 205., 205., 205., 205.,
          205., 205., 205., 205., 205., 255., 255., 255., 255., 205.,
          205., 205., 205., 205., 205., 205., 205., 205., 205., 205.,
          205., 242., 250., 255., 255., 205., 205., 205., 205., 205.,
          205., 205., 205., 205., 205., 205., 205., 64., 183., 255.,
          255., 205., 205., 205., 205., 205., 205., 205., 205., 205.,
          205., 205., 205., 0., 159., 255., 255., 205., 205., 205. ]
      - [ 205., 205., 205., 205., 205., 255., 255., 255., 178., 0., 205.,
          205., 205., 205., 205., 205., 205., 205., 205., 205., 205.,
          255., 255., 255., 178., 0., 205., 205., 205., 205., 205., 205.,
          205., 205., 205., 205., 205., 255., 255., 255., 178., 0., 205.,
          205., 205., 205., 205., 205., 205., 205., 205., 205., 205.,
          255., 255., 255., 178., 0., 205., 205., 205., 205., 205., 205.,
          205., 205., 205., 205., 205., 255., 255., 255., 178., 0., 205.,
          205., 205., 205., 205., 205., 205., 205., 205., 205., 205.,
          255., 255., 255., 178., 0., 205., 205., 205., 205., 205., 205.,
          205., 205., 205., 205., 205., 255., 255., 255., 178., 0., 205.,
          205., 205., 205., 205., 205., 205., 205., 205., 205., 205.,
          255., 255., 255., 178., 0., 205., 205., 205., 205., 205., 205.,
          205., 205., 205., 205., 205., 255., 255., 255., 178., 0., 205.,
          205., 205., 205., 205., 205., 205., 205., 205., 205., 205.,
          255., 255., 255., 178., 0., 205., 205., 205., 205., 205., 205.,
          205., 205., 205., 205., 205., 255., 255., 255., 178., 0., 205.,
          205., 205., 205., 205., 205., 205., 205., 205., 205., 205.,
          255., 255., 255., 178., 0., 205., 205., 205., 205., 205., 205.,
          205., 205., 205., 205., 205., 255., 255., 255., 178., 0., 205.,
          205., 205., 205., 205., 205., 205., 205., 205., 205., 205.,
          255., 255., 255., 226., 159., 205., 205., 205., 205., 205.,
          205., 205., 205., 205., 205., 205., 255., 255., 255., 255.,
          255., 205., 205., 205., 205., 205., 205., 205., 205., 205.,
          205., 205., 255., 255., 255., 255., 255., 205., 205., 205.,
          205., 205., 205., 205., 205., 205., 205., 205., 255., 255.,
          255., 255., 255., 205., 205., 205., 205., 205., 205., 205.,
          205., 205., 205., 205., 255., 255., 255., 255., 255., 205.,
          205., 205., 205., 205., 205., 205., 205., 205., 205., 205.,
          255., 255., 255., 226., 159., 205., 205. ]
      - [ 205., 205., 205., 205., 205., 0., 159., 255., 255., 205., 205.,
          205., 205., 205., 205., 205., 205., 205., 205., 205., 205.,
          140., 212., 255., 255., 205., 205., 205., 205., 205., 205.,
          205., 205., 205., 205., 205., 205., 191., 231., 255., 255.,
          205., 205., 205., 205., 205., 205., 205., 205., 205., 205.,
          205., 205., 13., 164., 255., 255., 205., 205., 205., 205.,
          205., 205., 205., 205., 205., 205., 205., 205., 0., 159., 255.,
          255., 205., 205., 205., 205., 205., 205., 205., 205., 205.,
          205., 205., 205., 0., 159., 255., 255., 205., 205., 205., 205.,
          205., 205., 205., 205., 205., 205., 205., 205., 0., 159., 255.,
          255., 205., 205., 205., 205., 205., 205., 205., 205., 205.,
          205., 205., 205., 0., 159., 255., 255., 205., 205., 205., 205.,
          205., 205., 205., 205., 205., 205., 205., 205., 0., 159., 255.,
          255., 205., 205., 205., 205., 205., 205., 205., 205., 205.,
          205., 205., 205., 0., 159., 255., 255., 205., 205., 205., 205.,
          205., 205., 205., 205., 205., 205., 205., 205., 0., 159., 255.,
          255., 205., 205., 205., 205., 205., 205., 205., 205., 205.,
          205., 205., 205., 140., 212., 255., 255., 205., 205., 205.,
          205., 205., 205., 205., 205., 205., 205., 205., 205., 255.,
          255., 231., 191., 205., 205., 205., 205., 205., 205., 205.,
          205., 205., 205., 205., 205., 255., 255., 164., 13., 205.,
          205., 205., 205., 205., 205., 205., 205., 205., 205., 205.,
          205., 255., 255., 159., 0., 205., 205., 205., 205., 205., 205.,
          205., 205., 205., 205., 205., 205., 255., 255., 159., 0., 205.,
          205., 205., 205., 205., 205., 205., 205., 205., 205., 205.,
          205., 255., 255., 164., 13., 205., 205., 205., 205., 205.,
          205., 205., 205., 205., 205., 205., 205., 255., 255., 231.,
          191., 205., 205., 205., 205., 205., 205., 205., 205., 205.,
          205., 205., 205., 255., 255., 255., 255., 205., 205., 205. ]
      - [ 205., 205., 205., 205., 205., 205., 0., 255., 255., 205., 205.,
          205., 205., 205., 205., 205., 205., 205., 205., 205., 205.,
          205., 198., 255., 255., 205., 205., 205., 205., 205., 205.,
          205., 205., 205., 205., 205., 205., 205., 255., 255., 255.,
          205., 205., 205., 205., 205., 205., 205., 205., 205., 205.,
          205., 205., 205., 255., 255., 255., 205., 205., 205., 205.,
          205., 205., 205., 205., 205., 205., 205., 205., 205., 255.,
          255., 255., 205., 205., 205., 205., 205., 205., 205., 205.,
          205., 205., 205., 205., 205., 255., 255., 255., 205., 205.,
          205., 205., 205., 205., 205., 205., 205., 205., 205., 205.,
          205., 255., 255., 255., 205., 205., 205., 205., 205., 205.,
          205., 205., 205., 205., 205., 205., 205., 255., 255., 255.,
          205., 205., 205., 205., 205., 205., 205., 205., 205., 205.,
          205., 205., 205., 255., 255., 255., 205., 205., 205., 205.,
          205., 205., 205., 205., 205., 205., 205., 205., 205., 255.,
          255., 255., 205., 205., 205., 205., 205., 205., 205., 205.,
          205., 205., 205., 205., 205., 255., 255., 255., 205., 205.,
          205., 205., 205., 205., 205., 205., 205., 205., 205., 205.,
          205., 255., 255., 255., 205., 205., 205., 205., 205., 205.,
          205., 205., 205., 205., 205., 205., 205., 255., 255., 255.,
          205., 205., 205., 205., 205., 205., 205., 205., 205., 205.,
          205., 205., 205., 255., 255., 255., 205., 205., 205., 205.,
          205., 205., 205., 205., 205., 205., 205., 205., 205., 255.,
          255., 255., 205., 205., 205., 205., 205., 205., 205., 205.,
          205., 205., 205., 205., 205., 255., 255., 255., 205., 205.,
          205., 205., 205., 205., 205., 205., 205., 205., 205., 205.,
          205., 255., 255., 121., 205., 205., 205., 205., 205., 205.,
          205., 205., 205., 205., 205., 205., 205., 255., 255., 0., 205.,
          205., 205., 205., 205., 205., 205., 205., 205., 205., 205.,
          205., 205., 255., 198., 0., 205., 205., 205. ]
      - [ 205., 205., 205., 205., 205., 255., 255., 255., 255., 205.,
          205., 205., 205., 205., 205., 205., 205., 205., 205., 205.,
          205., 255., 255., 255., 57., 205., 205., 205., 205., 205.,
          205., 205., 205., 205., 205., 205., 205., 255., 255., 255., 0.,
          205., 205., 205., 205., 205., 205., 205., 205., 205., 205.,
          205., 205., 255., 255., 255., 121., 205., 205., 205., 205.,
          205., 205., 205., 205., 205., 205., 205., 205., 255., 255.,
          255., 255., 205., 205., 205., 205., 205., 205., 205., 205.,
          205., 205., 205., 205., 255., 255., 255., 255., 205., 205.,
          205., 205., 205., 205., 205., 205., 205., 205., 205., 205.,
          255., 255., 255., 255., 205., 205., 205., 205., 205., 205.,
          205., 205., 205., 205., 205., 205., 255., 255., 255., 255.,
          205., 205., 205., 205., 205., 205., 205., 205., 205., 205.,
          205., 205., 70., 255., 255., 255., 205., 205., 205., 205.,
          205., 205., 205., 205., 205., 205., 205., 205., 0., 255., 255.,
          255., 205., 205., 205., 205., 205., 205., 205., 205., 205.,
          205., 205., 205., 0., 255., 255., 255., 205., 205., 205., 205.,
          205., 205., 205., 205., 205., 205., 205., 205., 0., 255., 255.,
          255., 205., 205., 205., 205., 205., 205., 205., 205., 205.,
          205., 205., 205., 0., 255., 255., 255., 205., 205., 205., 205.,
          205., 205., 205., 205., 205., 205., 205., 205., 0., 255., 255.,
          255., 205., 205., 205., 205., 205., 205., 205., 205., 205.,
          205., 205., 205., 0., 255., 255., 255., 205., 205., 205., 205.,
          205., 205., 205., 205., 205., 205., 205., 205., 0., 255., 255.,
          255., 205., 205., 205., 205., 205., 205., 205., 205., 205.,
          205., 205., 205., 0., 255., 255., 255., 205., 205., 205., 205.,
          205., 205., 205., 205., 205., 205., 205., 205., 0., 255., 255.,
          255., 205., 205., 205., 205., 205., 205., 205., 205., 205.,
          205., 205., 205., 0., 255., 255., 255., 205., 205., 205. ]
      - [ 205., 5., 32., 218., 255., 255., 255., 255., 143., 32., 0., 0.,
          0., 205., 205., 205., 205., 122., 255., 255., 255., 255., 255.,
          255., 255., 255., 96., 48., 0., 205., 205., 205., 205., 255.,
          255., 255., 255., 255., 255., 255., 255., 255., 255., 207.,
          27., 205., 205., 205., 205., 255., 255., 255., 255., 255.,
          255., 255., 255., 255., 255., 255., 42., 205., 205., 205.,
          205., 228., 255., 255., 255., 127., 186., 228., 255., 255.,
          255., 255., 228., 205., 205., 205., 205., 27., 159., 159.,
          159., 80., 0., 27., 207., 255., 255., 255., 42., 205., 205.,
          205., 205., 0., 0., 0., 0., 0., 0., 0., 127., 255., 255., 255.,
          42., 205., 205., 205., 205., 0., 0., 0., 0., 0., 0., 0., 127.,
          255., 255., 255., 42., 205., 205., 205., 205., 0., 0., 0., 0.,
          0., 0., 32., 143., 255., 255., 255., 228., 205., 205., 205.,
          205., 0., 0., 0., 0., 0., 80., 255., 255., 255., 255., 255.,
          42., 205., 205., 205., 205., 0., 0., 0., 0., 80., 239., 255.,
          255., 255., 255., 255., 42., 205., 205., 205., 205., 0., 0.,
          0., 37., 239., 255., 255., 255., 255., 255., 255., 42., 205.,
          205., 205., 205., 0., 16., 218., 255., 255., 255., 255., 255.,
          228., 37., 223., 37., 205., 205., 205., 205., 16., 175., 255.,
          255., 255., 255., 239., 159., 27., 0., 0., 0., 205., 205.,
          205., 205., 175., 255., 255., 255., 255., 255., 80., 0., 0.,
          0., 0., 0., 205., 205., 205., 205., 255., 255., 255., 255.,
          255., 255., 0., 0., 0., 0., 0., 0., 205., 205., 205., 205.,
          255., 255., 255., 255., 255., 255., 255., 255., 255., 255.,
          255., 255., 205., 205., 205., 205., 255., 255., 255., 255.,
          255., 255., 255., 255., 255., 255., 255., 255., 205., 205.,
          205., 205., 255., 255., 255., 255., 255., 255., 255., 255.,
          255., 255., 255. ]
      - [ 205., 0., 1., 6., 79., 255., 255., 255., 255., 255., 58., 1.,
          0., 205., 205., 205., 205., 1., 48., 255., 255., 255., 255.,
          255., 255., 255., 255., 49., 1., 205., 205., 205., 205., 41.,
          255., 255., 255., 255., 255., 255., 255., 255., 255., 255.,
          11., 205., 205., 205., 205., 255., 255., 255., 255., 255.,
          255., 231., 238., 255., 255., 255., 11., 205., 205., 205.,
          205., 255., 255., 255., 238., 198., 198., 91., 124., 238.,
          255., 255., 66., 205., 205., 205., 205., 185., 185., 185.,
          131., 0., 0., 0., 0., 181., 255., 255., 255., 205., 205., 205.,
          205., 0., 0., 0., 0., 0., 0., 0., 0., 181., 255., 255., 255.,
          205., 205., 205., 205., 0., 0., 0., 0., 0., 0., 0., 60., 209.,
          255., 255., 255., 205., 205., 205., 205., 0., 0., 0., 0., 0.,
          0., 0., 159., 255., 255., 255., 255., 205., 205., 205., 205.,
          0., 0., 0., 0., 0., 56., 121., 205., 255., 255., 255., 139.,
          205., 205., 205., 205., 0., 0., 0., 0., 50., 189., 255., 255.,
          255., 255., 138., 5., 205., 205., 205., 205., 0., 0., 0., 43.,
          187., 255., 255., 255., 255., 139., 14., 0., 205., 205., 205.,
          205., 0., 0., 33., 187., 255., 255., 255., 155., 96., 20., 0.,
          0., 205., 205., 205., 205., 0., 22., 189., 255., 255., 255.,
          162., 31., 0., 0., 0., 0., 205., 205., 205., 205., 0., 32.,
          255., 255., 255., 255., 117., 0., 0., 0., 0., 0., 205., 205.,
          205., 205., 8., 205., 255., 255., 255., 255., 117., 124., 198.,
          198., 198., 8., 205., 205., 205., 205., 10., 255., 255., 255.,
          255., 255., 231., 238., 255., 255., 255., 212., 205., 205.,
          205., 205., 224., 255., 255., 255., 255., 255., 255., 255.,
          255., 255., 255., 255., 205., 205., 205., 205., 255., 255.,
          255., 255., 255., 255., 255., 255., 255., 255., 255. ]
      - [ 205., 205., 0., 0., 0., 255., 255., 255., 255., 0., 0., 0., 0.,
          205., 205., 205., 205., 205., 0., 0., 255., 255., 255., 255.,
          255., 255., 255., 0., 0., 205., 205., 205., 205., 205., 0.,
          255., 255., 255., 255., 255., 255., 255., 255., 0., 0., 205.,
          205., 205., 205., 205., 255., 255., 255., 255., 255., 255.,
          255., 255., 255., 255., 0., 205., 205., 205., 205., 205., 255.,
          255., 255., 255., 0., 0., 0., 255., 255., 255., 255., 205.,
          205., 205., 205., 205., 255., 255., 255., 255., 0., 0., 0.,
          255., 255., 255., 0., 205., 205., 205., 205., 205., 0., 255.,
          255., 0., 0., 0., 0., 255., 255., 255., 0., 205., 205., 205.,
          205., 205., 0., 255., 255., 0., 0., 0., 255., 255., 255., 255.,
          0., 205., 205., 205., 205., 205., 0., 255., 255., 0., 0., 0.,
          255., 255., 255., 255., 0., 205., 205., 205., 205., 205., 0.,
          0., 0., 0., 0., 255., 255., 255., 255., 255., 0., 205., 205.,
          205., 205., 205., 0., 0., 0., 0., 255., 255., 255., 255., 255.,
          0., 0., 205., 205., 205., 205., 205., 0., 0., 0., 255., 255.,
          255., 255., 255., 0., 0., 0., 205., 205., 205., 205., 205., 0.,
          0., 0., 255., 255., 255., 255., 255., 0., 0., 0., 205., 205.,
          205., 205., 205., 0., 0., 0., 255., 255., 255., 255., 0., 0.,
          0., 0., 205., 205., 205., 205., 205., 0., 255., 255., 255.,
          255., 255., 0., 0., 0., 0., 0., 205., 205., 205., 205., 205.,
          0., 255., 255., 255., 255., 255., 0., 0., 0., 0., 0., 205.,
          205., 205., 205., 205., 255., 255., 255., 255., 255., 255.,
          255., 255., 255., 0., 0., 205., 205., 205., 205., 205., 255.,
          255., 255., 255., 255., 255., 255., 255., 255., 255., 255.,
          205., 205., 205., 205., 205., 255., 255., 255., 255., 255.,
          255., 255., 255., 255., 255. ]
      - [ 205., 0., 28., 45., 141., 255., 255., 255., 255., 255., 255.,
          45., 9., 205., 205., 205., 205., 134., 209., 255., 255., 255.,
          255., 255., 255., 255., 255., 255., 159., 205., 205., 205.,
          205., 255., 255., 255., 255., 255., 255., 255., 255., 255.,
          255., 255., 255., 205., 205., 205., 205., 255., 255., 255.,
          255., 255., 198., 198., 255., 255., 255., 255., 255., 205.,
          205., 205., 205., 139., 255., 255., 188., 108., 0., 0., 127.,
          255., 255., 255., 255., 205., 205., 205., 205., 4., 19., 19.,
          10., 0., 0., 0., 32., 255., 255., 255., 255., 205., 205., 205.,
          205., 0., 0., 0., 0., 0., 0., 0., 32., 255., 255., 255., 255.,
          205., 205., 205., 205., 0., 0., 0., 0., 0., 0., 0., 32., 255.,
          255., 255., 255., 205., 205., 205., 205., 0., 0., 0., 0., 0.,
          0., 0., 249., 255., 255., 255., 58., 205., 205., 205., 205.,
          0., 0., 0., 0., 0., 74., 255., 255., 255., 255., 172., 238.,
          205., 205., 205., 205., 0., 0., 0., 0., 0., 196., 255., 255.,
          255., 255., 0., 66., 205., 205., 205., 205., 0., 0., 0., 3.,
          224., 255., 255., 255., 252., 10., 0., 0., 205., 205., 205.,
          205., 0., 0., 4., 169., 255., 255., 255., 243., 73., 0., 0.,
          0., 205., 205., 205., 205., 0., 0., 10., 255., 255., 255.,
          255., 61., 0., 0., 0., 0., 205., 205., 205., 205., 0., 0.,
          255., 255., 255., 255., 74., 0., 0., 18., 12., 0., 205., 205.,
          205., 205., 0., 0., 255., 255., 255., 223., 43., 0., 59., 249.,
          200., 23., 205., 205., 205., 205., 0., 124., 255., 255., 255.,
          238., 198., 198., 229., 255., 255., 53., 205., 205., 205.,
          205., 53., 255., 255., 255., 255., 255., 255., 255., 255.,
          255., 255., 255., 205., 205., 205., 205., 149., 255., 255.,
          255., 255., 255., 255., 255., 255., 255., 255. ]
      - [ 205., 2., 78., 255., 255., 255., 255., 255., 255., 255., 117.,
          5., 0., 205., 205., 205., 205., 74., 255., 255., 255., 255.,
          255., 255., 255., 255., 255., 107., 5., 205., 205., 205., 205.,
          255., 255., 255., 255., 255., 255., 255., 255., 255., 255.,
          255., 109., 205., 205., 205., 205., 255., 255., 255., 255.,
          255., 132., 121., 154., 255., 255., 255., 255., 205., 205.,
          205., 205., 255., 255., 255., 255., 126., 7., 0., 21., 155.,
          255., 255., 255., 205., 205., 205., 205., 45., 45., 45., 45.,
          11., 0., 0., 0., 106., 255., 255., 62., 205., 205., 205., 205.,
          0., 0., 0., 0., 0., 0., 0., 62., 251., 255., 255., 249., 205.,
          205., 205., 205., 0., 0., 0., 0., 0., 0., 3., 88., 255., 255.,
          255., 255., 205., 205., 205., 205., 0., 0., 0., 0., 0., 0.,
          85., 255., 255., 255., 255., 191., 205., 205., 205., 205., 0.,
          0., 0., 0., 0., 99., 255., 255., 255., 255., 174., 12., 205.,
          205., 205., 205., 0., 0., 0., 0., 110., 246., 255., 255., 255.,
          255., 64., 0., 205., 205., 205., 205., 0., 0., 0., 108., 237.,
          255., 255., 255., 255., 147., 18., 0., 205., 205., 205., 205.,
          0., 0., 93., 242., 255., 255., 255., 199., 32., 13., 0., 0.,
          205., 205., 205., 205., 0., 64., 255., 255., 255., 255., 228.,
          0., 0., 0., 0., 0., 205., 205., 205., 205., 4., 97., 255.,
          255., 255., 255., 41., 0., 0., 26., 45., 4., 205., 205., 205.,
          205., 97., 255., 255., 255., 255., 255., 240., 83., 83., 183.,
          255., 97., 205., 205., 205., 205., 144., 255., 255., 255.,
          255., 255., 255., 255., 255., 255., 255., 255., 205., 205.,
          205., 205., 21., 255., 255., 255., 255., 255., 255., 255.,
          255., 255., 255., 255., 205., 205., 205., 205., 21., 255.,
          255., 255., 255., 255., 255., 255., 255., 255., 255. ]
      - [ 205., 205., 255., 255., 255., 255., 255., 255., 255., 255.,
          255., 255., 35., 205., 205., 205., 205., 205., 255., 255.,
          255., 255., 255., 255., 255., 255., 255., 255., 255., 205.,
          205., 205., 205., 205., 255., 255., 255., 255., 255., 255.,
          203., 255., 255., 255., 255., 205., 205., 205., 205., 205.,
          255., 255., 255., 198., 166., 166., 30., 198., 255., 255.,
          255., 205., 205., 205., 205., 205., 150., 223., 140., 51., 0.,
          0., 0., 93., 255., 255., 255., 205., 205., 205., 205., 205.,
          10., 83., 0., 0., 0., 0., 25., 182., 255., 255., 255., 205.,
          205., 205., 205., 205., 0., 0., 0., 0., 0., 0., 46., 255.,
          255., 255., 255., 205., 205., 205., 205., 205., 0., 0., 0., 0.,
          0., 0., 203., 255., 255., 255., 255., 205., 205., 205., 205.,
          205., 0., 0., 0., 0., 0., 217., 255., 255., 255., 255., 255.,
          205., 205., 205., 205., 205., 0., 0., 0., 0., 198., 255., 255.,
          255., 255., 255., 35., 205., 205., 205., 205., 205., 0., 0.,
          6., 167., 255., 255., 255., 255., 248., 66., 0., 205., 205.,
          205., 205., 205., 0., 10., 137., 255., 255., 255., 255., 241.,
          99., 0., 0., 205., 205., 205., 205., 205., 6., 116., 255.,
          255., 255., 255., 191., 122., 0., 0., 0., 205., 205., 205.,
          205., 205., 104., 255., 255., 255., 255., 255., 0., 0., 0., 0.,
          0., 205., 205., 205., 205., 205., 255., 255., 255., 255., 255.,
          255., 0., 0., 0., 0., 0., 205., 205., 205., 205., 205., 255.,
          255., 255., 255., 255., 255., 140., 140., 140., 140., 13.,
          205., 205., 205., 205., 205., 255., 255., 255., 255., 255.,
          255., 255., 255., 255., 255., 174., 205., 205., 205., 205.,
          205., 255., 255., 255., 255., 255., 255., 255., 255., 255.,
          255., 255., 205., 205., 205., 205., 205., 255., 255., 255.,
          255., 255., 255., 255., 255., 255., 255. ]
      - [ 205., 205., 255., 255., 255., 255., 255., 255., 255., 191., 0.,
          0., 205., 205., 205., 205., 205., 205., 255., 255., 255., 255.,
          255., 255., 255., 241., 168., 0., 205., 205., 205., 205., 205.,
          205., 255., 255., 255., 255., 255., 255., 255., 255., 241.,
          159., 205., 205., 205., 205., 205., 205., 255., 255., 255.,
          176., 134., 188., 255., 255., 255., 255., 205., 205., 205.,
          205., 205., 205., 255., 255., 193., 60., 0., 77., 201., 255.,
          255., 255., 205., 205., 205., 205., 205., 205., 255., 217.,
          53., 0., 0., 0., 89., 255., 255., 255., 205., 205., 205., 205.,
          205., 205., 255., 44., 2., 0., 0., 3., 93., 255., 255., 255.,
          205., 205., 205., 205., 205., 205., 255., 228., 56., 0., 0.,
          100., 234., 255., 255., 255., 205., 205., 205., 205., 205.,
          205., 70., 70., 18., 0., 102., 216., 255., 255., 227., 70.,
          205., 205., 205., 205., 205., 205., 0., 0., 0., 0., 140., 255.,
          255., 255., 217., 0., 205., 205., 205., 205., 205., 205., 0.,
          0., 81., 108., 189., 255., 255., 228., 125., 0., 205., 205.,
          205., 205., 205., 205., 0., 0., 191., 255., 255., 255., 230.,
          139., 0., 0., 205., 205., 205., 205., 205., 205., 0., 0., 191.,
          255., 255., 255., 166., 0., 0., 0., 205., 205., 205., 205.,
          205., 205., 0., 0., 191., 255., 255., 255., 166., 0., 0., 0.,
          205., 205., 205., 205., 205., 205., 210., 210., 244., 255.,
          255., 160., 29., 0., 0., 0., 205., 205., 205., 205., 205.,
          205., 255., 255., 255., 255., 255., 218., 172., 172., 146., 0.,
          205., 205., 205., 205., 205., 205., 255., 255., 255., 255.,
          255., 255., 255., 255., 237., 134., 205., 205., 205., 205.,
          205., 205., 255., 255., 255., 255., 255., 255., 255., 255.,
          255., 255., 205., 205., 205., 205., 205., 205., 255., 255.,
          255., 255., 255., 255., 255., 255., 255., 255. ]
      - [ 205., 205., 19., 218., 68., 255., 255., 255., 255., 255., 255.,
          19., 205., 205., 205., 205., 205., 205., 255., 255., 255.,
          255., 255., 255., 255., 255., 255., 255., 205., 205., 205.,
          205., 205., 205., 255., 255., 255., 255., 255., 237., 223.,
          223., 250., 255., 205., 205., 205., 205., 205., 205., 212.,
          255., 255., 255., 255., 115., 0., 0., 217., 255., 205., 205.,
          205., 205., 205., 205., 10., 198., 212., 255., 229., 89., 0.,
          43., 225., 255., 205., 205., 205., 205., 205., 205., 0., 0.,
          64., 255., 140., 0., 0., 191., 255., 255., 205., 205., 205.,
          205., 205., 205., 0., 0., 43., 172., 95., 0., 0., 191., 255.,
          255., 205., 205., 205., 205., 205., 205., 0., 0., 0., 0., 0.,
          0., 62., 215., 255., 255., 205., 205., 205., 205., 205., 205.,
          0., 0., 0., 0., 0., 60., 204., 255., 255., 152., 205., 205.,
          205., 205., 205., 205., 0., 0., 0., 0., 55., 195., 255., 255.,
          152., 7., 205., 205., 205., 205., 205., 205., 0., 0., 0., 47.,
          188., 255., 255., 154., 18., 0., 205., 205., 205., 205., 205.,
          205., 0., 0., 37., 184., 255., 255., 255., 64., 0., 0., 205.,
          205., 205., 205., 205., 205., 0., 24., 183., 255., 255., 255.,
          151., 24., 0., 0., 205., 205., 205., 205., 205., 205., 0., 38.,
          255., 255., 255., 160., 29., 0., 0., 0., 205., 205., 205.,
          205., 205., 205., 9., 195., 255., 255., 172., 32., 0., 0., 0.,
          0., 205., 205., 205., 205., 205., 205., 200., 255., 255., 255.,
          229., 89., 0., 0., 168., 10., 205., 205., 205., 205., 205.,
          205., 255., 255., 255., 255., 255., 230., 210., 210., 248.,
          213., 205., 205., 205., 205., 205., 205., 255., 255., 255.,
          255., 255., 255., 255., 255., 255., 255., 205., 205., 205.,
          205., 205., 205., 255., 255., 255., 255., 255., 255., 255.,
          255., 255., 255. ]
      - [ 205., 205., 255., 255., 255., 255., 255., 255., 255., 57., 8.,
          0., 0., 205., 205., 205., 205., 205., 122., 255., 255., 255.,
          255., 255., 255., 255., 183., 117., 0., 205., 205., 205., 205.,
          205., 255., 255., 255., 255., 255., 255., 255., 255., 255.,
          184., 7., 205., 205., 205., 205., 205., 255., 255., 255., 255.,
          108., 108., 108., 168., 255., 255., 58., 205., 205., 205.,
          205., 205., 249., 249., 249., 249., 0., 0., 0., 104., 255.,
          255., 58., 205., 205., 205., 205., 205., 0., 0., 0., 0., 0.,
          0., 0., 104., 255., 255., 58., 205., 205., 205., 205., 205.,
          0., 0., 0., 0., 0., 0., 0., 104., 255., 255., 58., 205., 205.,
          205., 205., 205., 0., 0., 0., 0., 0., 0., 0., 161., 255., 174.,
          0., 205., 205., 205., 205., 205., 0., 0., 0., 0., 0., 0., 0.,
          255., 255., 174., 0., 205., 205., 205., 205., 205., 0., 0., 0.,
          0., 0., 35., 246., 255., 255., 174., 0., 205., 205., 205.,
          205., 205., 143., 0., 0., 0., 8., 220., 255., 255., 255., 48.,
          0., 205., 205., 205., 205., 205., 163., 0., 6., 45., 255.,
          255., 255., 237., 29., 0., 0., 205., 205., 205., 205., 205.,
          0., 0., 172., 255., 255., 255., 255., 56., 0., 0., 0., 205.,
          205., 205., 205., 205., 58., 255., 255., 255., 255., 245., 11.,
          0., 0., 0., 0., 205., 205., 205., 205., 205., 161., 255., 255.,
          255., 255., 127., 0., 0., 0., 0., 0., 205., 205., 205., 205.,
          205., 255., 255., 255., 255., 255., 252., 249., 0., 0., 0., 0.,
          205., 205., 205., 205., 205., 255., 255., 255., 255., 255.,
          255., 255., 255., 255., 255., 255., 205., 205., 205., 205.,
          205., 255., 255., 255., 255., 255., 255., 255., 255., 255.,
          255., 255., 205., 205., 205., 205., 205., 255., 255., 255.,
          255., 255., 255., 255., 255., 255., 255. ]
      - [ 205., 205., 0., 21., 38., 38., 176., 255., 255., 255., 235.,
          21., 0., 205., 205., 205., 205., 205., 21., 191., 255., 255.,
          255., 255., 255., 255., 255., 191., 21., 205., 205., 205.,
          205., 205., 203., 255., 255., 255., 255., 255., 255., 255.,
          255., 255., 203., 205., 205., 205., 205., 205., 255., 255.,
          255., 255., 255., 255., 242., 251., 255., 255., 255., 205.,
          205., 205., 205., 205., 182., 255., 255., 166., 166., 166., 0.,
          185., 255., 255., 255., 205., 205., 205., 205., 205., 16.,
          180., 104., 0., 0., 0., 0., 185., 255., 255., 255., 205., 205.,
          205., 205., 205., 0., 7., 1., 0., 0., 0., 0., 9., 255., 255.,
          255., 205., 205., 205., 205., 205., 0., 0., 0., 0., 0., 0., 0.,
          185., 255., 255., 255., 205., 205., 205., 205., 205., 0., 0.,
          0., 0., 0., 0., 140., 223., 255., 255., 140., 205., 205., 205.,
          205., 205., 0., 0., 0., 0., 0., 217., 255., 255., 255., 255.,
          46., 205., 205., 205., 205., 205., 0., 0., 0., 10., 176., 255.,
          255., 255., 252., 118., 0., 205., 205., 205., 205., 205., 0.,
          0., 0., 153., 255., 255., 255., 255., 127., 0., 0., 205., 205.,
          205., 205., 205., 0., 0., 174., 255., 255., 255., 185., 64.,
          0., 0., 0., 205., 205., 205., 205., 205., 2., 145., 255., 255.,
          255., 242., 0., 0., 0., 0., 0., 205., 205., 205., 205., 205.,
          46., 255., 255., 255., 198., 0., 0., 0., 0., 0., 0., 205.,
          205., 205., 205., 205., 182., 255., 255., 255., 93., 0., 0.,
          0., 166., 90., 0., 205., 205., 205., 205., 205., 255., 255.,
          255., 255., 247., 242., 242., 242., 255., 249., 44., 205.,
          205., 205., 205., 205., 255., 255., 255., 255., 255., 255.,
          255., 255., 255., 255., 203., 205., 205., 205., 205., 205.,
          255., 255., 255., 255., 255., 255., 255., 255., 255., 191. ]
      - [ 205., 205., 0., 1., 6., 85., 255., 255., 255., 255., 255., 40.,
          0., 205., 205., 205., 205., 205., 19., 51., 255., 255., 255.,
          255., 255., 255., 255., 255., 30., 205., 205., 205., 205.,
          205., 255., 255., 255., 255., 255., 255., 255., 255., 255.,
          255., 255., 205., 205., 205., 205., 205., 255., 255., 255.,
          241., 210., 210., 210., 241., 255., 255., 255., 205., 205.,
          205., 205., 205., 198., 198., 198., 135., 0., 0., 0., 174.,
          255., 255., 255., 205., 205., 205., 205., 205., 0., 0., 0., 0.,
          0., 0., 0., 174., 255., 255., 255., 205., 205., 205., 205.,
          205., 0., 0., 0., 0., 0., 0., 0., 174., 255., 255., 255., 205.,
          205., 205., 205., 205., 0., 0., 0., 0., 0., 0., 0., 174., 255.,
          255., 255., 205., 205., 205., 205., 205., 0., 0., 0., 0., 0.,
          54., 108., 208., 255., 255., 152., 205., 205., 205., 205.,
          205., 0., 0., 0., 0., 0., 127., 255., 255., 255., 150., 6.,
          205., 205., 205., 205., 205., 0., 0., 0., 43., 134., 194.,
          255., 255., 255., 35., 0., 205., 205., 205., 205., 205., 0.,
          0., 33., 181., 255., 255., 255., 255., 142., 15., 0., 205.,
          205., 205., 205., 205., 0., 22., 181., 255., 255., 255., 255.,
          146., 22., 0., 0., 205., 205., 205., 205., 205., 0., 35., 255.,
          255., 255., 169., 83., 26., 0., 0., 0., 205., 205., 205., 205.,
          205., 8., 194., 255., 255., 255., 127., 0., 0., 0., 0., 0.,
          205., 205., 205., 205., 205., 200., 255., 255., 255., 255.,
          226., 198., 198., 198., 27., 0., 205., 205., 205., 205., 205.,
          255., 255., 255., 255., 255., 255., 255., 255., 255., 216.,
          210., 205., 205., 205., 205., 205., 255., 255., 255., 255.,
          255., 255., 255., 255., 255., 255., 255., 205., 205., 205.,
          205., 205., 255., 255., 255., 255., 255., 255., 255., 255.,
          255., 255. ]
      - [ 205., 205., 0., 1., 6., 85., 255., 255., 255., 255., 63., 1.,
          0., 205., 205., 205., 205., 205., 19., 51., 255., 255., 255.,
          255., 255., 255., 255., 51., 1., 205., 205., 205., 205., 205.,
          255., 255., 255., 255., 255., 255., 255., 255., 255., 255.,
          42., 205., 205., 205., 205., 205., 255., 255., 255., 255.,
          237., 210., 237., 255., 255., 255., 255., 205., 205., 205.,
          205., 205., 252., 205., 242., 198., 117., 0., 117., 237., 255.,
          255., 255., 205., 205., 205., 205., 205., 176., 25., 143., 0.,
          0., 0., 0., 126., 239., 255., 255., 205., 205., 205., 205.,
          205., 0., 0., 0., 0., 0., 0., 0., 57., 216., 255., 255., 205.,
          205., 205., 205., 205., 0., 0., 0., 0., 0., 0., 56., 204.,
          255., 255., 255., 205., 205., 205., 205., 205., 0., 0., 0., 0.,
          0., 0., 150., 255., 255., 255., 255., 205., 205., 205., 205.,
          205., 0., 0., 0., 0., 0., 61., 200., 255., 255., 255., 139.,
          205., 205., 205., 205., 205., 0., 0., 0., 43., 134., 194.,
          255., 255., 152., 121., 6., 205., 205., 205., 205., 205., 0.,
          0., 0., 81., 255., 255., 255., 255., 58., 0., 0., 205., 205.,
          205., 205., 205., 0., 22., 159., 190., 255., 255., 255., 146.,
          22., 0., 0., 205., 205., 205., 205., 205., 0., 35., 255., 255.,
          255., 255., 153., 26., 0., 0., 0., 205., 205., 205., 205.,
          205., 8., 194., 255., 255., 255., 162., 29., 0., 0., 0., 0.,
          205., 205., 205., 205., 205., 11., 255., 255., 255., 255.,
          226., 81., 135., 198., 198., 9., 205., 205., 205., 205., 205.,
          12., 255., 255., 255., 255., 255., 228., 241., 255., 255.,
          212., 205., 205., 205., 205., 205., 224., 255., 255., 255.,
          255., 255., 255., 255., 255., 255., 255., 205., 205., 205.,
          205., 205., 255., 255., 255., 255., 255., 255., 255., 255.,
          255., 255. ]
      - [ 11., 182., 255., 255., 255., 255., 255., 255., 255., 51., 26.,
          0., 0., 0., 205., 205., 175., 255., 255., 255., 255., 255.,
          255., 255., 255., 255., 204., 153., 98., 0., 205., 205., 255.,
          255., 255., 255., 255., 255., 255., 255., 255., 255., 255.,
          255., 164., 0., 205., 205., 255., 255., 248., 153., 153., 153.,
          153., 175., 255., 255., 255., 255., 164., 0., 205., 205., 255.,
          255., 47., 0., 0., 0., 0., 11., 182., 255., 255., 255., 164.,
          0., 205., 205., 0., 0., 0., 0., 0., 0., 0., 0., 164., 255.,
          255., 255., 33., 0., 205., 205., 0., 0., 0., 0., 0., 0., 0.,
          0., 164., 255., 255., 255., 164., 0., 205., 205., 0., 0., 0.,
          0., 0., 0., 0., 0., 164., 255., 255., 255., 164., 0., 205.,
          205., 0., 0., 0., 0., 0., 0., 0., 55., 255., 255., 255., 255.,
          164., 0., 205., 205., 0., 0., 0., 0., 0., 0., 0., 54., 255.,
          255., 255., 255., 33., 0., 205., 205., 0., 0., 0., 0., 0., 18.,
          51., 255., 255., 255., 229., 15., 0., 0., 205., 205., 0., 0.,
          0., 0., 0., 91., 255., 255., 255., 255., 127., 0., 0., 0.,
          205., 205., 0., 0., 0., 0., 0., 255., 255., 255., 255., 237.,
          0., 0., 0., 0., 205., 205., 0., 0., 7., 178., 255., 255., 255.,
          255., 189., 0., 0., 0., 0., 0., 205., 205., 0., 0., 18., 255.,
          255., 255., 255., 255., 91., 0., 0., 0., 0., 0., 205., 205.,
          0., 0., 18., 255., 255., 255., 255., 255., 91., 0., 0., 0., 0.,
          0., 205., 205., 0., 0., 160., 255., 255., 255., 255., 255.,
          189., 153., 153., 153., 153., 153., 205., 205., 0., 0., 255.,
          255., 255., 255., 255., 255., 255., 255., 255., 255., 255.,
          255., 205., 205., 0., 0., 18., 255., 255., 255., 255., 255.,
          255., 255., 255., 255. ]
      - [ 205., 205., 0., 0., 0., 255., 255., 255., 255., 255., 0., 0.,
          0., 205., 205., 205., 205., 205., 236., 236., 236., 255., 255.,
          255., 255., 255., 236., 236., 0., 205., 205., 205., 205., 205.,
          255., 255., 255., 255., 255., 255., 255., 255., 255., 255., 0.,
          205., 205., 205., 205., 205., 255., 255., 255., 255., 255.,
          255., 255., 255., 255., 255., 210., 205., 205., 205., 205.,
          205., 255., 255., 57., 57., 57., 57., 57., 255., 255., 255.,
          255., 205., 205., 205., 205., 205., 70., 70., 0., 0., 0., 0.,
          0., 255., 255., 255., 255., 205., 205., 205., 205., 205., 0.,
          0., 0., 0., 0., 0., 0., 83., 255., 255., 255., 205., 205.,
          205., 205., 205., 0., 0., 0., 0., 0., 0., 0., 159., 255., 255.,
          255., 205., 205., 205., 205., 205., 0., 0., 0., 0., 0., 0.,
          147., 255., 255., 255., 255., 205., 205., 205., 205., 205., 0.,
          0., 0., 0., 0., 134., 255., 255., 255., 255., 121., 205., 205.,
          205., 205., 205., 0., 0., 0., 0., 121., 255., 255., 255., 255.,
          134., 0., 205., 205., 205., 205., 205., 0., 0., 108., 108.,
          255., 255., 255., 255., 147., 0., 0., 205., 205., 205., 205.,
          205., 0., 96., 255., 255., 255., 159., 159., 159., 0., 0., 0.,
          205., 205., 205., 205., 205., 83., 255., 255., 255., 172., 0.,
          0., 0., 0., 0., 0., 205., 205., 205., 205., 205., 255., 255.,
          255., 255., 0., 0., 0., 0., 0., 0., 0., 205., 205., 205., 205.,
          205., 255., 255., 255., 255., 57., 57., 0., 57., 57., 57., 0.,
          205., 205., 205., 205., 205., 255., 255., 255., 255., 255.,
          255., 45., 255., 255., 255., 45., 205., 205., 205., 205., 205.,
          255., 255., 255., 255., 255., 255., 255., 255., 255., 255.,
          255., 205., 205., 205., 205., 205., 255., 255., 236., 236.,
          236., 236., 236., 236., 255., 255. ]
      - [ 0., 173., 255., 255., 255., 255., 255., 255., 255., 255., 255.,
          255., 173., 0., 205., 205., 0., 173., 183., 101., 101., 101.,
          101., 101., 101., 101., 216., 255., 223., 154., 205., 205., 0.,
          114., 90., 0., 0., 0., 0., 0., 0., 0., 191., 255., 255., 255.,
          205., 205., 0., 0., 0., 0., 0., 0., 0., 0., 0., 0., 191., 255.,
          255., 255., 205., 205., 0., 0., 0., 0., 0., 0., 0., 0., 0., 0.,
          191., 255., 255., 255., 205., 205., 0., 0., 0., 0., 0., 0., 0.,
          0., 25., 136., 226., 255., 210., 114., 205., 205., 0., 0., 0.,
          0., 0., 0., 45., 74., 106., 248., 255., 215., 123., 0., 205.,
          205., 0., 0., 0., 0., 0., 0., 155., 255., 255., 255., 255.,
          118., 0., 0., 205., 205., 0., 0., 0., 0., 0., 0., 155., 255.,
          255., 255., 255., 118., 0., 0., 205., 205., 0., 0., 0., 0., 5.,
          105., 205., 255., 255., 255., 159., 59., 0., 0., 205., 205.,
          0., 0., 0., 15., 67., 220., 255., 255., 244., 197., 49., 0.,
          0., 0., 205., 205., 0., 0., 0., 62., 248., 254., 255., 255.,
          210., 15., 2., 0., 0., 0., 205., 205., 0., 123., 181., 199.,
          255., 255., 145., 74., 61., 3., 0., 0., 0., 0., 205., 205., 0.,
          173., 255., 255., 255., 255., 100., 0., 0., 0., 0., 0., 0., 0.,
          205., 205., 47., 188., 255., 255., 255., 255., 100., 0., 0.,
          0., 0., 0., 0., 0., 205., 205., 235., 248., 255., 255., 255.,
          255., 100., 0., 0., 0., 0., 0., 0., 0., 205., 205., 255., 255.,
          255., 255., 255., 255., 202., 168., 168., 168., 168., 78., 0.,
          0., 205., 205., 255., 255., 255., 255., 255., 255., 255., 255.,
          255., 255., 255., 172., 68., 0., 205., 205., 255., 255., 255.,
          255., 255., 255., 255., 255., 255., 255., 255., 255. ]
      - [ 205., 0., 0., 0., 0., 0., 0., 0., 32., 223., 255., 255., 255.,
          205., 205., 205., 205., 0., 0., 0., 0., 0., 0., 0., 14., 100.,
          202., 255., 255., 205., 205., 205., 205., 0., 0., 0., 0., 0.,
          0., 0., 0., 0., 159., 255., 255., 205., 205., 205., 205., 0.,
          0., 0., 0., 0., 0., 0., 0., 0., 159., 255., 255., 205., 205.,
          205., 205., 0., 0., 0., 0., 0., 0., 0., 21., 145., 222., 255.,
          255., 205., 205., 205., 205., 0., 0., 0., 0., 0., 0., 0., 32.,
          223., 255., 255., 255., 205., 205., 205., 205., 0., 0., 0., 0.,
          0., 0., 5., 43., 225., 255., 250., 242., 205., 205., 205.,
          205., 0., 0., 0., 0., 0., 0., 72., 199., 247., 255., 183., 64.,
          205., 205., 205., 205., 0., 0., 0., 0., 0., 72., 167., 255.,
          255., 183., 88., 0., 205., 205., 205., 205., 0., 0., 14., 38.,
          38., 173., 255., 250., 222., 81., 0., 0., 205., 205., 205.,
          205., 0., 0., 81., 217., 217., 241., 255., 228., 65., 14., 0.,
          0., 205., 205., 205., 205., 0., 0., 96., 255., 255., 167.,
          115., 100., 14., 0., 0., 0., 205., 205., 205., 205., 64., 64.,
          135., 255., 255., 95., 0., 0., 0., 0., 0., 0., 205., 205.,
          205., 205., 242., 242., 247., 255., 255., 96., 0., 0., 0., 0.,
          0., 0., 205., 205., 205., 205., 255., 255., 255., 255., 255.,
          199., 104., 0., 0., 0., 0., 0., 205., 205., 205., 205., 255.,
          255., 255., 255., 255., 255., 193., 89., 89., 89., 89., 89.,
          205., 205., 205., 205., 255., 255., 255., 255., 255., 255.,
          255., 255., 255., 255., 250., 242., 205., 205., 205., 205.,
          255., 255., 255., 255., 255., 255., 255., 255., 255., 255.,
          183., 64., 205., 205., 205., 205., 255., 255., 255., 255.,
          255., 255., 255., 255., 255., 183., 88. ]
      - [ 205., 205., 0., 11., 26., 37., 255., 255., 255., 198., 11., 0.,
          205., 205., 205., 205., 205., 205., 76., 157., 255., 255.,
          255., 255., 255., 255., 157., 11., 205., 205., 205., 205.,
          205., 205., 255., 255., 255., 255., 255., 255., 255., 255.,
          255., 147., 205., 205., 205., 205., 205., 205., 255., 255.,
          255., 255., 192., 76., 246., 255., 255., 255., 205., 205.,
          205., 205., 205., 205., 255., 255., 83., 26., 17., 0., 24.,
          255., 255., 255., 205., 205., 205., 205., 205., 205., 0., 0.,
          0., 0., 0., 0., 0., 83., 255., 255., 205., 205., 205., 205.,
          205., 205., 0., 0., 0., 0., 0., 0., 0., 255., 255., 255., 205.,
          205., 205., 205., 205., 205., 0., 0., 0., 0., 0., 0., 0., 255.,
          255., 255., 205., 205., 205., 205., 205., 205., 0., 0., 0., 0.,
          0., 0., 170., 255., 255., 255., 205., 205., 205., 205., 205.,
          205., 0., 0., 0., 0., 0., 0., 242., 255., 255., 60., 205.,
          205., 205., 205., 205., 205., 0., 0., 0., 1., 106., 255., 255.,
          255., 241., 34., 205., 205., 205., 205., 205., 205., 0., 0.,
          0., 85., 255., 255., 255., 236., 80., 0., 205., 205., 205.,
          205., 205., 205., 0., 0., 96., 255., 255., 255., 134., 96., 0.,
          0., 205., 205., 205., 205., 205., 205., 0., 80., 236., 255.,
          255., 139., 4., 0., 0., 0., 205., 205., 205., 205., 205., 205.,
          0., 115., 255., 255., 175., 9., 0., 0., 0., 0., 205., 205.,
          205., 205., 205., 205., 38., 255., 255., 244., 17., 0., 0., 0.,
          0., 0., 205., 205., 205., 205., 205., 205., 103., 255., 255.,
          255., 192., 27., 73., 76., 76., 76., 205., 205., 205., 205.,
          205., 205., 255., 255., 255., 255., 255., 172., 249., 255.,
          255., 255., 205., 205., 205., 205., 205., 205., 255., 255.,
          255., 255., 255., 255., 255., 255., 255., 255. ]
      - [ 205., 205., 60., 255., 255., 255., 255., 255., 255., 255.,
          255., 38., 205., 205., 205., 205., 205., 205., 255., 255.,
          255., 255., 255., 255., 255., 255., 255., 103., 205., 205.,
          205., 205., 205., 205., 255., 255., 255., 128., 128., 128.,
          249., 255., 255., 255., 205., 205., 205., 205., 205., 205.,
          255., 255., 121., 0., 0., 0., 73., 255., 255., 255., 205.,
          205., 205., 205., 205., 205., 26., 26., 6., 0., 0., 0., 0.,
          83., 255., 255., 205., 205., 205., 205., 205., 205., 0., 0.,
          0., 0., 0., 0., 0., 64., 255., 255., 205., 205., 205., 205.,
          205., 205., 0., 0., 0., 0., 0., 0., 0., 121., 255., 255., 205.,
          205., 205., 205., 205., 205., 0., 0., 0., 0., 0., 0., 121.,
          255., 255., 255., 205., 205., 205., 205., 205., 205., 0., 0.,
          0., 0., 0., 116., 251., 255., 255., 103., 205., 205., 205.,
          205., 205., 205., 0., 0., 0., 0., 80., 246., 255., 255., 255.,
          38., 205., 205., 205., 205., 205., 205., 0., 0., 0., 37., 255.,
          255., 255., 191., 0., 0., 205., 205., 205., 205., 205., 205.,
          0., 0., 57., 255., 255., 255., 255., 134., 0., 0., 205., 205.,
          205., 205., 205., 205., 0., 57., 223., 255., 255., 255., 134.,
          0., 0., 0., 205., 205., 205., 205., 205., 205., 27., 213.,
          255., 255., 192., 76., 4., 0., 0., 0., 205., 205., 205., 205.,
          205., 205., 233., 255., 255., 255., 166., 0., 0., 0., 0., 0.,
          205., 205., 205., 205., 205., 205., 255., 255., 255., 244.,
          17., 17., 1., 26., 26., 26., 205., 205., 205., 205., 205.,
          205., 190., 255., 255., 255., 192., 192., 85., 255., 255.,
          255., 205., 205., 205., 205., 205., 205., 38., 255., 255.,
          255., 255., 255., 255., 255., 255., 255., 205., 205., 205.,
          205., 205., 205., 38., 255., 255., 255., 255., 255., 255.,
          255., 255., 103. ]
      - [ 205., 42., 255., 255., 255., 255., 255., 255., 146., 219., 32.,
          0., 0., 205., 205., 205., 205., 138., 255., 255., 255., 255.,
          255., 255., 255., 255., 232., 57., 0., 205., 205., 205., 205.,
          255., 255., 255., 255., 255., 255., 255., 255., 255., 255.,
          223., 32., 205., 205., 205., 205., 255., 255., 255., 255.,
          255., 255., 255., 255., 255., 255., 255., 42., 205., 205.,
          205., 205., 255., 255., 255., 255., 255., 255., 255., 255.,
          255., 255., 255., 42., 205., 205., 205., 205., 89., 89., 227.,
          89., 89., 89., 89., 89., 227., 255., 255., 42., 205., 205.,
          205., 205., 0., 0., 11., 0., 0., 0., 0., 0., 213., 255., 255.,
          42., 205., 205., 205., 205., 0., 0., 0., 0., 0., 0., 0., 32.,
          223., 255., 255., 255., 205., 205., 205., 205., 0., 0., 0., 0.,
          0., 117., 140., 197., 255., 255., 255., 255., 205., 205., 205.,
          205., 0., 0., 0., 0., 108., 249., 255., 255., 255., 255., 255.,
          74., 205., 205., 205., 205., 0., 0., 0., 0., 127., 255., 255.,
          255., 255., 255., 255., 74., 205., 205., 205., 205., 0., 0.,
          0., 0., 70., 140., 255., 255., 255., 255., 255., 255., 205.,
          205., 205., 205., 0., 0., 0., 0., 0., 0., 96., 255., 255.,
          255., 255., 255., 205., 205., 205., 205., 2., 6., 0., 0., 0.,
          0., 0., 121., 253., 255., 255., 255., 205., 205., 205., 205.,
          42., 172., 89., 74., 0., 0., 0., 45., 227., 255., 255., 255.,
          205., 205., 205., 205., 42., 255., 255., 240., 166., 166.,
          166., 210., 255., 255., 255., 255., 205., 205., 205., 205.,
          42., 255., 255., 255., 255., 255., 255., 255., 255., 255.,
          255., 255., 205., 205., 205., 205., 42., 255., 255., 255.,
          255., 255., 255., 255., 255., 255., 255., 255., 205., 205.,
          205., 205., 19., 185., 255., 255., 255., 255., 255., 255.,
          255., 255., 255. ]
      - [ 205., 205., 77., 255., 255., 255., 255., 255., 255., 97., 235.,
          21., 0., 205., 205., 205., 205., 205., 255., 255., 255., 255.,
          255., 255., 255., 255., 255., 139., 0., 205., 205., 205., 205.,
          205., 255., 255., 255., 255., 255., 255., 255., 255., 255.,
          226., 35., 205., 205., 205., 205., 205., 255., 255., 243.,
          251., 242., 242., 247., 255., 255., 255., 46., 205., 205.,
          205., 205., 205., 182., 206., 15., 120., 0., 0., 93., 255.,
          255., 255., 46., 205., 205., 205., 205., 205., 16., 41., 0.,
          0., 0., 0., 93., 255., 255., 255., 46., 205., 205., 205., 205.,
          205., 0., 0., 0., 0., 0., 0., 93., 255., 255., 255., 46., 205.,
          205., 205., 205., 205., 0., 0., 0., 0., 0., 64., 93., 255.,
          255., 255., 98., 205., 205., 205., 205., 205., 0., 0., 0., 0.,
          89., 255., 182., 255., 255., 255., 140., 205., 205., 205.,
          205., 205., 0., 0., 0., 0., 162., 255., 255., 255., 255., 255.,
