%YAML:1.0
my_svm: !!opencv-ml-svm
   svm_type: C_SVC
   kernel: { type:LINEAR }
   C: 1.
   term_criteria: { epsilon:1.1920928955078125e-007, iterations:1000 }
   var_all: 450
   var_count: 450
   class_count: 10
   class_labels: !!opencv-matrix
      rows: 1
      cols: 10
      dt: i
      data: [ 0, 1, 2, 3, 4, 5, 6, 7, 8, 9 ]
   sv_total: 208
   support_vectors:
      - [ 255., 255., 255., 255., 255., 255., 255., 255., 255., 246.,
          178., 110., 42., 0., 0., 255., 255., 255., 255., 255., 255.,
          255., 255., 255., 246., 178., 110., 42., 0., 0., 255., 255.,
          255., 255., 255., 255., 255., 255., 255., 246., 179., 110.,
          42., 0., 0., 255., 255., 255., 255., 255., 255., 255., 255.,
          255., 246., 178., 110., 42., 0., 0., 255., 255., 255., 255.,
          255., 255., 255., 255., 255., 246., 178., 110., 42., 0., 0.,
          255., 255., 255., 255., 255., 255., 255., 255., 255., 246.,
          178., 110., 42., 0., 0., 255., 255., 255., 255., 255., 255.,
          255., 255., 255., 246., 178., 110., 42., 0., 0., 255., 255.,
          255., 255., 255., 255., 255., 255., 255., 247., 179., 110.,
          42., 0., 0., 255., 255., 255., 255., 255., 255., 255., 255.,
          255., 246., 178., 110., 42., 0., 0., 255., 255., 255., 255.,
          255., 255., 255., 255., 255., 246., 178., 110., 42., 0., 0.,
          255., 255., 255., 255., 255., 255., 255., 255., 255., 246.,
          178., 110., 42., 0., 0., 255., 255., 255., 255., 255., 255.,
          255., 255., 255., 246., 178., 110., 42., 0., 0., 255., 255.,
          255., 255., 255., 255., 255., 255., 255., 246., 179., 110.,
          42., 0., 0., 255., 255., 255., 255., 255., 255., 255., 255.,
          255., 246., 178., 110., 42., 0., 0., 255., 255., 255., 255.,
          255., 255., 255., 255., 255., 246., 178., 110., 42., 0., 0.,
          255., 255., 255., 255., 255., 255., 255., 255., 255., 246.,
          178., 110., 42., 0., 0., 255., 255., 255., 255., 255., 255.,
          255., 255., 255., 246., 178., 110., 42., 0., 0., 255., 255.,
          255., 255., 255., 255., 255., 255., 255., 246., 179., 110.,
          42., 0., 0., 255., 255., 255., 255., 255., 255., 255., 255.,
          255., 246., 178., 110., 42., 0., 0., 255., 255., 255., 255.,
          255., 255., 255., 255., 255., 246., 178., 110., 42., 0., 0.,
          255., 255., 255., 255., 255., 255., 255., 255., 255., 251.,
          219., 187., 156., 136., 136., 255., 255., 255., 255., 255.,
          255., 255., 255., 255., 255., 255., 255., 255., 255., 255.,
          255., 255., 255., 255., 255., 255., 255., 255., 255., 255.,
          255., 255., 255., 255., 255., 255., 255., 255., 255., 255.,
          255., 255., 255., 255., 255., 255., 255., 255., 255., 255.,
          255., 255., 255., 255., 255., 255., 255., 255., 255., 255.,
          255., 255., 255., 255., 255., 255., 255., 255., 255., 255.,
          255., 255., 255., 255., 255., 255., 255., 255., 255., 255.,
          255., 255., 255., 255., 255., 255., 255., 255., 255., 255.,
          255., 255., 255., 255., 255., 255., 255., 255., 255., 255.,
          255., 255., 255., 255., 255., 255., 255., 255., 255., 255.,
          255., 255., 255., 255., 255., 255., 231., 204., 177., 153.,
          153., 153., 153., 153., 153., 255., 255., 255., 255., 255.,
          255., 195., 127., 59., 0., 0., 0., 0., 0., 0. ]
      - [ 255., 255., 255., 255., 255., 255., 255., 255., 255., 255.,
          255., 153., 0., 0., 0., 255., 255., 255., 255., 255., 255.,
          255., 255., 255., 255., 255., 153., 0., 0., 0., 255., 255.,
          255., 255., 255., 255., 255., 255., 255., 255., 255., 153., 0.,
          0., 0., 255., 255., 255., 255., 255., 255., 255., 255., 255.,
          255., 255., 183., 76., 31., 0., 255., 255., 255., 255., 255.,
          255., 255., 255., 255., 255., 255., 255., 255., 102., 0., 255.,
          255., 255., 255., 255., 255., 255., 255., 255., 255., 255.,
          255., 255., 102., 0., 255., 255., 255., 255., 255., 255., 255.,
          255., 255., 255., 255., 255., 255., 102., 0., 128., 128., 128.,
          128., 153., 229., 255., 255., 255., 255., 255., 255., 255.,
          102., 0., 0., 0., 0., 0., 51., 204., 255., 255., 255., 255.,
          255., 255., 255., 102., 0., 0., 0., 0., 0., 51., 204., 255.,
          255., 255., 255., 255., 255., 255., 102., 0., 0., 0., 0., 0.,
          51., 204., 255., 255., 255., 255., 255., 255., 255., 102., 0.,
          0., 0., 0., 0., 51., 204., 255., 255., 255., 255., 255., 255.,
          255., 102., 0., 0., 0., 0., 0., 51., 204., 255., 255., 255.,
          255., 255., 255., 255., 102., 0., 0., 0., 0., 0., 51., 204.,
          255., 255., 255., 255., 255., 255., 255., 102., 0., 0., 0., 0.,
          0., 51., 204., 255., 255., 255., 255., 255., 255., 255., 102.,
          0., 0., 0., 0., 0., 51., 204., 255., 255., 255., 255., 255.,
          255., 255., 102., 0., 0., 0., 0., 0., 51., 204., 255., 255.,
          255., 255., 255., 255., 255., 209., 179., 0., 0., 0., 0., 51.,
          204., 255., 255., 255., 255., 255., 255., 255., 255., 255., 0.,
          0., 0., 0., 36., 143., 209., 255., 255., 255., 255., 255.,
          255., 255., 255., 0., 0., 0., 0., 5., 20., 117., 255., 255.,
          255., 255., 255., 255., 255., 255., 0., 0., 0., 0., 46., 184.,
          239., 255., 255., 255., 255., 255., 255., 255., 255., 0., 0.,
          0., 0., 51., 204., 255., 255., 255., 255., 255., 255., 255.,
          255., 255., 0., 0., 0., 0., 26., 102., 178., 255., 255., 255.,
          255., 255., 255., 255., 255., 0., 0., 0., 0., 0., 0., 102.,
          255., 255., 255., 255., 255., 255., 255., 255., 0., 0., 0., 0.,
          0., 0., 102., 255., 255., 255., 255., 255., 255., 255., 255.,
          0., 0., 0., 0., 0., 0., 102., 255., 255., 255., 255., 255.,
          255., 255., 255., 0., 0., 0., 0., 0., 0., 102., 255., 255.,
          255., 255., 255., 255., 255., 255., 0., 0., 0., 0., 0., 0.,
          102., 255., 255., 255., 255., 255., 255., 255., 255., 0., 0.,
          0., 0., 0., 0., 71., 179., 224., 255., 255., 255., 255., 255.,
          255., 0., 0., 0., 0., 0., 0., 0., 0., 153., 255., 255., 255.,
          255., 255., 255. ]
      - [ 255., 255., 255., 255., 255., 255., 255., 255., 255., 246.,
          178., 110., 42., 0., 0., 255., 255., 255., 255., 255., 255.,
          255., 255., 255., 250., 209., 168., 127., 102., 102., 255.,
          255., 255., 255., 255., 255., 255., 255., 255., 255., 255.,
          255., 255., 255., 255., 255., 255., 255., 255., 255., 255.,
          255., 255., 255., 250., 209., 168., 127., 102., 102., 255.,
          255., 255., 255., 255., 255., 255., 255., 255., 246., 178.,
          110., 42., 0., 0., 255., 255., 255., 255., 255., 255., 255.,
          255., 255., 246., 178., 110., 42., 0., 0., 255., 255., 255.,
          255., 255., 255., 255., 255., 255., 246., 178., 110., 42., 0.,
          0., 255., 255., 255., 255., 255., 255., 255., 255., 255., 247.,
          179., 110., 42., 0., 0., 255., 255., 255., 255., 255., 255.,
          255., 255., 255., 246., 178., 110., 42., 0., 0., 255., 255.,
          255., 255., 255., 255., 255., 255., 255., 248., 194., 139.,
          85., 51., 51., 255., 255., 255., 255., 255., 255., 255., 255.,
          255., 253., 239., 226., 212., 204., 204., 255., 255., 255.,
          255., 255., 255., 255., 255., 255., 255., 255., 255., 255.,
          255., 255., 255., 255., 255., 255., 255., 255., 255., 255.,
          255., 255., 255., 255., 255., 255., 255., 255., 255., 255.,
          255., 255., 255., 255., 255., 255., 255., 255., 255., 255.,
          255., 255., 255., 255., 255., 255., 255., 255., 255., 255.,
          255., 255., 255., 255., 255., 255., 255., 255., 255., 255.,
          255., 255., 255., 255., 255., 255., 255., 255., 255., 255.,
          255., 255., 255., 255., 255., 255., 255., 255., 255., 255.,
          255., 255., 255., 255., 255., 255., 255., 255., 255., 255.,
          255., 255., 255., 255., 255., 255., 255., 255., 255., 255.,
          255., 255., 255., 255., 255., 255., 255., 255., 255., 255.,
          255., 255., 255., 255., 255., 255., 255., 255., 255., 255.,
          255., 255., 255., 255., 255., 255., 255., 255., 255., 255.,
          255., 255., 255., 255., 255., 255., 255., 255., 255., 255.,
          255., 255., 255., 255., 255., 255., 255., 255., 255., 255.,
          255., 255., 255., 255., 255., 255., 255., 255., 255., 255.,
          255., 255., 255., 255., 255., 255., 255., 255., 255., 255.,
          255., 255., 255., 255., 255., 255., 255., 102., 102., 127.,
          168., 209., 250., 255., 255., 255., 255., 255., 255., 255.,
          255., 255., 0., 0., 42., 110., 178., 246., 255., 255., 255.,
          255., 255., 255., 255., 255., 255., 0., 0., 42., 110., 178.,
          246., 255., 255., 255., 255., 255., 255., 255., 255., 255., 0.,
          0., 42., 110., 178., 246., 255., 255., 255., 255., 255., 255.,
          255., 255., 255., 0., 0., 42., 110., 179., 247., 255., 255.,
          255., 255., 255., 255., 255., 255., 255., 0., 0., 17., 44.,
          71., 99., 137., 178., 219., 250., 209., 168., 127., 102., 102.,
          0., 0., 0., 0., 0., 0., 59., 127., 195., 246., 178., 110., 42.,
          0., 0. ]
      - [ 255., 255., 255., 255., 255., 255., 255., 255., 255., 255.,
          255., 255., 255., 255., 255., 255., 255., 255., 255., 255.,
          255., 255., 255., 255., 252., 228., 204., 181., 166., 166.,
          255., 255., 255., 255., 255., 255., 255., 255., 255., 247.,
          185., 122., 60., 21., 21., 255., 255., 255., 255., 255., 255.,
          255., 255., 255., 246., 178., 110., 42., 0., 0., 255., 255.,
          255., 255., 255., 255., 255., 255., 255., 247., 182., 117.,
          53., 13., 13., 255., 255., 255., 255., 255., 255., 255., 255.,
          255., 252., 226., 200., 174., 157., 157., 255., 255., 255.,
          255., 255., 255., 255., 255., 255., 255., 255., 255., 255.,
          255., 255., 255., 255., 255., 255., 255., 255., 255., 255.,
          255., 255., 255., 255., 255., 255., 255., 255., 255., 255.,
          255., 255., 255., 255., 255., 255., 255., 255., 255., 255.,
          255., 255., 255., 255., 255., 255., 255., 255., 255., 255.,
          255., 255., 255., 255., 255., 255., 255., 255., 255., 255.,
          255., 255., 255., 255., 255., 255., 255., 255., 255., 255.,
          255., 255., 251., 251., 251., 253., 254., 255., 255., 255.,
          255., 255., 255., 255., 255., 255., 255., 106., 106., 131.,
          170., 210., 250., 255., 255., 255., 255., 255., 255., 255.,
          255., 255., 0., 0., 42., 110., 179., 246., 255., 255., 255.,
          255., 255., 255., 255., 255., 255., 0., 0., 42., 110., 178.,
          246., 255., 255., 255., 255., 255., 255., 255., 255., 255., 0.,
          0., 42., 110., 178., 246., 255., 255., 255., 255., 255., 255.,
          255., 255., 255., 0., 0., 42., 110., 179., 246., 255., 255.,
          255., 255., 255., 255., 255., 255., 255., 0., 0., 42., 110.,
          178., 246., 255., 255., 255., 255., 255., 255., 255., 255.,
          255., 0., 0., 42., 110., 178., 246., 255., 255., 255., 255.,
          255., 255., 255., 255., 255., 0., 0., 42., 110., 178., 246.,
          255., 255., 255., 255., 255., 255., 255., 255., 255., 0., 0.,
          42., 110., 178., 247., 255., 255., 255., 255., 255., 255.,
          255., 255., 255., 0., 0., 42., 110., 178., 246., 255., 255.,
          255., 255., 255., 255., 255., 255., 255., 0., 0., 42., 110.,
          178., 246., 255., 255., 255., 255., 255., 255., 255., 255.,
          255., 0., 0., 42., 110., 178., 246., 255., 255., 255., 255.,
          255., 255., 255., 255., 255., 0., 0., 42., 110., 178., 246.,
          255., 255., 255., 255., 255., 255., 255., 255., 255., 0., 0.,
          42., 110., 178., 247., 255., 255., 255., 255., 255., 255.,
          255., 255., 255., 0., 0., 42., 110., 178., 246., 255., 255.,
          255., 255., 255., 255., 255., 255., 255., 0., 0., 42., 110.,
          178., 246., 255., 255., 255., 255., 255., 255., 255., 255.,
          255., 0., 0., 42., 110., 179., 246., 255., 255., 255., 255.,
          255., 255., 255., 255., 255., 0., 0., 42., 110., 178., 246.,
          255., 255., 255., 255., 255., 255., 255., 255., 255. ]
      - [ 255., 255., 255., 255., 255., 255., 255., 255., 255., 255.,
          255., 255., 255., 255., 255., 255., 255., 255., 255., 255.,
          255., 255., 255., 255., 255., 255., 255., 255., 255., 255.,
          255., 255., 255., 255., 255., 255., 255., 255., 255., 255.,
          255., 255., 255., 255., 255., 255., 255., 255., 255., 255.,
          255., 255., 255., 255., 255., 255., 255., 255., 255., 255.,
          255., 255., 255., 255., 255., 255., 255., 255., 255., 255.,
          255., 255., 255., 255., 255., 255., 255., 255., 255., 255.,
          255., 255., 255., 255., 255., 255., 255., 255., 255., 255.,
          255., 255., 255., 255., 255., 255., 255., 255., 255., 255.,
          255., 255., 255., 255., 255., 255., 255., 255., 255., 255.,
          255., 255., 255., 255., 255., 255., 255., 255., 255., 255.,
          255., 255., 255., 255., 255., 255., 255., 255., 255., 255.,
          255., 255., 255., 255., 255., 255., 255., 255., 255., 255.,
          255., 255., 255., 255., 255., 255., 255., 255., 255., 255.,
          255., 255., 255., 255., 255., 255., 255., 255., 255., 255.,
          255., 255., 255., 255., 255., 255., 255., 255., 255., 255.,
          255., 255., 255., 255., 255., 255., 255., 255., 255., 255.,
          255., 255., 255., 255., 255., 255., 255., 255., 255., 255.,
          255., 255., 255., 255., 255., 255., 255., 255., 255., 255.,
          255., 255., 255., 255., 255., 255., 255., 255., 255., 255.,
          255., 255., 255., 255., 255., 255., 255., 255., 255., 255.,
          255., 255., 255., 255., 255., 255., 255., 255., 255., 255.,
          255., 255., 255., 255., 255., 255., 255., 255., 255., 255.,
          255., 255., 255., 255., 255., 255., 255., 255., 255., 255.,
          255., 255., 255., 255., 255., 255., 255., 255., 255., 255.,
          255., 255., 255., 255., 255., 255., 255., 255., 255., 255.,
          255., 255., 255., 255., 255., 255., 255., 255., 255., 255.,
          255., 255., 255., 255., 255., 255., 255., 255., 255., 255.,
          255., 255., 255., 255., 255., 255., 255., 255., 255., 255.,
          255., 255., 255., 255., 255., 255., 255., 255., 255., 255.,
          255., 255., 255., 255., 255., 255., 255., 255., 255., 255.,
          255., 255., 255., 255., 255., 255., 255., 255., 255., 255.,
          255., 255., 255., 255., 255., 255., 255., 255., 255., 255.,
          255., 255., 255., 255., 255., 255., 255., 255., 255., 255.,
          255., 255., 255., 255., 255., 255., 255., 255., 255., 255.,
          255., 255., 255., 255., 255., 255., 255., 255., 255., 255.,
          255., 255., 255., 255., 255., 255., 255., 255., 255., 255.,
          255., 255., 255., 255., 255., 255., 255., 255., 255., 255.,
          213., 213., 220., 231., 242., 254., 255., 255., 255., 255.,
          255., 255., 255., 255., 255., 42., 42., 78., 134., 191., 248.,
          255., 255., 255., 255., 255., 255., 255., 255., 255., 0., 0.,
          42., 110., 179., 247., 255., 255., 255., 251., 217., 183.,
          149., 128., 128., 0., 0., 42., 110., 178., 246., 255., 255.,
          255., 246., 178., 110., 42., 0., 0. ]
      - [ 0., 0., 0., 51., 102., 153., 204., 255., 255., 255., 255.,
          255., 255., 255., 255., 89., 89., 89., 122., 156., 189., 222.,
          255., 255., 255., 255., 255., 255., 255., 255., 234., 234.,
          234., 238., 242., 246., 251., 255., 255., 255., 255., 255.,
          255., 255., 255., 255., 255., 255., 255., 255., 255., 255.,
          255., 255., 255., 255., 255., 255., 255., 255., 255., 255.,
          255., 255., 255., 255., 255., 255., 255., 255., 255., 255.,
          255., 255., 255., 255., 255., 255., 255., 255., 255., 255.,
          255., 255., 255., 255., 255., 255., 255., 255., 255., 255.,
          255., 255., 255., 255., 255., 255., 255., 255., 255., 255.,
          255., 255., 255., 255., 255., 255., 255., 255., 255., 255.,
          255., 255., 255., 255., 255., 255., 255., 255., 255., 255.,
          255., 255., 255., 255., 255., 255., 255., 255., 255., 255.,
          255., 255., 255., 255., 255., 255., 255., 255., 255., 255.,
          255., 255., 255., 255., 255., 255., 255., 255., 255., 255.,
          255., 255., 255., 255., 255., 255., 255., 255., 255., 255.,
          255., 255., 255., 255., 255., 255., 255., 255., 255., 255.,
          255., 255., 255., 255., 255., 255., 255., 255., 255., 255.,
          255., 255., 255., 255., 255., 255., 255., 255., 255., 255.,
          255., 255., 255., 255., 255., 255., 255., 255., 255., 255.,
          255., 255., 255., 255., 255., 255., 255., 255., 255., 255.,
          255., 255., 255., 255., 255., 255., 255., 255., 255., 255.,
          255., 255., 255., 255., 255., 255., 255., 255., 255., 255.,
          255., 255., 255., 255., 255., 255., 255., 255., 255., 255.,
          255., 255., 255., 255., 255., 255., 255., 255., 255., 255.,
          255., 255., 255., 255., 255., 255., 255., 255., 255., 255.,
          255., 255., 255., 255., 255., 255., 255., 255., 255., 255.,
          255., 255., 255., 255., 255., 255., 255., 255., 255., 255.,
          255., 255., 255., 255., 255., 255., 255., 255., 255., 255.,
          255., 255., 255., 255., 255., 255., 255., 255., 255., 255.,
          255., 255., 255., 255., 255., 255., 255., 255., 255., 255.,
          255., 255., 255., 255., 255., 255., 255., 255., 255., 255.,
          255., 255., 255., 255., 255., 255., 255., 255., 255., 255.,
          255., 255., 255., 255., 255., 255., 255., 255., 255., 255.,
          255., 255., 255., 255., 255., 255., 255., 255., 255., 255.,
          255., 255., 255., 255., 255., 255., 255., 255., 255., 255.,
          255., 255., 255., 255., 255., 255., 235., 216., 196., 177.,
          157., 157., 157., 255., 255., 255., 255., 255., 255., 255.,
          255., 206., 158., 109., 61., 13., 13., 13., 255., 255., 255.,
          255., 255., 255., 255., 255., 204., 153., 102., 51., 0., 0.,
          0., 255., 255., 255., 251., 246., 242., 238., 234., 187., 140.,
          93., 47., 0., 0., 0., 255., 255., 255., 222., 189., 156., 122.,
          89., 71., 54., 36., 18., 0., 0., 0., 255., 255., 255., 204.,
          153., 102., 51., 0., 0., 0., 0., 0., 0., 0., 0. ]
      - [ 0., 0., 0., 51., 102., 153., 204., 255., 255., 255., 255.,
          255., 255., 255., 255., 51., 51., 51., 92., 133., 173., 214.,
          255., 255., 255., 255., 255., 255., 255., 255., 170., 170.,
          170., 187., 204., 221., 238., 255., 255., 255., 255., 255.,
          255., 255., 255., 221., 221., 221., 228., 235., 241., 248.,
          255., 255., 255., 255., 255., 255., 255., 255., 102., 102.,
          102., 132., 163., 194., 224., 255., 255., 255., 255., 255.,
          255., 255., 255., 0., 0., 0., 51., 102., 153., 204., 255.,
          255., 255., 255., 255., 255., 255., 255., 0., 0., 0., 51.,
          102., 153., 204., 255., 255., 255., 255., 255., 255., 255.,
          255., 0., 0., 0., 51., 102., 153., 204., 255., 255., 255.,
          255., 255., 255., 255., 255., 0., 0., 0., 51., 102., 153.,
          204., 255., 255., 255., 255., 255., 255., 255., 255., 0., 0.,
          0., 51., 102., 153., 204., 255., 255., 255., 255., 255., 255.,
          255., 255., 0., 0., 0., 51., 102., 153., 204., 255., 255.,
          255., 255., 255., 255., 255., 255., 0., 0., 0., 51., 102.,
          153., 204., 255., 255., 255., 255., 255., 255., 255., 255., 0.,
          0., 0., 51., 102., 153., 204., 255., 255., 255., 255., 255.,
          255., 255., 255., 0., 0., 0., 51., 102., 153., 204., 255.,
          255., 255., 255., 255., 255., 255., 255., 0., 0., 0., 51.,
          102., 153., 204., 255., 255., 255., 255., 255., 255., 255.,
          255., 0., 0., 0., 51., 102., 153., 204., 255., 255., 255.,
          255., 255., 255., 255., 255., 51., 51., 51., 92., 133., 173.,
          214., 255., 255., 255., 255., 255., 255., 255., 255., 170.,
          170., 170., 187., 204., 221., 238., 255., 255., 255., 255.,
          255., 255., 255., 255., 255., 255., 255., 255., 255., 255.,
          255., 255., 248., 241., 235., 228., 221., 221., 221., 255.,
          255., 255., 255., 255., 255., 255., 255., 224., 194., 163.,
          132., 102., 102., 102., 255., 255., 255., 255., 255., 255.,
          255., 255., 204., 153., 102., 51., 0., 0., 0., 255., 255.,
          255., 255., 255., 255., 255., 255., 204., 153., 102., 51., 0.,
          0., 0., 255., 255., 255., 255., 255., 255., 255., 255., 204.,
          153., 102., 51., 0., 0., 0., 255., 255., 255., 255., 255.,
          255., 255., 255., 204., 153., 102., 51., 0., 0., 0., 255.,
          255., 255., 255., 255., 255., 255., 255., 204., 153., 102.,
          51., 0., 0., 0., 255., 255., 255., 255., 255., 255., 255.,
          255., 224., 194., 163., 132., 102., 102., 102., 255., 255.,
          255., 255., 255., 255., 255., 255., 248., 241., 235., 228.,
          221., 221., 221., 255., 255., 255., 255., 255., 255., 255.,
          255., 255., 255., 255., 255., 255., 255., 255., 255., 255.,
          255., 255., 255., 255., 255., 255., 255., 255., 255., 255.,
          255., 255., 255., 255., 255., 255., 255., 255., 255., 255.,
          255., 255., 255., 255., 255., 255., 255., 255. ]
      - [ 255., 255., 255., 255., 255., 255., 255., 255., 255., 246.,
          178., 110., 42., 0., 0., 255., 255., 255., 255., 255., 255.,
          255., 255., 255., 246., 178., 110., 42., 0., 0., 255., 255.,
          255., 255., 255., 255., 255., 255., 255., 246., 178., 110.,
          42., 0., 0., 255., 255., 255., 255., 255., 255., 255., 255.,
          255., 246., 178., 110., 42., 0., 0., 255., 255., 255., 255.,
          255., 255., 255., 255., 255., 246., 178., 110., 42., 0., 0.,
          255., 255., 255., 255., 255., 255., 255., 255., 255., 246.,
          178., 110., 42., 0., 0., 255., 255., 255., 255., 255., 255.,
          255., 255., 255., 246., 178., 110., 42., 0., 0., 255., 255.,
          255., 255., 255., 255., 255., 255., 255., 246., 178., 110.,
          42., 0., 0., 255., 255., 255., 255., 255., 255., 255., 255.,
          255., 246., 178., 110., 42., 0., 0., 255., 255., 255., 255.,
          255., 255., 255., 255., 255., 246., 178., 110., 42., 0., 0.,
          255., 255., 255., 255., 255., 255., 255., 255., 255., 246.,
          178., 110., 42., 0., 0., 255., 255., 255., 255., 255., 255.,
          255., 255., 255., 246., 178., 110., 42., 0., 0., 255., 255.,
          255., 255., 255., 255., 255., 255., 255., 246., 178., 110.,
          42., 0., 0., 255., 255., 255., 255., 255., 255., 255., 255.,
          255., 246., 178., 110., 42., 0., 0., 255., 255., 255., 255.,
          255., 255., 255., 255., 255., 246., 178., 110., 42., 0., 0.,
          255., 255., 255., 255., 255., 255., 255., 255., 255., 246.,
          178., 110., 42., 0., 0., 255., 255., 255., 255., 255., 255.,
          255., 255., 255., 246., 178., 110., 42., 0., 0., 255., 255.,
          255., 255., 255., 255., 255., 255., 255., 246., 178., 110.,
          42., 0., 0., 255., 255., 255., 255., 255., 255., 255., 255.,
          255., 246., 178., 110., 42., 0., 0., 255., 255., 255., 255.,
          255., 255., 255., 255., 255., 249., 198., 147., 96., 64., 64.,
          255., 255., 255., 255., 255., 255., 255., 255., 255., 253.,
          236., 219., 202., 191., 191., 255., 255., 255., 255., 255.,
          255., 255., 255., 255., 255., 255., 255., 255., 255., 255.,
          255., 255., 255., 255., 255., 255., 255., 255., 255., 255.,
          255., 255., 255., 255., 255., 255., 255., 255., 255., 255.,
          255., 255., 255., 255., 255., 255., 255., 255., 255., 255.,
          255., 255., 255., 255., 255., 255., 255., 255., 255., 255.,
          255., 255., 255., 255., 255., 255., 255., 255., 255., 255.,
          255., 255., 255., 255., 255., 255., 255., 255., 255., 255.,
          255., 255., 255., 255., 255., 255., 255., 255., 255., 255.,
          255., 255., 255., 255., 255., 255., 255., 255., 255., 255.,
          255., 255., 255., 255., 253., 236., 219., 202., 191., 191.,
          255., 255., 255., 255., 255., 255., 255., 255., 255., 249.,
          198., 147., 96., 64., 64., 255., 255., 255., 255., 255., 255.,
          255., 255., 255., 246., 178., 110., 42., 0., 0. ]
      - [ 255., 255., 255., 255., 255., 255., 255., 255., 255., 255.,
          255., 255., 255., 255., 255., 255., 255., 255., 255., 255.,
          255., 255., 255., 255., 255., 255., 255., 255., 255., 255.,
          255., 255., 255., 255., 255., 255., 255., 255., 255., 255.,
          255., 255., 255., 255., 255., 255., 255., 255., 255., 255.,
          255., 255., 255., 255., 255., 255., 255., 255., 255., 255.,
          255., 255., 255., 255., 255., 255., 255., 255., 255., 255.,
          255., 255., 255., 255., 255., 255., 255., 255., 255., 255.,
          255., 255., 255., 255., 255., 255., 255., 255., 255., 255.,
          255., 255., 255., 255., 255., 255., 255., 255., 255., 255.,
          255., 255., 255., 255., 255., 255., 255., 255., 255., 255.,
          255., 255., 255., 255., 255., 255., 255., 255., 255., 255.,
          255., 255., 255., 255., 255., 255., 255., 255., 255., 255.,
          255., 255., 255., 255., 255., 255., 255., 255., 255., 255.,
          255., 255., 255., 255., 255., 255., 255., 255., 255., 255.,
          255., 255., 255., 255., 255., 255., 255., 255., 255., 255.,
          255., 255., 255., 255., 255., 255., 255., 255., 255., 255.,
          255., 255., 255., 255., 255., 255., 255., 255., 255., 255.,
          255., 255., 255., 255., 255., 255., 255., 255., 255., 255.,
          255., 255., 255., 255., 255., 255., 255., 255., 255., 255.,
          255., 255., 255., 255., 255., 255., 255., 255., 255., 255.,
          255., 255., 255., 255., 255., 255., 255., 255., 255., 255.,
          255., 255., 255., 255., 255., 255., 255., 255., 255., 255.,
          255., 255., 255., 255., 255., 255., 255., 255., 255., 255.,
          255., 255., 255., 255., 255., 255., 255., 255., 255., 255.,
          255., 255., 255., 255., 255., 255., 255., 255., 255., 255.,
          255., 255., 255., 255., 255., 255., 255., 255., 255., 255.,
          255., 255., 255., 255., 255., 255., 255., 255., 255., 255.,
          255., 255., 255., 255., 255., 255., 255., 255., 255., 255.,
          255., 255., 255., 255., 255., 255., 255., 255., 255., 255.,
          255., 255., 255., 255., 255., 255., 255., 255., 255., 255.,
          255., 255., 255., 255., 255., 255., 255., 255., 255., 255.,
          255., 255., 255., 255., 255., 255., 255., 255., 255., 255.,
          255., 255., 255., 255., 255., 255., 255., 255., 255., 255.,
          255., 255., 255., 255., 255., 255., 255., 255., 255., 255.,
          255., 255., 255., 255., 255., 255., 255., 255., 255., 255.,
          255., 255., 255., 255., 255., 255., 255., 255., 255., 255.,
          255., 255., 255., 255., 255., 153., 153., 153., 173., 194.,
          214., 235., 255., 255., 255., 255., 255., 255., 255., 255.,
          34., 34., 34., 78., 122., 166., 211., 255., 255., 255., 255.,
          255., 255., 255., 255., 0., 0., 0., 51., 102., 153., 204.,
          255., 255., 255., 255., 255., 255., 255., 255., 0., 0., 0.,
          51., 102., 153., 204., 255., 255., 255., 255., 255., 255.,
          255., 255., 0., 0., 0., 51., 102., 153., 204., 255., 255.,
          255., 255., 255., 255., 255., 255. ]
      - [ 255., 255., 255., 255., 255., 255., 255., 255., 204., 153.,
          102., 51., 0., 0., 0., 255., 255., 255., 255., 255., 255.,
          255., 255., 204., 153., 102., 51., 0., 0., 0., 255., 255.,
          255., 255., 255., 255., 255., 255., 204., 153., 102., 51., 0.,
          0., 0., 255., 255., 255., 255., 255., 255., 255., 255., 204.,
          153., 102., 51., 0., 0., 0., 255., 255., 255., 255., 255.,
          255., 255., 255., 204., 153., 102., 51., 0., 0., 0., 255.,
          255., 255., 255., 255., 255., 255., 255., 217., 179., 140.,
          102., 64., 64., 64., 255., 255., 255., 255., 255., 255., 255.,
          255., 242., 230., 217., 204., 191., 191., 191., 255., 255.,
          255., 255., 255., 255., 255., 255., 255., 255., 255., 255.,
          255., 255., 255., 255., 255., 255., 255., 255., 255., 255.,
          255., 255., 255., 255., 255., 255., 255., 255., 255., 255.,
          255., 255., 255., 255., 255., 255., 255., 255., 255., 255.,
          255., 255., 255., 255., 255., 255., 255., 255., 255., 255.,
          255., 255., 255., 255., 255., 255., 255., 255., 255., 255.,
          255., 255., 255., 255., 255., 255., 255., 255., 255., 255.,
          255., 255., 255., 255., 255., 255., 255., 255., 255., 255.,
          255., 255., 255., 255., 255., 255., 255., 255., 255., 255.,
          255., 255., 255., 255., 255., 255., 255., 255., 255., 255.,
          255., 255., 255., 255., 255., 255., 255., 255., 255., 255.,
          255., 255., 255., 255., 255., 255., 255., 255., 255., 255.,
          255., 255., 255., 255., 255., 255., 255., 255., 255., 255.,
          255., 255., 255., 255., 255., 255., 255., 255., 255., 255.,
          255., 255., 255., 255., 255., 255., 255., 255., 255., 255.,
          255., 255., 255., 255., 255., 255., 255., 255., 255., 255.,
          255., 255., 255., 255., 255., 255., 255., 255., 255., 255.,
          255., 255., 255., 255., 255., 255., 255., 255., 255., 255.,
          255., 255., 255., 255., 255., 255., 255., 255., 255., 255.,
          255., 255., 255., 255., 255., 255., 255., 255., 255., 255.,
          255., 255., 255., 255., 255., 255., 255., 255., 255., 255.,
          255., 255., 255., 255., 255., 255., 255., 255., 255., 255.,
          255., 255., 255., 255., 255., 255., 255., 255., 255., 255.,
          255., 255., 255., 255., 255., 255., 255., 255., 255., 255.,
          255., 255., 255., 255., 255., 255., 255., 255., 255., 255.,
          255., 255., 255., 255., 255., 255., 255., 255., 255., 255.,
          255., 255., 255., 255., 255., 255., 255., 255., 255., 255.,
          255., 255., 255., 255., 255., 255., 255., 255., 255., 255.,
          255., 255., 255., 255., 255., 255., 255., 255., 255., 255.,
          255., 255., 255., 255., 255., 255., 255., 255., 191., 191.,
          191., 204., 217., 230., 242., 255., 255., 255., 255., 255.,
          255., 255., 255., 64., 64., 64., 102., 140., 179., 217., 255.,
          255., 255., 255., 255., 255., 255., 255., 0., 0., 0., 51.,
          102., 153., 204., 255., 255., 255., 255., 255., 255., 255.,
          255. ]
      - [ 0., 0., 42., 110., 178., 246., 255., 255., 255., 246., 178.,
          110., 42., 0., 0., 76., 76., 106., 154., 201., 249., 255.,
          255., 255., 249., 201., 154., 106., 76., 76., 213., 213., 220.,
          231., 242., 254., 255., 255., 255., 254., 242., 231., 220.,
          213., 213., 255., 255., 255., 255., 255., 255., 255., 255.,
          255., 255., 255., 255., 255., 255., 255., 255., 255., 255.,
          255., 255., 255., 255., 255., 255., 255., 255., 255., 255.,
          255., 255., 255., 255., 255., 255., 255., 255., 255., 255.,
          255., 251., 222., 192., 163., 145., 145., 255., 255., 255.,
          255., 255., 255., 255., 255., 255., 247., 181., 115., 50., 8.,
          8., 255., 255., 255., 255., 255., 255., 255., 255., 255., 251.,
          217., 183., 149., 128., 128., 255., 255., 255., 255., 255.,
          255., 255., 255., 255., 255., 255., 255., 255., 255., 255.,
          255., 255., 255., 255., 255., 255., 255., 255., 255., 255.,
          255., 255., 255., 255., 255., 255., 255., 255., 255., 255.,
          255., 255., 255., 255., 254., 247., 240., 234., 229., 229.,
          255., 255., 255., 255., 255., 255., 255., 255., 255., 250.,
          207., 163., 120., 94., 94., 255., 255., 255., 255., 255., 255.,
          255., 255., 255., 246., 178., 110., 42., 0., 0., 255., 255.,
          255., 255., 255., 255., 255., 255., 255., 246., 179., 110.,
          42., 0., 0., 255., 255., 255., 255., 255., 255., 255., 255.,
          255., 248., 196., 144., 92., 60., 60., 255., 255., 255., 255.,
          255., 255., 255., 255., 255., 253., 237., 221., 205., 195.,
          195., 255., 255., 255., 255., 255., 255., 255., 255., 255.,
          255., 255., 255., 255., 255., 255., 255., 255., 255., 255.,
          255., 255., 255., 255., 255., 255., 255., 255., 255., 255.,
          255., 255., 255., 255., 255., 255., 255., 255., 255., 255.,
          255., 255., 255., 255., 255., 255., 255., 255., 255., 255.,
          255., 255., 255., 255., 255., 255., 255., 255., 255., 255.,
          255., 255., 255., 255., 255., 255., 255., 255., 255., 255.,
          255., 255., 255., 255., 255., 255., 255., 255., 255., 255.,
          255., 255., 255., 255., 255., 255., 255., 255., 255., 255.,
          255., 255., 255., 255., 255., 255., 255., 255., 255., 255.,
          255., 255., 255., 255., 255., 255., 255., 255., 255., 255.,
          255., 255., 255., 255., 255., 255., 255., 255., 255., 255.,
          255., 255., 255., 255., 255., 255., 255., 255., 255., 255.,
          255., 255., 255., 255., 255., 255., 255., 255., 255., 255.,
          255., 255., 255., 255., 255., 255., 255., 255., 255., 255.,
          255., 255., 255., 255., 255., 255., 255., 255., 255., 255.,
          255., 255., 255., 255., 255., 255., 213., 213., 220., 231.,
          242., 254., 255., 255., 255., 254., 242., 231., 220., 213.,
          213., 76., 76., 106., 154., 201., 249., 255., 255., 255., 249.,
          201., 154., 106., 76., 76., 0., 0., 42., 110., 178., 246.,
          255., 255., 255., 246., 178., 110., 42., 0., 0. ]
      - [ 255., 255., 255., 255., 255., 255., 255., 255., 255., 255.,
          255., 170., 85., 0., 0., 255., 255., 255., 255., 255., 255.,
          255., 255., 255., 255., 255., 170., 85., 0., 0., 255., 255.,
          255., 255., 255., 255., 255., 255., 255., 255., 255., 170.,
          85., 0., 0., 255., 255., 255., 255., 255., 255., 255., 255.,
          255., 255., 255., 170., 85., 0., 0., 255., 255., 255., 255.,
          255., 255., 255., 255., 255., 255., 255., 170., 85., 0., 0.,
          255., 255., 255., 255., 255., 255., 255., 255., 255., 255.,
          255., 170., 85., 0., 0., 255., 255., 255., 255., 255., 255.,
          255., 255., 255., 255., 255., 170., 85., 0., 0., 255., 255.,
          255., 255., 255., 255., 255., 255., 255., 255., 255., 170.,
          85., 0., 0., 255., 255., 255., 255., 255., 255., 255., 255.,
          255., 255., 255., 170., 85., 0., 0., 255., 255., 255., 255.,
          255., 255., 255., 255., 255., 255., 255., 170., 85., 0., 0.,
          255., 255., 255., 255., 255., 255., 255., 255., 255., 255.,
          255., 170., 85., 0., 0., 255., 255., 255., 255., 255., 255.,
          255., 255., 255., 255., 255., 170., 85., 0., 0., 255., 255.,
          255., 255., 255., 255., 255., 255., 255., 255., 255., 177.,
          99., 21., 21., 255., 255., 255., 255., 255., 255., 255., 255.,
          255., 255., 255., 242., 230., 217., 217., 255., 255., 255.,
          255., 255., 255., 255., 255., 255., 255., 255., 255., 255.,
          255., 255., 255., 255., 255., 255., 255., 255., 255., 255.,
          255., 255., 255., 255., 255., 255., 255., 255., 255., 255.,
          255., 255., 255., 255., 255., 255., 255., 255., 242., 230.,
          217., 217., 255., 255., 255., 255., 255., 255., 255., 255.,
          255., 255., 255., 177., 99., 21., 21., 255., 255., 255., 255.,
          255., 255., 255., 255., 255., 255., 255., 170., 85., 0., 0.,
          255., 255., 255., 255., 255., 255., 255., 255., 255., 255.,
          255., 170., 85., 0., 0., 255., 255., 255., 255., 255., 255.,
          255., 255., 255., 255., 255., 188., 122., 55., 55., 255., 255.,
          255., 255., 255., 255., 255., 255., 255., 255., 255., 254.,
          252., 251., 251., 255., 255., 255., 255., 255., 255., 255.,
          255., 255., 255., 255., 255., 255., 255., 255., 255., 255.,
          255., 255., 255., 255., 255., 255., 255., 255., 255., 255.,
          255., 255., 255., 255., 255., 255., 255., 255., 255., 255.,
          255., 255., 255., 255., 255., 255., 255., 255., 255., 255.,
          255., 255., 255., 255., 255., 255., 255., 255., 255., 255.,
          255., 255., 255., 255., 255., 255., 255., 255., 255., 255.,
          255., 255., 255., 255., 255., 255., 255., 255., 255., 255.,
          255., 255., 255., 255., 255., 255., 255., 255., 255., 255.,
          255., 255., 255., 166., 166., 195., 225., 255., 255., 255.,
          255., 255., 255., 255., 225., 195., 166., 166., 0., 0., 85.,
          170., 255., 255., 255., 255., 255., 255., 255., 170., 85., 0.,
          0. ]
      - [ 0., 0., 85., 170., 255., 255., 255., 255., 255., 255., 255.,
          170., 85., 0., 0., 191., 191., 213., 234., 255., 255., 255.,
          255., 255., 255., 255., 234., 213., 191., 191., 255., 255.,
          255., 255., 255., 255., 255., 255., 255., 255., 255., 255.,
          255., 255., 255., 255., 255., 255., 255., 255., 255., 255.,
          255., 255., 255., 255., 255., 255., 255., 255., 255., 255.,
          255., 255., 255., 255., 255., 255., 255., 255., 255., 255.,
          255., 255., 255., 255., 255., 255., 255., 255., 255., 255.,
          255., 255., 255., 255., 255., 255., 255., 255., 255., 255.,
          255., 255., 255., 255., 255., 255., 255., 255., 255., 255.,
          255., 255., 255., 255., 255., 255., 255., 255., 255., 255.,
          255., 255., 255., 255., 255., 255., 255., 255., 255., 255.,
          255., 255., 255., 255., 255., 255., 255., 255., 255., 255.,
          255., 255., 255., 255., 255., 255., 255., 255., 255., 255.,
          255., 255., 255., 255., 255., 255., 255., 255., 255., 255.,
          255., 255., 255., 255., 255., 255., 255., 255., 255., 255.,
          255., 255., 255., 255., 255., 255., 255., 255., 255., 255.,
          255., 255., 255., 255., 255., 255., 255., 255., 255., 255.,
          255., 255., 255., 255., 255., 255., 255., 255., 255., 255.,
          255., 255., 255., 255., 255., 255., 255., 255., 255., 255.,
          255., 255., 255., 255., 255., 255., 255., 255., 255., 255.,
          255., 255., 255., 255., 255., 255., 255., 255., 255., 255.,
          255., 255., 255., 255., 255., 255., 255., 255., 255., 255.,
          255., 255., 255., 255., 255., 255., 255., 255., 255., 255.,
          255., 255., 255., 255., 255., 255., 255., 255., 255., 255.,
          255., 255., 255., 255., 255., 255., 255., 255., 255., 255.,
          255., 255., 255., 255., 255., 255., 255., 255., 255., 255.,
          255., 255., 255., 255., 255., 255., 255., 255., 255., 255.,
          255., 255., 255., 255., 255., 255., 255., 255., 255., 255.,
          255., 255., 255., 255., 255., 255., 255., 255., 255., 255.,
          255., 255., 255., 255., 255., 255., 255., 255., 255., 255.,
          255., 255., 255., 255., 255., 255., 255., 255., 255., 255.,
          255., 255., 255., 255., 255., 255., 255., 255., 255., 255.,
          255., 255., 255., 255., 255., 255., 255., 255., 255., 255.,
          255., 255., 255., 255., 255., 255., 255., 255., 255., 255.,
          255., 255., 255., 255., 255., 255., 255., 255., 255., 255.,
          255., 255., 255., 255., 255., 255., 255., 255., 255., 255.,
          255., 255., 255., 255., 255., 255., 255., 255., 255., 255.,
          255., 255., 255., 255., 255., 255., 255., 255., 255., 255.,
          255., 255., 255., 255., 255., 255., 255., 255., 255., 255.,
          255., 255., 255., 255., 255., 255., 255., 255., 255., 255.,
          255., 255., 255., 255., 255., 255., 255., 255., 255., 255.,
          255., 255., 255., 255., 255., 255., 255., 255., 255., 234.,
          213., 191., 191., 255., 255., 255., 255., 255., 255., 255.,
          255., 255., 255., 255., 170., 85., 0., 0. ]
      - [ 255., 255., 255., 255., 255., 255., 195., 127., 59., 0., 0.,
          0., 0., 0., 0., 255., 255., 255., 255., 255., 255., 219., 178.,
          137., 102., 102., 102., 102., 102., 102., 255., 255., 255.,
          255., 255., 255., 255., 255., 255., 255., 255., 255., 255.,
          255., 255., 255., 255., 255., 255., 255., 255., 255., 255.,
          255., 255., 255., 255., 255., 255., 255., 255., 255., 255.,
          255., 255., 255., 255., 255., 255., 253., 239., 226., 212.,
          204., 204., 255., 255., 255., 255., 255., 255., 255., 255.,
          255., 248., 194., 139., 85., 51., 51., 255., 255., 255., 255.,
          255., 255., 255., 255., 255., 246., 178., 110., 42., 0., 0.,
          255., 255., 255., 255., 255., 255., 255., 255., 255., 247.,
          179., 110., 42., 0., 0., 255., 255., 255., 255., 255., 255.,
          255., 255., 255., 246., 178., 110., 42., 0., 0., 255., 255.,
          255., 255., 255., 255., 255., 255., 255., 246., 178., 110.,
          42., 0., 0., 255., 255., 255., 255., 255., 255., 255., 255.,
          255., 246., 178., 110., 42., 0., 0., 255., 255., 255., 255.,
          255., 255., 255., 255., 255., 246., 178., 110., 42., 0., 0.,
          255., 255., 255., 255., 255., 255., 255., 255., 255., 247.,
          179., 110., 42., 0., 0., 255., 255., 255., 255., 255., 255.,
          255., 255., 255., 246., 178., 110., 42., 0., 0., 204., 204.,
          212., 226., 239., 253., 255., 255., 255., 248., 194., 139.,
          85., 51., 51., 51., 51., 85., 139., 194., 248., 255., 255.,
          255., 253., 239., 226., 212., 204., 204., 0., 0., 42., 110.,
          178., 246., 255., 255., 255., 255., 255., 255., 255., 255.,
          255., 0., 0., 42., 110., 179., 247., 255., 255., 255., 255.,
          255., 255., 255., 255., 255., 0., 0., 42., 110., 178., 246.,
          255., 255., 255., 255., 255., 255., 255., 255., 255., 0., 0.,
          42., 110., 178., 246., 255., 255., 255., 255., 255., 255.,
          255., 255., 255., 0., 0., 42., 110., 178., 246., 255., 255.,
          255., 255., 255., 255., 255., 255., 255., 0., 0., 42., 110.,
          178., 246., 255., 255., 255., 255., 255., 255., 255., 255.,
          255., 0., 0., 42., 110., 179., 247., 255., 255., 255., 255.,
          255., 255., 255., 255., 255., 0., 0., 42., 110., 178., 246.,
          255., 255., 255., 255., 255., 255., 255., 255., 255., 0., 0.,
          42., 110., 178., 246., 255., 255., 255., 255., 255., 255.,
          255., 255., 255., 0., 0., 42., 110., 178., 246., 255., 255.,
          255., 255., 255., 255., 255., 255., 255., 0., 0., 42., 110.,
          178., 246., 255., 255., 255., 252., 224., 197., 170., 153.,
          153., 0., 0., 42., 110., 179., 247., 255., 255., 255., 247.,
          179., 110., 42., 0., 0., 0., 0., 42., 110., 178., 246., 219.,
          178., 137., 99., 71., 44., 17., 0., 0., 0., 0., 42., 110.,
          178., 246., 195., 127., 59., 0., 0., 0., 0., 0., 0. ]
      - [ 0., 0., 85., 170., 255., 255., 255., 255., 255., 255., 255.,
          255., 255., 255., 255., 0., 0., 85., 170., 255., 255., 255.,
          255., 255., 255., 255., 255., 255., 255., 255., 0., 0., 85.,
          170., 255., 255., 255., 255., 255., 255., 255., 255., 255.,
          255., 255., 106., 106., 156., 205., 255., 255., 255., 255.,
          255., 255., 255., 255., 255., 255., 255., 255., 255., 255.,
          255., 255., 255., 255., 255., 255., 255., 255., 255., 255.,
          255., 255., 234., 234., 241., 248., 255., 255., 255., 255.,
          255., 255., 255., 255., 255., 255., 255., 21., 21., 99., 177.,
          255., 255., 255., 255., 255., 255., 255., 255., 255., 255.,
          255., 0., 0., 85., 170., 255., 255., 255., 255., 255., 255.,
          255., 255., 255., 255., 255., 0., 0., 85., 170., 255., 255.,
          255., 255., 255., 255., 255., 255., 255., 255., 255., 0., 0.,
          85., 170., 255., 255., 255., 255., 255., 255., 255., 255.,
          255., 255., 255., 0., 0., 85., 170., 255., 255., 255., 255.,
          255., 255., 255., 255., 255., 255., 255., 0., 0., 85., 170.,
          255., 255., 255., 255., 255., 255., 255., 255., 255., 255.,
          255., 0., 0., 85., 170., 255., 255., 255., 255., 255., 255.,
          255., 255., 255., 255., 255., 0., 0., 85., 170., 255., 255.,
          255., 255., 255., 255., 255., 255., 255., 255., 255., 0., 0.,
          85., 170., 255., 255., 255., 255., 255., 255., 255., 255.,
          255., 255., 255., 0., 0., 85., 170., 255., 255., 255., 255.,
          255., 255., 255., 255., 255., 255., 255., 0., 0., 85., 170.,
          255., 255., 255., 255., 255., 255., 255., 255., 255., 255.,
          255., 0., 0., 85., 170., 255., 255., 255., 255., 255., 255.,
          255., 255., 255., 255., 255., 0., 0., 85., 170., 255., 255.,
          255., 255., 255., 255., 255., 255., 255., 255., 255., 0., 0.,
          85., 170., 255., 255., 255., 255., 255., 255., 255., 255.,
          255., 255., 255., 0., 0., 85., 170., 255., 255., 255., 255.,
          255., 255., 255., 255., 255., 255., 255., 106., 106., 156.,
          205., 255., 255., 255., 255., 255., 255., 255., 255., 255.,
          255., 255., 255., 255., 255., 255., 255., 255., 255., 255.,
          255., 255., 255., 255., 255., 255., 255., 255., 255., 255.,
          255., 255., 255., 255., 255., 255., 255., 255., 255., 255.,
          255., 255., 255., 255., 255., 255., 255., 255., 255., 255.,
          255., 255., 255., 255., 255., 255., 255., 255., 255., 255.,
          255., 255., 255., 255., 255., 255., 255., 255., 255., 255.,
          255., 255., 255., 255., 255., 255., 255., 255., 255., 255.,
          255., 255., 255., 255., 255., 255., 255., 255., 255., 255.,
          255., 255., 255., 255., 255., 255., 255., 255., 255., 255.,
          255., 255., 255., 255., 255., 255., 255., 255., 255., 255.,
          255., 255., 255., 255., 255., 255., 255., 255., 255., 255.,
          255., 255., 255., 255., 255., 255., 255., 255., 255., 255.,
          255., 255. ]
      - [ 0., 25., 127., 229., 255., 255., 255., 255., 255., 255., 255.,
          229., 128., 26., 0., 229., 232., 242., 252., 255., 255., 255.,
          255., 255., 255., 255., 252., 242., 232., 229., 255., 255.,
          255., 255., 255., 255., 255., 255., 255., 255., 255., 255.,
          255., 255., 255., 255., 255., 255., 255., 255., 255., 255.,
          255., 255., 255., 255., 255., 255., 255., 255., 255., 255.,
          255., 255., 255., 255., 255., 255., 255., 255., 255., 255.,
          255., 255., 255., 255., 255., 255., 255., 255., 255., 255.,
          255., 255., 255., 255., 255., 255., 255., 255., 255., 255.,
          255., 255., 255., 255., 255., 255., 255., 255., 255., 240.,
          183., 125., 110., 255., 255., 255., 255., 255., 255., 255.,
          255., 255., 255., 255., 229., 128., 26., 0., 255., 255., 255.,
          255., 255., 255., 255., 255., 255., 255., 255., 229., 128.,
          26., 0., 255., 255., 255., 255., 255., 255., 255., 255., 255.,
          255., 255., 229., 128., 26., 0., 255., 255., 255., 255., 255.,
          255., 255., 255., 255., 255., 255., 237., 166., 94., 76., 255.,
          255., 255., 255., 255., 255., 255., 255., 255., 255., 255.,
          255., 255., 255., 255., 255., 255., 255., 255., 255., 255.,
          255., 255., 255., 255., 255., 255., 255., 255., 255., 255.,
          255., 255., 255., 255., 255., 255., 255., 255., 255., 255.,
          252., 242., 232., 229., 255., 255., 255., 255., 255., 255.,
          255., 255., 255., 255., 255., 229., 128., 26., 0., 255., 255.,
          255., 255., 255., 255., 255., 255., 255., 255., 255., 229.,
          128., 26., 0., 255., 255., 255., 255., 255., 255., 255., 255.,
          255., 186., 94., 23., 13., 3., 0., 42., 42., 42., 42., 42.,
          42., 42., 42., 42., 30., 13., 0., 0., 0., 0., 0., 0., 0., 0.,
          0., 0., 0., 0., 0., 0., 0., 0., 0., 0., 0., 0., 0., 0., 0., 0.,
          0., 0., 0., 0., 0., 0., 0., 0., 0., 0., 0., 0., 0., 0., 0., 0.,
          0., 0., 0., 0., 0., 0., 0., 0., 0., 0., 0., 0., 0., 0., 0., 0.,
          0., 0., 0., 0., 0., 0., 0., 0., 0., 0., 0., 0., 0., 0., 0., 0.,
          0., 0., 0., 0., 0., 0., 0., 110., 110., 110., 110., 110., 110.,
          110., 110., 110., 77., 33., 0., 0., 0., 0., 255., 255., 255.,
          255., 255., 255., 255., 255., 255., 207., 142., 84., 47., 9.,
          0., 255., 255., 255., 255., 255., 255., 255., 255., 255., 255.,
          255., 237., 166., 94., 76., 255., 255., 255., 255., 255., 255.,
          255., 255., 255., 255., 255., 255., 255., 255., 255., 213.,
          217., 234., 251., 255., 255., 255., 255., 255., 242., 225.,
          213., 213., 213., 213., 0., 25., 127., 229., 255., 255., 255.,
          255., 255., 178., 76., 0., 0., 0., 0., 0., 25., 127., 229.,
          255., 255., 255., 255., 255., 178., 76., 0., 0., 0., 0. ]
      - [ 0., 0., 42., 110., 178., 246., 255., 255., 255., 255., 255.,
          255., 255., 255., 255., 0., 0., 42., 110., 178., 246., 255.,
          255., 255., 255., 255., 255., 255., 255., 255., 0., 0., 42.,
          110., 179., 247., 255., 255., 255., 255., 255., 255., 255.,
          255., 255., 153., 153., 170., 197., 224., 252., 255., 255.,
          255., 255., 255., 255., 255., 255., 255., 255., 255., 255.,
          255., 255., 255., 255., 255., 255., 253., 239., 226., 212.,
          204., 204., 255., 255., 255., 255., 255., 255., 255., 255.,
          255., 248., 194., 139., 85., 51., 51., 255., 255., 255., 255.,
          255., 255., 255., 255., 255., 250., 209., 168., 127., 102.,
          102., 255., 255., 255., 255., 255., 255., 255., 255., 255.,
          255., 255., 255., 255., 255., 255., 255., 255., 255., 255.,
          255., 255., 255., 255., 255., 255., 255., 255., 255., 255.,
          255., 255., 255., 255., 255., 255., 255., 255., 255., 255.,
          255., 255., 255., 255., 255., 255., 255., 255., 255., 255.,
          255., 255., 255., 255., 255., 255., 255., 255., 255., 255.,
          255., 255., 255., 255., 255., 255., 255., 255., 255., 255.,
          255., 255., 255., 255., 255., 255., 255., 255., 255., 255.,
          255., 255., 255., 255., 255., 255., 255., 255., 255., 255.,
          255., 255., 255., 255., 255., 255., 255., 255., 255., 255.,
          250., 209., 168., 127., 102., 102., 255., 255., 255., 255.,
          255., 255., 255., 255., 255., 246., 178., 110., 42., 0., 0.,
          255., 255., 255., 255., 255., 255., 255., 255., 255., 246.,
          178., 110., 42., 0., 0., 255., 255., 255., 255., 255., 255.,
          255., 255., 255., 246., 178., 110., 42., 0., 0., 255., 255.,
          255., 255., 255., 255., 255., 255., 255., 247., 179., 110.,
          42., 0., 0., 255., 255., 255., 255., 255., 255., 255., 255.,
          255., 246., 178., 110., 42., 0., 0., 255., 255., 255., 255.,
          255., 255., 255., 255., 255., 246., 178., 110., 42., 0., 0.,
          255., 255., 255., 255., 255., 255., 255., 255., 255., 246.,
          178., 110., 42., 0., 0., 255., 255., 255., 255., 255., 255.,
          255., 255., 255., 246., 178., 110., 42., 0., 0., 255., 255.,
          255., 255., 255., 255., 255., 255., 255., 247., 179., 110.,
          42., 0., 0., 255., 255., 255., 255., 255., 255., 255., 255.,
          255., 246., 178., 110., 42., 0., 0., 255., 255., 255., 255.,
          255., 255., 255., 255., 255., 246., 178., 110., 42., 0., 0.,
          255., 255., 255., 255., 255., 255., 255., 255., 255., 246.,
          178., 110., 42., 0., 0., 255., 255., 255., 255., 255., 255.,
          255., 255., 255., 246., 178., 110., 42., 0., 0., 255., 255.,
          255., 255., 255., 255., 255., 255., 255., 247., 179., 110.,
          42., 0., 0., 255., 255., 255., 255., 255., 255., 255., 255.,
          255., 246., 178., 110., 42., 0., 0., 255., 255., 255., 255.,
          255., 255., 255., 255., 255., 246., 178., 110., 42., 0., 0. ]
      - [ 255., 255., 255., 255., 255., 255., 255., 255., 255., 255.,
          255., 255., 255., 128., 0., 255., 229., 204., 204., 204., 204.,
          204., 204., 204., 204., 229., 255., 255., 153., 51., 255.,
          170., 85., 85., 85., 85., 85., 85., 85., 85., 170., 255., 255.,
          212., 170., 221., 111., 0., 0., 0., 0., 0., 0., 0., 0., 127.,
          255., 255., 255., 255., 102., 51., 0., 0., 0., 0., 0., 0., 0.,
          0., 127., 255., 255., 255., 255., 0., 0., 0., 0., 0., 0., 0.,
          0., 0., 0., 127., 255., 255., 255., 255., 0., 0., 0., 0., 0.,
          0., 0., 0., 0., 0., 127., 255., 255., 255., 255., 0., 0., 0.,
          0., 0., 0., 0., 0., 0., 0., 128., 255., 255., 255., 255., 0.,
          0., 0., 0., 0., 0., 0., 0., 20., 99., 187., 255., 255., 195.,
          136., 0., 0., 0., 0., 0., 0., 0., 0., 40., 198., 246., 255.,
          255., 136., 17., 0., 0., 0., 0., 0., 17., 85., 102., 127.,
          229., 255., 238., 170., 77., 0., 0., 0., 0., 0., 0., 37., 184.,
          221., 227., 249., 255., 218., 71., 17., 0., 0., 0., 0., 0., 0.,
          42., 212., 255., 255., 255., 255., 212., 42., 0., 0., 0., 0.,
          0., 0., 0., 42., 212., 255., 255., 255., 255., 212., 42., 0.,
          0., 0., 0., 0., 0., 34., 99., 224., 255., 255., 255., 221.,
          156., 31., 0., 0., 0., 0., 0., 0., 94., 198., 244., 255., 255.,
          255., 161., 57., 11., 0., 0., 0., 0., 8., 43., 153., 255.,
          255., 255., 246., 212., 102., 0., 0., 0., 0., 0., 0., 28.,
          142., 212., 255., 255., 255., 227., 113., 43., 0., 0., 0., 0.,
          34., 34., 71., 218., 255., 249., 227., 221., 184., 37., 0., 0.,
          0., 0., 0., 153., 153., 170., 238., 255., 229., 127., 102.,
          85., 17., 0., 0., 0., 0., 0., 255., 255., 255., 255., 255.,
          212., 42., 0., 0., 0., 0., 0., 0., 0., 0., 255., 255., 255.,
          255., 255., 212., 42., 0., 0., 0., 0., 0., 0., 0., 0., 255.,
          255., 255., 255., 255., 213., 42., 0., 0., 0., 0., 0., 0., 0.,
          0., 255., 255., 255., 255., 255., 212., 42., 0., 0., 0., 0.,
          0., 0., 0., 0., 255., 255., 255., 255., 255., 212., 42., 0.,
          0., 0., 0., 0., 0., 0., 0., 255., 255., 255., 255., 255., 229.,
          127., 102., 102., 102., 102., 85., 17., 0., 0., 255., 255.,
          255., 255., 255., 249., 227., 221., 221., 221., 221., 184.,
          37., 0., 0., 255., 255., 255., 255., 255., 255., 255., 255.,
          255., 255., 255., 227., 113., 43., 0., 255., 255., 255., 255.,
          255., 255., 255., 255., 255., 255., 255., 246., 212., 102., 0.,
          255., 255., 255., 255., 255., 255., 255., 255., 255., 255.,
          255., 255., 255., 128., 0. ]
      - [ 0., 0., 0., 153., 255., 255., 255., 255., 255., 255., 255.,
          153., 0., 0., 0., 0., 36., 89., 189., 255., 255., 255., 255.,
          255., 255., 255., 153., 0., 0., 0., 0., 93., 234., 246., 255.,
          255., 255., 255., 255., 255., 255., 153., 0., 0., 0., 123.,
          176., 255., 255., 255., 255., 255., 255., 255., 255., 255.,
          202., 123., 49., 0., 255., 255., 255., 255., 252., 245., 242.,
          242., 250., 255., 255., 255., 255., 102., 0., 255., 255., 255.,
          255., 223., 129., 98., 98., 192., 255., 255., 255., 255., 102.,
          0., 255., 255., 255., 255., 204., 51., 0., 0., 153., 255.,
          255., 255., 255., 102., 0., 255., 255., 255., 255., 204., 51.,
          0., 0., 153., 255., 255., 255., 255., 102., 0., 174., 174.,
          174., 174., 139., 35., 0., 0., 153., 255., 255., 255., 255.,
          102., 0., 30., 30., 30., 30., 24., 6., 0., 0., 153., 255.,
          255., 255., 255., 102., 0., 0., 0., 0., 0., 0., 0., 46., 115.,
          199., 255., 255., 209., 140., 56., 0., 0., 0., 0., 0., 0., 0.,
          102., 255., 255., 255., 255., 153., 0., 0., 0., 0., 0., 0., 0.,
          0., 0., 102., 255., 255., 255., 255., 153., 0., 0., 0., 0., 0.,
          0., 0., 8., 31., 125., 255., 255., 255., 255., 153., 0., 0.,
          0., 0., 0., 0., 0., 37., 146., 212., 255., 255., 255., 255.,
          153., 0., 0., 0., 0., 0., 0., 43., 109., 218., 255., 255.,
          255., 241., 197., 110., 0., 0., 0., 0., 0., 0., 130., 224.,
          247., 255., 255., 255., 211., 81., 23., 0., 0., 0., 0., 0., 0.,
          153., 255., 255., 255., 255., 255., 204., 51., 0., 0., 0., 0.,
          0., 0., 0., 153., 255., 255., 255., 255., 255., 204., 51., 0.,
          0., 0., 0., 0., 0., 0., 153., 255., 255., 255., 255., 171.,
          92., 23., 0., 0., 0., 0., 0., 12., 30., 165., 255., 255., 255.,
          255., 102., 0., 0., 0., 0., 0., 0., 0., 70., 174., 222., 255.,
          255., 255., 255., 102., 0., 0., 0., 0., 0., 0., 0., 102., 255.,
          255., 255., 255., 255., 255., 102., 0., 0., 0., 0., 0., 0., 0.,
          102., 255., 255., 255., 255., 255., 255., 102., 0., 0., 0., 0.,
          0., 0., 0., 102., 255., 255., 255., 255., 255., 255., 160.,
          98., 98., 98., 98., 39., 0., 0., 102., 255., 255., 255., 255.,
          255., 255., 247., 242., 242., 242., 242., 97., 0., 0., 102.,
          255., 255., 255., 255., 255., 255., 255., 255., 255., 255.,
          255., 181., 132., 0., 102., 255., 255., 255., 255., 255., 255.,
          255., 255., 255., 255., 255., 255., 255., 0., 102., 255., 255.,
          255., 255., 255., 255., 255., 255., 255., 255., 255., 255.,
          255., 0., 102., 255., 255., 255., 255., 255., 255., 255., 255.,
          255., 255., 255., 255., 255. ]
      - [ 0., 153., 255., 255., 255., 255., 255., 255., 255., 255., 255.,
          255., 255., 255., 255., 0., 153., 255., 255., 255., 255., 255.,
          255., 199., 214., 255., 255., 255., 255., 255., 0., 153., 255.,
          255., 255., 255., 255., 255., 99., 141., 255., 255., 255.,
          255., 255., 0., 97., 192., 249., 180., 161., 161., 161., 43.,
          75., 180., 249., 255., 255., 255., 0., 15., 102., 240., 71.,
          26., 26., 26., 7., 12., 71., 240., 255., 255., 255., 0., 0.,
          48., 135., 29., 0., 0., 0., 0., 0., 29., 135., 218., 255.,
          255., 0., 0., 3., 8., 2., 0., 0., 0., 0., 0., 2., 8., 173.,
          255., 255., 0., 0., 0., 0., 0., 0., 0., 0., 0., 0., 26., 119.,
          212., 255., 255., 0., 0., 0., 0., 0., 0., 0., 0., 0., 4., 58.,
          238., 255., 255., 255., 0., 0., 0., 0., 0., 0., 0., 0., 0.,
          67., 167., 248., 255., 255., 255., 0., 0., 0., 0., 0., 0., 0.,
          0., 19., 133., 255., 255., 255., 245., 229., 0., 0., 0., 0.,
          0., 0., 0., 0., 118., 205., 255., 255., 255., 190., 94., 0.,
          0., 0., 0., 0., 0., 0., 0., 187., 255., 255., 255., 227., 128.,
          0., 0., 0., 0., 0., 0., 0., 0., 0., 187., 255., 255., 255.,
          136., 46., 0., 0., 0., 0., 0., 0., 0., 16., 60., 203., 255.,
          243., 199., 65., 0., 0., 0., 0., 0., 0., 0., 0., 52., 195.,
          239., 255., 216., 73., 20., 0., 0., 0., 0., 0., 0., 0., 41.,
          124., 255., 255., 219., 143., 12., 0., 0., 0., 0., 0., 0., 0.,
          0., 113., 224., 255., 255., 156., 34., 3., 0., 0., 0., 0., 0.,
          0., 6., 75., 180., 255., 255., 186., 86., 0., 0., 0., 0., 0.,
          0., 0., 0., 15., 184., 243., 255., 255., 87., 14., 0., 0., 0.,
          0., 0., 0., 0., 37., 120., 226., 255., 225., 145., 39., 0., 0.,
          0., 0., 0., 0., 0., 0., 82., 247., 253., 255., 189., 8., 2.,
          0., 0., 0., 0., 0., 0., 0., 77., 170., 255., 255., 255., 187.,
          0., 0., 0., 0., 0., 0., 0., 0., 8., 156., 255., 255., 255.,
          255., 189., 8., 8., 8., 8., 8., 8., 5., 0., 145., 211., 255.,
          255., 255., 255., 225., 145., 145., 145., 145., 145., 145.,
          87., 0., 255., 255., 255., 255., 255., 255., 255., 255., 255.,
          255., 255., 255., 255., 163., 26., 255., 255., 255., 255.,
          255., 255., 255., 255., 255., 255., 255., 255., 255., 218.,
          161., 255., 255., 255., 255., 255., 255., 255., 255., 255.,
          255., 255., 255., 255., 255., 255., 255., 255., 255., 255.,
          255., 255., 255., 255., 255., 255., 255., 255., 255., 255.,
          255., 255., 255., 255., 255., 255., 255., 255., 255., 255.,
          255., 255., 255., 255., 255., 255. ]
      - [ 0., 0., 255., 255., 255., 255., 255., 255., 255., 255., 255.,
          255., 255., 0., 0., 179., 179., 255., 255., 255., 255., 255.,
          255., 255., 255., 255., 255., 255., 179., 0., 255., 255., 255.,
          255., 255., 255., 255., 255., 255., 255., 255., 255., 255.,
          255., 128., 255., 255., 255., 255., 255., 255., 255., 255.,
          255., 255., 255., 255., 255., 255., 255., 255., 229., 229.,
          255., 229., 229., 229., 229., 229., 229., 255., 255., 255.,
          255., 229., 255., 26., 26., 255., 26., 26., 26., 26., 26., 26.,
          255., 255., 255., 255., 26., 255., 0., 0., 76., 0., 0., 0., 0.,
          0., 0., 255., 255., 255., 255., 0., 128., 0., 0., 0., 0., 0.,
          0., 0., 0., 0., 255., 255., 255., 255., 128., 0., 0., 0., 0.,
          0., 0., 0., 0., 0., 0., 255., 255., 255., 255., 255., 0., 0.,
          0., 0., 0., 0., 0., 0., 0., 26., 255., 255., 255., 255., 229.,
          0., 0., 0., 0., 0., 0., 0., 0., 0., 229., 255., 255., 255.,
          255., 26., 0., 0., 0., 0., 0., 0., 0., 0., 0., 255., 255.,
          255., 255., 255., 0., 0., 0., 0., 0., 0., 0., 0., 0., 128.,
          255., 255., 255., 255., 128., 0., 0., 0., 0., 0., 0., 0., 0.,
          76., 255., 255., 255., 255., 179., 0., 0., 0., 0., 0., 0., 0.,
          0., 0., 255., 255., 255., 255., 255., 0., 0., 0., 0., 0., 0.,
          0., 0., 0., 0., 255., 255., 255., 255., 255., 0., 0., 0., 0.,
          0., 0., 0., 0., 179., 179., 255., 255., 255., 255., 76., 0.,
          0., 0., 0., 0., 0., 0., 0., 255., 255., 255., 255., 255., 128.,
          0., 0., 0., 0., 0., 0., 0., 0., 76., 255., 255., 255., 255.,
          179., 0., 0., 0., 0., 0., 0., 0., 0., 26., 255., 255., 255.,
          255., 255., 0., 0., 0., 0., 0., 0., 0., 0., 0., 229., 255.,
          255., 255., 255., 255., 0., 0., 0., 0., 0., 0., 0., 0., 179.,
          255., 255., 255., 255., 255., 255., 0., 0., 0., 0., 0., 0., 0.,
          128., 255., 255., 255., 255., 255., 255., 255., 0., 0., 0., 0.,
          0., 0., 0., 179., 255., 255., 255., 255., 255., 255., 255.,
          76., 76., 76., 76., 76., 76., 0., 26., 255., 255., 255., 255.,
          255., 255., 255., 255., 255., 255., 255., 255., 255., 0., 229.,
          255., 255., 255., 255., 255., 255., 255., 255., 255., 255.,
          255., 255., 255., 179., 255., 255., 255., 255., 255., 255.,
          255., 255., 255., 255., 255., 255., 255., 255., 128., 255.,
          255., 255., 255., 255., 255., 255., 255., 255., 255., 255.,
          255., 255., 255., 76., 179., 255., 255., 255., 255., 255.,
          255., 255., 255., 255., 255., 179., 255., 179., 255., 0., 255.,
          255., 255., 255., 255., 255., 255., 255., 255., 255., 0., 255.,
          0. ]
      - [ 0., 229., 255., 255., 255., 255., 255., 255., 255., 255., 255.,
          255., 213., 0., 0., 166., 246., 255., 255., 255., 255., 255.,
          255., 255., 255., 255., 255., 240., 149., 0., 255., 255., 255.,
          255., 255., 188., 149., 149., 195., 255., 255., 255., 255.,
          229., 0., 255., 255., 255., 255., 222., 76., 0., 0., 90., 225.,
          255., 255., 255., 229., 0., 255., 255., 255., 255., 85., 5.,
          0., 0., 6., 101., 255., 255., 255., 229., 0., 72., 72., 224.,
          255., 76., 0., 0., 0., 0., 93., 255., 255., 255., 248., 183.,
          0., 0., 110., 132., 39., 0., 0., 0., 0., 48., 168., 255., 255.,
          255., 255., 0., 0., 0., 0., 0., 0., 0., 0., 0., 23., 121.,
          255., 255., 255., 255., 0., 0., 0., 0., 0., 0., 0., 0., 0.,
          93., 255., 255., 255., 255., 255., 0., 0., 0., 0., 0., 0., 0.,
          0., 0., 93., 255., 255., 255., 255., 255., 0., 0., 0., 0., 0.,
          0., 0., 0., 61., 182., 255., 255., 255., 241., 115., 0., 0.,
          0., 0., 0., 0., 0., 40., 156., 255., 255., 255., 242., 157.,
          0., 0., 0., 0., 0., 0., 0., 12., 138., 255., 255., 255., 255.,
          213., 0., 0., 0., 0., 0., 0., 0., 0., 123., 236., 255., 255.,
          255., 255., 213., 0., 0., 0., 0., 0., 0., 0., 100., 213., 255.,
          255., 255., 255., 218., 81., 0., 0., 0., 0., 0., 0., 68., 197.,
          255., 255., 255., 255., 226., 121., 0., 0., 0., 0., 0., 0.,
          29., 190., 255., 255., 255., 255., 241., 152., 0., 0., 0., 0.,
          0., 0., 0., 179., 248., 255., 255., 255., 255., 169., 15., 0.,
          0., 0., 0., 0., 0., 145., 236., 255., 255., 255., 255., 179.,
          51., 0., 0., 0., 0., 0., 0., 0., 212., 255., 255., 255., 255.,
          197., 79., 0., 0., 0., 0., 0., 0., 0., 50., 222., 255., 255.,
          255., 255., 127., 0., 0., 0., 0., 0., 0., 0., 0., 226., 254.,
          255., 255., 255., 255., 127., 0., 0., 0., 0., 0., 0., 0., 0.,
          229., 255., 255., 255., 255., 255., 223., 191., 121., 0., 45.,
          159., 0., 0., 0., 229., 255., 255., 255., 255., 255., 255.,
          255., 210., 132., 160., 234., 132., 132., 0., 229., 255., 255.,
          255., 255., 255., 255., 255., 255., 255., 255., 255., 255.,
          255., 0., 229., 255., 255., 255., 255., 255., 255., 255., 255.,
          255., 255., 255., 255., 255., 0., 229., 255., 255., 255., 255.,
          255., 255., 255., 255., 255., 255., 255., 255., 255., 0., 229.,
          255., 255., 255., 255., 255., 255., 255., 255., 255., 255.,
          255., 240., 106., 0., 229., 255., 255., 255., 255., 255., 255.,
          255., 255., 255., 234., 166., 149., 0., 0., 229., 255., 255.,
          255., 255., 255., 255., 255., 255., 255., 195., 0., 0., 0. ]
      - [ 0., 204., 255., 255., 255., 255., 255., 255., 255., 255., 255.,
          255., 255., 204., 0., 179., 240., 255., 255., 255., 255., 255.,
          255., 255., 255., 255., 255., 255., 204., 0., 255., 255., 255.,
          255., 255., 255., 255., 255., 255., 255., 255., 255., 255.,
          229., 128., 255., 255., 255., 255., 224., 179., 179., 179.,
          179., 235., 255., 255., 255., 255., 255., 255., 255., 255.,
          241., 138., 0., 0., 0., 0., 168., 245., 255., 255., 255., 255.,
          255., 255., 255., 133., 15., 0., 0., 0., 0., 19., 163., 255.,
          255., 255., 255., 76., 76., 76., 36., 0., 0., 0., 0., 0., 0.,
          46., 160., 255., 255., 255., 0., 0., 0., 0., 0., 0., 0., 0.,
          0., 0., 0., 119., 255., 255., 255., 0., 0., 0., 0., 0., 0., 0.,
          0., 0., 0., 0., 119., 255., 255., 255., 0., 0., 0., 0., 0., 0.,
          0., 0., 0., 0., 15., 133., 255., 255., 255., 0., 0., 0., 0.,
          0., 0., 0., 0., 0., 0., 138., 241., 255., 255., 255., 0., 0.,
          0., 0., 0., 0., 0., 0., 0., 131., 224., 255., 255., 255., 255.,
          0., 0., 0., 0., 0., 0., 0., 0., 111., 221., 255., 255., 255.,
          229., 128., 0., 0., 0., 0., 0., 0., 10., 76., 231., 255., 255.,
          255., 255., 204., 0., 0., 0., 0., 0., 0., 7., 56., 255., 255.,
          255., 255., 243., 229., 184., 0., 0., 0., 0., 0., 0., 61.,
          233., 255., 255., 255., 255., 148., 26., 20., 0., 0., 0., 0.,
          0., 71., 199., 255., 255., 255., 255., 255., 136., 0., 0., 0.,
          0., 0., 0., 68., 178., 255., 255., 255., 255., 255., 178., 68.,
          0., 0., 0., 0., 0., 51., 171., 255., 255., 255., 255., 255.,
          199., 71., 0., 0., 0., 0., 0., 20., 178., 255., 255., 255.,
          251., 229., 229., 61., 0., 0., 0., 0., 0., 0., 184., 246.,
          255., 255., 255., 224., 26., 26., 7., 0., 0., 0., 0., 0., 179.,
          240., 255., 255., 255., 255., 221., 0., 0., 0., 0., 0., 0., 0.,
          0., 255., 255., 255., 255., 255., 221., 111., 0., 0., 0., 0.,
          0., 0., 0., 0., 255., 255., 255., 255., 255., 207., 66., 0.,
          66., 20., 46., 76., 76., 76., 76., 229., 250., 255., 255.,
          255., 255., 224., 26., 224., 87., 163., 255., 255., 255., 255.,
          26., 209., 255., 255., 255., 255., 251., 229., 251., 236.,
          245., 255., 255., 255., 255., 0., 204., 255., 255., 255., 255.,
          255., 255., 255., 255., 255., 255., 255., 255., 255., 0., 204.,
          255., 255., 255., 255., 255., 255., 255., 255., 255., 255.,
          255., 229., 128., 0., 143., 229., 255., 255., 235., 189., 255.,
          255., 255., 255., 219., 204., 204., 0., 0., 0., 170., 255.,
          255., 187., 34., 255., 255., 255., 255., 136., 85., 204., 0. ]
      - [ 0., 153., 255., 255., 255., 119., 0., 0., 187., 255., 255.,
          255., 255., 255., 255., 0., 153., 255., 251., 204., 89., 0.,
          0., 140., 191., 204., 251., 255., 255., 255., 0., 153., 255.,
          242., 102., 30., 0., 0., 47., 64., 102., 242., 255., 255.,
          255., 0., 115., 191., 178., 38., 0., 0., 0., 0., 0., 51., 238.,
          255., 255., 255., 0., 38., 64., 59., 13., 0., 0., 0., 0., 0.,
          51., 238., 255., 255., 255., 0., 0., 0., 0., 0., 0., 0., 0.,
          0., 0., 51., 238., 255., 255., 255., 0., 0., 0., 0., 0., 0.,
          0., 0., 0., 0., 51., 238., 255., 255., 255., 0., 0., 0., 0.,
          0., 0., 0., 0., 0., 30., 102., 242., 255., 255., 255., 0., 0.,
          0., 0., 0., 0., 0., 0., 0., 89., 204., 251., 255., 255., 255.,
          0., 0., 0., 0., 0., 0., 0., 0., 47., 153., 255., 255., 255.,
          230., 191., 0., 0., 0., 0., 0., 0., 0., 0., 140., 221., 255.,
          255., 255., 179., 64., 0., 0., 0., 0., 0., 0., 17., 64., 204.,
          255., 255., 255., 213., 115., 0., 0., 0., 0., 0., 0., 0., 51.,
          191., 238., 255., 255., 255., 128., 38., 0., 0., 0., 0., 0.,
          0., 34., 115., 255., 255., 255., 242., 196., 64., 0., 0., 0.,
          0., 0., 0., 0., 102., 208., 255., 255., 255., 217., 77., 21.,
          0., 0., 0., 0., 0., 4., 51., 166., 255., 255., 255., 225.,
          153., 13., 0., 0., 0., 0., 0., 0., 13., 153., 225., 255., 255.,
          255., 166., 51., 4., 0., 0., 0., 0., 0., 21., 77., 217., 255.,
          255., 255., 208., 102., 0., 0., 0., 0., 0., 0., 0., 64., 196.,
          242., 255., 255., 255., 115., 34., 0., 0., 0., 0., 0., 0., 0.,
          85., 255., 255., 255., 238., 191., 51., 0., 0., 0., 0., 0., 0.,
          0., 0., 85., 255., 255., 255., 204., 64., 17., 0., 0., 0., 0.,
          0., 0., 0., 38., 128., 255., 255., 255., 187., 0., 0., 0., 0.,
          0., 0., 0., 0., 0., 115., 213., 255., 255., 255., 187., 0., 0.,
          0., 0., 0., 0., 0., 0., 64., 179., 255., 255., 255., 255.,
          187., 0., 47., 64., 64., 64., 64., 38., 0., 191., 230., 255.,
          255., 255., 255., 187., 0., 140., 191., 191., 191., 191., 115.,
          0., 255., 255., 255., 255., 255., 255., 204., 64., 204., 255.,
          255., 255., 255., 153., 0., 255., 255., 255., 255., 255., 255.,
          238., 191., 238., 255., 255., 255., 255., 153., 0., 255., 255.,
          255., 255., 255., 255., 255., 255., 255., 255., 255., 255.,
          255., 153., 0., 255., 255., 255., 255., 255., 255., 255., 255.,
          255., 255., 255., 255., 255., 153., 0., 255., 255., 255., 255.,
          255., 255., 255., 255., 255., 255., 255., 255., 255., 153., 0. ]
      - [ 0., 0., 0., 0., 0., 0., 0., 0., 0., 51., 204., 255., 255.,
          255., 255., 0., 0., 0., 0., 0., 0., 0., 0., 0., 41., 163.,
          224., 255., 255., 255., 0., 0., 0., 0., 0., 0., 0., 0., 0.,
          17., 68., 153., 255., 255., 255., 0., 0., 0., 0., 0., 0., 0.,
          0., 0., 0., 0., 102., 255., 255., 255., 0., 0., 0., 0., 0., 0.,
          0., 0., 0., 0., 0., 102., 255., 255., 255., 0., 0., 0., 0., 0.,
          0., 0., 0., 0., 3., 14., 112., 255., 255., 255., 0., 0., 0.,
          0., 0., 0., 0., 0., 0., 27., 109., 183., 255., 255., 255., 0.,
          0., 0., 0., 0., 0., 0., 0., 0., 51., 204., 255., 255., 255.,
          255., 0., 0., 0., 0., 0., 0., 0., 0., 0., 51., 204., 255.,
          255., 255., 255., 0., 0., 0., 0., 0., 0., 0., 0., 0., 51.,
          204., 255., 255., 255., 255., 0., 0., 0., 0., 0., 0., 0., 0.,
          61., 132., 224., 255., 255., 194., 153., 0., 0., 0., 0., 0.,
          0., 0., 0., 133., 228., 248., 255., 255., 122., 34., 0., 0.,
          0., 0., 0., 0., 34., 85., 187., 255., 255., 221., 170., 68.,
          0., 0., 0., 0., 0., 0., 0., 82., 204., 234., 255., 255., 173.,
          51., 20., 0., 0., 0., 0., 41., 68., 68., 143., 255., 255.,
          241., 201., 112., 0., 0., 0., 0., 0., 0., 112., 187., 187.,
          214., 255., 255., 217., 105., 41., 0., 0., 0., 0., 0., 0.,
          153., 255., 255., 234., 204., 204., 163., 41., 0., 0., 0., 0.,
          0., 0., 0., 153., 255., 255., 187., 85., 85., 68., 17., 0., 0.,
          0., 0., 34., 34., 34., 166., 255., 255., 153., 0., 0., 0., 0.,
          0., 0., 0., 0., 153., 153., 153., 214., 255., 255., 153., 0.,
          0., 0., 0., 0., 0., 0., 0., 255., 255., 255., 255., 255., 255.,
          160., 17., 7., 0., 0., 0., 0., 0., 0., 255., 255., 255., 255.,
          255., 255., 207., 136., 54., 0., 0., 0., 0., 0., 0., 255.,
          255., 255., 255., 255., 255., 255., 255., 102., 0., 0., 0., 0.,
          0., 0., 255., 255., 255., 255., 255., 255., 255., 255., 173.,
          119., 119., 119., 119., 119., 119., 255., 255., 255., 255.,
          255., 255., 255., 255., 245., 238., 238., 238., 238., 238.,
          238., 255., 255., 255., 255., 255., 255., 255., 255., 255.,
          255., 255., 255., 255., 194., 153., 255., 255., 255., 255.,
          255., 255., 255., 255., 255., 255., 255., 255., 255., 122.,
          34., 255., 255., 255., 255., 255., 255., 255., 255., 255.,
          255., 255., 221., 170., 68., 0., 255., 255., 255., 255., 255.,
          255., 255., 255., 255., 255., 255., 173., 51., 20., 0., 255.,
          255., 255., 255., 255., 255., 255., 255., 255., 255., 255.,
          153., 0., 0., 0. ]
      - [ 0., 153., 255., 255., 255., 255., 255., 255., 255., 255., 255.,
          255., 255., 153., 0., 0., 153., 238., 204., 204., 204., 204.,
          204., 204., 204., 214., 251., 255., 173., 51., 0., 153., 198.,
          85., 85., 85., 85., 85., 85., 85., 119., 244., 255., 221.,
          170., 0., 133., 147., 0., 0., 0., 0., 0., 0., 0., 51., 238.,
          255., 255., 255., 0., 61., 68., 0., 0., 0., 0., 0., 0., 0.,
          51., 238., 255., 255., 255., 0., 0., 0., 0., 0., 0., 0., 0.,
          0., 0., 51., 238., 255., 255., 255., 0., 0., 0., 0., 0., 0.,
          0., 0., 0., 0., 51., 238., 255., 255., 255., 0., 0., 0., 0.,
          0., 0., 0., 0., 0., 0., 51., 238., 255., 255., 255., 0., 0.,
          0., 0., 0., 0., 0., 0., 0., 56., 146., 246., 255., 207., 136.,
          0., 0., 0., 0., 0., 0., 0., 0., 0., 111., 241., 254., 255.,
          160., 17., 0., 0., 0., 0., 0., 0., 27., 102., 102., 173., 255.,
          255., 187., 92., 0., 0., 0., 0., 0., 0., 0., 59., 221., 221.,
          237., 255., 255., 108., 20., 0., 0., 0., 0., 0., 0., 0., 68.,
          255., 255., 255., 255., 255., 85., 0., 0., 0., 0., 0., 0., 0.,
          0., 68., 255., 255., 255., 255., 255., 85., 0., 0., 0., 0., 0.,
          0., 0., 36., 118., 255., 255., 255., 241., 192., 62., 0., 0.,
          0., 0., 0., 0., 0., 100., 205., 255., 255., 255., 217., 80.,
          23., 0., 0., 0., 0., 0., 3., 41., 160., 255., 255., 255., 231.,
          163., 14., 0., 0., 0., 0., 0., 0., 11., 136., 215., 255., 255.,
          255., 176., 68., 6., 0., 0., 0., 0., 20., 34., 49., 211., 255.,
          246., 221., 221., 118., 0., 0., 0., 0., 0., 0., 92., 153.,
          160., 235., 255., 214., 102., 102., 54., 0., 0., 0., 0., 0.,
          0., 153., 255., 255., 255., 255., 187., 0., 0., 0., 0., 0., 0.,
          0., 0., 0., 153., 255., 255., 255., 255., 187., 0., 0., 0., 0.,
          0., 0., 0., 0., 0., 153., 255., 255., 255., 255., 187., 0., 0.,
          0., 0., 0., 0., 0., 0., 119., 201., 255., 255., 255., 255.,
          187., 0., 0., 0., 0., 0., 0., 0., 0., 238., 248., 255., 255.,
          255., 255., 187., 0., 0., 0., 0., 0., 0., 0., 0., 255., 255.,
          255., 255., 255., 255., 214., 102., 102., 102., 102., 102.,
          34., 0., 0., 255., 255., 255., 255., 255., 255., 246., 221.,
          221., 221., 221., 221., 74., 0., 0., 255., 255., 255., 255.,
          255., 255., 255., 255., 255., 255., 255., 255., 142., 51., 0.,
          255., 255., 255., 255., 255., 255., 255., 255., 255., 255.,
          255., 255., 221., 122., 0., 255., 255., 255., 255., 255., 255.,
          255., 255., 255., 255., 255., 255., 255., 153., 0. ]
      - [ 0., 0., 0., 17., 204., 255., 255., 255., 255., 255., 204., 17.,
          0., 0., 0., 115., 115., 115., 124., 227., 255., 255., 255.,
          255., 255., 227., 124., 115., 69., 0., 255., 255., 255., 255.,
          255., 255., 255., 255., 255., 255., 255., 255., 255., 153., 0.,
          255., 255., 255., 255., 255., 255., 255., 255., 255., 255.,
          255., 255., 255., 153., 0., 255., 255., 255., 255., 255., 255.,
          255., 255., 255., 255., 255., 255., 255., 189., 89., 255.,
          255., 255., 255., 255., 255., 255., 255., 255., 255., 255.,
          255., 255., 253., 251., 255., 255., 202., 98., 98., 98., 98.,
          98., 98., 171., 255., 255., 255., 255., 255., 191., 191., 127.,
          0., 0., 0., 0., 0., 0., 119., 255., 255., 255., 255., 255.,
          30., 30., 20., 0., 0., 0., 0., 0., 0., 119., 255., 255., 255.,
          255., 255., 0., 0., 0., 0., 0., 0., 0., 0., 0., 58., 150.,
          246., 255., 255., 255., 0., 0., 0., 0., 0., 0., 0., 0., 0.,
          18., 81., 240., 255., 255., 255., 0., 0., 0., 0., 0., 0., 0.,
          0., 0., 93., 211., 251., 255., 255., 255., 0., 0., 0., 0., 0.,
          0., 0., 0., 78., 175., 255., 255., 255., 255., 255., 0., 0.,
          0., 0., 0., 0., 3., 13., 190., 255., 255., 255., 255., 250.,
          242., 0., 0., 0., 0., 0., 0., 46., 174., 233., 255., 255.,
          255., 255., 185., 81., 0., 0., 0., 0., 0., 43., 127., 255.,
          255., 255., 255., 255., 201., 105., 0., 0., 0., 0., 0., 0.,
          129., 246., 255., 255., 255., 255., 255., 94., 8., 0., 0., 0.,
          50., 149., 149., 205., 255., 255., 255., 255., 225., 116., 35.,
          0., 0., 0., 33., 122., 255., 255., 255., 240., 200., 200.,
          200., 160., 13., 0., 0., 0., 0., 130., 229., 255., 255., 255.,
          197., 38., 38., 38., 31., 3., 0., 0., 0., 123., 202., 255.,
          255., 255., 189., 97., 0., 0., 0., 0., 0., 0., 0., 0., 255.,
          255., 255., 255., 255., 119., 0., 0., 0., 0., 0., 0., 0., 0.,
          0., 255., 255., 255., 255., 255., 119., 0., 0., 0., 0., 0., 0.,
          0., 0., 0., 255., 255., 255., 255., 255., 171., 98., 98., 26.,
          46., 98., 98., 98., 59., 0., 255., 255., 255., 255., 255.,
          255., 255., 255., 71., 121., 255., 255., 255., 155., 4., 255.,
          255., 255., 255., 255., 255., 255., 255., 189., 207., 255.,
          255., 255., 219., 166., 255., 255., 255., 255., 255., 255.,
          255., 255., 255., 255., 255., 255., 255., 255., 255., 255.,
          255., 255., 255., 255., 255., 255., 255., 255., 255., 255.,
          255., 255., 255., 255., 255., 255., 208., 115., 115., 115.,
          115., 115., 115., 115., 143., 246., 255., 199., 115., 255.,
          255., 170., 0., 0., 0., 0., 0., 0., 0., 51., 238., 255., 153.,
          0. ]
      - [ 0., 127., 255., 255., 255., 255., 255., 255., 255., 212., 0.,
          0., 0., 0., 0., 38., 242., 255., 255., 255., 255., 255., 255.,
          255., 251., 229., 38., 0., 0., 0., 220., 255., 255., 255.,
          255., 255., 255., 255., 255., 255., 255., 220., 213., 106., 0.,
          255., 255., 255., 255., 255., 255., 255., 255., 255., 255.,
          255., 255., 255., 128., 0., 255., 255., 255., 255., 255., 255.,
          255., 255., 255., 255., 255., 255., 255., 128., 0., 255., 255.,
          255., 94., 94., 94., 94., 94., 228., 255., 255., 255., 255.,
          128., 0., 255., 255., 134., 0., 0., 0., 0., 0., 92., 255.,
          255., 255., 255., 128., 0., 128., 128., 21., 0., 0., 0., 0.,
          0., 0., 255., 255., 255., 234., 64., 0., 0., 0., 0., 0., 0.,
          0., 0., 0., 0., 255., 255., 255., 231., 55., 0., 0., 0., 0.,
          0., 0., 0., 0., 0., 0., 255., 255., 255., 255., 128., 0., 0.,
          0., 0., 0., 0., 0., 0., 0., 0., 255., 255., 255., 255., 128.,
          0., 0., 0., 0., 0., 0., 0., 0., 0., 50., 255., 255., 255.,
          255., 128., 0., 0., 0., 0., 0., 0., 0., 0., 0., 212., 255.,
          255., 255., 255., 128., 0., 0., 0., 0., 0., 0., 0., 0., 0.,
          213., 255., 255., 255., 251., 115., 0., 0., 0., 0., 0., 0., 0.,
          0., 4., 214., 255., 255., 255., 205., 0., 0., 0., 0., 0., 0.,
          0., 0., 0., 123., 254., 255., 255., 255., 7., 0., 0., 0., 0.,
          0., 0., 0., 0., 229., 242., 255., 255., 255., 64., 0., 0., 0.,
          0., 0., 0., 0., 0., 0., 255., 255., 255., 255., 255., 42., 0.,
          0., 0., 0., 0., 0., 0., 0., 163., 255., 255., 255., 255., 157.,
          10., 0., 0., 0., 0., 0., 0., 30., 179., 242., 255., 255., 255.,
          225., 38., 0., 0., 0., 0., 0., 0., 0., 177., 255., 255., 255.,
          255., 255., 78., 0., 0., 0., 0., 0., 0., 0., 0., 255., 255.,
          255., 255., 255., 255., 0., 0., 0., 0., 0., 0., 0., 0., 0.,
          255., 255., 255., 255., 255., 255., 0., 0., 0., 0., 0., 0., 0.,
          0., 0., 255., 255., 255., 255., 255., 255., 0., 0., 0., 0., 0.,
          0., 0., 0., 78., 255., 255., 255., 255., 255., 255., 94., 94.,
          94., 94., 94., 94., 0., 0., 212., 255., 255., 255., 255., 255.,
          255., 255., 255., 255., 255., 255., 255., 0., 0., 163., 255.,
          255., 255., 255., 255., 255., 255., 255., 255., 255., 255.,
          255., 0., 0., 0., 255., 255., 255., 255., 255., 255., 255.,
          255., 255., 255., 255., 255., 0., 0., 0., 233., 255., 255.,
          255., 255., 255., 255., 255., 255., 255., 255., 255., 0., 0.,
          0., 42., 255., 255., 255., 255., 255., 255., 255., 255., 255.,
          255., 255. ]
      - [ 0., 0., 0., 0., 255., 255., 255., 255., 255., 255., 255., 255.,
          0., 0., 0., 0., 0., 166., 166., 255., 255., 255., 255., 255.,
          255., 255., 255., 166., 0., 0., 0., 106., 255., 255., 255.,
          255., 255., 255., 255., 255., 255., 255., 255., 106., 0., 0.,
          255., 255., 255., 255., 255., 255., 255., 255., 255., 255.,
          255., 255., 255., 47., 0., 255., 255., 255., 255., 255., 255.,
          255., 255., 255., 255., 255., 255., 255., 242., 0., 72., 255.,
          255., 255., 255., 255., 255., 72., 255., 255., 255., 255.,
          255., 255., 0., 0., 132., 255., 132., 132., 132., 132., 0.,
          132., 132., 255., 255., 255., 255., 0., 0., 0., 191., 0., 0.,
          0., 0., 0., 0., 0., 255., 255., 255., 255., 0., 0., 0., 0., 0.,
          0., 0., 0., 0., 0., 4., 255., 255., 255., 251., 0., 0., 0., 0.,
          0., 0., 0., 0., 0., 0., 200., 255., 255., 255., 55., 0., 0.,
          0., 0., 0., 0., 0., 0., 0., 0., 255., 255., 255., 255., 0., 0.,
          0., 0., 0., 0., 0., 0., 0., 0., 81., 255., 255., 255., 255.,
          0., 0., 0., 0., 0., 0., 0., 0., 0., 21., 255., 255., 255.,
          255., 234., 0., 0., 0., 0., 0., 0., 0., 0., 0., 217., 255.,
          255., 255., 255., 38., 0., 0., 0., 0., 0., 0., 0., 0., 157.,
          255., 255., 255., 255., 255., 0., 0., 0., 0., 0., 0., 0., 98.,
          98., 255., 255., 255., 255., 255., 157., 0., 0., 0., 0., 0.,
          0., 0., 255., 255., 255., 255., 255., 255., 217., 0., 0., 0.,
          0., 0., 0., 0., 0., 255., 255., 255., 255., 255., 255., 21.,
          0., 0., 0., 0., 0., 0., 0., 174., 255., 255., 255., 255., 255.,
          81., 0., 0., 0., 0., 0., 0., 115., 115., 255., 255., 255.,
          255., 140., 140., 0., 0., 0., 0., 0., 0., 0., 255., 255., 255.,
          255., 255., 255., 0., 0., 0., 0., 0., 0., 0., 0., 0., 255.,
          255., 255., 255., 255., 255., 0., 0., 0., 0., 0., 0., 0., 0.,
          191., 255., 255., 255., 255., 64., 64., 0., 0., 0., 0., 0., 0.,
          0., 132., 255., 255., 255., 255., 255., 132., 0., 0., 0., 0.,
          0., 0., 0., 0., 255., 255., 255., 255., 255., 255., 255., 72.,
          72., 72., 72., 72., 0., 0., 0., 255., 255., 255., 255., 255.,
          255., 255., 255., 255., 255., 255., 255., 0., 0., 0., 255.,
          255., 255., 255., 255., 255., 255., 255., 255., 255., 255.,
          255., 0., 0., 0., 255., 255., 255., 255., 255., 255., 255.,
          255., 255., 255., 255., 255., 0., 0., 0., 255., 255., 255.,
          255., 255., 255., 255., 255., 255., 255., 255., 166., 0., 0.,
          0., 255., 255., 255., 255., 255., 255., 255., 255., 255., 255.,
          255., 0., 0., 0., 0. ]
      - [ 255., 255., 255., 255., 255., 255., 255., 255., 255., 93., 0.,
          0., 0., 0., 0., 255., 255., 255., 255., 255., 255., 255., 255.,
          255., 247., 242., 57., 0., 0., 0., 29., 255., 255., 255., 255.,
          255., 255., 255., 255., 255., 255., 238., 234., 23., 0., 226.,
          255., 255., 255., 255., 255., 255., 255., 255., 255., 255.,
          255., 255., 26., 0., 255., 255., 255., 255., 255., 255., 255.,
          255., 255., 255., 255., 255., 255., 221., 7., 255., 255., 255.,
          255., 255., 178., 47., 47., 47., 47., 192., 255., 255., 255.,
          8., 255., 255., 255., 255., 255., 161., 0., 0., 0., 0., 178.,
          255., 255., 255., 8., 64., 64., 64., 64., 64., 40., 0., 0., 0.,
          0., 178., 255., 255., 255., 8., 0., 0., 0., 0., 0., 0., 0., 0.,
          0., 0., 178., 255., 255., 255., 8., 0., 0., 0., 0., 0., 0., 0.,
          0., 0., 0., 178., 255., 255., 255., 8., 0., 0., 0., 0., 0., 0.,
          0., 0., 0., 0., 179., 255., 255., 106., 3., 0., 0., 0., 0., 0.,
          0., 0., 0., 0., 100., 226., 255., 255., 26., 0., 0., 0., 0.,
          0., 0., 0., 0., 0., 0., 161., 255., 255., 255., 26., 0., 0.,
          0., 0., 0., 0., 0., 0., 0., 79., 213., 255., 255., 255., 26.,
          0., 0., 0., 0., 0., 0., 0., 0., 66., 201., 255., 255., 255.,
          255., 26., 0., 119., 0., 0., 0., 0., 0., 53., 189., 255., 255.,
          255., 255., 152., 13., 0., 246., 0., 0., 0., 0., 42., 175.,
          255., 255., 255., 255., 167., 23., 0., 0., 144., 0., 0., 25.,
          106., 161., 255., 255., 255., 255., 181., 35., 0., 0., 0., 0.,
          0., 16., 134., 255., 255., 255., 255., 255., 193., 47., 0., 0.,
          0., 0., 3., 89., 117., 255., 255., 255., 255., 255., 204., 61.,
          0., 0., 0., 0., 0., 8., 255., 255., 255., 255., 255., 255.,
          214., 75., 0., 0., 0., 0., 0., 0., 78., 255., 255., 255., 255.,
          255., 255., 127., 0., 0., 0., 0., 0., 0., 0., 255., 255., 255.,
          255., 255., 255., 255., 159., 64., 23., 0., 0., 0., 0., 0.,
          255., 255., 255., 255., 255., 255., 255., 255., 255., 128.,
          55., 55., 55., 55., 55., 255., 255., 255., 255., 255., 255.,
          255., 255., 255., 255., 255., 255., 255., 255., 255., 255.,
          255., 255., 255., 255., 255., 255., 255., 255., 255., 255.,
          255., 255., 255., 255., 255., 255., 255., 255., 255., 255.,
          255., 255., 255., 255., 255., 255., 255., 255., 255., 255.,
          255., 255., 255., 255., 255., 255., 255., 255., 255., 255.,
          255., 255., 255., 255., 255., 254., 242., 245., 255., 255.,
          255., 255., 255., 255., 255., 255., 255., 255., 255., 255.,
          229., 0., 59., 255., 255., 255., 255., 255., 255., 255., 255.,
          255., 255., 255. ]
      - [ 0., 153., 170., 17., 204., 255., 255., 255., 255., 255., 255.,
          255., 255., 153., 0., 140., 209., 217., 148., 232., 255., 255.,
          255., 255., 255., 255., 255., 255., 209., 140., 255., 255.,
          255., 255., 255., 255., 255., 255., 255., 255., 255., 255.,
          255., 255., 255., 255., 255., 255., 255., 255., 255., 255.,
          255., 255., 255., 255., 255., 255., 255., 255., 255., 255.,
          255., 255., 255., 255., 255., 255., 133., 89., 89., 89., 200.,
          255., 255., 166., 219., 255., 255., 255., 255., 255., 255.,
          68., 0., 0., 0., 170., 255., 255., 0., 145., 242., 243., 252.,
          255., 252., 242., 65., 0., 3., 12., 174., 255., 255., 0., 38.,
          64., 77., 217., 255., 204., 64., 17., 0., 38., 178., 234.,
          255., 255., 0., 0., 0., 17., 204., 255., 187., 0., 0., 0., 51.,
          238., 255., 255., 255., 0., 0., 0., 14., 173., 217., 159., 0.,
          0., 0., 51., 238., 255., 255., 255., 0., 0., 0., 3., 31., 38.,
          28., 0., 0., 0., 51., 238., 255., 255., 255., 0., 0., 0., 0.,
          0., 0., 0., 0., 0., 65., 163., 247., 255., 255., 255., 0., 0.,
          0., 0., 0., 0., 0., 0., 47., 153., 255., 255., 255., 230.,
          191., 0., 0., 0., 0., 0., 0., 0., 0., 178., 248., 255., 255.,
          255., 158., 13., 0., 0., 0., 0., 0., 0., 44., 166., 231., 255.,
          255., 255., 145., 54., 0., 0., 0., 0., 0., 0., 48., 133., 255.,
          255., 255., 237., 171., 55., 0., 0., 0., 0., 0., 1., 10., 142.,
          255., 255., 255., 255., 204., 17., 0., 0., 0., 0., 0., 0., 13.,
          153., 225., 255., 255., 255., 255., 204., 17., 0., 0., 0., 0.,
          0., 38., 124., 227., 255., 255., 255., 255., 201., 112., 9.,
          0., 0., 0., 0., 0., 85., 255., 255., 255., 255., 255., 227.,
          116., 0., 0., 0., 0., 0., 0., 0., 85., 255., 255., 255., 255.,
          255., 96., 20., 0., 0., 0., 0., 0., 0., 84., 178., 255., 255.,
          255., 218., 115., 31., 0., 0., 0., 0., 0., 0., 64., 179., 255.,
          255., 255., 255., 204., 64., 17., 0., 0., 0., 42., 38., 0.,
          242., 250., 255., 255., 255., 255., 252., 242., 65., 0., 0.,
          0., 161., 145., 0., 255., 255., 255., 255., 255., 255., 255.,
          255., 189., 166., 166., 166., 225., 219., 166., 255., 255.,
          255., 255., 255., 255., 255., 255., 255., 255., 255., 255.,
          255., 255., 255., 255., 255., 255., 255., 255., 255., 255.,
          255., 255., 255., 255., 255., 255., 255., 255., 255., 255.,
          255., 255., 255., 255., 255., 255., 255., 255., 255., 255.,
          255., 255., 255., 255., 255., 255., 255., 255., 255., 255.,
          255., 255., 255., 255., 255., 255., 209., 140., 255., 255.,
          255., 255., 255., 255., 255., 255., 255., 255., 255., 255.,
          255., 153., 0. ]
      - [ 255., 255., 255., 255., 255., 255., 255., 255., 255., 255.,
          255., 153., 0., 0., 0., 255., 255., 255., 255., 255., 255.,
          255., 255., 255., 255., 255., 189., 89., 36., 0., 255., 255.,
          255., 255., 255., 255., 255., 255., 255., 255., 255., 246.,
          234., 93., 0., 255., 255., 255., 255., 255., 255., 255., 255.,
          255., 255., 255., 255., 255., 176., 123., 255., 255., 255.,
          255., 252., 245., 242., 242., 250., 255., 255., 255., 255.,
          255., 255., 255., 255., 255., 255., 223., 129., 98., 98., 192.,
          255., 255., 255., 255., 255., 255., 255., 255., 255., 227.,
          167., 42., 0., 0., 125., 218., 246., 255., 255., 255., 255.,
          255., 255., 255., 140., 51., 13., 0., 0., 38., 102., 217.,
          255., 255., 255., 255., 255., 222., 174., 70., 0., 0., 0., 0.,
          0., 51., 204., 255., 255., 255., 255., 255., 165., 30., 12.,
          0., 0., 0., 0., 0., 51., 204., 255., 255., 255., 255., 255.,
          199., 115., 46., 0., 0., 0., 0., 69., 143., 227., 255., 255.,
          255., 255., 251., 251., 251., 100., 0., 0., 2., 4., 154., 255.,
          255., 255., 255., 252., 251., 106., 106., 106., 42., 0., 0.,
          59., 149., 212., 255., 255., 255., 255., 166., 106., 0., 0.,
          0., 0., 0., 0., 102., 255., 255., 255., 255., 255., 255., 102.,
          0., 0., 0., 0., 0., 0., 0., 102., 255., 255., 255., 255., 255.,
          255., 102., 0., 0., 0., 0., 43., 72., 72., 145., 255., 255.,
          255., 255., 226., 183., 73., 0., 0., 0., 0., 130., 217., 217.,
          232., 255., 255., 255., 255., 168., 38., 15., 0., 0., 0., 0.,
          153., 255., 255., 255., 255., 255., 234., 170., 89., 0., 0.,
          0., 0., 0., 0., 153., 255., 255., 255., 255., 255., 205., 54.,
          3., 0., 0., 0., 0., 0., 0., 153., 255., 255., 255., 255., 255.,
          204., 51., 0., 0., 0., 0., 30., 30., 30., 165., 255., 255.,
          255., 255., 237., 180., 45., 0., 0., 0., 0., 174., 174., 174.,
          222., 255., 255., 255., 255., 150., 65., 16., 0., 0., 0., 0.,
          255., 255., 255., 255., 255., 255., 255., 255., 140., 64., 64.,
          64., 64., 25., 0., 255., 255., 255., 255., 255., 255., 255.,
          255., 227., 208., 208., 208., 208., 83., 0., 255., 255., 255.,
          255., 255., 255., 255., 255., 255., 255., 255., 255., 255.,
          161., 98., 255., 255., 255., 255., 255., 255., 255., 255.,
          255., 255., 255., 255., 255., 247., 242., 255., 255., 255.,
          255., 255., 255., 255., 255., 255., 255., 255., 255., 255.,
          255., 255., 255., 255., 255., 255., 255., 255., 255., 255.,
          255., 255., 255., 255., 255., 255., 255., 255., 255., 255.,
          255., 255., 255., 255., 255., 255., 255., 255., 255., 255.,
          255., 255., 255., 255., 255., 255., 255., 255., 255., 255.,
          255., 255., 255., 255., 255., 255., 255. ]
      - [ 255., 255., 255., 255., 255., 255., 255., 255., 255., 255.,
          255., 255., 255., 204., 0., 255., 255., 255., 255., 255., 255.,
          255., 255., 255., 255., 255., 255., 255., 235., 153., 255.,
          255., 255., 255., 255., 255., 255., 255., 255., 255., 255.,
          255., 255., 255., 255., 255., 255., 255., 255., 255., 255.,
          255., 255., 240., 250., 255., 255., 255., 255., 255., 255.,
          255., 255., 255., 255., 255., 255., 255., 78., 201., 255.,
          255., 255., 255., 255., 255., 255., 255., 255., 201., 119.,
          119., 119., 16., 87., 201., 255., 255., 255., 255., 187., 241.,
          210., 187., 112., 0., 0., 0., 0., 0., 153., 255., 255., 255.,
          255., 0., 204., 85., 0., 0., 0., 0., 0., 0., 0., 153., 255.,
          255., 255., 255., 0., 54., 23., 0., 0., 0., 0., 0., 0., 137.,
          228., 255., 255., 255., 255., 0., 0., 0., 0., 0., 0., 0., 0.,
          0., 187., 255., 255., 255., 255., 255., 0., 0., 0., 0., 0., 0.,
          0., 0., 44., 201., 255., 255., 255., 255., 255., 0., 0., 0.,
          0., 0., 0., 0., 0., 206., 250., 255., 255., 255., 255., 255.,
          0., 0., 0., 0., 0., 0., 23., 170., 243., 255., 255., 255.,
          255., 255., 255., 0., 0., 0., 0., 0., 27., 122., 255., 255.,
          255., 255., 255., 255., 235., 153., 0., 0., 0., 0., 14., 93.,
          255., 255., 255., 255., 255., 255., 244., 177., 0., 0., 0., 0.,
          0., 88., 230., 255., 255., 255., 255., 255., 255., 181., 27.,
          0., 0., 0., 0., 82., 194., 255., 255., 255., 255., 255., 255.,
          183., 68., 0., 0., 0., 0., 57., 176., 255., 255., 255., 255.,
          255., 255., 204., 91., 0., 0., 0., 0., 14., 176., 255., 255.,
          255., 255., 255., 240., 238., 95., 0., 0., 0., 0., 0., 163.,
          238., 255., 255., 255., 255., 255., 78., 51., 20., 0., 0., 0.,
          0., 136., 231., 255., 255., 255., 255., 255., 255., 34., 0.,
          0., 0., 0., 0., 0., 255., 255., 255., 255., 255., 255., 255.,
          255., 34., 0., 0., 0., 0., 0., 0., 255., 255., 255., 255.,
          255., 255., 255., 255., 34., 0., 0., 0., 0., 0., 0., 255.,
          255., 255., 255., 255., 255., 255., 255., 196., 187., 187.,
          187., 187., 150., 0., 255., 255., 255., 255., 255., 255., 255.,
          255., 255., 255., 255., 255., 255., 228., 119., 255., 255.,
          255., 255., 255., 255., 255., 255., 255., 255., 255., 255.,
          255., 255., 255., 255., 255., 255., 255., 255., 255., 255.,
          255., 255., 255., 255., 255., 255., 255., 255., 255., 255.,
          255., 255., 255., 255., 255., 255., 255., 255., 255., 255.,
          255., 255., 255., 255., 255., 255., 255., 255., 255., 255.,
          255., 255., 255., 255., 255., 255., 255., 255., 255., 255.,
          255., 255., 255., 255., 255., 255., 255., 255., 255., 255.,
          255., 255., 255. ]
      - [ 0., 0., 212., 255., 255., 255., 255., 255., 255., 255., 255.,
          195., 0., 0., 0., 0., 149., 240., 255., 255., 255., 255., 255.,
          255., 255., 255., 234., 138., 0., 0., 106., 240., 255., 255.,
          255., 255., 255., 255., 255., 255., 255., 255., 230., 96., 0.,
          255., 255., 255., 255., 255., 255., 255., 255., 255., 255.,
          255., 255., 255., 234., 47., 255., 255., 255., 255., 255.,
          255., 255., 255., 255., 255., 255., 255., 255., 254., 242.,
          255., 255., 255., 255., 255., 255., 151., 72., 72., 139., 255.,
          255., 255., 255., 255., 255., 255., 255., 255., 255., 177.,
          57., 0., 0., 48., 168., 255., 255., 255., 255., 191., 191.,
          191., 191., 191., 70., 0., 0., 0., 0., 76., 255., 255., 249.,
          191., 0., 0., 0., 0., 0., 0., 0., 0., 0., 2., 79., 255., 255.,
          230., 4., 0., 0., 0., 0., 0., 0., 0., 0., 0., 73., 216., 255.,
          255., 249., 200., 0., 0., 0., 0., 0., 0., 0., 0., 0., 93.,
          255., 255., 255., 255., 255., 0., 0., 0., 0., 0., 0., 0., 0.,
          35., 145., 255., 255., 255., 255., 255., 0., 0., 0., 0., 0.,
          0., 0., 11., 122., 255., 255., 255., 255., 253., 234., 0., 0.,
          0., 0., 0., 0., 0., 108., 233., 255., 255., 255., 255., 233.,
          38., 0., 0., 0., 0., 0., 0., 89., 206., 255., 255., 255., 255.,
          229., 88., 0., 0., 0., 0., 0., 0., 62., 187., 255., 255., 255.,
          255., 255., 213., 0., 0., 0., 0., 0., 0., 27., 175., 255.,
          255., 255., 255., 255., 246., 181., 0., 0., 0., 0., 0., 0.,
          164., 247., 255., 255., 255., 255., 255., 200., 18., 0., 0.,
          0., 0., 0., 134., 231., 255., 255., 255., 255., 191., 81., 62.,
          0., 0., 0., 0., 0., 96., 222., 255., 255., 255., 255., 205.,
          89., 0., 0., 0., 0., 0., 0., 0., 212., 255., 255., 255., 255.,
          227., 113., 0., 0., 0., 0., 0., 0., 0., 0., 213., 255., 255.,
          255., 255., 129., 2., 0., 0., 0., 0., 0., 0., 0., 172., 244.,
          255., 255., 255., 255., 223., 108., 0., 0., 45., 191., 172.,
          0., 132., 242., 255., 255., 255., 255., 255., 255., 201., 132.,
          132., 160., 255., 243., 132., 183., 248., 255., 255., 255.,
          255., 255., 255., 255., 255., 255., 255., 255., 255., 255., 0.,
          229., 255., 255., 255., 255., 255., 255., 255., 255., 255.,
          255., 255., 255., 255., 0., 229., 255., 255., 255., 255., 255.,
          255., 255., 255., 255., 255., 255., 255., 255., 0., 229., 255.,
          255., 255., 255., 255., 255., 255., 255., 255., 255., 255.,
          255., 255., 89., 238., 255., 255., 255., 255., 255., 255.,
          255., 255., 255., 255., 255., 255., 255., 255., 255., 255.,
          255., 255., 255., 255., 255., 255., 255., 255., 255., 255.,
          255., 255. ]
      - [ 0., 0., 0., 0., 153., 255., 255., 255., 255., 255., 255., 255.,
          85., 0., 0., 0., 43., 217., 217., 240., 255., 255., 255., 255.,
          255., 255., 255., 230., 217., 15., 191., 204., 255., 255.,
          255., 255., 255., 255., 255., 255., 255., 255., 255., 255.,
          196., 255., 255., 255., 255., 255., 255., 255., 255., 255.,
          255., 255., 255., 255., 255., 255., 255., 255., 255., 255.,
          255., 255., 255., 255., 255., 255., 255., 255., 255., 255.,
          255., 255., 255., 255., 255., 255., 255., 155., 140., 155.,
          255., 255., 255., 255., 255., 255., 171., 255., 255., 255.,
          201., 166., 22., 0., 22., 189., 255., 255., 255., 255., 255.,
          13., 191., 191., 191., 76., 0., 0., 0., 0., 68., 255., 255.,
          255., 255., 255., 0., 0., 0., 0., 0., 0., 0., 0., 0., 68.,
          255., 255., 255., 255., 255., 0., 0., 0., 0., 0., 0., 0., 0.,
          0., 68., 255., 255., 255., 255., 255., 0., 0., 0., 0., 0., 0.,
          0., 0., 0., 68., 255., 255., 255., 255., 255., 0., 0., 0., 0.,
          0., 0., 0., 0., 0., 68., 255., 255., 255., 255., 255., 0., 0.,
          0., 0., 0., 0., 0., 0., 25., 208., 255., 255., 255., 255., 77.,
